7.288854e-13,-8.0840754e-13,5.1591496e-09,2.4444867e-07,-1.9846164e-05,-8.4532045e-14,-8.7543926e-13,-3.193246e-06,-5.4108665e-13,-6.786677e-13,0.64228284,0.18639602,0.00019429334,-1.6494916e-15,1.0185373e-12,0.07348677,0.83809483,-5.4388677e-14,-1.3502226e-12,-6.216734e-13,-3.5908505e-13,1.242867e-12,3.621361e-13,7.581463e-13,1.4853203e-09,-2.0978342e-13,-0.00010178833,-0.015192994,1.2183367e-13,-9.094367e-13,6.732337e-14,-5.821694e-14,6.704147e-13,0.6421335,-0.07958885,-0.33943355,1.3644608e-13,-2.845044e-14,-3.2700265e-10,5.7428335e-13,-8.959939e-14,-2.1330691e-13,-3.1773434e-10,-1.850701e-08,2.841419e-05,4.1245018e-13,-7.8078917e-13,-8.9900325e-08,-5.199626e-13,-6.004072e-13,0.21883897,0.11859436,-4.7132984e-05,5.0486015e-13,-2.5762584e-12,-0.06215204,-0.03259152,8.617402e-13,1.7181298e-14,1.5952428e-12,-4.3409612e-14,4.2637036e-14,1.6960589e-12,-6.622079e-14,-9.0066115e-09,-7.2114737e-13,2.723458e-05,-0.4883815,-6.848248e-13,4.0963847e-13,7.9369844e-13,1.5675937e-13,-4.183186e-13,-1.3271375,0.3301065,0.0304802,1.11774414e-13,4.2102335e-13,-6.400669e-10,1.8903675e-15
6.7240603e-13,-8.4950346e-13,-2.6712996e-09,8.702277e-08,-4.997909e-05,-6.819997e-13,-4.1053147e-13,3.1317222e-07,8.1787886e-13,7.0541056e-13,0.18301421,0.3985643,2.5614429e-05,-1.6814208e-13,-5.084711e-13,-0.61096346,0.03930183,5.3325904e-13,1.6416827e-13,-1.0383265e-12,-1.533727e-13,2.8663085e-13,4.76303e-13,-2.3310296e-15,-6.6142456e-09,9.2922415e-14,6.208129e-05,0.0456364,-3.6219725e-13,-5.5491766e-13,-3.9859438e-13,9.590663e-14,-7.027987e-13,1.395147,0.8168013,-0.042119946,-2.9250872e-13,9.235771e-14,-5.547976e-10,-3.398793e-13,-3.0843256e-13,2.6062754e-12,-1.9865745e-09,3.4869197e-07,3.203675e-05,3.874183e-13,-1.4216005e-13,-2.4807525e-07,-1.5288657e-13,-8.239888e-14,-0.055878103,-0.45556754,-2.7509372e-05,9.006492e-14,3.8217574e-13,-0.83136654,0.1994061,-1.932084e-13,6.6033973e-13,1.5445774e-12,6.229888e-13,-3.1818073e-13,3.0039053e-12,5.524111e-13,3.851839e-09,-5.4798196e-13,-0.00010209435,-0.2911973,3.9936056e-13,-4.5396786e-13,1.1078587e-12,-1.0453308e-14,-6.0537724e-13,-1.4799764,-0.27380335,-0.058055002,-5.050572e-13,-7.7075136e-13,8.4948515e-10,1.9553429e-13
1.8447331e-13,1.1130543e-12,-4.7084225e-09,3.4069842e-08,-3.7687914e-05,1.6100545e-13,6.456976e-13,9.531859e-07,-7.234961e-13,3.645544e-13,0.12598635,-0.3090297,-0.0001263871,-5.2798782e-14,8.4174584e-13,-0.8824983,0.13549203,6.209082e-14,-1.7723344e-13,-3.2574169e-13,-5.523121e-13,2.4952658e-13,3.0860514e-13,1.2557057e-13,5.102195e-09,3.4641216e-13,-5.660413e-07,-0.03748435,-4.6691465e-13,-7.11895e-14,-5.5294007e-13,-5.5662945e-13,-3.0222683e-13,0.59116846,1.0291531,0.41611308,8.1649694e-14,4.8264832e-14,-1.7457828e-10,-4.4631725e-15,-7.4827693e-13,2.3203798e-12,-1.5126478e-09,-1.2806603e-07,-8.288023e-05,-2.731689e-13,2.647468e-13,3.5877522e-07,2.25713e-14,1.1008929e-12,-0.21472633,-0.9528424,-0.00023123913,-3.8703115e-13,8.3199994e-14,-0.7532533,0.327141,-3.814351e-13,7.2285553e-13,-6.090726e-13,1.818357e-13,-4.8614183e-13,2.9634606e-14,6.7583233e-13,1.3166192e-08,6.7347424e-13,-9.7971446e-05,-0.4071866,-3.0515662e-13,7.094878e-14,-6.826174e-13,3.8797497e-13,-2.7263185e-14,-0.8584629,-0.7344684,0.2567237,3.315886e-13,8.9024443e-14,1.4166275e-09,2.2524128e-13
6.38436e-13,-4.0287391e-13,7.318404e-10,1.5169729e-08,-2.3982151e-05,1.7077106e-13,4.1404792e-13,-4.7174422e-07,6.794512e-13,-2.883216e-14,0.30433393,-0.8479497,4.052694e-05,4.0489904e-13,-3.5920117e-13,-0.5828711,0.29869398,-2.9848435e-13,-4.595562e-13,-1.8062639e-12,5.3438157e-13,-2.420315e-13,6.5399324e-13,-1.7186458e-13,-5.8330962e-09,4.162131e-13,-2.5194393e-05,-0.034060903,5.776991e-13,1.933654e-13,3.368589e-14,1.1707649e-14,-5.1023053e-13,1.0531821,0.21823338,0.16337848,2.1106272e-13,4.68049e-14,1.6397117e-10,3.7946558e-13,-2.3434488e-14,1.4691798e-12,1.8279181e-10,-5.7497893e-08,3.1801446e-05,-5.146451e-13,3.406639e-14,-2.9229273e-07,-6.796495e-13,-5.356367e-13,-0.20323803,-0.70601064,9.803034e-07,4.7510265e-13,2.439088e-12,-0.6186292,0.10066384,5.212941e-13,1.3416311e-12,6.863404e-13,6.999753e-14,-3.0808743e-13,-6.771591e-14,-3.611304e-14,-8.103671e-09,7.77885e-13,2.5778176e-05,-0.26342833,1.04731924e-13,5.127192e-16,-8.853541e-14,2.4368496e-13,-4.4634625e-13,-1.5137072,-0.6288763,0.14623798,-1.0078047e-12,3.2433713e-13,1.4341371e-09,2.856357e-13
7.027114e-13,-1.8684375e-12,1.1718221e-10,2.2642892e-08,-7.374447e-05,-2.2210497e-13,1.2866922e-13,1.147466e-07,-2.453983e-13,-6.449493e-14,-0.8246587,-0.5338779,-0.00011011337,4.8259953e-13,-2.0403414e-12,-0.19123721,0.410901,3.401268e-13,1.0987781e-12,-8.2440375e-13,7.968886e-18,3.005693e-15,1.1646888e-12,-5.9791023e-13,-1.7232099e-09,2.2615868e-13,-3.695248e-05,-0.17129363,4.6172782e-14,2.8599632e-13,-4.3135474e-13,-5.576465e-13,5.0383867e-13,0.82487434,1.0733811,-0.14664665,4.234582e-13,-4.924542e-13,-1.0299368e-09,-6.497795e-13,2.369443e-13,-6.212088e-13,-1.4155894e-09,-6.570279e-08,-1.7445984e-05,2.9149846e-13,5.2713736e-13,-9.2045354e-08,-7.1856854e-14,7.4326965e-13,0.2400613,-0.10602233,-2.4043204e-05,-1.6800892e-13,3.6034224e-13,-0.44417873,0.12320192,-4.323455e-13,-1.9825184e-13,1.0838509e-13,7.8109806e-13,4.2273026e-13,8.3627777e-13,-6.592497e-13,1.8200108e-08,1.9201432e-13,7.754533e-05,-0.6093597,5.2326194e-13,3.1541734e-13,-1.4853258e-13,-3.159957e-13,4.989386e-13,-1.1397806,0.058527786,-0.15240772,-2.573184e-13,6.6478566e-13,-1.3010771e-09,-3.4337802e-13
3.713502e-13,9.188013e-13,6.319594e-10,1.08586576e-07,-5.2661558e-06,6.0168873e-13,5.649064e-13,1.4831996e-06,-2.4310464e-13,3.7842488e-13,-0.34930483,-0.1749213,8.7412e-05,-1.2153193e-13,2.2831975e-13,0.13558014,0.11310907,4.3130256e-13,3.0914778e-13,9.727381e-13,-3.2807492e-13,-2.6022514e-13,-5.109302e-13,-3.599821e-13,-5.4948486e-09,2.609654e-13,4.5778297e-06,-0.2286508,-4.0354276e-13,2.0861996e-13,1.4843514e-14,-3.589162e-13,8.835334e-14,1.0490104,1.0649126,-0.056283988,-1.444625e-13,3.0598324e-13,-4.432992e-10,1.6757275e-14,4.2409845e-13,1.98037e-12,2.1475416e-10,-1.6637709e-07,3.3178134e-05,-4.310559e-13,-1.5055963e-13,-4.147379e-07,2.6624525e-13,2.831123e-14,0.13009562,-0.04013849,3.4164426e-05,5.5944637e-13,-6.1581567e-13,-0.31244442,-0.036774024,3.2041028e-13,9.115213e-14,9.956873e-13,-1.7831544e-13,-2.2156295e-14,1.678897e-12,-4.871033e-14,-2.577e-09,-7.89897e-14,-6.9777336e-05,-0.12814087,-1.4929147e-13,-9.168111e-14,-2.312874e-13,-1.4664364e-13,1.9053613e-13,-1.5192636,-0.13446365,-0.08322341,4.4123274e-13,-3.5818077e-13,4.3251328e-10,-1.13057485e-13
3.982578e-14,-1.9309068e-12,1.6038573e-09,2.6423953e-08,-3.430995e-05,3.90982e-13,-2.5187442e-13,-8.860011e-07,7.618322e-13,5.149481e-13,-0.007890076,-1.0628655,0.00011633191,-2.7082134e-13,-1.0968093e-12,-0.019282758,-0.23726043,-4.684469e-13,5.6960247e-13,-9.325548e-14,-6.760267e-13,3.7626442e-13,-1.217714e-12,-3.5552513e-13,6.832804e-09,6.330559e-13,8.118082e-05,-0.16690154,-6.670619e-13,-2.0788167e-13,-3.4489653e-13,-3.7503624e-13,-1.5708986e-13,0.5452976,0.7052738,0.25507775,-1.4203718e-13,-5.773837e-14,-1.0169009e-09,-8.466428e-13,2.8018234e-13,5.787438e-13,2.3532238e-09,-4.5096272e-07,-4.7854257e-05,-2.3802753e-13,3.4029935e-13,6.782004e-07,4.3754768e-13,-5.131186e-13,-0.14701511,-0.5496129,-6.490882e-07,-4.4121396e-13,1.5601832e-12,-0.22412258,0.114198856,-6.3009477e-13,7.7830375e-14,-3.3336062e-13,2.2856584e-13,-3.5057783e-13,6.444587e-13,-2.9121383e-13,2.0858591e-08,-2.9091806e-13,8.2268256e-05,-0.26182774,-1.2799077e-13,-2.4478168e-14,4.555431e-13,-7.239102e-13,3.0446733e-13,-0.85758346,-1.001976,0.101540975,-9.61348e-14,-9.982037e-13,1.1107076e-09,-4.1534907e-13
-3.681403e-13,-9.175755e-13,2.4360652e-10,1.5779128e-07,2.5550777e-05,1.0055723e-12,4.1137766e-13,6.367521e-08,-2.810349e-13,2.748226e-13,0.105238594,-1.0741893,-0.0001252798,8.50703e-15,4.576741e-13,0.024906654,0.32508785,4.9229967e-13,-2.883851e-13,1.349246e-12,-2.4140547e-13,5.945957e-13,-4.887465e-13,4.5409932e-13,-4.030344e-09,-5.929391e-13,1.9134147e-06,0.16882825,7.24483e-13,-1.9396247e-13,-8.1980795e-14,-3.732282e-13,-7.4555284e-14,1.2499274,0.67805684,-0.084725775,-2.8993892e-13,-5.1420104e-13,1.0694254e-10,-1.9826296e-13,2.739646e-13,-5.9055376e-13,7.2135374e-11,8.350482e-08,-1.0915892e-06,4.543512e-15,-8.194335e-14,-1.4649899e-07,-4.30735e-13,8.878678e-14,-0.07221581,-0.16135864,-7.7089e-05,3.0093866e-13,1.5352507e-12,-0.24835281,0.014108449,-6.7882874e-14,-8.568506e-13,1.3491703e-13,1.455787e-13,-5.2690415e-13,1.6138718e-12,4.3360216e-13,6.60238e-09,-4.728764e-14,2.5306146e-05,-0.31498665,-3.7987517e-13,-3.8742154e-13,8.019861e-13,-4.852397e-13,3.9289386e-13,-1.205481,-0.40255466,0.20480247,-5.2018085e-13,-7.1467734e-13,-3.1418002e-10,-3.9324663e-14
-5.518794e-13,6.4976166e-13,-2.432331e-09,-1.4153256e-09,7.573104e-05,7.6819426e-13,-3.5021045e-13,-4.0314887e-07,-2.5626137e-13,4.410589e-13,-0.18380931,-1.0365051,7.831354e-05,4.3987296e-13,7.6063635e-13,-0.10683917,0.68111736,-3.8044367e-13,8.3540766e-14,1.8480291e-13,-3.3965018e-14,3.058671e-13,1.7605768e-12,-5.372844e-13,2.2327173e-09,-3.7953015e-13,3.7056117e-05,0.09386168,-4.561916e-13,3.514453e-13,-6.3353814e-13,1.1055889e-13,-6.192513e-13,1.0097008,0.44883958,0.4034235,-2.206186e-14,2.9017885e-13,-7.3528295e-10,-4.1485072e-13,1.8666308e-13,-4.1901291e-13,-6.752216e-10,5.3616233e-08,1.5422518e-05,-3.5866357e-15,-2.9327053e-13,-3.041913e-07,-7.6246724e-13,-9.305403e-13,0.873079,-0.5990562,-5.5092216e-05,3.4107073e-13,-3.5270387e-13,0.048742868,0.18903767,-7.730341e-13,1.5323472e-12,4.2438698e-13,-9.417868e-15,3.2755387e-13,7.8521705e-13,6.886658e-13,8.966235e-09,7.5162375e-13,2.786759e-05,-0.13397731,3.1403602e-13,-5.924896e-13,3.233904e-14,2.218624e-13,4.286287e-13,-0.6902276,-0.8169197,0.0682952,-2.4276571e-13,2.2528382e-13,1.0839286e-09,-1.1188538e-13
-2.7002218e-13,-1.2719377e-13,2.8793785e-09,-1.542157e-07,-1.2721274e-05,-1.6830092e-13,3.267637e-13,1.8965437e-08,-6.374327e-13,-9.403964e-13,-0.14684111,-1.1469487,1.7525488e-05,-2.7814963e-13,-5.641875e-13,-0.2277167,0.6926135,4.076812e-13,9.134756e-14,2.521896e-13,5.1757123e-13,2.4105365e-13,-8.1080753e-13,7.884445e-13,-1.3366793e-09,5.2299875e-13,-4.647855e-05,0.09488445,-4.2840487e-13,-5.1199377e-13,1.050613e-12,-1.7139675e-13,-1.4398061e-13,1.1326352,1.0110184,0.24553154,1.0868368e-13,-1.6145071e-14,-7.1664896e-10,-1.0343289e-13,-7.0378046e-13,-1.1681743e-12,1.2589403e-09,2.666621e-08,6.5531203e-06,3.5250462e-14,1.5781052e-13,-8.9176424e-08,-6.407445e-14,-3.1192787e-13,0.3429174,-0.42069384,-7.339275e-05,-5.69915e-13,-1.3595865e-12,0.22893235,-0.059827384,5.6185064e-13,1.1000597e-12,1.0688528e-12,-2.026713e-13,-7.5859533e-13,1.06817e-12,7.476227e-14,-9.274867e-09,5.0328036e-13,-9.6394375e-05,0.08479983,-1.9103637e-13,6.037353e-14,9.914266e-13,4.2702647e-13,-5.210726e-13,-1.5094522,-1.1158987,-0.069710195,-1.9505702e-13,-2.0166372e-13,3.7589892e-10,-5.1459114e-13
-2.0123158e-13,-1.7761159e-12,-3.275774e-09,-2.5061553e-07,4.851598e-05,1.1210511e-12,5.248015e-13,6.84264e-07,4.4351857e-13,-6.669925e-14,-0.30032665,-1.4326943,0.00018081898,3.4943673e-14,1.035557e-12,-0.53095996,0.5809311,-2.5443875e-13,1.1595732e-13,2.0326096e-13,-4.429116e-13,-6.471505e-14,-1.1850547e-12,3.935144e-13,-1.1205541e-09,3.5258412e-13,6.3314e-05,0.124200605,7.500131e-14,-1.5326108e-13,-7.8102005e-13,-2.4666223e-14,5.022051e-13,0.43265736,0.7859293,0.1845151,2.7679118e-13,-1.9390124e-13,-5.7391897e-11,3.9784235e-13,7.611496e-13,1.4214591e-12,3.5846862e-10,5.669507e-08,-8.624377e-06,6.6402266e-13,1.0576254e-13,-1.091861e-07,-1.8343928e-13,4.5516444e-13,0.17843504,-0.75933886,1.7911943e-05,4.8988667e-13,-1.0157816e-12,-0.09823476,-0.15464145,4.1061826e-13,8.373622e-13,1.7862582e-12,-9.368681e-13,-1.5387416e-13,-1.1557126e-12,-2.175055e-13,-2.6595002e-09,2.0382527e-13,5.226622e-05,-0.066948466,1.9047435e-13,5.8228357e-13,1.1888071e-13,4.1695483e-13,-1.257043e-14,-0.74012274,-0.9615869,-0.018557182,5.469787e-13,3.1852678e-13,1.5295815e-10,3.3425804e-13
-6.4737235e-13,4.0582603e-13,-4.435859e-10,-6.8629234e-08,7.68918e-06,4.5590913e-13,2.2592843e-13,7.2449143e-07,1.7105967e-13,7.616791e-14,-0.08498165,-1.4760743,2.966468e-05,-1.4290641e-13,-4.810517e-13,-0.26476184,0.35936883,4.1332503e-13,4.369324e-14,2.0359372e-13,1.7660862e-13,5.86936e-13,-4.0876834e-13,3.4885487e-13,5.01512e-09,3.9429113e-14,7.5048993e-06,-0.13523823,3.1989548e-14,4.706903e-13,-8.217269e-13,-5.772871e-14,3.698799e-13,0.696624,0.732614,-0.13398707,-1.4995986e-13,-3.7494465e-13,4.0069537e-10,1.1710544e-13,3.2457527e-13,4.6420387e-14,-1.867503e-09,-8.971968e-08,-1.6292426e-05,4.5902984e-13,-3.5504962e-13,2.6029952e-08,-3.7301922e-13,-4.2672896e-14,0.109381266,-0.27872574,-1.5621772e-05,2.4418575e-13,1.0181371e-12,-0.4011658,-0.007646134,-4.25114e-13,-1.1466087e-13,1.0034522e-12,1.3151589e-14,3.3638757e-13,-1.232521e-15,-2.7178254e-13,1.0793555e-10,6.367184e-13,-7.4666495e-06,-0.18139149,-9.968968e-16,6.4483434e-13,-1.1822482e-13,1.4765966e-13,3.4711174e-13,-1.2737144,-1.048424,0.010834409,3.549705e-14,6.2922687e-13,-2.45617e-11,3.304289e-13
-8.084669e-13,-1.0708521e-12,1.4916786e-09,-5.4404165e-08,1.4360799e-05,-9.287274e-13,3.9189973e-13,6.6127654e-07,1.8804964e-13,-7.554673e-14,-0.2802363,-1.0404748,-2.8422339e-05,-8.008443e-14,-2.0794887e-12,-0.41590884,-0.0013735574,2.2501423e-13,-9.405482e-13,-5.8400984e-14,-4.563903e-14,-6.980771e-14,-7.079535e-13,5.7862526e-13,-2.03972e-09,4.1275978e-13,-8.140737e-05,-0.34482485,-1.7168233e-14,-4.1729654e-14,7.7591297e-13,1.210535e-13,4.3505753e-13,0.53693104,0.91387516,-0.35199726,-2.6916986e-13,-4.2162503e-13,-1.5194895e-09,-3.201319e-13,3.8265176e-13,1.8139654e-12,-3.4054932e-09,4.283295e-07,9.9982084e-05,-3.182702e-13,-2.6926947e-13,5.353338e-07,1.9309291e-13,3.7965128e-13,0.3293512,0.46141705,1.0005315e-05,-5.558081e-13,-3.066857e-13,-0.19388615,0.36605987,6.158611e-13,-1.9136819e-14,1.1995417e-12,4.699105e-13,-1.2822221e-13,-4.657534e-13,-3.5882517e-13,5.7516902e-09,2.4932134e-13,-4.5738725e-05,-0.1686871,2.4633984e-13,3.426325e-13,1.2215343e-13,5.526926e-13,1.2698642e-13,-1.2141104,-0.08774259,-0.1650772,-5.047787e-13,-5.901796e-13,-1.0451459e-09,-2.7752431e-13
2.0823321e-13,8.9021477e-13,-5.463824e-10,-1.5277934e-08,1.7872006e-06,2.7112224e-13,-7.2506096e-13,9.524302e-07,-4.395751e-13,3.216679e-13,0.04973333,-0.97878224,2.667203e-05,-3.1970796e-13,3.7312693e-13,-0.15530266,0.2669788,-3.7051736e-13,-2.4556675e-13,-8.6343985e-13,2.2632135e-13,2.366522e-15,1.7353615e-13,-3.9666791e-13,5.2790106e-10,-5.5009843e-13,9.314575e-06,-0.09272888,5.075968e-13,3.5049546e-13,-1.9645792e-13,5.893122e-13,1.7076054e-13,0.68889713,0.83056486,-0.22241183,-3.5369927e-15,-4.0712605e-14,3.1057878e-10,1.1499065e-13,3.5288065e-13,2.7241187e-13,-3.9715445e-10,6.5786466e-08,8.188075e-06,1.8235137e-13,-2.659514e-13,-6.7014554e-08,2.9574734e-13,2.3307582e-14,-0.020591853,1.2151654,-5.114841e-06,3.07594e-13,4.7722915e-13,-0.041614115,0.04414354,-3.8843297e-13,2.0460544e-13,-6.0802784e-13,-7.366232e-14,-5.1359134e-13,4.562223e-13,-4.616802e-13,4.858948e-09,-5.2477662e-14,8.726394e-06,-0.028816467,1.0997927e-13,-6.6290994e-14,-3.65336e-13,-4.456926e-13,-2.2431961e-13,-1.1421797,-0.4395269,-0.06316168,2.4680247e-13,7.3143125e-14,-3.838799e-10,-2.575259e-13
-2.9154413e-13,-1.2022512e-12,5.2004996e-09,1.7897328e-08,5.2130404e-06,-8.5235e-13,2.202859e-13,-1.0444579e-06,-7.643877e-13,1.0147224e-12,0.7606749,-0.98288995,0.00013983558,-2.8792837e-13,1.4675683e-12,-0.3075875,-0.19864276,5.510297e-13,1.5789631e-12,1.3479438e-13,-2.161878e-13,-5.095391e-13,-7.9963195e-13,5.669002e-13,-7.623029e-10,-5.2271956e-13,-5.8691698e-05,-0.5355203,3.3654617e-13,1.5134538e-13,9.0314345e-13,-3.8332434e-13,1.2788338e-13,0.884613,0.22074544,-0.28247938,6.9899967e-13,1.2767508e-12,8.983277e-10,1.4654635e-13,2.3577912e-13,5.690432e-13,-2.778679e-10,1.534143e-07,4.583464e-05,-1.6737317e-13,2.4039942e-13,7.573847e-07,-8.05243e-13,-1.79077e-13,-0.52945536,0.92432433,-2.8028348e-05,4.5836197e-13,5.291412e-13,0.45825082,-0.21548954,-2.2989192e-13,-1.82347e-12,9.223703e-13,4.6640014e-13,6.308102e-13,-7.824276e-13,5.476922e-13,2.314465e-09,1.6282814e-13,7.77708e-05,-0.26506352,6.7248283e-14,-2.9585e-13,3.030486e-13,-2.1309854e-13,-4.3362536e-13,-0.6452601,-0.6939473,-0.22089784,-1.01467974e-13,1.0693375e-13,-9.730916e-10,-4.0397492e-13
-5.368989e-13,1.2133444e-12,-1.2623514e-09,2.58993e-07,1.743291e-05,4.8131307e-13,4.0094295e-13,-6.2024284e-08,-6.425556e-13,-2.0681398e-13,-0.061471358,-0.036327895,-9.4394636e-05,-4.4630272e-13,8.214318e-13,-0.37365425,0.49204856,3.6622647e-13,-2.730052e-13,1.4586053e-12,3.4641658e-13,5.6427134e-13,1.2461077e-12,2.1210225e-13,1.5725765e-09,4.175847e-13,-1.4914234e-05,0.43833596,3.5437584e-13,-1.7635763e-13,6.987947e-13,4.9450884e-13,4.3349046e-13,0.83032423,0.8141562,-0.18178222,5.256326e-13,-3.5714628e-13,-7.587529e-10,-1.9807769e-13,-6.23855e-13,-1.3396341e-12,-3.5005449e-10,1.801847e-07,3.2329193e-05,-5.2417906e-13,-5.2090846e-13,4.9736065e-07,7.0854726e-13,6.3403785e-13,0.102481626,0.47062936,-9.874403e-05,-2.3671633e-13,1.3507443e-12,0.16288286,0.07347023,-4.4575004e-13,1.533244e-12,4.6046186e-13,2.9723457e-14,9.812585e-13,4.7104e-13,5.8026663e-13,-1.7510612e-09,6.0972684e-14,-5.4963175e-06,0.36214444,-8.788803e-14,-2.4832211e-13,-5.5091505e-13,4.171728e-14,1.13502225e-13,-1.7430232,-0.21041137,0.049153443,-7.168463e-14,-2.4499174e-15,3.0266317e-10,5.868102e-13
4.3438517e-13,1.2716911e-12,3.952821e-09,-8.8800306e-08,1.4134284e-05,-9.29367e-14,-5.223453e-14,-2.2084393e-07,-3.9079547e-13,-6.0549744e-15,-0.023991387,-0.3546918,-0.00024011542,8.32274e-14,1.1207062e-13,-0.72830594,-0.52006227,6.0808975e-13,-1.385289e-12,7.113939e-13,-1.6494887e-13,-1.7268194e-13,5.764945e-13,2.5940356e-13,7.500119e-09,-4.7754433e-13,-7.006773e-06,-0.01853649,-2.2364551e-13,1.8721434e-13,6.7423123e-13,-3.4790665e-14,3.7506047e-13,0.6952512,0.66595733,-0.26501584,6.263281e-13,8.4849705e-13,-1.7160106e-09,2.0576149e-13,5.252385e-13,4.0300825e-13,-2.8761098e-09,-2.985909e-08,0.00012702151,-3.3428804e-13,6.364487e-13,-9.3705404e-07,-2.969427e-13,-3.8049663e-13,-0.26110744,1.066056,0.00012461793,-7.991039e-14,-2.8537689e-12,0.37071314,0.3740733,4.135275e-13,-5.486211e-13,9.396336e-13,1.660585e-14,-4.2903528e-13,-7.5335354e-14,-3.823381e-13,-1.675367e-08,5.7933026e-13,1.0510681e-05,0.25722092,-6.5974873e-13,6.488834e-13,4.3313977e-13,2.0287943e-13,2.285297e-13,-1.3305305,-0.12319013,0.18517327,-5.0310813e-13,2.2292183e-13,3.4930253e-10,-2.9326796e-13
1.1346376e-13,1.7282518e-12,7.601896e-10,6.206158e-08,6.927066e-06,4.083795e-13,-2.763029e-13,1.6553594e-06,3.5466796e-13,-1.157784e-13,0.05527726,-0.777089,4.0411465e-05,1.3893677e-13,-5.873884e-13,-0.69324374,0.6153448,5.26679e-14,9.196436e-13,-1.98089e-13,-7.117992e-14,-2.2949524e-14,-2.4001742e-14,2.6029954e-13,4.368566e-09,-1.4309674e-13,1.792035e-06,0.0046169357,1.1950269e-13,4.55177e-13,-6.401007e-13,9.3234475e-14,-4.7216224e-13,0.6574705,1.3138503,-0.36152828,-4.923406e-13,-7.088854e-14,4.707027e-10,-1.9945779e-13,-7.0105217e-13,1.8297405e-13,1.4804835e-10,-1.7582657e-07,3.0432893e-05,4.648282e-13,5.099542e-13,-2.5982516e-07,2.1360424e-13,1.242132e-13,0.028940855,1.0368005,-6.8000096e-05,-3.961044e-13,2.1616552e-13,0.75261384,0.021850716,-5.1902005e-13,8.104239e-13,-2.5799718e-13,-2.0414711e-13,-2.074886e-13,-1.9433177e-13,-1.8177983e-13,2.4299531e-09,-2.5065123e-13,-2.3235643e-05,0.10564518,-4.3021093e-13,1.0073794e-13,-1.6825072e-13,-3.3011847e-13,-7.4661826e-13,-1.9012557,-0.18529046,0.043922313,-2.4337791e-14,1.0401376e-13,-9.573985e-10,4.3309242e-13
-1.4356638e-13,-9.547623e-13,3.700774e-09,-1.2255217e-08,4.6440433e-05,1.17036e-12,5.7316066e-13,7.435448e-07,1.5922084e-13,-7.1002655e-13,-0.18251628,-0.66299284,-0.0003024245,-3.9461243e-13,2.480069e-13,-0.31639874,0.15205166,4.423025e-13,8.6123686e-13,-1.599476e-14,5.7512236e-14,-3.119986e-13,1.2160461e-12,1.9553796e-13,-4.9134705e-09,6.0942885e-13,2.7756269e-05,0.0010021217,4.6974284e-13,-6.024337e-13,5.915042e-13,5.125554e-13,3.4377804e-13,0.5267077,0.5497886,-0.25498727,-1.6987534e-13,1.1609743e-12,-1.9297723e-09,-3.553346e-13,-2.919765e-13,-5.288188e-14,3.1135036e-10,-1.7966039e-07,-3.183023e-05,-6.476354e-14,-3.883429e-13,5.119284e-07,1.1492592e-13,3.0303792e-13,-0.055523664,1.3586253,-0.00022482478,3.4490382e-13,-2.842233e-12,0.8787628,0.13673782,-7.158481e-13,1.1258745e-12,-2.0495482e-12,-5.7163226e-13,-3.4110263e-13,-5.888521e-13,-1.0213987e-12,-1.9607306e-08,3.265169e-13,6.750885e-05,0.1854728,-1.5235919e-13,2.338145e-13,-8.239273e-13,-6.5639605e-14,-5.3574414e-13,-1.3672183,-0.018113803,-0.0045657847,-7.914822e-14,-6.86416e-14,-6.51114e-10,1.1555974e-13
2.6338805e-13,-5.075712e-13,-6.190979e-10,-1.4506863e-08,-7.5524968e-06,-5.3215364e-13,2.1181737e-13,-1.0282758e-06,-4.941169e-13,1.4775507e-14,0.18300022,-0.5368103,2.13688e-05,-2.4595143e-13,2.4961847e-13,-0.21242312,0.061538696,-9.141013e-14,-1.0965954e-13,3.841632e-13,-2.419241e-13,-4.856948e-13,-1.6426655e-13,-4.1371773e-13,1.4847679e-09,-2.6542893e-13,-4.4937704e-05,0.1283527,-2.2885274e-13,3.2939813e-13,-4.914374e-13,4.8248715e-13,6.442341e-13,0.73769194,1.0249397,-0.07364075,1.864679e-13,-1.0620706e-13,-4.0221687e-10,-5.0644195e-13,-3.0794852e-13,2.1141812e-13,-1.1871848e-10,-1.01648894e-07,1.6746242e-05,1.596789e-13,-7.284334e-14,-1.7280067e-07,1.5649801e-13,-1.2201766e-13,-0.12911613,1.3375087,-6.455628e-05,2.9594372e-13,-2.549875e-13,0.601438,0.21324177,-1.2677083e-13,5.4545046e-14,-2.837311e-13,-3.754088e-14,-4.8291042e-14,-7.502409e-13,-1.5857091e-13,-2.421705e-09,-6.520668e-14,-1.0708563e-06,0.07695072,-3.2528407e-13,1.08497196e-14,-7.725126e-13,-3.722562e-14,-3.7125432e-13,-1.5044394,-0.11437874,0.07426977,1.5305525e-13,3.602632e-13,4.660863e-10,-4.05202e-13
2.833796e-13,4.4893624e-13,3.7158676e-09,-7.0150925e-08,-7.491463e-06,7.2941653e-13,-1.6970584e-13,-2.098246e-06,5.7866526e-14,3.2765338e-13,-0.1265726,-0.4107578,0.0002945737,2.5161733e-13,-2.836223e-13,0.030210359,0.29845932,1.4336296e-13,1.8167092e-13,1.2032802e-12,-1.4235913e-13,9.5574536e-14,-9.309672e-13,-3.009954e-13,-2.0362292e-09,2.999672e-13,1.9532006e-05,0.083619796,2.5056316e-13,-5.807747e-13,3.866742e-13,-7.8391287e-14,-2.2491595e-13,0.95785147,1.0950909,0.087247245,8.770171e-14,3.002893e-14,-1.5716091e-09,2.0287683e-13,6.469379e-14,-9.421923e-13,4.156403e-09,-1.7178715e-07,-9.5946925e-05,1.0074103e-13,2.0276912e-13,-1.3392441e-06,-1.7572372e-13,-9.641718e-13,-0.34773472,1.2117122,-0.000113543,5.0654142e-14,-1.365509e-12,0.43045774,-0.18331817,-2.4979286e-13,-4.4222308e-13,-5.242344e-13,1.4915711e-13,2.2297989e-13,-3.719681e-15,5.280162e-13,8.1020196e-10,-8.7375864e-13,-1.6933833e-05,-0.30884996,3.10789e-13,-7.281871e-13,-5.0316717e-13,6.797327e-13,-7.468648e-13,-0.4852597,0.007652211,0.29258847,2.4811327e-13,5.106269e-13,-2.3890226e-10,-1.722536e-13
-6.013363e-13,-4.1342206e-13,1.6678898e-09,-7.806208e-08,-1.5721647e-05,-7.682129e-13,-1.7433158e-15,-6.678142e-07,7.861888e-13,-5.2571646e-13,0.19395275,0.029122002,-0.00016128177,2.7502387e-13,4.8647067e-14,0.23207578,0.45776263,-4.8150015e-13,1.766193e-13,-3.0810792e-13,-6.096878e-13,-5.331518e-13,-2.58573e-14,-6.030503e-13,9.407858e-10,-2.924694e-13,1.6549327e-05,-0.100651786,3.9018886e-13,-5.108251e-13,-1.93004e-13,4.3858255e-14,-4.991336e-14,1.4282588,1.224587,0.2336387,-4.368925e-13,-8.9539704e-14,1.4223278e-09,7.006721e-13,-3.4624837e-13,-6.339005e-15,-1.9415691e-09,-1.2100845e-07,3.5841986e-05,4.5604005e-13,-8.8608667e-13,-2.8087703e-07,6.8179815e-13,1.6743865e-13,-0.11067665,1.1375865,-8.0944585e-05,-5.1247683e-13,-1.7616505e-12,0.3047714,-0.034249377,4.868637e-13,-7.4782867e-13,2.700615e-12,5.12151e-13,-7.268704e-13,-1.0735915e-12,5.0565753e-13,1.1507704e-08,-4.813818e-13,9.0658556e-05,0.02867381,6.489796e-13,1.1220457e-13,2.5855414e-13,-4.1061566e-13,3.4502587e-13,-1.3135982,-0.16761407,0.28142077,-2.6528004e-13,-8.9307565e-13,-4.0632184e-10,-2.1602251e-13
-1.0294173e-12,-1.5189964e-12,1.472787e-09,-1.4094152e-07,3.7390913e-05,-7.6696196e-13,-6.1363273e-13,4.3774457e-07,-1.7201185e-13,7.250725e-13,0.2990735,-0.010471728,0.00038810048,7.547805e-14,-1.4721056e-12,0.25933456,0.41142464,-3.9048184e-13,-3.1112558e-13,-5.4492977e-14,-1.8983968e-13,8.836045e-13,3.3369195e-13,-8.310674e-13,6.3981207e-09,2.7316734e-13,-0.00012103744,0.12216474,4.0570731e-13,2.3756504e-13,2.8517743e-13,2.2115006e-13,-1.8170269e-13,0.7809162,0.56255436,-0.14202413,-2.856019e-14,4.1315085e-13,-5.6380967e-10,-4.2085842e-13,-3.9597188e-13,-3.489726e-13,-3.1379257e-09,-2.0945988e-07,-9.734918e-06,-1.225399e-12,-6.365323e-13,-1.1441338e-06,1.5971182e-13,-1.924638e-13,-0.5181367,1.3522015,0.00018510244,2.0789883e-13,-8.268039e-13,0.11966326,-0.22340564,-2.801714e-13,-6.6255356e-13,-3.1205876e-13,-9.085178e-14,6.5482727e-13,6.685601e-13,-3.9793134e-13,-1.3802072e-08,4.56497e-13,-3.8666738e-05,-0.33227557,2.3088465e-14,2.3766004e-13,-1.4767105e-13,-2.8132845e-13,-2.32419e-13,-1.2452542,-0.06282903,0.19616851,-4.3473786e-13,7.665892e-13,-1.1713683e-09,2.9826765e-13
-6.8521317e-13,1.8397207e-12,2.2839084e-09,2.284113e-07,1.4911625e-05,4.4064435e-13,-1.5734381e-13,-7.461492e-07,-7.3937216e-13,-7.0391945e-13,0.13425523,-0.3265495,-0.00018092868,1.3668523e-13,1.2403618e-12,-0.26740786,0.33381787,4.7621575e-13,6.476151e-13,-1.1591974e-12,-4.5113034e-13,-3.2427186e-14,1.1154028e-12,1.0160763e-14,2.4207372e-09,-5.38877e-13,-4.3515553e-05,0.20429146,-3.0532404e-13,7.352346e-14,4.476397e-13,-3.1766977e-13,2.0821459e-13,1.1425413,0.8083102,0.07523629,-2.6875862e-13,5.695097e-13,6.4493344e-10,-9.266416e-14,-3.8544583e-13,9.553877e-13,1.2228014e-09,1.15621944e-07,-6.0738057e-05,-8.178294e-13,2.642574e-13,-1.289788e-07,-7.2073516e-13,8.8018763e-13,-0.078838594,1.4569719,-4.9007416e-05,2.4156323e-13,2.097328e-12,0.01760692,0.04276476,2.4152986e-13,-5.264452e-15,5.277758e-13,4.2988042e-13,-2.1985636e-13,-3.6980927e-13,3.0313284e-13,5.2714966e-09,-1.0605824e-13,-1.3394613e-05,0.17034319,8.085739e-14,3.899655e-13,-5.701746e-14,-1.5934243e-13,6.045668e-13,-1.5183101,-0.33489954,0.116679,7.2397535e-13,-9.388841e-13,2.3634145e-10,3.5878963e-13
-7.5231596e-13,4.8956526e-14,-2.6855604e-09,-4.7534147e-07,4.1210064e-05,-7.52642e-13,-2.193154e-14,-8.539574e-07,-2.319766e-13,-4.1715654e-14,-0.13843776,-0.32846433,4.9952047e-05,1.0994244e-13,-5.0990126e-13,-0.11528443,0.63379806,-2.2072806e-13,1.0001392e-12,2.9697664e-13,-1.4849303e-13,9.681596e-13,2.2165989e-12,5.194676e-13,1.11335385e-08,-6.5448666e-13,-5.6567635e-05,0.056158125,3.8589908e-13,-3.2746673e-13,3.8564594e-13,-4.8654185e-13,-5.406732e-13,1.0041841,0.53467345,-0.08529866,-6.371062e-14,-3.9213224e-13,1.026211e-09,6.643643e-13,9.06554e-14,3.2067014e-14,-9.109252e-10,-4.589856e-07,-8.098048e-06,5.183434e-13,-7.4382156e-13,-1.0027835e-06,3.1247298e-13,3.9786664e-13,-0.5902617,1.0840018,0.00020139261,-2.937656e-13,1.4056594e-12,-0.037199557,0.028228138,2.2180806e-13,-9.939286e-13,-2.125203e-12,-1.8569998e-14,3.2051163e-13,5.2260187e-13,-5.5186584e-13,-9.784764e-09,5.3619826e-13,9.563792e-06,-0.40352523,5.445588e-13,7.9381956e-14,-1.4018761e-13,-4.562076e-14,-1.6484058e-13,-1.0543526,-0.012621453,-0.052008845,-9.2971095e-14,-2.0474459e-13,1.1661572e-10,-3.490457e-13
2.5353206e-13,4.367292e-13,7.10274e-10,-8.8404075e-09,2.9016435e-06,-1.6538057e-13,3.4118961e-13,-5.066321e-07,-2.98072e-13,3.678854e-13,0.27615947,0.17360887,8.3253384e-05,5.156265e-13,-6.9283284e-13,-0.24336989,0.21258563,-3.4592517e-13,-1.5349945e-13,-9.858689e-13,-6.566609e-14,7.7816947e-13,3.580364e-13,-3.1702394e-13,-4.02571e-09,-2.1780207e-13,7.040676e-07,0.060920168,2.2209372e-13,-4.3713855e-13,3.849676e-13,2.9729344e-13,3.6461516e-15,0.64955103,0.9487667,-0.20751895,4.541483e-13,2.2770997e-14,1.6248709e-09,4.6163816e-13,-3.3673154e-13,1.1413892e-12,-8.6377394e-10,-6.042354e-08,-2.7202026e-05,5.227771e-13,2.984254e-13,4.901268e-07,-3.2602526e-13,1.0344048e-14,-0.16320881,0.8620516,2.6220487e-05,-1.1644982e-13,5.8783783e-13,0.18150665,-0.017338812,3.19009e-13,-4.876455e-13,1.9011884e-12,-4.1434933e-13,3.7405517e-14,-1.5657198e-13,2.3064477e-13,-3.7610786e-09,3.8759195e-13,1.815532e-06,0.12876225,-8.299248e-14,3.0450582e-13,-1.1890255e-13,-4.744573e-13,2.4358477e-13,-1.5638728,-0.45345253,-0.14863044,8.0914496e-13,2.7688117e-13,-1.738845e-10,4.0072278e-13
-7.332179e-13,-3.072256e-13,9.375368e-09,-2.0920011e-07,8.555862e-07,-2.3996864e-13,4.582976e-13,-7.4247955e-06,7.8143926e-14,-4.8770883e-13,0.92984664,0.6398456,0.00017260262,-3.284843e-13,-1.3129764e-12,-0.12658264,0.3603168,-3.7914965e-13,8.4632746e-13,-6.5499765e-13,3.693699e-13,2.4515703e-13,-7.2841397e-13,-6.4774314e-13,-8.164774e-09,4.144444e-15,-0.00012851918,0.37502882,4.6083525e-14,-6.1733984e-13,-4.1796658e-13,2.2447674e-13,-2.1150783e-13,0.6025701,0.80580044,0.15646937,-1.7931479e-13,-8.172397e-13,-1.2382971e-09,-3.5521824e-13,-4.888333e-13,1.8950401e-12,-6.967886e-10,-1.2319354e-07,-6.4477994e-05,4.2244908e-14,-5.4059426e-13,-1.0279967e-06,-4.2235958e-13,-1.1774828e-12,-0.12555003,1.0920491,1.49481075e-05,1.4121877e-13,-1.6334607e-12,0.50323176,0.032952607,5.9488704e-13,-7.700704e-13,-1.1739954e-12,-5.664891e-13,-2.5813797e-13,3.0688202e-13,4.2389876e-13,3.1707998e-09,-2.8919765e-13,-5.107233e-06,0.17803732,-1.2800174e-13,2.4621803e-13,-4.000256e-13,2.8542885e-13,-4.8505676e-13,-1.299613,-0.6563316,-0.22405674,-4.672777e-13,5.6280745e-13,2.2988895e-09,-3.9447997e-13
3.284338e-13,5.1444905e-14,-3.2814444e-09,-5.9481096e-08,9.1971215e-06,-3.5296847e-13,2.131371e-13,-1.5031179e-07,-1.0329097e-12,2.1170996e-13,0.24180819,-0.06909623,3.2179407e-05,-5.3170237e-14,-1.1103591e-12,-0.7288389,0.4062587,6.29032e-14,-6.9990373e-13,5.7753493e-13,5.127182e-13,-4.2726467e-13,1.5744021e-12,-6.713304e-13,6.2971095e-09,-2.8130002e-13,-3.8182447e-06,0.234196,-2.9052374e-13,-5.0104127e-13,-1.0551201e-12,-6.109574e-15,6.5274294e-13,0.57585716,1.3214661,0.17241211,6.4941574e-13,-2.5532294e-13,8.1450646e-10,-1.4544591e-13,5.670155e-14,1.9716531e-13,-2.01122e-09,1.409197e-07,1.1069251e-05,6.3745585e-13,-2.4275476e-13,-8.085797e-08,-9.397516e-13,4.1725334e-13,-0.27552077,0.67215604,2.3827099e-05,1.0535892e-13,9.499335e-14,0.13146138,0.026602194,4.3369502e-13,3.5612344e-13,-6.950652e-13,1.8951063e-13,-3.79109e-13,5.968927e-13,-4.556402e-13,-9.395242e-09,3.801374e-13,4.610941e-05,-0.04589438,7.559922e-14,1.1310376e-12,-1.888497e-12,6.000663e-13,2.1384763e-13,-1.8439735,-0.028097805,-0.02689318,3.969287e-13,7.93697e-15,-5.6798255e-10,9.3206625e-14
5.7249913e-13,1.6431412e-12,1.8184733e-09,-3.546351e-07,2.0418574e-05,8.289082e-13,-2.3836654e-13,5.044864e-07,1.0766839e-12,1.1224621e-12,0.3043573,-0.38648036,-6.789378e-05,4.6420306e-13,1.7363032e-13,-1.3362964,0.11361387,-2.8413413e-13,-2.780384e-13,-1.2905464e-12,-3.2968498e-13,-1.1362786e-13,5.4058635e-13,6.282013e-13,5.745438e-09,-5.800753e-14,-6.88412e-06,0.7554753,-3.686774e-13,-9.381374e-13,-8.267682e-13,-2.408819e-13,4.641788e-13,0.7591297,0.5989553,0.70533025,-1.1569623e-12,-1.1920382e-12,2.974665e-10,5.8645666e-13,4.567104e-13,1.7052137e-12,-2.8261082e-09,-2.1617024e-07,0.00011421782,-1.2497445e-13,-6.1213805e-13,1.1089126e-06,-6.381223e-13,-5.069429e-13,-0.22802219,0.7632211,0.000102907645,6.9063234e-13,2.5723102e-12,0.13750191,0.022918094,-2.2876297e-13,1.0651973e-12,-8.9715583e-13,4.5190566e-13,-6.307834e-14,-8.200144e-13,3.6188581e-13,1.068029e-08,-3.701168e-14,0.00014604529,0.11236361,-1.9841114e-13,-2.555554e-13,7.7930636e-13,-2.0425979e-13,-1.6926772e-13,-1.1985193,0.038286254,0.20107636,-6.170202e-13,9.323572e-14,-2.9445407e-10,3.556251e-13
2.7156554e-13,-3.3007996e-13,1.5730737e-09,-1.14914826e-07,-2.2237951e-05,7.015478e-13,1.0857038e-13,2.4986352e-06,8.422487e-13,-6.647263e-13,0.15136015,-0.9140442,-5.359035e-05,-2.525174e-13,-1.0145416e-12,-0.94598186,0.3918907,2.2441357e-13,-4.4694435e-13,2.3740355e-13,-2.730433e-13,-1.1477258e-13,1.3693008e-12,-1.1239982e-12,-4.8203463e-09,-1.6645756e-13,-3.5341902e-06,0.08950871,4.3133414e-13,3.8326547e-17,3.4432705e-13,-3.6123727e-13,-4.3564994e-13,0.8396032,0.3819816,0.10944463,7.1023585e-13,-2.047757e-13,2.2555982e-10,-1.5270715e-13,-7.247551e-13,-2.9027562e-13,1.5409498e-09,1.6406153e-07,3.2093154e-05,3.9964917e-13,-2.5410528e-13,-4.7176093e-07,3.9726165e-13,-4.70275e-14,-0.021713842,0.35094288,5.9891896e-05,-6.3991965e-13,-3.615385e-13,0.08332138,-0.004014319,-2.3832756e-13,8.599212e-13,-6.9254986e-13,-7.549745e-13,-4.1528662e-13,1.3745586e-12,2.4852828e-13,3.7992542e-10,-4.081591e-13,-1.8105609e-06,0.12038994,2.310754e-13,2.2555325e-13,-4.800314e-13,2.543446e-13,3.000671e-13,-1.5819805,-0.35836676,0.12686408,-6.931727e-14,-3.1910347e-14,-1.3362724e-09,4.6321914e-13
-3.7417083e-13,-1.2753929e-12,-3.3692023e-09,-9.6440864e-08,-1.0782077e-05,-6.1438186e-13,2.453923e-13,1.0772166e-06,2.1255949e-13,-5.0145516e-13,0.14914909,-1.0036496,5.09047e-05,-4.142742e-14,9.6571975e-14,-0.43196565,0.25566405,-2.0618083e-13,8.305122e-13,5.9665684e-13,5.880628e-13,1.3147317e-13,5.374502e-13,-4.9223863e-13,-9.8031405e-09,6.810018e-13,-5.0660754e-05,0.61412996,-3.860802e-13,-7.6187835e-13,-1.03337e-12,-1.9352059e-13,-6.326199e-14,0.59213006,0.78665096,0.28680775,7.59287e-14,8.1338175e-13,3.9918746e-10,3.2630658e-13,3.203091e-14,-9.364211e-14,9.585072e-10,-5.061563e-08,2.8490505e-05,-3.0774282e-13,5.9553594e-13,3.5030132e-07,4.1519655e-13,-3.7741902e-13,0.43565455,0.92944986,2.559487e-05,3.4474919e-15,-1.6263837e-12,0.11676992,-0.3677387,-9.913676e-14,-7.988332e-13,3.2399303e-13,-2.2975653e-14,-1.7450735e-13,5.6084396e-13,-3.2767856e-13,1.2701995e-08,1.309051e-13,6.173015e-05,0.4979789,-4.1173776e-13,-1.0842331e-13,3.9011077e-13,5.725362e-13,-3.1244202e-13,-1.0276595,-0.07944437,0.4054859,1.1604666e-13,1.7599815e-13,-1.1971315e-09,-5.6854335e-14
-1.0682273e-13,4.002758e-13,-6.8427886e-10,-1.3133788e-07,2.2821766e-06,7.144964e-13,-5.5282715e-13,-2.7915935e-06,9.353678e-14,-1.9209623e-14,-0.023442097,-0.6516744,-0.0001692986,2.0036452e-13,5.1395937e-13,-0.4808337,0.14388098,-1.2802151e-14,7.4988697e-13,-4.2213054e-13,1.3226352e-13,-1.4045012e-13,-1.9852067e-14,-1.6971765e-13,4.0994044e-09,5.810418e-14,-4.3862332e-05,0.19834332,1.0675827e-14,-5.2402473e-14,-1.4662625e-13,4.4768106e-13,1.8346885e-13,0.37579644,0.68087554,-0.00914129,4.5419427e-13,-1.7757692e-13,-1.2329193e-09,8.80219e-14,2.901858e-13,8.337376e-13,-6.0118394e-10,-6.3818476e-08,1.2738049e-06,-8.8149724e-13,8.1854066e-14,2.5682732e-07,-4.3375768e-13,-2.9806723e-14,-0.1716192,1.4094765,6.9072965e-05,2.393722e-13,1.2361525e-12,0.130281,-0.008702043,-4.0621654e-13,-1.2239935e-12,-1.7776308e-14,-3.4063748e-13,-5.1791454e-13,1.5435668e-13,-2.881922e-13,1.0164358e-09,2.7191208e-13,-3.2866672e-05,0.1289834,-1.2366101e-13,-1.562031e-13,6.862795e-13,-3.9717077e-13,-5.445901e-13,-1.530976,-0.5362946,0.115724966,-1.6516725e-13,-2.4105118e-13,1.7919968e-09,2.6281508e-13
-6.242402e-13,7.0012594e-13,-2.5863905e-10,-8.08229e-08,7.1708196e-06,8.7960764e-13,4.1546606e-13,-1.5040723e-06,-3.0164816e-13,-8.39118e-14,0.16324426,-0.8748189,0.00011716148,3.8343862e-13,1.5097613e-12,-0.08156867,0.049684078,-1.6556582e-13,1.8200351e-13,2.599771e-13,4.857773e-13,-1.196867e-14,6.3402544e-13,-8.781604e-13,-3.5252303e-09,-3.435674e-15,7.87724e-05,-0.27247337,5.281579e-13,3.455328e-14,-7.949766e-14,-3.873833e-13,-6.400299e-13,0.670375,0.65828735,0.17545079,-8.4429994e-13,2.7473217e-13,3.9082862e-10,3.5829087e-14,-4.883151e-13,-3.562653e-13,-3.0436292e-10,2.0264508e-07,-1.4967682e-05,-3.891688e-13,-6.8144535e-13,-8.480803e-07,5.511806e-13,1.6607391e-13,-0.03124911,0.9388664,-1.5596734e-05,-6.3814514e-14,-6.516966e-13,0.12500313,0.09733238,5.6109007e-14,-2.4714345e-13,1.5907811e-12,1.6329559e-13,-2.6939776e-13,2.1041524e-13,1.651009e-13,3.8532246e-08,5.4374344e-13,-9.402932e-05,0.1324363,-7.797636e-14,9.4215814e-14,7.63088e-13,-5.5541184e-14,-4.6504424e-13,-1.1799228,-0.38680327,-0.0005541574,-2.9926097e-13,-9.068489e-14,8.657679e-10,-3.5427214e-13
-1.3439694e-13,1.0280174e-12,3.9736525e-09,1.755685e-07,-6.7256533e-06,-1.3562507e-13,-3.9599053e-13,1.3401041e-06,-8.7126736e-13,-4.283779e-13,0.10459499,0.41990268,7.0433125e-05,4.125207e-13,7.8219945e-13,-0.171721,0.26395324,-1.1731877e-13,5.543679e-13,-8.6420053e-13,-3.8734017e-13,-1.1374541e-13,3.6166892e-13,2.835758e-13,-2.5229894e-09,-6.538834e-14,-8.7945455e-06,0.11694725,5.672834e-13,6.0247185e-13,7.760613e-13,2.8346712e-13,3.9644682e-13,1.1721168,0.20759101,0.30048767,1.8834714e-13,-2.3712372e-13,-9.909605e-10,4.292481e-13,-3.3276387e-14,1.3192657e-12,-1.0345427e-09,-1.5513139e-07,4.9499216e-05,3.481691e-13,-1.4849698e-13,9.571371e-07,-5.8802973e-13,-6.1539624e-13,0.39621222,0.5676831,8.148911e-05,7.5818263e-13,8.538634e-14,-0.25810963,0.05551375,3.5078976e-13,-8.4037025e-13,1.5066122e-13,2.4755957e-13,2.783935e-13,-1.4118578e-13,3.435468e-14,-1.3019315e-09,4.7663804e-14,-1.0049413e-05,0.24112815,3.182982e-13,1.8744481e-13,4.053529e-13,-3.2344038e-13,-7.0019457e-13,-1.5352275,-0.81400996,0.22650787,8.444498e-15,1.0011945e-12,-5.6036586e-10,-1.9205858e-13
5.6771563e-14,-1.6745604e-12,5.301961e-10,6.1392676e-08,-1.7457292e-05,3.1886475e-13,7.223051e-13,4.0650679e-07,-5.163258e-14,6.223135e-13,0.24288529,1.2267252,-0.00042590813,4.607914e-13,-1.7287573e-12,-0.22000788,0.49365595,3.1575792e-13,1.6162583e-12,8.5006947e-13,1.2992412e-13,1.8399372e-13,5.876682e-13,-3.4716194e-13,6.712216e-09,-3.007168e-13,-9.135227e-05,-0.07236088,-2.1020777e-13,-2.8370657e-13,8.362484e-14,-3.352971e-13,-1.862526e-13,1.0308362,1.1728809,0.59427685,-5.5904836e-13,-1.5907143e-13,2.2318498e-09,4.842998e-13,-4.599793e-13,3.3324537e-13,-3.655345e-09,7.9139696e-08,-9.615875e-06,-9.0439624e-13,-5.290762e-13,-4.1212917e-07,-2.3959496e-13,1.4992884e-13,-0.068825595,0.54409564,0.00011276618,9.18176e-14,-6.372304e-13,-0.34340808,-0.06311569,-2.4976305e-13,-8.671659e-13,-1.2428772e-12,-4.6684e-13,-1.9341715e-13,-1.3880119e-14,-4.2176158e-13,2.0208807e-08,3.2194408e-13,8.677352e-05,-0.18181735,1.4088662e-13,-2.6492556e-13,-6.748202e-13,-1.5738783e-13,-6.1994165e-13,-0.3589532,-0.5783855,0.22949184,1.4713736e-13,-9.133585e-14,-1.2427677e-09,4.6077416e-13
4.0282269e-13,1.0103402e-12,1.7152597e-09,-8.67013e-08,-2.394193e-05,9.511465e-13,-2.6826244e-13,-6.8709994e-07,-1.5498605e-13,-4.4534234e-14,0.072757296,1.083081,-3.0737985e-05,5.714265e-13,-1.1846424e-12,0.31507695,0.29790235,-2.51766e-13,7.458675e-13,-2.120308e-13,2.5763576e-13,3.439607e-13,2.6139965e-13,1.5117114e-13,7.865948e-09,-1.2978811e-13,-0.000100188336,-0.088991165,4.4378165e-13,5.301681e-14,1.9742702e-13,2.0426996e-13,-3.6718217e-13,1.2409853,1.034722,0.0710131,3.3401014e-13,-3.5292567e-13,-1.4647755e-10,-4.990117e-13,2.5968984e-13,4.841811e-13,1.6313788e-09,-8.380875e-09,-3.990647e-06,-4.611357e-13,-5.3441485e-13,-4.4803124e-07,-3.3482117e-13,-1.572819e-13,0.007537155,0.8724265,-0.00017327043,4.6361553e-13,7.771672e-13,0.0102487495,0.007430963,6.496854e-14,7.363237e-13,8.3907236e-13,-3.0687928e-13,5.389078e-13,-8.907119e-13,3.1360448e-13,-1.9915662e-09,5.446313e-13,-5.3398115e-05,-0.30330363,-5.6553124e-13,7.4102687e-13,-4.0054234e-13,5.4311736e-13,7.2356666e-13,-1.2713012,-0.12772518,0.058093995,2.3228476e-13,-1.3233567e-13,-1.3511998e-10,-8.508542e-14
6.706878e-13,-9.154316e-13,3.96345e-09,-8.357925e-08,7.1534014e-05,-2.2426389e-13,-3.078336e-13,-3.3541266e-07,-7.430119e-14,3.6620294e-13,0.60390294,0.96661824,0.00046556507,1.4072372e-13,-8.377069e-13,-0.13407218,0.33698833,2.5419174e-13,3.04197e-13,-6.571591e-13,-1.1621155e-12,2.6908825e-13,6.408247e-13,-4.4867593e-13,-2.5110236e-10,7.7655016e-13,3.504248e-05,0.012478946,3.836395e-15,2.2486167e-13,1.1023183e-12,-6.1089843e-13,-2.5272338e-13,1.0947919,1.0547856,0.1481047,7.043495e-13,8.718986e-14,-3.487226e-10,-6.309799e-13,3.9757385e-13,-6.9385817e-13,3.211965e-09,2.341259e-07,6.149616e-05,7.876322e-13,-9.975237e-14,-1.1877393e-06,3.8263354e-13,2.7835286e-13,0.26852158,0.9777265,0.00023178267,6.372464e-13,6.632906e-13,-0.003925423,-0.2740268,-2.533455e-13,7.6842113e-13,1.0349965e-12,-1.1509944e-13,-7.516489e-13,1.5635862e-12,-4.814694e-13,9.450744e-09,1.28832e-13,1.173066e-05,-0.03654951,-3.2e-13,2.6132964e-13,7.1139356e-13,-1.3840356e-13,3.3542656e-13,-0.6054729,-0.43149257,0.19178225,-2.2276324e-13,-2.8152502e-14,1.9189885e-09,6.7478786e-13
-2.4978373e-13,-3.453425e-13,2.5691868e-10,-4.4084608e-08,2.1149172e-05,3.85899e-14,-8.977221e-14,5.167254e-07,-4.998602e-13,2.968177e-14,0.16863616,0.879972,-0.00011197079,-4.2931752e-13,8.98896e-14,-0.111506425,0.48256117,3.641168e-13,-6.459736e-13,5.1040183e-13,5.1895185e-13,7.1202544e-13,1.3302636e-13,1.5299125e-13,1.231329e-08,-5.5738714e-13,4.549914e-05,-0.034952812,5.045759e-13,2.873628e-13,-1.9715669e-13,9.08368e-14,-4.3055175e-13,1.3547463,1.0888706,0.0745518,-3.4289883e-13,-6.515279e-13,-6.129229e-10,3.4850695e-13,8.285693e-13,-5.2101693e-13,-9.867215e-10,-8.4111264e-08,1.2615417e-05,-3.6965778e-13,2.5999965e-13,-8.9545426e-07,2.2729816e-13,-5.7808066e-13,0.026411746,0.8722267,-4.023472e-05,1.2531504e-13,-3.5497918e-13,0.35726857,-0.05419317,4.3663776e-13,4.1844618e-13,4.5284983e-13,7.7740304e-14,-1.4063223e-13,7.5414864e-13,-6.040947e-14,-2.0711037e-09,3.2960567e-13,-4.31326e-05,0.056575168,-3.0098116e-13,8.6105537e-13,-2.8479218e-13,-3.967024e-13,1.9126543e-13,-1.0543472,-0.37304214,0.16581786,8.974562e-14,-3.8737934e-13,5.648977e-10,-4.5315309e-13
-2.6025433e-13,1.0447654e-13,2.8094633e-09,6.08478e-08,-5.255276e-06,3.5803012e-13,3.9559325e-13,3.9142623e-07,7.863613e-13,-6.7699795e-13,0.37976152,0.74519527,0.00019049503,2.2144636e-13,-1.9275724e-13,0.06130934,-0.18550329,-3.7447728e-13,4.4397754e-14,-2.1217983e-13,-4.603982e-13,-3.5643501e-13,9.835249e-13,9.0520587e-13,-1.4022815e-08,-8.35099e-13,-0.00018399114,-0.24187645,-4.8443953e-13,-2.0441597e-13,-7.8110684e-13,-1.3242768e-13,-5.03214e-13,1.1320101,1.4960878,0.3633998,-2.0089819e-14,9.901008e-13,-1.5387585e-09,-1.13239686e-13,1.9818592e-13,-1.0858012e-12,9.378673e-10,-6.095176e-08,-4.4798646e-05,2.836972e-13,4.876455e-13,-7.608022e-08,-9.109157e-14,6.870729e-13,-0.39145383,0.46905094,-0.00018762394,9.442466e-14,-8.303324e-13,0.310596,0.20790108,-7.8643114e-13,1.4438576e-12,9.296546e-14,3.296089e-13,-4.1075444e-13,1.8942096e-12,8.3185005e-14,3.678648e-10,-1.7647933e-13,-3.361433e-05,-0.56861424,1.5970181e-13,4.759183e-13,2.3557447e-13,2.549212e-13,6.4748044e-13,-0.27337736,-0.9155064,0.6327074,8.1549703e-13,-2.3064645e-13,1.1485934e-09,-2.9866924e-13
1.781868e-13,1.7012493e-13,4.8887977e-11,1.9469546e-08,2.6336325e-05,-9.30085e-14,1.0623452e-13,-5.96881e-07,-1.6243089e-13,-2.2898946e-13,0.07449256,1.0238109,-3.5895991e-06,-3.6217622e-13,-1.4168033e-13,-0.6567527,0.14893308,2.6892616e-13,1.4506799e-13,4.8229446e-14,-4.8581836e-13,3.0995052e-13,6.280999e-13,-1.9562395e-13,-3.4181968e-10,-7.78777e-14,-2.9285542e-05,-0.31059015,-1.5135918e-13,4.763015e-13,6.4968744e-13,4.4913644e-14,4.7042746e-14,0.7480145,1.0671659,0.21717468,3.1265824e-13,3.579695e-13,-2.2144735e-10,4.5361178e-13,-3.1276576e-13,1.3097918e-13,1.9577795e-10,-4.1587676e-08,-3.8871563e-05,-2.913861e-14,4.593346e-13,-4.2373665e-07,-1.8416003e-13,7.2757664e-14,0.15401898,-0.02901357,2.506301e-05,-4.2600727e-13,4.1146145e-13,0.6955175,-0.06826658,1.7550674e-13,-1.5312003e-13,-1.1177333e-13,-6.98874e-15,-3.426257e-13,-9.479741e-13,-2.1115528e-13,-5.9415184e-09,-2.7422454e-13,-6.065384e-07,-0.059116077,-2.3141688e-13,-3.5608642e-13,-5.447392e-13,-3.3740084e-13,-3.2251166e-14,-0.41328263,-0.7014544,-0.12307926,5.12013e-13,4.0607516e-13,7.883805e-11,3.745231e-13
-2.0376051e-13,5.348674e-13,1.10034e-08,8.317684e-09,3.3903503e-05,6.637358e-13,-8.1039147e-13,-1.584965e-06,2.1011475e-13,-2.2070472e-13,-0.057353765,0.6204099,2.2298147e-05,1.09980655e-13,8.259461e-13,-1.0636747,0.34481663,-9.97637e-14,1.0580631e-12,5.499946e-13,3.166465e-13,-6.4482425e-13,-7.457205e-14,-3.3495266e-13,1.1059876e-08,-4.2224243e-13,-3.1593707e-05,0.40841913,-7.1036915e-13,4.7102274e-13,6.9885195e-13,1.506976e-14,4.8409085e-13,1.4511278,0.9380658,0.5745371,-4.254849e-13,7.582423e-13,1.5982067e-09,-6.1542915e-13,2.991809e-13,2.8601988e-13,-1.8048654e-09,-5.7956363e-08,7.430494e-05,-9.26184e-14,-9.89296e-13,4.6928736e-07,2.3037746e-13,4.4906e-13,0.84730995,0.45841306,6.1276965e-05,-4.1185152e-13,-6.6613945e-13,1.0224682,0.011511122,-1.286101e-13,6.981926e-14,7.620918e-13,-1.2295948e-13,1.1649328e-12,-1.7294803e-13,-5.7381807e-13,-4.080333e-09,1.5383902e-13,6.8544905e-06,0.6588254,2.2405485e-14,2.2970066e-14,-9.250158e-13,-5.0308184e-13,-2.8687393e-13,-0.1180881,-0.9781088,-0.34260783,1.9394616e-13,4.8638133e-13,9.9298764e-11,1.0565002e-12
4.401905e-13,-4.6160797e-13,3.3606606e-10,3.742453e-08,-2.9001767e-06,-6.043507e-14,-5.9143223e-13,1.0849782e-06,-3.147257e-13,-6.7033266e-14,-0.0338638,0.2867378,-2.6369325e-06,1.4952997e-13,-7.804652e-13,-0.62118036,0.7652659,1.6651123e-13,-1.3414119e-12,-1.2586675e-12,1.0301949e-12,-4.410475e-13,-1.6704769e-12,-6.0654785e-13,5.790505e-09,2.1840467e-14,-4.6878613e-05,0.09404719,4.9593847e-13,-3.3752135e-13,-3.3939903e-13,-2.2601674e-13,-4.3589923e-13,1.7605348,1.0637338,0.07809302,-4.880676e-13,-5.4903933e-13,-7.4134636e-11,8.1182787e-13,-3.5852294e-13,-1.418711e-12,-2.7178781e-10,1.960644e-07,1.9836458e-05,-5.3421037e-13,-4.8866185e-13,-8.284731e-08,-2.4731085e-13,-5.0327586e-13,0.28279746,0.8124076,-4.658942e-06,-2.7532268e-13,2.0013197e-12,0.3530195,-0.14095995,-2.778326e-13,6.3549274e-13,2.5618694e-13,3.7133244e-13,-6.2876836e-13,2.0021417e-12,9.594772e-14,3.6556744e-09,-4.006111e-13,3.7216569e-06,0.20642962,1.05277664e-13,2.1161154e-13,1.916784e-13,-2.0869604e-13,7.18909e-14,-0.8819003,-0.9080349,-0.04178516,6.0756765e-14,4.567975e-13,6.778737e-10,-7.3575355e-14
-3.7989108e-13,-4.8686825e-13,9.847821e-10,-1.4979139e-07,1.7699795e-05,1.848513e-13,-3.585463e-13,1.8403332e-06,5.9381027e-13,8.138271e-13,0.034127347,0.21859354,-4.58727e-05,4.7832094e-13,-2.5226913e-13,0.011497676,0.75186944,6.2868547e-13,-2.7773926e-13,1.9751258e-13,2.339285e-13,1.9718079e-13,1.5699201e-13,-1.7634487e-13,-7.556805e-09,-3.0694094e-13,1.4655641e-05,-0.016406156,1.8164127e-13,-4.731472e-13,6.364455e-13,6.285467e-14,3.7148176e-13,1.5449095,1.074951,0.09252295,-3.7284057e-13,4.3142356e-14,-7.189924e-11,2.133711e-13,4.2394766e-13,7.6897337e-13,-1.4747286e-09,-2.5759724e-07,-4.0281564e-05,-4.815719e-13,-8.535371e-14,-6.515668e-07,-3.9099407e-13,1.594856e-13,0.13907622,0.6314095,3.1545893e-05,-3.9516448e-13,-8.4005285e-13,-0.104571566,0.039104898,3.1854673e-14,1.3651249e-13,6.481505e-13,6.2444917e-13,-3.038341e-15,-1.788771e-13,5.084322e-15,3.9730033e-09,-1.8238866e-13,5.020647e-05,0.092879474,-1.7922081e-13,4.515502e-13,2.3093073e-13,1.746178e-14,6.5990654e-13,-0.3588831,-1.0018439,0.006618332,-4.594727e-14,3.5813656e-13,-1.443958e-10,-7.7649047e-13
-5.5929675e-13,-1.2897308e-12,-2.2161586e-10,-4.437354e-08,-2.8225832e-05,5.3101767e-13,-2.7478988e-13,2.2247527e-06,1.5951337e-13,-6.5172845e-13,-0.19480315,-0.03297218,3.218736e-05,5.149948e-13,-3.101077e-13,0.2690687,0.28228858,-2.557627e-13,-1.6078051e-13,2.2533922e-13,-4.7561727e-14,1.03745734e-13,-1.7564351e-12,3.6968136e-13,-3.0411167e-09,1.6991581e-13,-2.9637606e-05,0.14711674,-9.311223e-15,-4.1193362e-13,2.463965e-13,9.9109225e-14,2.3304983e-13,0.94499385,0.9313402,-0.048668392,-6.5511214e-13,1.6536506e-13,1.4546227e-10,-1.9105133e-13,-1.6352463e-13,3.9307183e-13,8.639101e-10,-1.3003802e-07,1.6705648e-05,-2.0699978e-13,-5.6094983e-13,8.070652e-07,9.810775e-14,-3.2248162e-13,0.10352072,0.55977625,9.7279415e-05,-1.9980789e-13,-1.8183272e-12,0.27709523,0.055419013,-2.1351302e-14,-4.569809e-13,-4.580748e-13,-7.8677956e-14,3.225939e-13,2.7910898e-13,-4.046172e-13,1.567723e-08,-2.258492e-13,-1.2710026e-05,0.14979175,-2.0398285e-13,8.3915606e-13,-4.656603e-13,4.588593e-14,-1.2142002e-13,-1.006133,-0.985079,0.021517295,3.0926824e-13,1.6359979e-13,-5.5355026e-11,6.081341e-13
1.4476427e-13,3.561073e-14,-2.0523059e-09,-3.1928764e-08,4.0105086e-05,-4.3417575e-13,-7.4692807e-13,-7.214254e-07,4.7102757e-14,7.2791117e-13,0.0072206673,-0.13793327,-2.0436783e-06,-9.3441964e-15,-6.336056e-14,0.481073,0.5023962,-1.7150338e-13,-8.213517e-14,4.2806885e-13,4.744666e-13,-2.2575575e-13,8.990725e-13,3.3234342e-13,-7.0101853e-09,4.897715e-13,7.523092e-05,0.044415936,-3.492869e-13,-1.0857141e-13,-6.6143217e-13,-1.8310769e-13,-8.101557e-14,0.59573907,0.76880294,-0.26711905,1.4614088e-13,1.9146208e-13,1.406557e-09,2.1392535e-13,7.417349e-13,1.9317948e-12,4.4262105e-10,8.485706e-08,2.1177968e-05,9.155193e-14,4.4271775e-13,-3.3411803e-07,5.730867e-13,5.014849e-13,-0.22674029,1.2630546,-0.0001973808,1.725898e-14,-4.876788e-13,0.31915492,-0.050646856,5.883144e-14,-1.2021917e-12,1.4194519e-12,-6.122029e-14,6.1022384e-13,5.7159036e-13,2.7093955e-13,-9.588886e-09,-1.791205e-14,-8.1504375e-05,-0.29617664,-8.120292e-14,-4.6235357e-13,-2.839759e-13,-2.3048105e-13,3.7213535e-13,-0.9889958,-1.0079587,0.120064124,2.1250523e-13,6.253745e-13,1.2999348e-09,7.7547756e-13
-3.5351022e-13,6.418237e-13,-2.2428561e-09,2.784291e-08,1.853685e-05,-1.0423818e-13,9.009489e-13,-9.4334007e-07,5.478427e-13,-5.7285524e-13,0.046235144,-0.16829689,2.3908449e-06,5.658019e-13,-1.2669119e-12,0.8732616,0.120505035,-4.930394e-13,4.2322835e-13,1.3094506e-12,7.5559687e-13,-2.7019012e-13,-1.5435315e-12,1.9529184e-13,1.567598e-09,-5.965342e-13,-4.030786e-05,-0.1311285,-3.3473062e-13,5.8595706e-16,4.0738355e-14,6.60602e-13,6.20208e-13,1.1993953,0.88468057,0.1791354,1.4919831e-13,-2.0237582e-13,1.0985921e-09,-3.0116182e-13,6.536391e-13,1.4305278e-12,-2.4363185e-09,8.5785395e-08,-1.1876425e-06,-1.9896465e-15,-8.7073903e-13,4.0134253e-07,3.9253065e-13,-6.1562127e-13,-0.06677836,0.9884961,6.2429084e-05,9.5685694e-14,-9.369984e-13,-0.07232243,-0.006098643,-3.9126842e-13,-8.0538907e-13,-6.6805307e-13,1.0855538e-12,4.522372e-13,5.922951e-13,1.0802936e-13,5.8340235e-09,2.1255605e-13,5.30092e-06,-0.20323573,-2.5526497e-13,-4.675463e-13,-4.0193342e-13,1.5516246e-13,-4.6129675e-13,-1.087481,-0.6908571,0.06819116,-6.3045906e-13,-6.2589365e-13,8.932942e-10,-2.4779972e-13
6.8402055e-13,-1.0323137e-12,-2.8792595e-09,5.7289938e-08,-5.2307532e-05,6.340536e-13,-1.2826623e-13,-2.8405436e-06,-5.84234e-13,1.12465274e-13,-0.14138757,-0.26744652,-0.00019016246,-6.8201217e-13,-5.051072e-13,0.87911564,0.66786623,1.3272703e-13,-6.541786e-13,3.5737006e-13,5.071942e-13,3.2632187e-13,1.4381096e-13,-4.7117095e-14,-6.1314775e-09,-5.204573e-13,2.2421416e-05,-0.08108946,3.7036905e-13,-3.4603787e-13,2.30271e-16,5.573336e-14,1.8901249e-14,0.85987234,1.5550277,0.004630699,1.567141e-14,-8.5692044e-13,3.0951505e-10,-2.7744633e-13,-1.9512717e-13,1.4275731e-12,1.7903776e-11,1.5091001e-07,5.980207e-05,5.015918e-13,5.394283e-13,3.269077e-08,2.6474325e-13,-2.274415e-13,-0.095609315,0.32603982,-4.679245e-05,-4.938297e-13,-4.490427e-13,-0.15721166,0.19247663,5.1615044e-13,3.7552218e-13,5.9842653e-13,1.0095402e-13,6.0747246e-13,1.0754214e-12,5.686445e-14,1.8684753e-08,9.572219e-13,3.4714536e-05,-0.1573287,-2.5957524e-13,6.059232e-14,-3.1441477e-14,-3.9684773e-13,-4.4345807e-13,-0.043873362,-1.3659371,0.28248358,4.1017791e-13,-3.569922e-13,9.2603314e-10,-1.9478688e-13
-1.3961147e-13,1.0598014e-12,6.09478e-10,1.1854963e-07,1.539848e-05,-1.7284286e-13,3.4262903e-14,3.0283063e-06,1.6327633e-13,7.2040095e-13,-0.046574075,-0.1932589,1.6400376e-05,-2.370935e-13,4.7648777e-13,0.4503139,0.59245276,-4.499588e-13,3.1194486e-13,-1.2143229e-12,-1.7170892e-13,-9.776274e-13,2.8804926e-13,-2.853209e-13,-6.200752e-09,-1.9614171e-13,-2.0227235e-06,-0.22837976,2.669559e-13,-1.1133919e-13,-5.6387403e-14,-6.3302125e-13,1.352311e-13,1.3691874,1.3125875,0.17293234,-2.667604e-13,-3.1691907e-13,-9.648222e-10,-8.642118e-13,7.367114e-13,6.488303e-13,2.3729932e-10,1.5572448e-07,5.5504483e-06,2.1711279e-13,4.3090802e-14,3.171048e-07,-2.6487268e-13,-2.6255604e-13,0.013287779,0.12103956,5.3102885e-05,1.159069e-13,-3.1216436e-13,-0.33714154,-0.04815563,2.4892626e-13,7.3682065e-13,1.4517548e-13,-1.0712813e-13,-1.6746711e-13,-5.324912e-13,-6.089299e-13,-2.321962e-09,6.935045e-15,-7.5373346e-06,0.1933587,3.0982524e-13,7.990196e-14,-1.1905022e-12,1.11894435e-13,-3.1161895e-14,-0.8718309,-1.5050766,0.20469666,5.2792373e-13,-8.217099e-13,-6.632038e-10,-3.1904194e-13
-6.6293813e-15,-1.5870923e-12,-2.5053155e-09,2.7632996e-08,-2.5396614e-05,-1.7514814e-13,-9.5632974e-14,1.5851532e-06,-6.245256e-13,3.9228682e-13,-0.119568914,-0.015136031,1.1457711e-05,-7.9724644e-13,-6.5998146e-13,1.0641752,0.018022668,2.4109713e-13,-5.913698e-13,-5.1394983e-13,3.300593e-13,-2.1003864e-13,-1.2041073e-13,1.6487975e-13,-9.607994e-10,-4.0054304e-13,6.772876e-06,-0.3639076,2.4030607e-13,6.914057e-13,7.46615e-13,4.0898624e-13,3.0549757e-13,1.4258062,1.2911797,-0.09696161,-5.3342004e-13,-5.693767e-13,-1.0354695e-09,-4.8096553e-13,3.443304e-13,2.7919073e-14,-2.9267284e-09,-1.6216699e-08,6.7532936e-05,1.5660955e-13,-5.4045147e-14,7.2139295e-07,-2.9968915e-13,-5.6778817e-13,0.12933606,0.80273515,4.913429e-05,4.4782513e-13,-3.884858e-13,-0.18228142,-0.07588854,6.804736e-13,-1.3980499e-12,-1.4047604e-12,3.3941488e-13,-7.3166673e-13,-1.2933948e-12,-3.960866e-13,6.0723475e-09,5.2676125e-13,5.4911692e-05,0.05863391,4.5002617e-13,-9.678188e-15,5.49346e-13,-7.974798e-14,3.0024746e-13,-0.2655935,-0.47506788,0.45776108,-4.8329244e-13,-7.3945114e-13,-2.503234e-10,1.70525e-13
-1.9631784e-13,5.6150543e-13,-1.1322773e-09,-2.674922e-07,-1.1142997e-06,5.593066e-13,-7.7716176e-13,3.8039383e-07,4.3784632e-13,-1.5688148e-14,0.08059442,-0.1147674,-0.0002970919,4.889096e-14,-5.2185605e-13,0.8936289,0.30860883,-4.3453544e-13,1.2045123e-12,4.374776e-13,-2.696514e-13,-9.344943e-13,-9.773718e-13,1.7973226e-13,-1.743474e-09,-4.9481133e-13,6.790056e-05,-0.13000779,-7.266572e-14,1.6232881e-13,-7.592736e-13,-3.4686972e-13,2.5826693e-13,1.3240887,1.3307433,0.009642583,-3.2868017e-13,-2.7332412e-13,7.403714e-10,3.9168625e-13,2.3438527e-13,-1.7436807e-12,-2.1690066e-10,-1.11588584e-07,-3.4595752e-05,7.222026e-13,3.728161e-13,-1.5543405e-06,3.2838597e-13,5.0113336e-14,-0.03882224,0.89718705,-0.00012082033,-1.9692622e-13,-1.6220705e-12,-0.10612776,-0.039152995,1.644034e-13,4.853317e-13,7.963458e-13,-4.550467e-14,6.189335e-13,-2.2718717e-13,-3.43352e-13,-2.0033331e-08,-6.351082e-13,6.095845e-05,-0.029561112,3.2394386e-13,-3.3487753e-13,-2.4396275e-13,-1.2841122e-13,-1.5787892e-13,-1.0690056,-0.39157727,0.21285714,1.0937448e-13,-4.0249477e-13,-1.8082018e-10,-3.2289498e-13
5.042703e-13,-3.8193385e-13,1.794949e-09,-3.2584275e-08,5.873795e-06,-1.1663262e-13,-2.8466314e-13,6.4536374e-07,-8.079582e-13,3.624528e-13,0.34356987,0.21217428,0.00020848139,-5.2951756e-13,-5.4596665e-13,0.21751115,0.33288324,-4.3446198e-13,6.00441e-13,1.9276646e-12,-3.2412942e-13,1.229624e-13,3.2298426e-13,-2.925694e-13,-7.712728e-09,6.8275984e-13,-0.00010131175,-0.71790004,-7.345558e-14,9.734639e-13,-8.0925083e-13,-2.626683e-14,-1.0684661e-12,1.4807016,0.6882683,0.23406687,-4.3342727e-13,9.777409e-13,-6.324876e-10,-7.829887e-14,-6.104992e-13,-1.9512202e-12,2.9348385e-10,-4.4160476e-08,-8.981526e-06,-9.830393e-13,-7.8166564e-13,-3.1631413e-07,5.5886263e-13,-1.9263679e-13,0.1357186,0.84068346,-1.1660612e-05,-2.667962e-13,-2.0303052e-12,-0.36146614,-0.06320108,6.2765765e-14,-1.030499e-12,-5.770233e-13,6.070878e-13,9.879358e-14,-1.726294e-12,1.3136643e-13,-2.584089e-08,5.491684e-13,8.665031e-06,0.2145883,-1.4436736e-13,-9.7826586e-14,1.57867e-12,5.475083e-13,2.3251727e-13,-0.4305374,-0.5737381,0.033670202,2.3905636e-13,5.5025933e-13,-1.8306753e-09,7.683555e-13
2.3608814e-13,2.95903e-13,1.2175336e-09,7.395963e-08,-2.4654214e-06,-2.4063108e-13,-8.718335e-14,2.0806831e-07,-3.964285e-13,7.528445e-14,0.016340088,0.16688596,-9.084595e-06,-4.941785e-13,7.5136403e-13,0.33556342,0.16373363,7.921864e-14,2.2470675e-13,-9.939452e-13,-9.5384204e-14,2.7131395e-13,-4.6361553e-13,1.3469602e-13,5.1734056e-10,-1.7002022e-13,1.0414917e-05,-0.12976533,2.5631949e-14,-2.517268e-14,1.5006597e-13,6.419495e-13,4.845977e-15,0.9038367,0.6827735,-0.027550537,-3.5171196e-13,1.9746241e-13,-1.2004589e-10,-1.6511402e-13,4.1562804e-13,2.481907e-13,2.094346e-10,8.185464e-08,7.589003e-06,-1.9635389e-13,-3.9221057e-13,-3.64841e-07,-3.8127192e-13,-2.0410306e-13,0.0490072,1.3187567,-5.361534e-06,-6.9526633e-15,-2.8377816e-13,-0.13719316,-0.05091161,-3.5416516e-13,3.470311e-13,3.760691e-13,3.4641344e-15,4.689043e-14,8.604749e-14,3.0290348e-13,5.7983573e-09,2.5297023e-13,-1.0708388e-05,0.07381745,3.145664e-13,2.8335193e-13,-7.932717e-14,2.377735e-13,-4.638205e-13,-0.5934992,-0.5105883,0.018055797,-7.837928e-14,-4.3033936e-13,-2.8290587e-10,-2.2739406e-13
7.5023896e-13,6.893196e-13,4.0873096e-09,-7.319328e-08,-3.7505406e-06,-9.152168e-14,-4.9599143e-13,1.909043e-06,-4.1096274e-13,-4.3852926e-13,-0.28020212,0.32072333,-0.00015192541,-3.1383042e-13,5.7782273e-13,0.14622962,0.64493245,3.001489e-14,-5.033408e-13,1.3730874e-12,-1.5359418e-13,6.8985356e-13,7.5669e-13,3.259848e-13,-1.5477665e-08,-7.267607e-13,-1.950817e-05,0.065779164,-5.979768e-14,-7.141012e-13,-9.677584e-13,5.1235074e-13,1.8364861e-13,1.1761194,0.9253814,-0.2814833,-1.5372209e-13,-6.427971e-13,-1.7924018e-09,4.5966567e-13,-3.4594137e-13,-3.4834071e-12,1.0296163e-09,-3.236707e-07,-1.3645698e-05,-1.624555e-14,-4.736743e-13,-6.208061e-07,7.5638877e-13,-7.916291e-13,0.33198416,1.3055387,-2.5779369e-05,-2.4821714e-13,2.7853189e-12,0.01787071,-0.09923365,2.1359244e-14,-8.821455e-13,-7.046577e-13,4.414489e-14,5.40381e-13,-4.485241e-13,5.812713e-14,9.681155e-09,4.6985983e-13,2.091127e-05,0.5042815,5.91146e-13,6.970428e-13,8.218568e-13,6.207606e-13,7.8108505e-13,-0.36411414,-0.5880656,-0.20777288,5.952759e-13,-1.0860474e-12,6.044185e-10,1.3956463e-13
-3.5200933e-13,-7.1610816e-13,-8.275622e-10,1.0137951e-07,-9.445999e-06,-6.595192e-14,-2.4251266e-13,5.4083637e-07,-6.6235716e-13,-1.2502683e-12,-0.23461705,0.47476363,-9.45895e-05,2.0528319e-13,-9.37115e-14,0.079334766,0.40259883,7.1962835e-13,2.5465383e-13,4.2711174e-13,-6.743454e-13,-8.785271e-13,-9.89236e-13,5.747155e-13,8.213173e-10,-4.4327102e-13,-1.0501788e-05,-0.050893925,-2.5452535e-13,-7.048693e-13,5.193027e-13,-4.722576e-14,1.6573079e-13,1.5172106,1.4620966,-0.19868934,3.5391172e-13,4.6159853e-14,9.768854e-10,5.854753e-14,3.227458e-13,5.867775e-13,1.5944911e-09,1.4994585e-07,-2.5192996e-05,4.9697627e-13,-5.0355743e-13,1.8153884e-08,2.095057e-13,-5.2399095e-13,0.09054932,0.8464991,-3.439376e-05,-3.0117518e-13,7.8416516e-13,-0.23414989,-0.038790673,1.5179017e-13,1.194793e-13,-5.765717e-14,3.6931368e-13,-3.4371705e-13,1.0313863e-12,-3.991914e-13,1.2469111e-08,-2.5869335e-14,5.527877e-06,-0.058766052,-2.4224118e-13,-7.498409e-13,7.892394e-13,3.1532524e-13,1.0846864e-12,-0.72838604,-0.64637,0.020239389,1.6506084e-13,-7.738122e-13,2.9092878e-10,-1.2320581e-13
8.426711e-14,-3.511564e-13,-3.277831e-09,1.6399663e-07,-1.9217765e-05,-6.2515856e-13,3.7583733e-13,-2.608738e-06,7.9624274e-13,-1.626365e-13,-0.36907408,0.58325994,0.000105418716,-1.2467138e-13,5.4654285e-13,0.20151697,0.3193951,9.294459e-15,6.9506217e-13,5.2686154e-13,4.0592592e-13,-5.159204e-13,-5.127828e-13,3.5288005e-13,3.0199043e-09,-1.224582e-14,0.00011966289,-0.15572716,2.793632e-13,-6.520487e-14,1.01010454e-13,2.473153e-13,-1.9520242e-13,1.2392383,0.8906182,-0.13318898,-8.525831e-13,-4.8312016e-13,-2.5228786e-09,3.8064086e-13,1.2908801e-13,1.1681221e-12,-1.2242853e-09,-6.4251125e-08,-1.2684879e-05,2.3061563e-13,4.6196966e-13,-8.167212e-07,-6.494819e-13,5.981401e-13,0.22985907,0.3514378,8.866926e-06,4.5024612e-14,8.2766584e-14,0.18329866,0.20303404,-4.3263968e-13,1.1132455e-12,-1.1690262e-12,4.59152e-13,8.129761e-13,8.0805897e-13,-8.874051e-14,3.4988812e-10,-1.1513837e-13,-9.436202e-05,-0.29457268,1.1611945e-13,3.801508e-13,6.956534e-13,-4.7507446e-13,3.4917555e-13,-0.6509692,-0.44103456,0.20896725,2.0478531e-13,2.995459e-14,7.4001055e-10,-4.8461403e-13
6.0157364e-14,1.3444351e-12,4.4951648e-10,-3.1521942e-08,3.749432e-05,5.9090195e-13,1.2022371e-13,2.2257348e-06,3.2731123e-13,3.9076896e-13,0.10750156,-0.10432789,0.00017945479,-5.0198224e-13,-5.1595815e-13,0.030580468,0.07610605,4.9643205e-13,5.517896e-13,-2.0145218e-13,3.4288333e-13,4.643023e-13,-1.097692e-12,-3.047886e-13,-2.8198008e-09,-4.9446113e-13,-6.608779e-05,-0.08238338,-4.2569127e-13,-4.088309e-13,-4.245809e-13,2.8093405e-13,3.0290814e-13,1.847104,0.5287607,-0.0018312959,4.3470284e-13,3.903729e-14,-2.4436891e-10,2.1656345e-13,5.659259e-13,-8.1517735e-13,7.2234163e-10,2.0321812e-07,-2.4669986e-05,-6.7067207e-13,1.3979903e-13,2.31361e-07,-1.191021e-13,-6.623613e-14,0.31240904,0.21766278,0.0001384168,4.167415e-14,2.2068133e-13,-0.3723626,-0.07384355,3.6486227e-13,7.5644417e-13,-9.197742e-13,-1.1756132e-13,-1.8006244e-13,-4.842765e-13,-5.7577966e-13,1.2890513e-09,4.0810134e-13,4.3670107e-06,0.48866722,-1.4756199e-13,-5.1205446e-14,4.612887e-13,-1.423233e-13,6.9895934e-13,-0.9784005,-0.36199197,0.22166078,-2.9078958e-13,-3.0895113e-13,1.9910595e-10,-4.331612e-13
7.9528474e-13,-1.3134208e-12,-2.4666527e-09,2.593546e-07,-4.6713463e-05,4.6028405e-13,-7.975181e-13,-3.4808284e-06,-6.709661e-14,-5.003443e-13,-0.3761212,0.060158562,-0.0001137981,-2.462304e-13,1.1667192e-13,0.36012873,0.6336182,-1.9078543e-13,1.06915765e-13,-1.7130143e-12,-3.896036e-13,7.455493e-13,-3.201579e-13,1.6451494e-13,1.410008e-09,-6.5110997e-13,-6.419303e-05,-0.7924688,1.9923383e-13,-6.3170546e-13,-6.944573e-13,-1.5297036e-13,-8.872859e-13,0.8547594,0.64835155,0.6720821,-3.1350484e-13,1.637611e-13,3.1416472e-09,1.3445706e-13,6.3132106e-13,1.0627968e-13,-1.08411904e-10,4.264025e-08,3.2430475e-05,-3.9599964e-13,-1.6572786e-13,-9.598532e-07,-2.5058837e-13,-1.2674882e-12,-0.16719829,1.3859845,-5.8681297e-05,2.9905223e-14,-2.118332e-12,-0.05405424,0.29907134,6.049226e-13,-1.2875959e-12,-9.914569e-13,-2.6380008e-14,-8.60245e-14,4.2381848e-13,8.31106e-14,-1.4803646e-08,-4.2071048e-13,-1.4075566e-05,-0.22969466,-3.5286712e-13,6.3836143e-13,2.7014545e-13,-1.19761124e-14,-5.235129e-13,-1.1081108,-0.2660174,-0.2704649,2.7967136e-13,-5.637562e-13,3.8093265e-10,3.9271722e-13
5.948084e-13,-8.8017603e-13,4.3016226e-09,1.1206659e-08,-1.844387e-06,8.5002437e-13,3.8300857e-13,3.2796828e-07,-8.5192676e-14,-7.7202405e-14,-0.03835599,1.1972227,0.00012200678,1.2463945e-13,8.448971e-15,0.31449994,0.17306465,6.332797e-13,2.302171e-13,1.036753e-12,-1.2174203e-13,1.3175496e-14,9.560642e-13,-2.6402947e-13,8.748727e-09,7.168704e-14,2.595612e-05,0.004777032,-9.026718e-14,1.4176767e-13,3.379637e-13,-5.8045767e-13,-9.623142e-13,1.5323814,0.46898103,-0.0035989312,-4.3745102e-13,-3.4831117e-13,-8.013462e-10,5.0372315e-13,-2.7746317e-13,1.1641016e-12,-8.185215e-10,-1.07278325e-07,-9.964395e-06,7.0688475e-13,3.4226677e-13,-8.0263413e-07,5.8370013e-13,3.9714223e-13,0.364664,0.4075356,7.728663e-05,-3.616104e-13,1.9087303e-13,0.1938738,-0.040394213,6.6920726e-13,1.2688666e-13,-4.4353909e-13,-3.6565342e-13,4.3249914e-13,1.1047081e-12,3.9359157e-13,-3.961533e-09,5.4644483e-13,2.2664972e-05,-0.123057716,-3.0548838e-13,-3.3606223e-13,-5.395659e-13,-2.2622819e-13,1.8460987e-13,-1.5099492,-0.4618229,-0.30558005,3.322712e-13,-4.022813e-14,-8.085209e-11,-4.0514147e-13
-5.3862345e-13,2.0758872e-13,9.487964e-10,1.9683499e-07,-7.640265e-05,-7.05187e-13,-6.490422e-14,-4.088929e-06,-5.9499573e-13,-5.902955e-13,0.19529581,1.198889,-0.0002623789,4.3690832e-13,1.079228e-12,-0.08725585,0.7532004,-4.3586884e-13,-8.687293e-13,-1.1827611e-12,-5.3881384e-13,-2.4083323e-13,1.0746449e-12,4.1867313e-13,-7.149116e-10,-4.393845e-13,-0.000104981824,-0.12558109,4.191336e-14,7.828524e-13,8.384634e-14,-1.1984879e-13,-3.5049424e-13,0.54366237,0.87061197,0.25953686,-2.1761615e-13,-7.138966e-14,-7.5404266e-10,-3.4213287e-13,-2.7738383e-13,4.54243e-13,1.3866716e-09,-2.1632695e-07,-1.1551363e-05,5.770398e-13,3.2270478e-14,3.5567624e-08,1.1706356e-13,-5.4913875e-13,0.22615065,0.05970734,-1.33986505e-05,4.4205937e-13,1.240727e-12,-0.07400349,-0.0929224,-1.06395714e-13,-6.212408e-13,8.7827635e-13,1.5889308e-13,-3.740015e-13,6.502011e-13,-4.544692e-13,2.0504807e-09,3.0369628e-13,5.4368316e-05,-0.35547104,1.6997425e-13,1.1915992e-13,-1.7294335e-13,-1.7126005e-13,1.0505301e-13,-1.055389,0.07335357,-0.5362379,4.2145622e-13,-4.3256723e-13,1.4015764e-09,4.0103955e-13
5.3510663e-14,1.1758715e-15,1.5923947e-09,5.926904e-08,1.7196098e-05,4.0838448e-13,3.5661982e-13,5.667201e-07,9.4376547e-14,-1.0506891e-13,0.017436907,1.25967,9.7950026e-05,3.40991e-13,-4.447154e-13,-0.33661297,0.118469164,-6.133409e-13,7.596998e-13,-3.3265418e-13,-9.822086e-15,4.92428e-13,5.18744e-13,-4.8920855e-13,1.2821757e-09,-4.0278824e-13,-2.2620436e-05,0.011641521,3.486232e-13,-6.884993e-14,-5.4743563e-13,2.0506912e-13,4.7184245e-13,0.92190546,0.6044675,-0.058013536,5.3429223e-13,3.1860566e-13,2.763607e-10,-5.493975e-14,2.519523e-13,1.3591193e-12,1.8051386e-09,-6.3694316e-08,6.175938e-05,-1.4425177e-13,5.375338e-13,-4.6273664e-07,-5.191832e-13,2.9581193e-13,0.07983327,-0.294199,5.6619767e-05,-1.6237578e-13,3.2655953e-14,-0.10455384,-0.11646773,6.203138e-14,-2.7045597e-13,4.6385416e-13,-1.6234645e-13,-2.2906565e-13,-1.0754576e-12,2.1701597e-13,1.26537305e-08,2.8324131e-14,9.283702e-06,-0.10643874,1.2627535e-13,-2.8237682e-13,-1.9508963e-13,5.020311e-13,-7.635595e-13,-1.5294904,0.30137005,0.0124487,3.1734416e-13,4.251809e-13,3.2676561e-10,3.497232e-13
6.8193514e-13,-9.206056e-13,-3.6417958e-09,1.6543862e-07,-8.228112e-06,1.2940652e-13,-3.3045875e-13,4.2279117e-07,-8.3066697e-13,-3.8976672e-13,-0.13036421,1.8073666,-3.1830255e-06,-3.0567898e-13,-7.665273e-14,-0.30821347,0.3954821,-3.1078325e-13,-2.191286e-12,-1.0871493e-12,2.4163164e-13,-2.8642586e-13,-7.881018e-13,-1.182046e-14,1.40032785e-08,-4.900129e-13,-8.565076e-05,0.2501325,2.2517109e-13,1.4363104e-13,-2.3694564e-13,-4.9285755e-13,-2.380948e-13,1.206668,0.49157876,-0.037841357,4.7571983e-13,6.161417e-13,-6.9752076e-10,5.147395e-13,4.3895218e-13,-2.319736e-12,-1.7435497e-09,-7.44559e-07,3.450736e-05,-2.0627922e-14,5.8291355e-13,-1.0785943e-07,6.649699e-14,-3.5323307e-14,0.3377787,-0.5866749,2.147679e-05,1.7632223e-13,-1.374969e-12,-0.39957917,-0.09356745,-7.0409553e-13,1.1524176e-12,2.1156375e-12,8.664575e-14,8.9080815e-13,5.6575176e-13,-1.8058965e-13,-5.18235e-09,8.2332643e-13,-4.828196e-06,-0.06941517,9.902604e-14,8.374029e-13,-2.245442e-13,3.2013538e-13,-3.6925075e-13,-0.6224924,-0.021903409,0.21603906,3.2597726e-13,-6.4213836e-13,-1.1050636e-09,9.744015e-13
-5.9146606e-13,4.882137e-13,-1.2938924e-09,7.90135e-08,1.0716292e-05,8.7749247e-13,-2.0609022e-13,1.1295382e-06,-6.465241e-13,-7.529604e-13,0.24968816,1.6637768,5.0208997e-05,3.681831e-13,8.7348466e-13,0.032764032,0.2554356,-5.8661393e-13,-1.7975763e-13,-7.522335e-13,-2.2234897e-13,1.2278282e-12,-1.8873694e-12,-2.8324868e-13,-2.5481413e-09,3.4113307e-13,-7.0759066e-05,0.051925622,1.7965452e-13,1.4042999e-13,-8.62762e-13,4.424615e-13,9.306333e-13,1.3822564,0.528211,-0.28134567,-2.939099e-13,-7.6270555e-13,1.1321833e-09,-4.167695e-14,-4.8919885e-13,-7.957712e-13,-2.5274305e-09,-7.8217525e-08,-3.518416e-05,-5.8549763e-13,-6.4200224e-13,5.0372955e-07,2.0453539e-13,5.3676714e-13,0.15461056,-0.84800875,-0.0003481487,6.355368e-14,1.3187546e-12,0.4068545,-0.13511346,3.9880236e-14,1.2412078e-12,6.2982654e-13,2.332668e-13,1.4523577e-13,-1.422838e-12,4.0397964e-13,-1.0815564e-08,4.012474e-13,-1.9810079e-05,-0.0018665388,9.284903e-14,8.9857966e-13,-2.4540266e-14,-4.1558169e-13,5.0459913e-13,-1.3486954,-0.17880288,0.1547374,3.7463376e-13,-2.6633144e-13,3.6872908e-10,-4.1351915e-13
1.2770011e-13,4.676957e-13,-4.5626507e-09,-5.5637264e-07,1.1421056e-05,-1.3666314e-13,-8.302206e-13,1.0262008e-06,-8.917877e-14,-5.268492e-13,0.4104781,0.8229492,1.572795e-05,-2.0430193e-13,8.17082e-13,0.24663444,-0.18291502,-5.0911424e-15,4.835161e-13,1.2341597e-13,-1.6295164e-13,6.359106e-14,-1.4085064e-12,9.877088e-13,1.4378092e-08,1.7885216e-14,-2.0899668e-05,-0.47470674,2.5678063e-13,4.1152943e-13,-4.575223e-13,-2.0281579e-13,-6.6911396e-13,1.2057582,0.18448214,-0.28438455,-9.4775465e-14,5.4212526e-13,1.6902867e-10,1.0157364e-13,-1.1956132e-13,-9.517907e-14,1.6875732e-09,3.9422207e-07,-7.910915e-05,1.0735174e-14,4.338501e-13,8.462813e-07,-2.091327e-13,2.3413552e-13,-0.43002373,-1.042267,0.00015952227,3.0909723e-13,1.7083112e-13,0.7405659,0.3341883,-7.3081135e-14,-7.390846e-13,-4.5622967e-13,-6.0479535e-13,1.7549284e-13,-3.69731e-13,8.6271593e-13,1.3312986e-08,-9.669666e-14,3.61068e-05,0.15623625,-3.7234254e-13,-3.293316e-13,-2.0239465e-13,-2.1534367e-13,-5.9073064e-13,-0.64957315,-0.015414209,0.557157,3.6265053e-13,7.5982655e-13,2.2134135e-09,1.993676e-13
2.627224e-13,-1.188711e-12,-1.4239594e-09,-6.3276325e-08,-9.407069e-06,3.004935e-13,-5.224524e-13,8.216274e-07,-2.613422e-13,1.9096324e-14,0.1410048,0.14711207,-0.00022885199,-8.347866e-14,4.946466e-13,0.42840806,-0.12128231,-6.098517e-13,-1.7208377e-12,1.7674213e-12,-9.0274305e-13,-4.252996e-13,2.2355095e-12,-7.0284853e-13,-8.060231e-09,3.636622e-13,-1.1858738e-05,0.28966504,2.9369728e-13,-8.9740156e-13,7.730683e-13,-4.782251e-13,-7.221795e-14,1.5646864,0.86482996,0.32587227,-1.7848678e-13,1.8297443e-14,4.314301e-10,-3.9610548e-13,-1.2097922e-13,-1.2421049e-12,-1.8235766e-09,-1.15304914e-07,-5.3473337e-05,6.626197e-13,7.033957e-13,8.478835e-07,-3.0582936e-13,6.535518e-13,-0.4049408,-1.4442992,-0.00017546174,3.5557988e-13,7.227659e-13,0.54681396,-0.05595217,-7.04079e-14,-5.037084e-13,1.1042456e-12,2.476906e-14,1.7917016e-13,1.1444149e-12,-3.8215617e-13,1.8550257e-09,-4.017614e-13,-4.578678e-05,0.075146444,-2.2572913e-13,-6.692829e-14,3.4357245e-13,3.4553762e-13,3.7421357e-13,-1.7533019,0.115262374,0.09917254,-2.3052846e-13,-7.278989e-13,-2.4623226e-10,-1.5158624e-13
-6.270019e-13,-1.1915187e-12,1.406838e-09,1.831052e-07,1.2182836e-05,-6.477031e-13,-1.8764582e-13,-2.4709715e-07,3.2319484e-14,1.9167442e-13,0.14092468,-0.02183393,-0.00015244495,-2.496749e-13,9.657722e-13,-0.038029402,0.094090246,-9.71905e-14,-1.021406e-12,3.3251817e-13,2.3416818e-13,-8.9017644e-13,1.9891825e-13,-1.7576197e-13,-7.733025e-09,-3.4723526e-14,-4.5210956e-05,0.08776624,1.8191953e-13,-1.7126784e-13,4.154898e-13,2.5563736e-13,-4.3184315e-15,0.82917786,0.9234503,-0.12900904,2.3822017e-13,-2.9430974e-13,2.3578572e-10,4.845958e-13,6.1918854e-14,-1.6849395e-12,7.876727e-10,-1.4159075e-07,-1.833324e-06,-6.079227e-13,-7.7669175e-13,-2.8999622e-07,2.8461413e-13,-4.84088e-13,-0.24784148,-1.6434467,1.974505e-05,-4.5034685e-13,3.3512255e-13,0.4883679,0.031096151,-2.6035505e-13,-2.4302527e-13,-3.1611313e-13,2.0968814e-13,-4.8902766e-13,-2.1313756e-13,-4.4840222e-13,-7.256403e-09,-1.3948871e-13,4.519705e-05,-0.17612721,-1.0868498e-13,5.2760243e-13,-5.918652e-13,3.2818426e-13,-1.2729551e-13,-0.893895,0.53861344,0.11322659,1.2588522e-13,-3.0182123e-13,9.003576e-10,-4.3913362e-13
2.7683452e-13,5.8939333e-13,-1.7920128e-09,-1.6102945e-07,9.923271e-06,5.582966e-13,-1.8009884e-13,-2.1927983e-06,9.2507626e-14,3.1588596e-13,0.17208579,-0.13883835,-0.00013500889,-4.8576106e-13,4.1024898e-13,-0.2173646,-0.06892756,-3.1700684e-13,-1.486088e-12,-5.128227e-13,-1.03128064e-13,3.3455796e-13,1.7497156e-12,-2.1990416e-13,2.9135956e-09,-2.6509394e-14,2.3672452e-05,-0.13516866,1.4467716e-13,1.4381503e-13,-1.2581196e-13,2.6049497e-13,-2.5859387e-14,1.1421555,1.0599982,0.26330724,-3.2889392e-13,7.479423e-15,-8.832238e-11,2.3794036e-14,5.7509867e-13,-1.6643728e-13,-1.156419e-10,1.2638709e-07,-5.433669e-05,-3.5235532e-13,-2.605367e-13,-3.2786625e-07,4.712593e-14,-2.7304244e-13,-0.27801922,-1.8930094,8.314197e-05,-1.7896269e-13,-8.6888016e-13,0.98462516,0.0030531539,3.7269612e-13,-4.4494774e-13,4.3745907e-13,5.8994584e-14,4.2018228e-13,8.208738e-13,-2.8472155e-13,8.668314e-09,-3.7782657e-13,2.5520809e-05,0.04866921,3.608193e-13,2.7577002e-13,3.7541178e-13,3.9046015e-13,-9.228966e-14,-1.5893312,-0.44387686,0.20295121,9.170789e-14,3.0171043e-13,-4.1240547e-10,3.2068694e-13
-1.5725783e-14,5.254074e-13,-3.9709014e-10,-8.011482e-08,6.927672e-05,-2.0137243e-13,3.5524855e-13,2.0326667e-07,2.6747883e-13,-4.5043716e-13,-0.2618119,0.038367353,0.00019876525,-3.925354e-16,-7.7220045e-13,-0.9161071,-0.21628346,-3.8885846e-13,-9.438229e-14,4.503342e-14,4.4389682e-13,4.4843464e-13,1.8681568e-13,7.0395745e-13,2.6885383e-09,-1.9133886e-13,-5.2255655e-05,-0.41597423,2.123068e-13,-2.537929e-13,6.0276686e-13,1.1750949e-13,1.7070041e-13,0.6311329,1.2274917,-0.08648715,5.170077e-13,2.625701e-13,-1.2213916e-10,3.8626546e-13,2.962601e-13,-5.697941e-13,1.3388963e-09,-1.1965396e-07,1.4964153e-06,-5.2169185e-13,1.9318485e-13,5.9282144e-07,-2.5398764e-14,4.860417e-13,-0.039058845,-1.7305759,3.0607203e-05,6.087744e-14,-7.117355e-13,0.30213386,-0.25272366,3.654568e-13,-2.88008e-14,-4.6192867e-13,-4.470683e-13,-4.7553373e-13,6.256579e-13,-3.1693748e-13,-8.320721e-09,5.8087096e-13,4.44703e-05,0.12283292,1.9945281e-13,9.850001e-14,-3.329429e-13,2.663053e-13,1.7082966e-13,-0.51513124,-0.25442436,0.8731316,-5.7864206e-13,4.1260596e-13,4.6566034e-10,-6.037885e-14
-2.315155e-13,-1.2727935e-12,-2.6278426e-09,1.8739297e-07,-2.1354565e-06,1.922167e-13,1.936203e-13,4.3756918e-07,-1.5058007e-13,-4.9773103e-13,0.15006107,-0.2544594,-1.1759545e-05,7.59939e-14,7.108551e-13,-0.30209032,0.26670486,3.7877093e-13,9.537884e-14,9.244153e-13,-5.2991465e-13,-2.2770696e-13,-1.4245574e-13,-1.92175e-13,-1.869212e-09,-6.3173974e-14,8.83225e-06,-0.16311753,3.9831235e-13,-1.1125286e-13,-4.2607796e-13,3.5122884e-13,3.2929405e-13,0.8550763,1.1105355,0.021117272,3.9442326e-13,-2.8106367e-13,5.981805e-10,2.0707367e-13,-3.066011e-13,-1.7685636e-13,5.2015414e-10,2.986311e-07,-1.0401845e-05,3.6889347e-13,1.7847322e-13,-6.4780227e-07,-6.659044e-13,6.456554e-13,-0.033249907,-1.4543366,-4.9841183e-05,-2.5068418e-14,6.5852364e-13,0.19431272,-0.09033636,-1.9177e-13,2.3692685e-13,9.747357e-13,2.3919657e-13,-2.0365109e-13,1.0385738e-13,-1.3268103e-13,4.963084e-09,-2.7887686e-13,-7.4867285e-07,-0.1721392,4.4286683e-13,3.297866e-13,6.290071e-13,-4.4675206e-13,-2.280837e-13,-1.8263245,-0.58949065,0.2127158,1.5641763e-13,-2.2390821e-13,-3.6418932e-10,3.9907864e-13
6.1128945e-15,-6.3250295e-13,1.7407407e-09,-1.0485065e-07,9.484423e-06,1.4113656e-13,-3.8087838e-13,-7.817285e-07,-2.550351e-13,-3.5365377e-13,0.36157843,-0.42707506,-7.829425e-05,3.4089425e-13,-6.1687623e-13,-0.02862121,0.6518854,9.5938773e-14,3.455858e-13,-1.4174223e-12,9.0533397e-13,3.6022826e-13,-1.2734994e-12,-9.809878e-14,-7.82824e-09,-3.279878e-13,0.00019470297,-0.32452005,-1.33272825e-14,-7.2728016e-13,1.9506296e-13,1.1664335e-14,9.3798016e-14,0.79496187,0.8545291,-0.22754523,-2.376142e-13,1.168648e-13,-7.9294504e-10,1.6128732e-13,5.8359296e-14,-1.465881e-12,8.8526475e-10,2.7957952e-07,-5.569732e-05,-3.842358e-13,-5.477302e-13,-3.049409e-07,-3.0968283e-14,9.067613e-13,-0.34092417,-0.9704871,0.000109332614,2.2947258e-13,1.5882872e-12,0.4105066,-0.0020293146,-4.770917e-13,-1.1251373e-12,1.1301365e-12,-6.24729e-13,1.4178653e-13,-1.0104602e-14,-5.7151636e-13,2.0017794e-09,3.284636e-14,0.00012104321,0.2301843,6.501906e-14,6.813363e-13,-6.2625285e-13,2.0424141e-13,2.571082e-13,-0.84899235,-1.1682329,0.2133674,-4.8969303e-13,-6.744783e-13,5.1343274e-10,2.8894855e-14
7.41346e-14,3.4409216e-13,-2.0374757e-09,-8.27147e-08,1.630806e-05,6.012752e-14,2.817779e-13,1.4147403e-06,1.7739036e-13,1.5279347e-13,0.05352568,-0.5039024,4.6320525e-05,3.6079259e-13,1.485164e-12,0.10508616,0.39963007,-8.4757586e-14,-7.80622e-13,-5.1455227e-13,1.6134716e-13,1.7355022e-13,1.2251496e-12,6.5242386e-13,5.887769e-11,4.0202423e-13,-1.6673725e-05,-0.30528796,5.868941e-14,1.3817547e-13,-9.5298444e-14,-3.5842718e-13,-3.095622e-13,0.73232985,0.9874773,0.08089632,2.1568126e-13,6.328022e-13,5.7969274e-10,7.0638314e-13,-4.9017756e-13,-1.5534223e-12,-1.4429309e-09,-1.4361456e-07,1.804708e-05,1.0175606e-12,5.802784e-13,6.7336924e-07,1.13671496e-13,-3.2534901e-13,-0.037202094,-0.5250329,-3.903643e-05,-2.2383462e-14,-8.1966064e-13,0.41235802,0.08212078,5.3162265e-13,3.7452013e-13,-4.939919e-13,1.5644577e-13,5.5794247e-13,9.801465e-13,-6.3170985e-14,-2.2651288e-09,-5.491322e-13,5.260449e-05,-0.035555437,3.7173552e-13,-8.666922e-13,-2.4868047e-14,-1.5118424e-13,-6.857443e-13,-1.388616,-0.71946836,-0.09400804,-7.361826e-13,-8.1368885e-14,-5.3748206e-10,-4.76692e-13
3.408422e-14,1.7409635e-12,-1.903822e-09,-8.553067e-08,2.0603647e-05,4.0754436e-13,4.4403606e-13,2.3912974e-06,-9.388993e-13,1.6256468e-13,0.04114821,-0.21156543,-0.00020033671,-4.2038963e-14,-1.3743347e-12,-0.41364852,-0.14262167,-1.3476594e-13,-1.473949e-12,-6.7704766e-13,7.978001e-13,-1.7084527e-13,6.0387546e-13,-4.6336876e-14,-8.845333e-09,4.4769868e-13,-0.00011476543,-0.5397773,5.1533425e-13,7.645188e-13,-5.7323666e-13,-3.5456284e-13,-4.486306e-13,0.7046916,0.68900955,0.8458827,-4.3988196e-14,4.2039516e-13,-1.2761202e-09,7.313185e-14,-2.7279207e-13,-4.8732015e-13,4.3018056e-09,1.1702919e-07,-0.00011612984,1.8274848e-13,1.7452995e-13,1.387013e-06,1.4550572e-13,-2.411862e-14,0.19147395,-1.0689771,-7.111521e-05,3.4703875e-13,1.076314e-12,0.46203277,0.016417436,-5.18696e-13,-2.757582e-13,-1.334273e-12,8.806161e-13,-1.7375104e-13,-4.0506048e-13,-6.844768e-14,6.287972e-09,4.8328594e-13,3.141917e-05,-0.13226484,3.8343618e-13,-8.195052e-13,-1.4913296e-13,2.0115645e-13,-1.6207492e-13,-1.0330764,-0.21303314,-0.28486896,-5.811034e-13,5.419137e-13,2.056462e-11,-4.928111e-14
1.1357552e-13,1.3262476e-12,2.327988e-09,-8.668066e-08,-6.4632104e-06,-8.2258527e-13,1.5095889e-14,-7.0885744e-07,-7.61549e-15,-1.3468365e-13,-0.2778312,-0.36026987,6.696113e-05,2.5702208e-13,9.425875e-13,-0.4494996,0.09496752,2.8357056e-13,-9.323562e-13,-6.152869e-14,4.0044102e-13,7.229718e-13,-2.9945594e-13,-7.898689e-14,-1.6445928e-09,-8.90776e-14,-4.3771497e-06,-0.14841199,-3.2791017e-13,-5.062603e-13,-7.378353e-13,-2.899798e-13,8.92738e-14,0.49047643,1.0635827,0.4228212,-4.2538577e-13,1.3384545e-13,-7.4813086e-11,-3.4107992e-13,2.609953e-13,-1.483451e-13,7.4858886e-10,4.7991474e-08,-2.9068015e-06,-1.0156218e-12,1.0531506e-14,5.988801e-07,5.394875e-13,3.6607954e-13,0.008589697,-1.1396412,4.2313146e-05,4.2588556e-13,-9.558329e-13,0.39180374,-0.2536516,3.6154684e-13,-6.7641807e-13,3.3253055e-13,1.6485173e-13,9.159264e-14,-6.7436123e-13,1.0417085e-13,-1.9952169e-09,1.6484622e-13,8.84635e-06,0.008792048,4.0165007e-13,-4.982941e-13,5.504697e-13,-3.264786e-13,2.875288e-13,-1.2968433,-0.3112186,-0.28611466,1.8819678e-13,-1.2733738e-14,2.8137656e-10,-3.9943217e-13
-1.5250773e-13,1.4359825e-12,1.5711359e-09,-2.1588276e-07,-9.3112885e-06,-6.148581e-14,1.9345255e-13,-4.2966417e-07,2.2276227e-13,-8.910482e-13,0.2998726,-0.1837989,-0.00020103827,-2.6648204e-13,-9.870409e-13,-0.15440889,0.22457564,5.1546766e-15,1.8165888e-12,5.344618e-13,5.306373e-13,-4.885254e-14,5.765921e-13,-2.711253e-13,-2.5794455e-09,-4.1055833e-13,-5.819642e-05,-0.21530901,-5.4494386e-14,-4.6379014e-13,-5.6744176e-13,1.7258279e-13,4.1161117e-13,0.62973785,1.4751596,0.28181237,1.3391442e-13,-6.8089366e-13,8.6541724e-10,-1.3400659e-13,-3.9771314e-14,7.7933135e-13,1.3455319e-09,-2.8290938e-08,0.00014973675,-4.2157792e-13,-4.3069929e-13,4.3640705e-07,2.0767613e-13,-2.3480444e-14,-0.07307072,-1.29982,-3.49245e-05,3.4129207e-13,-2.0087885e-12,0.51815546,0.12918605,1.5492346e-13,1.5662883e-12,-2.6694527e-13,2.6612658e-13,-4.8390653e-13,-8.341349e-13,3.6519174e-13,1.8258058e-08,-1.614282e-13,6.9430826e-05,-0.19401293,-5.174878e-14,3.9704137e-13,1.775217e-13,-3.2760898e-13,2.7742226e-13,-0.9726816,-0.2772957,-0.117088854,5.702369e-13,-6.204442e-14,6.0990857e-10,-2.18275e-13
1.1754378e-15,8.040711e-13,-1.9363529e-09,7.087788e-10,-3.7053965e-06,-1.4200324e-13,-6.2800676e-13,8.5344084e-07,5.15485e-14,-3.2131426e-13,-0.10894101,-0.0675494,1.6891401e-05,3.3305593e-13,1.7133957e-12,0.2614203,0.10630362,1.7016333e-14,7.067578e-13,6.40625e-13,1.2247522e-13,-6.409761e-13,9.534902e-14,3.2070923e-13,6.879235e-10,-1.7905919e-13,-7.194785e-06,-0.08571396,-1.9373568e-13,4.8301993e-14,3.6010173e-13,3.9645013e-13,6.377365e-13,0.4405146,1.7502449,0.22251606,7.6609265e-14,-3.2889408e-13,-1.7527649e-10,5.0536777e-14,1.4078159e-13,-1.3987127e-12,-1.096883e-09,-1.7010922e-07,-1.29007385e-05,4.1458427e-14,-9.1285974e-14,3.1775693e-07,1.7484565e-13,1.880926e-13,-0.1258978,-1.481353,3.2262087e-05,-4.2060604e-13,-7.026328e-13,0.37210077,-0.028343096,-4.638799e-13,3.0293292e-13,-4.6112165e-13,-2.0205403e-13,-5.29863e-13,1.2565875e-13,-2.9134946e-13,8.5402885e-09,4.2736398e-13,1.4096208e-06,-0.14983255,4.3726936e-13,8.045888e-13,4.2265955e-13,3.9969902e-13,-4.7915296e-13,-1.4133588,0.38062677,0.1206847,1.2875909e-13,-4.956159e-13,2.2754429e-10,-4.2428783e-13
3.2742518e-13,-6.394526e-13,-4.9951945e-09,5.4603927e-08,-3.0264382e-05,-3.401409e-13,4.2717343e-13,1.0309044e-06,-2.508011e-13,7.421451e-13,-0.15981773,0.29871872,-0.00040776597,-3.637439e-13,1.5670682e-12,0.030693168,-0.28502554,-7.8586606e-13,-1.2627039e-12,-9.702911e-13,-2.4194877e-13,1.2179817e-13,-4.332047e-13,-3.286145e-13,1.1899881e-08,5.238465e-13,-1.5967813e-05,0.042595603,6.3501304e-13,2.4866334e-13,-8.719964e-13,-3.3579487e-13,-1.5161223e-13,1.1176146,0.86999077,0.35551712,-2.0338372e-13,3.1191334e-13,1.9325574e-10,8.9332556e-13,1.0225772e-13,2.1633246e-12,-7.333265e-10,1.9155063e-07,-6.370304e-05,-6.142238e-13,2.81574e-13,-5.276614e-07,5.945979e-13,9.161677e-14,0.31527057,-1.5015776,-3.0824784e-05,-2.8593184e-13,2.1591827e-13,0.5518611,-0.09542742,-9.672334e-14,-1.4162882e-12,-2.765655e-13,2.9659584e-13,-1.1365561e-13,1.2400443e-12,-1.8757156e-13,-1.6397776e-08,-7.7327305e-13,5.462556e-05,0.27677915,3.809808e-14,1.5570292e-13,-3.209268e-13,1.5274593e-13,-5.8049355e-13,-0.6828577,-0.37669873,0.27231446,-4.5027117e-13,-2.2349988e-13,-1.9420776e-09,9.1919365e-14
3.2417862e-14,-1.9371618e-12,5.202424e-09,5.665427e-08,7.313106e-06,7.0962463e-13,-9.488634e-14,1.1947503e-06,-3.144563e-14,5.211216e-13,0.07745113,0.008758828,-2.2552747e-05,-4.3200307e-13,-2.9252848e-13,0.14149033,0.41303876,-1.3914054e-13,-3.8026806e-13,4.5272206e-13,-4.585408e-13,1.5268436e-13,-8.419704e-14,1.9164003e-13,-3.1895138e-09,-6.2941487e-13,-1.8569868e-05,0.07571692,-4.262985e-14,-8.812301e-13,9.7906275e-14,1.9699322e-13,2.2889546e-13,0.9129207,1.2270594,0.0016649989,1.803442e-13,3.788054e-13,-3.615474e-10,-1.9702875e-13,-1.018902e-13,-2.7830868e-13,-1.5170012e-09,-3.6976665e-08,-3.5273752e-06,-2.231451e-13,-1.2220032e-13,-1.02992914e-07,-3.3366593e-13,-9.353377e-14,-0.08317914,-0.9855297,0.00025089397,2.6304507e-13,1.2902553e-12,0.14635937,-0.03125759,9.611954e-15,7.641215e-13,5.592779e-13,-1.12995794e-13,-2.0599711e-13,-5.2658697e-14,2.8675489e-13,-1.8073912e-08,-4.824461e-13,-6.692459e-05,-0.02659637,-2.9787658e-13,2.2656069e-13,-6.1449934e-13,1.815513e-13,-6.6038716e-13,-1.0940173,-0.31515506,-0.0032841228,-5.2744994e-13,1.820286e-14,-4.363708e-10,-3.6199909e-13
-5.877096e-13,1.7909384e-12,-4.5523723e-09,-3.2847106e-07,-3.3126635e-05,-1.0335487e-12,9.643824e-13,1.0174792e-06,-4.1715562e-13,2.1853109e-13,-0.26955628,-0.14482424,-1.5125615e-05,-3.7567548e-13,-7.10209e-13,0.1758435,0.015179125,5.5690673e-13,5.8272126e-13,7.23448e-14,-5.3034373e-14,-2.5304417e-13,5.0512703e-13,-4.1072983e-13,1.2730075e-08,6.1405026e-13,-1.2456323e-05,0.16370507,4.3181704e-13,-3.1102025e-13,-4.19195e-13,-7.3098407e-13,4.713904e-13,0.6416938,0.9539969,0.18472025,-2.2124427e-13,1.3211041e-13,-3.700382e-10,2.9576003e-13,-4.3088677e-13,1.931344e-12,-5.749031e-10,-3.7853593e-07,2.5809431e-05,1.1705827e-13,6.211896e-13,-6.454984e-07,9.6159734e-14,3.6396512e-13,-0.2540963,-1.2922884,-4.923871e-05,2.9529504e-13,2.5529627e-13,0.107936196,-0.1806539,-5.061678e-13,-2.3346597e-13,1.2205043e-12,-1.1975284e-14,7.025051e-13,2.5651118e-13,7.5959557e-13,1.6683824e-08,8.839907e-13,4.898113e-05,-0.07100039,-2.9726292e-13,-2.6587971e-14,2.5659542e-13,-1.8019895e-13,-8.492852e-14,-0.64327407,-0.35112244,0.022674847,1.819763e-13,2.9978935e-13,1.8094826e-10,-1.6702204e-13
4.570934e-14,-9.106769e-13,8.677111e-10,2.018978e-08,1.4801489e-06,9.3653086e-14,5.523345e-13,-3.402463e-07,-6.391673e-14,5.2437574e-13,0.07960162,-0.5156133,0.00040153283,-2.6748796e-13,1.3851537e-12,0.15626055,0.1913131,-5.3909893e-14,3.0194217e-15,1.2300028e-12,7.3191594e-13,-2.867796e-13,-9.657728e-13,6.2788804e-14,-3.0142773e-09,3.5265866e-13,-7.5393464e-06,0.14671503,-4.3354383e-13,4.845102e-13,5.426058e-13,-1.5117653e-13,-2.7860114e-13,1.0947173,1.1504283,0.106436945,-2.6828678e-14,2.8070132e-13,2.673587e-10,-6.6627964e-13,-3.7443564e-13,4.4491862e-13,-1.6410456e-10,5.202022e-08,1.2606322e-05,4.806594e-14,-3.2826243e-13,3.1586222e-07,2.0135369e-13,-1.8263541e-13,-0.13492583,-1.0499787,0.00016238404,-4.655496e-13,-9.965922e-13,0.3428576,-0.031079186,-4.645019e-13,1.783898e-13,7.858164e-13,1.9414873e-13,-1.3341123e-13,-7.3810966e-14,2.3382752e-13,9.048744e-10,1.9448725e-13,3.7838727e-05,-0.11939403,-6.122541e-14,-2.62271e-13,3.5059764e-13,-1.9707012e-13,-4.0754848e-13,-1.405587,-0.19297174,0.17697552,-3.2972667e-13,-3.033592e-13,-4.242985e-11,3.7043914e-13
-4.6673613e-13,1.333498e-12,-1.3038023e-09,1.4748709e-07,-1.7243014e-05,8.116025e-13,-6.4698117e-13,-3.5023123e-07,-1.5663974e-13,5.0158125e-13,-0.2356909,-0.562432,-0.00026317014,1.8055774e-14,-6.26725e-13,0.3152575,-0.04268703,3.584661e-13,9.453052e-13,-1.595422e-12,-1.5485127e-13,3.3211894e-13,2.0470479e-12,6.4778586e-13,-9.315579e-09,-3.6309207e-13,-7.721863e-05,0.029080559,2.9785023e-13,4.777979e-13,-5.873611e-15,-7.4734994e-13,2.749747e-13,0.78449804,1.12791,0.043116976,7.047236e-14,9.600393e-13,1.6603536e-09,-6.936639e-14,2.9845424e-13,-7.8883796e-13,-9.947021e-10,5.655541e-08,-4.4834167e-05,1.7423834e-13,-7.329804e-13,-6.114491e-07,2.4632127e-13,-7.9098306e-13,0.0362045,-1.4813775,-0.00018298115,6.564329e-13,1.0096671e-12,0.17863639,-0.105987,2.6371703e-13,-1.2788835e-12,-4.629943e-13,-6.823616e-14,2.8852154e-13,-4.723153e-13,2.1293026e-13,8.995101e-09,-2.4154086e-13,3.8118786e-05,0.22287959,-4.4220668e-13,9.4572e-13,6.553662e-13,-2.5772025e-13,-1.218508e-13,-0.9334612,-0.4799137,0.11592646,2.345254e-13,4.1092e-13,7.7675666e-10,-5.5284174e-13
8.1067504e-13,5.2313476e-13,2.115474e-09,-8.528411e-08,2.0065543e-05,-3.2508292e-13,-3.3858251e-13,2.3913485e-06,4.7938747e-13,1.3297021e-13,-0.08486951,-0.23715262,5.413818e-05,-2.9139072e-13,5.84901e-13,-0.13108064,0.2815563,-5.7047124e-13,-4.1934755e-13,-1.0811112e-12,2.6350265e-13,-3.1043318e-13,-4.471163e-14,-3.5838368e-13,-3.7535375e-09,-1.2160412e-15,1.7828941e-05,0.13928333,3.0714727e-13,-6.887866e-13,-2.5269663e-13,-7.251198e-13,1.9834344e-13,1.0947763,1.6908505,0.11103428,-7.419006e-14,-4.1706983e-13,-4.0280929e-10,2.922256e-13,-2.5378376e-13,1.136507e-12,-1.1159267e-09,1.8420941e-07,-1.5469506e-06,-1.09400715e-13,8.559082e-14,-3.3578837e-07,8.105333e-15,2.5762714e-13,-0.06083551,-1.2998023,2.3956938e-05,2.7374042e-13,-8.341819e-13,0.23583029,0.023923658,-7.0174964e-13,-2.636781e-13,-2.6675136e-13,-2.383477e-13,-7.7827306e-13,-7.6578755e-13,2.6553152e-13,4.283706e-09,2.7692722e-13,-1.2293439e-05,-0.018455697,2.3361678e-13,1.1767716e-13,-1.0663741e-13,3.319456e-13,3.5594439e-13,-1.4470848,-0.3505133,0.10639856,-5.0960223e-13,2.962638e-13,-7.8254785e-11,-2.2371525e-13
4.961845e-13,-9.459865e-13,2.8143434e-09,-1.390273e-08,-7.7273677e-07,-6.6954233e-13,3.2903557e-13,-1.5697723e-06,-5.1117324e-13,-8.386012e-13,-0.10460208,-0.33983207,-9.056568e-05,-5.024363e-13,-7.223013e-13,-0.21484308,0.17633125,-3.3376112e-13,1.3590356e-12,5.7097014e-13,8.3158426e-13,5.3849525e-13,-9.007763e-13,-1.2071019e-14,-1.7954352e-10,-6.2621035e-13,3.0948446e-05,0.069912426,-1.1763869e-13,2.6702002e-15,4.3485896e-13,1.0489431e-13,1.5613143e-13,0.6860685,1.1317997,0.053844325,6.2930596e-13,1.4244031e-14,4.988344e-10,7.359109e-14,-4.0635456e-13,7.2310734e-13,-1.1778145e-09,-1.1458671e-07,-2.1619433e-05,-6.0947645e-13,4.3860502e-13,-5.242326e-07,5.801288e-13,4.0534107e-13,-0.48778895,-0.99808246,-0.00011759962,4.3106515e-13,-3.8535833e-12,0.12809832,-0.022289662,-5.5217907e-13,-1.1104117e-13,2.9157332e-12,-2.718683e-13,5.229181e-13,9.329572e-13,-3.1511252e-13,1.8309843e-08,-8.665193e-14,2.657766e-06,-0.15204404,-2.6502872e-13,-1.8976937e-13,1.2468593e-12,-4.5408864e-13,4.4902756e-13,-1.2381272,-0.24215576,0.5760968,-4.229115e-14,-1.9936548e-13,8.829577e-10,1.7832413e-13
2.5855807e-13,-2.3813308e-14,-8.159458e-10,9.999976e-09,1.3028952e-05,-2.5221378e-13,3.9625735e-13,7.042557e-07,2.3468057e-13,6.4075595e-13,0.06245444,-1.000375,0.00012212446,6.067773e-13,7.523683e-13,0.20031624,-0.057961497,2.3588125e-13,4.5426624e-13,5.957182e-14,2.0277774e-13,8.424073e-14,1.5947682e-13,-9.3325575e-14,-7.788865e-09,-5.125125e-13,3.1508556e-05,-0.058711812,-1.5590539e-13,-2.0676738e-13,-1.13673556e-13,1.2951001e-13,7.1208686e-13,1.1907766,0.70195466,0.09798688,-2.7796824e-13,3.9249157e-13,9.0266267e-10,2.2317085e-13,-7.6678605e-13,1.8682245e-13,1.274029e-09,-1.12732934e-07,5.1073323e-07,7.5606177e-13,-3.2653166e-13,7.763036e-08,-7.26883e-14,-4.0131608e-13,-0.08268008,0.25834078,4.3555137e-06,4.684308e-13,-1.47444e-12,0.5581741,0.075658545,4.1600583e-13,-1.903692e-13,-1.1101449e-12,-5.592665e-13,-2.3133535e-13,-5.1225024e-13,1.5908265e-13,-8.738193e-10,1.6123802e-13,3.5436253e-05,-0.113083325,-1.6309179e-13,-2.604724e-13,-2.5078943e-13,-6.167606e-15,-4.5398434e-13,-1.301512,0.018312998,-0.20582405,3.985039e-13,3.8426594e-13,-6.548102e-10,2.2597407e-13
-4.9369645e-13,-2.0336537e-13,2.5214497e-10,8.986544e-08,-4.9291477e-05,-9.124212e-14,2.482033e-13,1.5115374e-07,3.4582827e-13,8.634948e-13,0.3102029,-1.3788434,-9.639561e-05,4.2291116e-13,2.192749e-13,-0.1510294,-0.051816404,6.686973e-13,1.4300534e-12,1.485297e-12,-5.917913e-13,4.3317268e-13,6.8254354e-13,-2.4756044e-13,-3.7449013e-09,5.48649e-13,7.309377e-07,0.060548797,-5.172019e-13,-3.222551e-13,-1.1788546e-13,-9.442284e-14,6.4127165e-13,0.8545609,1.0231493,0.2933789,-3.9072012e-13,-8.019697e-14,7.3236184e-10,-2.5798856e-13,-2.6048662e-14,-7.176842e-13,5.641315e-10,-1.0916683e-07,-4.8749578e-05,-1.311207e-14,-7.276917e-13,-5.4421523e-08,-3.7195775e-13,-7.215266e-13,-0.18181802,0.032529645,-0.00013639963,-3.1913578e-13,2.1272708e-13,0.43815225,-0.08305189,6.092645e-13,6.5274516e-13,2.8674844e-14,-1.8543608e-13,-5.733668e-14,-5.5136364e-13,-2.4521994e-13,8.5475405e-10,1.6460534e-13,8.761718e-06,-0.15512352,3.419568e-13,-2.397508e-13,3.3666586e-13,1.3049403e-13,-3.2536484e-13,-0.65117294,-0.0040803077,-0.17637374,-6.295593e-13,7.2805336e-13,-1.5708074e-11,-3.759215e-13
-2.896873e-13,-5.6787853e-13,-1.1124199e-09,1.8348841e-07,9.411547e-06,1.2618924e-12,8.809907e-14,9.93292e-07,7.6004806e-13,-1.5858159e-13,0.1444869,-1.0471928,0.00032823795,5.3671943e-13,1.0030846e-14,-0.4946138,0.0040873857,4.884353e-13,1.4420448e-12,-1.6166815e-13,7.93498e-14,-2.6371662e-13,-4.9468394e-13,5.6923254e-13,-6.3012875e-09,-3.3883982e-13,-4.138958e-05,-0.06662567,4.950668e-13,-5.1322244e-13,6.48861e-13,-2.6287078e-13,-5.0428623e-13,1.4133531,1.4320474,0.24920422,3.6592222e-13,-7.7180395e-14,-9.0661273e-10,7.111248e-13,-4.391653e-14,-1.5074334e-12,2.8639519e-10,-3.3761e-08,-3.8135164e-05,2.6676025e-13,-2.7650332e-13,5.4043916e-09,-4.373528e-13,6.4232983e-13,-0.039013997,-0.3314741,0.00014440535,-4.4772947e-13,9.088009e-14,0.28704798,0.027454797,-1.3279113e-13,-5.8534286e-13,-6.258854e-13,-4.3568518e-13,4.0913995e-13,8.695874e-13,-7.595436e-13,-4.915316e-09,6.22234e-13,2.3703974e-06,0.22112149,2.6235752e-13,-1.3656272e-14,-1.2754011e-13,-2.0038932e-13,-1.3796277e-13,-1.4810269,-0.6150572,0.015591117,1.9354967e-13,-8.122498e-13,-2.3324702e-09,-1.4564993e-13
7.685706e-13,-4.0863883e-13,-2.330189e-09,-7.7570895e-08,-2.3997773e-05,-5.202104e-13,1.6189662e-13,2.9608833e-07,-2.6654254e-13,2.9426946e-13,0.18804464,-0.70237106,-0.00023325224,1.0647532e-13,-6.9809046e-13,-0.7154917,0.44395712,4.0154956e-13,-4.118977e-13,1.0249318e-13,-4.5765393e-13,-5.8742594e-13,-1.2973886e-12,3.200336e-14,8.87477e-09,5.1970684e-13,-0.00010965821,-0.12631962,1.5899857e-13,-2.449576e-13,2.1942132e-13,1.881268e-13,-4.1108135e-13,0.1604253,1.1298382,0.2848899,1.7997022e-13,8.490326e-13,-3.897705e-10,2.712308e-13,-1.6752756e-13,7.3925837e-13,1.2966687e-09,1.3296419e-07,-1.1586762e-05,2.5907285e-13,1.9338752e-14,5.756048e-07,5.1312416e-13,-5.89871e-13,0.06059458,-0.30119124,-3.3867425e-05,-7.3324213e-14,-5.5755053e-13,0.3551192,-0.008768655,-1.2490795e-14,2.4966715e-13,8.8577496e-13,2.22481e-14,-1.3159217e-13,-1.6624918e-13,-1.9165583e-13,3.4709966e-09,3.1409554e-13,-5.3741114e-06,-0.3782461,-5.3502477e-14,4.192935e-15,3.1964936e-14,3.673603e-13,2.7249454e-13,-0.5885632,-0.21392766,-0.32646322,1.2700182e-14,2.3192686e-13,-6.0208055e-10,-1.0767984e-13
-2.3012755e-13,1.2559401e-12,7.4499723e-10,1.9525955e-07,-1.617881e-05,8.0025545e-14,-5.956149e-13,7.347908e-07,2.5803377e-13,-3.2928876e-13,0.14511856,-0.9352522,-2.8410404e-05,5.701122e-13,-3.224947e-13,-1.2859082,0.42264724,-1.1071699e-13,-5.927988e-13,-1.1512953e-12,-2.9010244e-13,-2.9370294e-13,5.5738503e-13,2.059098e-13,-1.0299395e-09,-1.7184485e-13,-2.9816278e-05,0.14329281,-2.8690125e-13,4.606664e-13,-4.7919443e-13,-6.722338e-14,-3.1882862e-13,0.82407546,1.3030479,0.057480436,-2.5493727e-13,-6.074978e-13,-1.5441315e-10,-1.1800631e-13,-3.6775094e-13,-1.8192435e-12,-3.1584385e-10,1.1329078e-07,1.1542491e-05,2.1748993e-13,8.3977584e-14,4.4825714e-07,-2.1141999e-13,-7.219026e-13,0.013289286,-0.09841774,-6.599744e-05,3.295367e-13,-1.2906282e-12,0.15099648,-0.031711686,-1.0895473e-14,-9.549411e-13,4.8358377e-13,6.643053e-14,5.071804e-13,-1.5660614e-12,-7.687103e-14,-5.436637e-09,4.5599706e-13,2.4397777e-05,0.197142,-3.7115775e-13,1.5973656e-13,1.3778705e-12,6.977582e-13,-4.104194e-13,-1.6503327,-0.52847624,-0.55362916,-6.422184e-13,-7.0904345e-13,2.5885005e-10,-3.7570462e-13
3.6239534e-13,-1.1779987e-13,2.6852451e-09,-6.309845e-09,-2.6027874e-05,6.132032e-13,3.630835e-13,1.5077289e-06,-2.1068287e-13,8.223486e-13,0.23261295,-0.3432214,-0.00018474809,3.3170027e-13,-9.365e-13,-0.7882272,0.45118615,4.9531055e-13,7.8115194e-13,1.2556878e-12,2.2006035e-13,-1.1000776e-13,-6.533012e-13,-3.2056064e-13,-2.497656e-10,-4.2512494e-13,-8.924622e-05,0.13673426,4.7384487e-13,-4.6971736e-13,-1.458742e-13,-3.440161e-13,9.639701e-14,0.8326476,0.6222945,-0.43122065,3.404159e-13,4.1235754e-13,-1.4966056e-09,-8.2845764e-13,5.2391457e-13,1.621201e-13,-1.4956371e-09,1.03154484e-07,-2.4432715e-05,1.5082494e-13,1.0624444e-13,-9.886784e-07,3.8583703e-13,-1.3153275e-13,0.27010205,0.38690808,-8.568354e-05,-5.622909e-13,-1.712866e-12,0.2467908,-0.022433395,5.771298e-13,3.188966e-13,2.4049935e-13,3.8894596e-13,-4.892426e-13,5.9648196e-13,-1.4355555e-13,-1.5640733e-08,-4.8124585e-13,-2.814618e-05,-0.10319769,9.872195e-14,-4.6230787e-14,2.4126507e-14,3.977477e-14,-8.228268e-13,-1.1526017,-0.36318484,-0.9097306,-4.0424876e-13,4.764371e-13,1.2402365e-09,2.2177759e-13
3.650081e-13,7.556723e-13,-2.3020044e-09,-7.510321e-08,-1.5028234e-05,2.118763e-13,2.4983927e-13,-4.70278e-07,9.56154e-13,6.211269e-13,0.10635579,-0.7701919,-0.00018160125,-4.3361912e-13,-3.000943e-14,-0.4223278,0.49405846,-1.384824e-13,3.9491278e-13,1.1382676e-12,2.1862189e-13,-8.205047e-13,-7.10757e-13,2.3758756e-13,4.657429e-09,3.3149834e-13,-5.6291283e-06,0.33169222,-4.638349e-13,-5.649278e-13,-4.6809046e-13,-4.0758575e-14,-4.3026688e-13,1.1049441,1.2036281,-0.16953817,7.58886e-13,6.0272414e-13,7.174442e-10,2.448314e-13,-1.5877268e-13,2.0918148e-12,1.6957631e-09,8.826116e-08,-9.316134e-06,3.1543214e-13,1.3986604e-13,-4.0114418e-07,-3.0082097e-13,-7.50032e-13,0.14442424,-0.4164517,-7.7961224e-05,4.6317323e-13,1.9266132e-12,0.086729914,-0.10712082,6.2558097e-13,-5.709942e-13,7.636986e-13,3.837287e-13,-8.969693e-13,3.0562488e-13,8.024595e-13,-1.6403565e-08,-3.0504044e-13,-7.7379955e-05,0.44632268,-2.3358122e-13,-6.4561594e-13,-3.8433143e-13,7.5223004e-13,1.1694253e-13,-1.6530976,-0.7739074,-0.081224956,-6.42038e-13,5.3361227e-13,-1.0682135e-09,6.544167e-14
2.4873585e-13,1.5539447e-13,1.3209653e-09,1.7694771e-07,-1.5930902e-05,1.7695101e-13,-1.2583405e-13,-2.6607313e-06,-1.2122145e-13,-6.2509725e-13,0.18015267,-1.626259,0.00016153806,3.0466428e-13,-4.6356473e-14,-0.03646788,-0.018655898,5.409233e-13,-9.402327e-13,-5.4463064e-13,-5.0706797e-13,-2.1233335e-13,3.88245e-13,-1.0695862e-13,-6.6765193e-09,-7.706591e-13,8.768471e-06,-0.07591305,4.3803844e-13,7.016902e-14,8.9648926e-13,-3.7724319e-13,5.5111455e-13,0.9630757,1.1123886,-0.04703742,7.972975e-13,2.2172829e-13,3.6022227e-10,-8.384372e-14,5.0946844e-13,-1.0469095e-12,1.294234e-09,-3.3101531e-07,5.1289066e-05,-6.843829e-13,-2.711136e-13,-4.4421753e-08,-3.0443432e-13,-3.6858342e-13,0.06774472,-0.61210024,2.4495619e-05,4.2173112e-13,8.249666e-14,0.47570017,-0.06798764,-2.375088e-13,1.4632844e-12,-1.2875964e-12,-3.429066e-13,-3.1490186e-13,-1.484188e-12,4.3855135e-13,1.885868e-08,3.3000292e-13,0.00013031423,-0.39597625,-4.6849487e-14,-5.174823e-13,4.9781685e-13,1.3557023e-13,5.326333e-15,-0.74489933,-0.8476621,-0.57185036,2.7476385e-13,2.418585e-13,-1.8505411e-10,4.2215228e-13
-4.0399785e-13,1.0394139e-12,1.2259657e-09,-4.773506e-10,4.4596585e-05,2.9447527e-13,3.97937e-13,1.490667e-07,-3.3012005e-13,6.357209e-14,0.09190676,-1.0719117,-1.6440299e-05,7.925613e-14,-5.787505e-13,-0.13274965,0.07025792,-4.743311e-13,2.5947777e-14,2.3497382e-13,5.74221e-13,-3.6430253e-13,-1.1106025e-13,-2.0372045e-13,2.9753755e-09,1.7137038e-13,-3.0438576e-05,-0.37637717,4.9745716e-14,-3.0592976e-13,4.3111874e-13,4.553753e-13,-1.06070426e-13,0.8146211,0.7492197,0.13235179,1.0934938e-14,-5.2022785e-14,1.3244529e-10,-2.5146175e-13,-3.4832098e-13,-9.829936e-13,-1.7289712e-09,1.3578069e-08,5.2518128e-05,-1.5110938e-13,1.3950822e-13,-6.2511404e-08,2.413564e-13,-5.195465e-13,0.023124125,-0.23391524,-2.4965717e-05,-3.5743012e-13,-1.4401501e-13,0.2293848,0.009453695,1.3968727e-13,3.7779873e-13,-1.5578717e-13,-1.1918083e-13,3.1249433e-13,6.3369286e-14,-4.9296076e-13,7.571217e-10,-1.3563846e-13,4.425873e-05,-0.18593518,2.5068538e-13,-3.3852657e-13,2.8704141e-13,5.486733e-13,4.363684e-13,-1.3984209,-0.6386686,-0.33121255,2.3806114e-13,9.832544e-14,6.503492e-10,1.6727793e-13
2.4395758e-13,-5.9634714e-13,1.9559077e-09,3.8649084e-08,-2.3898348e-05,-3.065162e-13,-2.9057702e-13,1.8801358e-06,4.3754123e-13,6.083687e-13,-0.23152451,-1.574109,2.0608437e-05,5.4098517e-13,-1.3479262e-13,0.11661363,0.2580354,1.5151354e-13,-1.0930753e-13,-9.063849e-13,-8.8382806e-14,4.787986e-13,-1.4051723e-12,-5.1458913e-13,-2.1429525e-12,-4.2095342e-14,-8.077403e-05,-0.09041649,-2.8769034e-13,2.513198e-13,-4.894702e-13,7.483379e-13,-2.194297e-13,0.38887966,0.9795858,-0.31594145,1.4428416e-13,-2.0697924e-13,1.2018592e-09,-6.268393e-13,2.403644e-13,2.3950572e-12,-9.331369e-10,-1.5380981e-07,1.4932597e-05,2.5693214e-13,6.293232e-13,-1.2534099e-07,-5.558383e-13,-5.559399e-13,0.15579711,-0.36513707,3.5101388e-05,-1.8150653e-13,-1.6019827e-12,-0.25079718,0.46022046,5.07781e-13,-1.2918166e-13,-1.8567248e-12,-9.10273e-14,7.362372e-13,-7.321716e-13,-7.183218e-13,-3.2106684e-10,-5.168885e-13,-3.448735e-05,0.26490358,-3.1903614e-13,-1.1970752e-13,7.5300893e-13,-4.664834e-13,-3.225265e-13,-0.9420941,-0.5442772,-0.27008826,5.686662e-13,6.4799815e-13,3.5638206e-10,-4.2983943e-13
6.0323247e-13,-3.147748e-13,-9.977131e-11,-8.019877e-08,-1.450749e-05,-2.3638567e-13,-3.5677047e-13,-2.0525968e-07,2.1908723e-13,5.208329e-13,0.14461507,-1.2118481,-2.3732435e-05,2.7918417e-13,-7.505913e-13,0.16613486,0.3717924,4.4170532e-14,8.7365857e-13,2.2717632e-13,-1.4824009e-13,2.0755262e-14,4.8440906e-13,-1.9202928e-13,-5.322969e-10,-1.8889889e-13,-7.932541e-06,-0.28718418,5.2853566e-13,-4.232108e-13,-5.288082e-13,1.2683214e-13,-4.6482143e-13,0.8142036,0.71236616,-0.24317607,5.855942e-13,5.085716e-14,4.6208593e-11,2.3356675e-13,3.8893156e-13,5.4826803e-13,-4.322516e-10,5.4507314e-08,2.7523697e-07,2.9658554e-13,2.1367446e-13,1.7626117e-07,3.2837434e-13,-1.3451568e-13,-0.21245863,-0.18705769,-2.066192e-05,-5.4603484e-14,9.586749e-13,-0.36127865,0.06827105,2.2102719e-13,5.533192e-13,1.8959122e-13,-5.732722e-14,-1.153709e-13,-8.269745e-15,6.008903e-14,-2.7981892e-09,-6.6513445e-13,1.0887089e-05,0.18705222,1.1236647e-13,2.4596587e-13,3.7086344e-13,-6.132898e-14,2.3145808e-13,-1.4496104,-0.37573126,0.100273564,2.0623173e-13,2.1121164e-13,6.765202e-11,-5.7815536e-13
