-1.3665096e-09,6.511568e-09,-1.4857306e-09,9.691968e-08,-5.1407966e-08,4.7042406e-08,9.402861e-08,3.793771e-08,-1.1285443e-08,4.4891785e-08,4.4975287e-08,-2.3769061e-08,-1.7534041,1.513563e-08,-3.1312188e-09,8.129598e-09,-9.849385e-08,1.0370003e-07,4.23907e-08,-3.4851897e-08,-1.3572776e-07,-8.3666734e-08,1.4595518,-2.830759e-08,-8.457275e-08,5.437556e-09,-1.2933157e-08,-3.0084557e-09,5.520301e-08,1.7314246e-08,-3.7796074e-08,-4.164951e-08,6.895242e-08,4.0916373e-08,-1.1285063e-07,3.5123854e-08,-9.154677e-08,-1.5160964e-08,1.586698e-08,-1.3653273e-07,-6.5659506e-08,-1.0249307e-08,4.4405127e-08,-1.1150868e-07,6.908186e-08,-5.302492e-09,1.7033432e-08,-3.0478837e-09,-8.703751e-08,4.65998e-08,3.864392e-08,9.116446e-09,-0.3789717,-1.703263e-08,9.180248e-08,7.504761e-08,-2.8470575e-08,1.015059e-07,2.2343745e-08,-1.23006885e-08,-9.491489e-08,-1.352467e-07,-1.6033796,-5.919395e-08,2.683458e-09,-5.6011118e-08,2.3676847e-09,-5.248273e-09,6.428799e-09,3.0390808e-08,2.29337e-08,-1.6241522e-07,-6.0423474e-08,1.4699309e-07,-1.5637093e-08,-1.00857626e-07,-8.597172e-08,1.06681426e-07,-1.7671677e-07,2.796609e-08
2.4339801e-08,-5.1425054e-08,-9.2911286e-08,-7.6962046e-08,-3.7971293e-10,6.892305e-08,1.2275633e-07,1.5929436e-07,2.4911234e-08,-1.5399735e-08,7.057224e-09,-3.7392695e-08,-2.1545157,-1.2552891e-07,-1.4814819e-07,1.10134245e-07,2.0889706e-08,-4.859914e-08,4.9708433e-08,-1.9221766e-08,-4.0615376e-08,1.3876013e-07,1.8323439,2.4269568e-08,1.4352436e-08,6.077232e-08,-2.6958407e-08,6.2524705e-08,1.7443007e-09,-9.5509975e-08,5.839116e-10,7.344621e-09,3.972964e-09,-6.310097e-08,-1.2533543e-07,-3.8755353e-08,-6.223801e-09,2.750372e-08,9.4757524e-08,2.7958926e-08,1.746183e-07,4.4404565e-08,-4.1314987e-08,-4.4979807e-09,1.0188025e-08,2.404183e-08,-5.3956335e-08,3.557352e-08,-1.1906144e-08,-1.4086635e-07,-2.5425528e-08,7.95951e-08,0.25538695,-8.265677e-08,-1.9937023e-08,1.4794001e-08,-1.0038622e-07,1.5642287e-07,7.271659e-09,4.7436377e-08,1.7106982e-08,5.0987495e-08,-2.1381464,-1.7233329e-07,-4.845615e-08,1.5408293e-08,8.016876e-10,1.8737353e-08,1.2703488e-07,-1.7093615e-10,-6.3245814e-08,7.3931687e-09,-9.489053e-08,7.586849e-08,9.543952e-10,1.0908889e-08,-5.64347e-08,-3.4882884e-08,1.7337783e-08,3.7455195e-08
-1.4777214e-08,-2.0377517e-07,6.326913e-08,-4.141659e-08,-5.8920172e-08,6.075963e-08,1.0377889e-07,-6.016881e-09,-4.7601844e-08,-5.9481977e-08,-8.633277e-08,-2.4613811e-08,-0.9399068,8.0229796e-08,-2.2875447e-07,-6.6878e-08,1.586384e-07,-5.4244566e-08,6.899984e-08,5.4408233e-08,-2.509809e-08,6.029881e-08,1.1271727,-4.8813433e-08,4.9793172e-08,-4.936775e-09,-6.8480844e-08,6.6369763e-09,-8.968092e-09,-1.8695744e-08,6.984414e-08,-1.2500325e-07,9.278486e-08,7.222493e-08,2.8967893e-08,9.68295e-08,-5.9547897e-08,2.7145813e-08,-5.6477383e-08,-3.0044983e-08,3.932366e-08,-6.5268694e-08,5.8885398e-08,-2.58968e-08,-3.549983e-08,5.3118985e-08,-2.03138e-08,-9.158259e-08,-1.0034745e-08,8.602488e-08,-9.884515e-08,3.320162e-09,-0.15581797,-2.7494847e-08,-9.062345e-08,-1.2263553e-07,3.6242227e-08,-3.6984375e-08,2.58213e-08,2.992773e-08,1.0952256e-08,-1.2588796e-08,-0.7782311,-9.813782e-09,3.1762063e-08,-4.702737e-08,-9.5967614e-08,-1.6030988e-08,-3.4241143e-08,8.583829e-09,-2.2656685e-07,3.828728e-08,1.0944293e-08,-2.3658531e-08,4.1024713e-08,1.5729846e-08,-4.9532552e-08,-2.5943347e-08,-7.825324e-08,-1.3557101e-08
-1.235768e-07,5.4842083e-08,-1.549969e-08,5.2638747e-09,1.04883654e-07,-2.9388776e-08,2.827995e-08,3.944019e-08,8.832002e-09,1.4462026e-07,-3.8909512e-08,-1.7044417e-08,-2.074986,-2.596145e-08,4.1084558e-08,1.0489451e-07,1.5706598e-07,2.5341702e-08,-2.0768906e-07,2.6589642e-08,1.5235225e-08,1.9335392e-08,1.9598002,3.1335674e-08,-7.0118745e-08,5.4489995e-09,1.4728199e-08,4.626203e-08,-4.021148e-08,-1.30939055e-08,4.9716444e-08,3.4770817e-08,1.780286e-07,4.0961723e-08,-3.630865e-08,-9.068129e-09,-1.636657e-08,-3.6972942e-08,-1.4713834e-08,-9.472718e-09,5.783207e-09,-4.0830226e-08,-1.1280509e-08,-2.0419485e-08,-1.0223009e-07,1.084961e-07,-4.557868e-08,4.105208e-08,2.578452e-08,1.1504275e-08,8.9053984e-08,4.816729e-08,0.42066646,-1.440114e-08,1.9031674e-08,-2.2564352e-08,7.5125136e-08,-1.0152786e-07,9.199687e-08,-1.95691e-08,6.22126e-08,-8.713385e-08,-1.9383754,3.6585583e-08,-7.671858e-09,-7.01598e-08,3.2705646e-08,-2.7331488e-08,6.599913e-08,-2.4726914e-08,3.097493e-08,3.203765e-08,4.453159e-08,6.426262e-08,-9.1150795e-08,-7.298261e-08,5.0552345e-09,4.7909896e-08,1.230317e-08,-9.650729e-08
2.6895234e-08,-6.4175083e-09,5.2802953e-08,-3.0406852e-08,4.019763e-09,7.27961e-08,-2.5014733e-08,-1.2461001e-08,-2.6907898e-10,-1.0622344e-07,-1.7407213e-08,-2.2503697e-09,-0.8759351,2.6923436e-08,-7.083095e-08,-1.1027364e-08,6.045234e-08,1.6666963e-08,9.853332e-09,-1.7455415e-08,1.8808796e-08,-1.7112203e-08,1.1848869,-2.6014781e-09,3.1728895e-08,4.6215714e-08,5.4582515e-08,-1.2663719e-08,-5.7667243e-08,-8.128232e-08,4.2749964e-09,8.0593864e-08,-3.141617e-08,2.990935e-08,1.2718246e-08,9.49581e-08,-4.411376e-09,5.8972125e-09,6.370625e-09,1.5396491e-08,-5.5495732e-09,-1.2037466e-07,-3.0718166e-08,-1.0346865e-07,2.4324422e-08,2.7364973e-09,1.7337396e-07,-3.696639e-08,2.590625e-09,1.1115846e-07,-5.2175025e-08,4.0068024e-08,0.08351986,2.6599794e-08,7.317818e-08,1.886667e-07,-5.663452e-10,2.9042834e-08,-5.6697395e-08,1.7257122e-08,4.1923407e-08,2.3894053e-08,-0.45357206,1.7827801e-07,-4.569045e-08,-9.8146415e-08,1.0601101e-07,1.0812508e-08,-1.12045484e-10,2.1377843e-08,3.9603158e-08,7.838808e-09,1.91516e-08,1.5785066e-08,8.193361e-08,1.6216438e-07,4.5500617e-08,4.618233e-08,-2.7270673e-08,-2.2171083e-08
-9.2765696e-08,3.0890444e-08,-1.0020863e-08,-8.927996e-09,3.5601747e-08,-4.900183e-08,-7.748315e-08,6.925322e-08,-8.996963e-09,-5.7575164e-08,-4.9626145e-08,-3.255753e-08,-1.774826,-3.218588e-08,1.8222767e-07,7.3018995e-08,-3.2650362e-09,2.6474197e-08,1.4869225e-07,4.572716e-08,-9.515097e-08,5.2330115e-08,1.3299187,1.5720104e-08,3.2684305e-08,-2.9226243e-08,2.7416771e-08,5.2245458e-08,2.009914e-08,1.1820814e-08,-7.63726e-08,5.359756e-08,-1.03551805e-07,9.236321e-09,-3.3825806e-08,1.1343522e-07,-3.604713e-09,-2.5408713e-08,3.850483e-08,5.7235567e-08,-5.9273656e-08,-4.6298854e-10,-2.389912e-08,2.9243306e-08,-1.3226801e-07,5.7765632e-09,4.995282e-08,2.3638634e-08,4.6898627e-09,2.7963303e-09,5.8137537e-08,-7.9715875e-08,0.48492444,-4.897761e-08,-3.9152592e-09,-7.083895e-08,1.6264626e-07,-6.247843e-08,6.2946214e-08,7.659494e-09,1.3399161e-08,-5.3582326e-08,-1.5981956,-3.108974e-08,-8.6831875e-10,1.0222902e-08,-2.2325754e-08,3.2166824e-08,-2.3238645e-08,8.11893e-08,-5.2960406e-08,-6.5511063e-09,1.439162e-08,-1.2742349e-08,3.9710898e-08,-6.547982e-08,-1.0789184e-07,1.848289e-08,-1.8149011e-08,-9.6902e-08
-1.5206972e-08,-1.0668742e-07,-1.9892173e-08,3.5943877e-08,2.4939114e-08,4.883949e-10,2.3016817e-08,3.631444e-08,-1.4644718e-08,1.299736e-07,8.699293e-09,-3.8428222e-08,-1.1329132,6.9753476e-08,1.3436676e-08,3.265822e-08,5.542415e-08,-7.8451066e-08,-9.82664e-08,-1.7214209e-08,1.11213204e-07,-5.7546053e-08,1.3832006,2.6519832e-08,1.0598031e-08,-5.664923e-08,-3.0363246e-08,1.0018036e-08,8.337082e-08,-6.6586505e-09,7.602689e-08,1.476311e-07,-1.2255803e-07,1.427608e-07,4.3453912e-08,-6.030019e-08,5.4630668e-08,1.6616438e-08,1.03247935e-08,4.6305505e-08,2.972147e-08,-8.24471e-08,2.838453e-08,2.7362747e-08,-5.4911133e-09,-1.6184494e-09,-1.12362095e-07,-5.126134e-08,2.2305347e-08,-9.4125696e-08,3.1082532e-08,2.9098416e-08,-0.44297343,-3.836438e-08,1.2129576e-07,-5.0543427e-08,-1.1191713e-07,-5.215691e-08,4.573207e-08,-1.9235685e-07,-1.1994219e-08,-1.1122388e-08,-0.6821654,9.199956e-09,2.5326617e-08,-5.0568108e-08,-4.9018336e-08,1.3395686e-08,5.939134e-08,5.878713e-08,9.71836e-10,1.0395843e-07,1.8738127e-08,-1.0679729e-08,1.416877e-07,7.8754155e-08,8.7667416e-08,1.4732775e-08,-1.2826507e-07,1.249261e-07
-3.5779355e-08,4.4119506e-08,-2.6983013e-08,4.86634e-09,3.560448e-08,-5.276346e-08,-2.798868e-08,1.1704868e-08,-3.298021e-08,-2.4197345e-08,-2.1958183e-08,8.127367e-08,-2.020964,3.399233e-09,3.8826258e-08,-3.7856655e-08,7.200254e-08,3.5848053e-08,-7.775148e-08,-2.1100828e-08,5.995775e-08,3.4964962e-08,1.7886508,-1.384509e-08,-1.0738526e-07,3.4405875e-08,-7.7839335e-09,9.418056e-09,1.2310052e-08,-3.535336e-08,6.608457e-08,-2.1904887e-08,-1.0097912e-07,1.9324526e-08,-6.178536e-08,3.0758102e-08,-4.692635e-08,5.2966012e-08,2.2344908e-08,4.579413e-08,-5.299034e-08,-1.668163e-08,1.2453825e-07,5.245089e-08,6.735563e-08,6.877041e-10,-3.980807e-08,3.02229e-08,7.139345e-09,7.536951e-08,2.102098e-09,5.5665474e-08,0.3472338,1.1309684e-07,5.3930716e-08,-8.130966e-08,2.5400066e-08,8.573717e-08,1.3994801e-07,-3.7104225e-08,-8.600658e-08,-4.121296e-08,-1.9251859,-5.7306792e-08,1.3117701e-08,-4.1347135e-08,-1.5785627e-08,-1.9710754e-08,2.9057244e-08,1.7721927e-08,2.3122576e-08,8.9320174e-08,9.543239e-09,6.111428e-08,-5.0943328e-08,-9.2293206e-08,-5.162755e-08,-1.2625531e-08,-2.4721167e-09,2.3593286e-08
-3.898423e-08,-2.2211088e-08,-2.315419e-09,1.736421e-08,5.2703673e-08,1.9654449e-07,4.2519606e-08,-3.331858e-08,6.165488e-08,1.12767296e-07,-1.1979076e-09,7.30546e-08,-1.0963514,-1.901444e-08,-1.2753685e-07,-8.4679854e-08,1.6995191e-08,1.5032418e-08,-9.0558174e-08,8.914263e-08,-2.8785465e-08,3.2473274e-08,1.6117522,9.2630835e-08,-6.614907e-08,2.2729258e-08,4.9472625e-08,5.404906e-08,-3.0603566e-08,-1.12580366e-07,-8.376891e-08,-6.233604e-09,4.638655e-08,2.6831641e-08,-2.9948204e-09,1.4092122e-07,-9.791481e-09,6.556082e-08,2.956832e-08,8.312053e-09,-8.255485e-09,7.8570594e-08,2.9934615e-09,-5.443707e-08,2.249359e-08,-8.7107324e-08,-9.532747e-08,4.381519e-08,1.282104e-08,-1.5140229e-08,-6.0279184e-08,-5.2877784e-08,-0.99126,2.540755e-08,-9.9122754e-09,6.408215e-08,2.2915314e-08,-4.1548837e-08,-2.3226718e-08,2.5439558e-08,5.0038437e-08,7.020695e-08,-0.13606079,6.538359e-08,-1.0520553e-07,4.6921222e-08,5.307798e-08,7.773585e-08,-1.2586666e-07,4.6842068e-08,-2.0349697e-07,-1.5477841e-08,4.379642e-08,-4.029464e-08,5.426661e-08,-7.49819e-08,1.3555166e-08,-1.2466832e-07,3.816428e-08,6.688577e-08
-9.227024e-09,-6.2184405e-08,-8.659836e-08,-1.361929e-07,7.156068e-08,-5.1291412e-08,3.912433e-08,-2.552444e-08,-6.092225e-08,1.6300756e-07,2.7648177e-08,8.7237666e-08,-2.1001728,6.280345e-08,2.1609875e-08,5.782582e-08,-2.590603e-08,6.8935853e-09,-2.3727318e-07,8.678667e-08,9.706079e-08,-4.0532615e-08,1.7108909,5.658792e-08,3.9327563e-09,-5.747421e-08,-1.0674247e-08,9.053266e-08,-6.8330763e-09,8.929739e-09,6.1613385e-08,-2.9532767e-08,1.7797227e-08,-3.173123e-08,-1.0007942e-07,-6.3731e-08,3.2472364e-08,7.611166e-08,1.4356912e-07,4.66098e-08,-1.8938674e-07,-1.3191933e-08,-2.9379244e-08,-3.18888e-08,1.01323494e-07,-1.7153202e-08,1.3229746e-07,3.2619834e-08,-1.4269281e-07,1.5346195e-08,-6.572918e-09,1.1596427e-08,0.640829,-6.134595e-08,1.482948e-08,-8.483404e-08,-1.04819435e-07,1.943711e-08,-4.5735923e-08,8.3389736e-08,4.513634e-08,1.1296329e-08,-1.9148593,-1.4607497e-08,3.6015855e-08,-3.8583277e-08,-7.822987e-08,-4.847383e-09,8.9680885e-09,-1.3385691e-07,-1.8481105e-08,1.13297345e-08,1.1363023e-08,-1.7669889e-08,-1.0098911e-07,-1.2345293e-07,6.544392e-08,-2.6078308e-08,6.503529e-08,7.807779e-08
-1.9508006e-08,-2.6300588e-08,4.8535256e-09,-2.095399e-08,-1.3228199e-08,8.8518696e-08,7.639542e-08,2.7568474e-08,7.0473014e-08,-5.5082687e-08,4.851991e-08,-8.3274514e-08,-1.0502712,-1.2500129e-07,-8.814103e-08,3.3850256e-08,-1.0756938e-08,-3.4422825e-08,2.7675439e-08,-1.0648293e-07,-2.2759025e-08,-5.584008e-09,1.7250099,4.749903e-09,-7.930115e-08,-1.0475745e-09,-7.467136e-09,4.94827e-08,3.0225046e-08,3.020915e-08,1.89067e-07,-2.336226e-08,2.7664498e-08,2.0275321e-08,2.0038904e-10,1.06964455e-08,3.305273e-08,1.8002446e-08,-5.2939676e-08,-4.6254e-08,3.2664065e-08,-7.854654e-08,1.5613864e-07,1.4019363e-10,7.195073e-08,-9.534961e-09,3.1457212e-08,-3.277902e-08,1.07296096e-07,-1.4173855e-07,-4.3102585e-08,1.93842e-08,-0.028100615,1.4107364e-08,7.9630254e-08,-4.4639336e-08,-5.4795017e-08,4.016275e-09,-3.0016732e-08,6.5377606e-08,-9.1210026e-08,2.2213566e-08,-0.298157,-9.4274995e-08,-2.4970307e-08,4.9006637e-08,-3.5648426e-09,-2.8945925e-08,1.2553077e-08,-6.8066925e-08,-2.5052387e-09,6.0886833e-09,-5.1006435e-09,1.928185e-08,-4.62456e-08,-3.5861426e-08,7.998947e-08,-1.0036774e-07,-1.05219904e-07,-1.4135887e-07
2.8124346e-08,-4.7822738e-08,3.6292835e-08,2.3713632e-08,-9.184856e-08,1.0002779e-08,2.857216e-08,7.611543e-08,6.267814e-08,1.9519506e-08,4.4165397e-08,-9.6539424e-08,-1.8090008,-7.3591764e-09,-8.49638e-08,5.5008048e-08,-1.8842275e-08,1.8702512e-08,1.5580774e-08,-8.510263e-08,-5.058814e-08,-2.9184765e-08,1.7763584,1.2615759e-07,-1.1732013e-08,-1.0186088e-07,1.7771119e-07,-3.741402e-09,5.009742e-08,8.993725e-08,-1.0767766e-07,-5.5185588e-08,3.2510602e-08,-1.10465834e-07,8.866947e-08,3.6596063e-08,-6.03812e-08,2.2913394e-08,-5.3283607e-08,4.3444597e-08,1.8710189e-10,-2.7957851e-08,-4.022258e-08,-2.4185502e-08,-9.173892e-08,4.9573856e-09,2.4727205e-08,-8.372503e-09,1.2965085e-08,9.957428e-08,5.1448318e-08,1.7874669e-08,0.1461786,3.978303e-08,-1.6607714e-08,-9.852292e-08,-1.9959153e-08,5.9545258e-08,6.123267e-08,6.7266903e-09,3.83399e-08,1.0902484e-07,-1.3845831,9.4604125e-08,2.0154143e-08,5.5851018e-08,4.832563e-08,-2.0539192e-08,1.5106285e-07,4.6024066e-08,-1.2438779e-09,-1.0249533e-08,9.578541e-08,9.8161735e-08,8.253901e-09,4.264684e-08,4.591041e-08,-6.394461e-08,-1.373308e-07,1.7562005e-08
2.641412e-08,-1.0656039e-08,9.8923344e-08,1.7706819e-07,8.7832284e-08,-8.841532e-08,2.1395827e-09,-2.7250579e-08,-4.5318714e-08,-1.1415782e-07,8.671502e-08,9.3866454e-08,-1.0607842,8.575376e-08,7.110835e-08,1.1442802e-08,8.147096e-08,-4.7709573e-08,8.400607e-08,-7.162204e-08,-2.6862807e-08,2.5159013e-08,1.2080934,5.613951e-08,-7.406065e-08,-1.049039e-07,-2.0280984e-08,-1.0516794e-07,1.612437e-07,8.5811514e-08,-1.15543216e-07,1.23451365e-08,-1.7541666e-07,-6.472572e-09,-1.8064533e-08,-2.6388623e-08,-5.6964854e-08,8.317974e-09,-3.129847e-08,-3.571176e-08,7.289598e-08,1.8837358e-08,3.1866165e-08,-2.9532877e-08,1.2259947e-07,5.060311e-08,-4.746955e-09,2.2736245e-08,-6.7618664e-08,-1.227892e-07,-4.3829083e-08,8.4184935e-09,0.10049477,-4.8760477e-08,-3.9839563e-08,6.4921295e-09,-7.893644e-08,1.5747703e-07,-1.8364035e-09,1.0550593e-08,2.3385498e-09,-8.7001126e-08,-0.60651314,-1.13457446e-07,2.3757423e-08,5.5519198e-08,-9.4209256e-08,-1.7666932e-07,4.3348702e-08,-3.8446487e-08,-4.9401216e-08,-7.460062e-08,3.07246e-08,2.6339414e-08,1.230105e-07,6.199338e-08,-1.6134692e-07,-4.4363794e-08,7.010415e-08,6.448092e-09
-1.537791e-07,5.3591666e-08,-5.144086e-09,-1.7466016e-08,9.9994395e-09,1.2177328e-08,-8.945979e-08,-1.764467e-08,1.28850175e-08,2.1763608e-08,1.2426643e-08,4.298414e-09,-1.5593797,-5.4599752e-08,9.5445145e-09,4.489999e-08,7.699164e-09,3.2736196e-09,-1.5813132e-08,-6.1852575e-08,-1.2263904e-08,1.5837724e-08,1.0842074,-3.598587e-08,-9.135953e-08,1.1824852e-08,-2.1721398e-08,-5.024482e-09,2.5369104e-08,-1.3584298e-09,1.0004964e-08,-4.3376744e-08,2.6443013e-08,-5.4612315e-08,-5.2897356e-08,2.588292e-08,-5.8559134e-08,-3.5570046e-08,4.3510028e-08,1.0874977e-08,1.2671585e-08,-4.9297455e-08,1.7955518e-08,9.412673e-09,6.240128e-08,2.9315652e-09,1.1784059e-07,3.0801882e-08,-1.17030794e-07,-3.7937497e-08,4.3684434e-09,3.107241e-08,0.4898852,3.933846e-08,2.2551111e-08,2.4431138e-08,-2.2497833e-08,-4.2548663e-08,-5.567456e-08,1.238993e-07,9.08048e-09,2.5473177e-08,-1.6911137,1.5890674e-08,3.7035164e-08,-3.9115903e-08,1.1142748e-07,4.137508e-10,4.958988e-08,2.774513e-09,-5.5290617e-08,-6.5945514e-08,7.053252e-08,-1.7373281e-08,-1.6303457e-07,4.026571e-09,-1.3986837e-08,-1.54615e-08,-9.229993e-08,1.3926498e-07
-9.275601e-08,7.260067e-08,-9.5257e-08,-1.6307573e-07,7.378985e-08,-8.272941e-09,-1.5680601e-07,-1.2674338e-08,4.2713523e-08,-8.8454975e-08,-2.2022451e-08,2.7221901e-08,-1.0335903,-3.027118e-08,-7.5938196e-08,5.0422667e-08,-7.9732345e-08,4.9437958e-08,5.6265964e-08,1.791046e-07,-5.0585065e-09,-1.665581e-08,1.0268358,-2.130542e-08,2.2193815e-08,5.567209e-09,-2.575062e-08,6.58844e-09,-3.2315885e-08,3.38799e-08,-4.7688054e-08,2.6953026e-08,-9.604147e-08,3.021571e-08,-3.1681992e-08,-7.5699894e-08,-4.5896886e-08,-3.323923e-08,5.995477e-08,-6.4045345e-08,8.616598e-08,-1.337171e-07,-4.8610545e-08,1.4766174e-08,-5.8103403e-08,-1.5260106e-08,-1.0245599e-07,-2.1230559e-08,-1.3069331e-07,3.642878e-08,9.042074e-08,2.5929387e-08,-0.105816536,-5.465274e-08,-2.3130905e-08,2.9059743e-08,2.3580068e-08,5.475937e-08,-1.0703165e-08,-7.2967836e-08,1.4451854e-07,5.1258042e-09,-0.88029104,-6.062104e-08,-4.308987e-08,-6.01282e-08,3.70753e-08,2.3703976e-08,-1.2340143e-07,-1.547442e-08,-1.1672571e-07,-6.8895254e-09,-6.6499437e-09,-8.671776e-09,2.1914307e-08,-7.012587e-08,-2.1113564e-09,5.0782795e-08,-1.04670676e-07,2.2078822e-08
4.183962e-08,-3.4300868e-08,9.218528e-10,-7.921571e-09,1.8337275e-08,4.8549445e-08,-1.0191476e-07,-6.5635454e-08,-5.1424806e-08,-1.0012311e-08,6.663318e-08,-2.9685712e-09,-1.6628534,5.4920655e-09,1.952153e-08,-3.029568e-08,-1.5694361e-07,-8.5988546e-08,-9.42771e-09,-7.476378e-08,5.0803187e-08,-8.73867e-09,0.9784743,1.03198715e-07,-2.292741e-08,-2.1481757e-08,-1.7890821e-08,-3.1529002e-09,-4.3844558e-08,7.947197e-08,4.4402885e-08,-5.7455964e-08,-2.0185038e-08,5.3615242e-08,1.0394471e-07,3.9025466e-08,-8.85586e-09,4.9718754e-09,9.4630416e-08,2.2648646e-08,1.5666958e-08,-1.6942506e-08,5.1768268e-08,2.08742e-09,1.3202116e-07,-8.89257e-09,6.118202e-08,-7.949257e-08,-1.4593631e-08,1.04696824e-07,1.0400626e-08,-1.0595446e-08,0.48020625,-2.7264258e-08,-2.4583427e-08,1.272962e-07,2.3925377e-09,-4.9016144e-08,-5.232344e-08,-7.595088e-08,-6.679275e-08,5.282443e-08,-1.8161899,-1.9431038e-08,-1.6001534e-08,2.2240123e-08,-5.030045e-09,1.4427274e-08,1.12033106e-07,1.7034028e-08,-5.7661364e-08,1.5708167e-08,4.1525443e-08,-6.9099514e-08,2.0386004e-10,-2.5311383e-08,-3.8152628e-09,2.5895586e-08,2.4131301e-08,-2.3539268e-09
2.331964e-08,-4.098851e-08,5.167157e-08,8.3903515e-08,-5.4460553e-08,-4.0918835e-08,1.04962e-07,1.7667922e-08,-1.7590395e-08,8.565625e-08,9.619784e-08,1.6007938e-08,-1.2606694,-1.1038252e-07,-6.259482e-08,-6.862911e-08,-4.7542024e-09,2.2406708e-07,-1.9475246e-08,-6.274169e-08,-2.521172e-08,9.094296e-08,0.95216084,-1.7094611e-07,-4.501365e-08,7.698082e-08,-1.0023936e-08,-2.4862693e-08,-4.069868e-09,9.132562e-08,-1.568042e-07,-3.7915715e-09,-3.472922e-08,-9.768111e-08,-6.603972e-08,3.65742e-08,-6.627232e-08,8.251549e-09,-5.860032e-08,-6.5324485e-08,-1.2862552e-07,1.3244428e-07,7.9709324e-08,6.0971956e-08,-3.89125e-08,5.860005e-08,1.0851694e-07,-1.9972457e-08,-5.5205277e-08,-8.3929066e-08,-5.892511e-08,-7.2104385e-09,-0.36970162,1.4665698e-08,4.015505e-08,1.0502597e-07,4.882353e-08,-3.4489638e-08,-3.0171027e-08,-9.027464e-08,7.847033e-08,4.813508e-08,-1.2930968,-9.964002e-08,3.8637914e-08,1.6680254e-08,2.2512697e-08,-1.4645627e-07,-5.4685092e-08,1.05600634e-07,3.3579834e-08,5.6400282e-08,2.8652305e-08,-2.1127018e-08,-1.034864e-08,-9.487621e-08,1.3525868e-08,8.691563e-09,1.9768839e-08,1.4893189e-08
-1.3007323e-08,-9.9218994e-08,-4.255512e-08,6.448465e-08,-5.4645913e-08,5.3395798e-08,-1.01320666e-07,5.598287e-08,-1.2639285e-07,6.5075874e-08,-4.9178805e-08,-4.542325e-08,-2.0604146,4.2552823e-08,-4.8918217e-08,-6.880865e-08,1.6346322e-08,6.3847494e-08,7.342724e-08,1.0787397e-07,4.12066e-08,-3.3147664e-08,1.540077,-1.8803367e-07,2.7836098e-08,6.0699037e-09,5.2692638e-08,8.211532e-09,-6.424234e-08,-8.0311054e-08,3.328927e-08,8.653809e-08,1.6023609e-08,-6.4629546e-10,-9.108273e-08,2.1516481e-08,-8.350815e-09,1.5694704e-07,4.506749e-08,3.4329354e-08,-4.9051618e-08,-2.2060345e-09,-3.2914578e-08,-6.899048e-08,-1.274333e-07,5.8471787e-08,-1.3278033e-08,-7.206131e-08,-2.9897762e-08,5.1885074e-08,-2.4277597e-08,4.2414648e-08,0.515594,8.18301e-08,-2.1738104e-07,9.057629e-09,-1.0287371e-08,-4.0088487e-08,9.361294e-10,-7.0831163e-09,-4.6758252e-08,7.315748e-08,-2.0062726,-3.5691635e-08,-6.038702e-08,-1.2202818e-08,1.6516818e-08,-3.7996593e-08,-8.3333774e-08,1.0164442e-07,-7.500796e-08,3.0756517e-08,3.0403022e-08,-7.2160287e-09,5.1656347e-08,8.0875445e-08,1.2127974e-08,-1.472735e-07,2.167246e-08,1.8722853e-08
-1.5357504e-07,2.6378686e-09,-4.87712e-08,6.533103e-08,-2.846592e-08,-6.054175e-08,4.5810758e-08,2.2983148e-08,8.195526e-08,4.592772e-08,7.1382914e-08,8.1291695e-08,-1.2025217,3.409511e-08,5.8329057e-09,-7.0096455e-08,7.671125e-08,3.4905444e-08,-5.960456e-08,3.4425277e-08,9.319653e-08,1.0937639e-07,1.2112969,-7.412933e-09,-1.5440037e-07,-3.9645204e-08,6.505026e-08,-5.2545502e-08,-3.374236e-09,1.5465532e-07,1.0041338e-07,1.23010775e-08,-2.7835547e-09,-7.28862e-08,-8.105712e-08,1.01242755e-07,-4.5143253e-08,-1.6616543e-08,-8.075854e-08,-5.185698e-08,8.787638e-08,1.4171359e-08,4.4747814e-08,-1.11457936e-07,-1.5131236e-07,6.489661e-08,3.593552e-08,5.1357947e-08,-2.0426079e-08,-1.2910945e-08,-7.7552535e-08,-9.701383e-08,0.36160275,7.383086e-08,7.1593362e-09,2.1678753e-08,-1.2687045e-07,3.2143145e-08,-3.4257717e-08,8.383722e-08,-4.2624436e-08,5.676499e-10,-1.0710596,-2.1629008e-08,4.374605e-08,5.7440662e-08,8.884909e-08,-2.4015662e-08,7.351339e-08,-6.100515e-08,9.7903836e-08,4.0971635e-08,4.8707154e-08,1.3669033e-07,-1.1500595e-07,-8.108594e-08,-5.670237e-08,4.9028195e-08,-1.7756122e-07,-1.0074189e-08
-5.466334e-08,-5.1874807e-08,-1.1911526e-07,-7.3930394e-08,-2.5634908e-08,-3.708168e-08,9.604751e-09,2.143373e-08,-3.822816e-09,-1.6628174e-08,1.4176848e-08,-3.983727e-09,-1.713837,-4.1010317e-08,1.4501514e-07,1.5213192e-08,2.556002e-08,-4.5993698e-09,-4.8233986e-09,-2.5830754e-08,-1.0611524e-07,9.591904e-09,0.9972898,4.90418e-08,-1.3791431e-07,8.243889e-08,1.479886e-07,6.085307e-08,4.2348383e-08,-2.3298092e-08,3.5697582e-08,-4.3511918e-08,5.4757162e-08,1.5643693e-08,-3.021712e-08,7.31318e-08,5.3522907e-08,-5.667589e-08,5.3620575e-08,2.6011183e-08,9.015298e-08,4.8049333e-09,-7.927193e-08,-3.9082465e-08,-3.7644373e-08,5.3895416e-08,-4.9977853e-09,1.0344347e-07,4.2984087e-08,-1.18312414e-07,-4.221279e-08,-2.9739564e-08,0.76032126,3.599911e-08,2.6996215e-08,1.1674466e-07,3.425602e-08,1.0106351e-07,-1.9508303e-08,7.850938e-09,6.970933e-09,-5.5060916e-09,-1.8708782,-3.6053205e-09,1.0849947e-08,-3.514719e-08,-1.4934523e-07,6.857478e-08,-6.8867707e-09,2.8141098e-08,-3.1006017e-08,1.2203415e-07,2.0547958e-08,6.311185e-08,6.958619e-08,3.642263e-08,-2.1443913e-08,-3.7696005e-08,-2.5044612e-08,-3.931813e-08
1.9564865e-08,-1.4355912e-07,-1.1131742e-08,1.4669322e-08,1.9384071e-08,4.4992248e-08,1.2886449e-07,9.784396e-08,-5.9391347e-08,-8.965459e-08,4.8421267e-08,-9.995006e-08,-0.7517216,7.1193966e-08,1.0053052e-07,5.8762254e-08,-7.1774515e-08,-5.832308e-08,1.11260455e-07,-4.3674454e-08,-1.5869439e-08,2.4094788e-09,0.9525211,5.642746e-09,-6.701865e-08,-2.3019489e-08,-1.1366936e-07,7.250833e-09,3.3825845e-08,1.6313072e-08,-5.0468287e-08,-4.8372865e-08,-6.567135e-08,2.0321482e-07,5.7761646e-08,-2.0484794e-08,2.2035696e-08,-3.3511903e-08,4.665791e-08,-1.8224682e-08,4.5294527e-08,5.4912817e-08,-8.395329e-08,4.9487706e-08,2.548049e-08,2.4848205e-08,1.4599255e-08,-1.4665044e-08,-6.67199e-08,-8.55959e-08,-1.6386785e-07,-9.033475e-08,0.2400903,-1.6809878e-08,-4.5978005e-08,-5.782966e-09,-2.1537161e-08,3.769278e-08,-5.3945306e-09,2.7265422e-08,-1.4522173e-07,-1.4447005e-07,-0.85716444,1.361908e-07,1.8966961e-08,-5.4115343e-09,-1.27226345e-08,-3.092999e-08,-1.1939426e-07,3.819614e-08,1.250018e-07,6.2724226e-09,-4.2134594e-08,4.2861444e-08,6.4983823e-09,-5.8869603e-09,1.933926e-08,-2.5712549e-08,1.09174024e-07,2.8375442e-08
-2.8725836e-08,4.3778865e-09,-1.4178511e-08,-8.191371e-09,8.3397964e-08,-1.8533335e-09,1.0637683e-07,-1.9533699e-08,-6.4949184e-08,-1.0728938e-07,8.561872e-08,7.077224e-08,-2.2039087,-3.0649428e-08,5.8453388e-08,6.4208464e-08,-8.7260545e-09,7.3211304e-08,8.034712e-08,-1.5031187e-08,6.7331825e-08,-4.2548848e-08,1.9106977,-1.2657976e-08,4.050927e-08,4.9537064e-08,5.6964154e-08,2.1572292e-08,-4.2472614e-08,8.0756834e-08,3.1550286e-08,2.7961686e-08,-8.5648146e-08,-1.4820706e-08,-4.56895e-08,-5.013786e-08,-9.07958e-09,2.243301e-08,-5.2323134e-08,-5.619184e-08,1.008877e-08,3.7380865e-08,-3.747322e-08,-1.2805094e-08,2.2334296e-08,3.8393466e-10,-2.4763109e-08,-2.7030527e-08,2.241865e-08,-7.894938e-08,1.7259973e-08,4.609332e-08,0.826473,-1.4316175e-08,-5.9028363e-08,-1.0723981e-07,2.6655734e-08,2.6434831e-08,1.2583526e-07,-1.12694366e-07,7.407147e-08,-3.1198233e-08,-2.2088022,-5.5106053e-09,-3.3483204e-08,-6.849568e-09,-1.2988358e-08,2.4334074e-08,5.3859136e-08,4.479077e-08,-7.0860295e-09,-4.011831e-10,-3.807841e-08,9.125317e-08,2.557486e-08,-5.0866582e-08,-2.172662e-10,2.3359881e-08,-3.0659582e-09,8.758215e-08
-4.1705032e-08,1.1011195e-07,1.6067655e-07,-1.5558084e-07,6.3955355e-08,-8.445927e-08,-1.162385e-07,-1.08441945e-07,9.5144394e-08,1.3633964e-07,-2.9833505e-08,1.591877e-08,-1.3646901,-3.8488572e-08,-3.804504e-08,5.4096894e-08,-1.8490166e-08,-2.2444631e-08,3.8965588e-08,-3.0657322e-08,-9.487891e-09,-6.497255e-08,0.96850705,-4.33726e-08,-7.412389e-08,9.598481e-08,-1.0299136e-07,1.1461795e-07,6.4565214e-08,-5.2096983e-08,7.046909e-09,6.5596865e-08,-1.3339948e-08,-9.2885934e-08,-1.9429123e-08,-1.7679012e-07,-9.274238e-08,-3.2448554e-08,1.4419985e-08,-5.6259292e-08,-5.009243e-08,1.1793243e-08,1.6892356e-08,3.6969528e-08,1.5820373e-08,2.0545539e-09,-4.171378e-08,-1.1037482e-09,7.4466435e-08,3.1870748e-08,1.1109821e-08,6.578104e-08,0.12947588,1.9645245e-09,3.6057777e-08,-2.3452746e-08,3.0693244e-08,2.2589221e-08,4.89095e-09,-3.4655283e-09,-2.1756364e-08,-1.7281738e-07,-1.5241038,-1.1904854e-07,9.582742e-09,3.545742e-08,-1.2249055e-07,-8.1034436e-08,-6.4261663e-09,-1.5014338e-07,-8.5223505e-08,7.6455215e-09,-2.8254465e-08,-5.0222364e-09,-4.9352447e-08,5.9645195e-09,4.8180258e-08,7.239173e-09,-4.5402622e-08,3.878206e-09
4.2758213e-08,3.1677487e-09,-6.465102e-08,5.7325625e-08,1.5383524e-08,6.158879e-08,1.2175605e-08,1.6344753e-08,4.0925574e-09,-1.060382e-07,-4.6662237e-08,9.525502e-08,-2.1652977,-4.5572104e-08,-5.094971e-08,-1.6912556e-07,7.5446636e-08,2.764915e-08,-4.1235047e-08,3.2465195e-08,1.3194924e-08,3.2572505e-08,1.7011169,2.5645743e-08,-2.1769491e-08,9.5372556e-08,5.00824e-08,-1.742672e-08,-3.1027486e-08,6.844108e-08,-7.150264e-08,-1.2813621e-07,1.6315624e-07,9.145375e-08,1.0226069e-07,8.316225e-08,-1.6365672e-07,-2.5584342e-08,9.7378205e-08,-6.04538e-08,-5.3119614e-08,2.7656927e-08,2.1391223e-08,-4.786652e-09,6.410976e-08,4.4008225e-08,7.7067185e-08,4.27412e-08,4.8469982e-08,-5.331327e-08,6.505087e-08,-6.09345e-08,0.59689844,3.422949e-09,6.0332084e-08,3.0761335e-08,3.532381e-08,-1.5117e-08,7.94318e-08,-9.356675e-09,3.0535986e-08,4.2841307e-08,-2.2297895,5.0512895e-08,1.5389524e-08,-1.9849367e-08,-3.0864797e-08,-5.6023417e-08,-1.7029201e-08,-1.27721655e-08,-7.239231e-08,5.107509e-09,1.5001216e-07,-3.1622896e-08,-1.3019819e-07,1.6986448e-09,5.1153286e-09,-6.1978895e-08,1.2502584e-07,6.711727e-09
-5.228401e-09,-1.3137759e-07,3.1444984e-08,4.606278e-09,-4.7262052e-08,-5.6284453e-08,-1.1851494e-07,1.3212602e-07,1.9199934e-08,1.1284527e-08,-6.049038e-08,-7.7208995e-09,-1.2322057,3.4921204e-08,-3.113207e-08,-1.5307418e-07,-6.5778494e-08,3.2046376e-08,4.320495e-08,7.360334e-08,1.9151436e-08,1.8127599e-08,1.0221882,-4.008064e-08,3.1116503e-08,-5.5528204e-08,-5.8957204e-09,-1.6721213e-08,-2.707121e-08,-3.8646327e-08,-4.2220524e-08,-3.0651773e-08,-1.2534564e-07,-4.8806896e-08,8.143695e-08,3.6908244e-08,3.7375333e-08,1.6667484e-07,-1.0784649e-07,7.0479373e-09,6.2175175e-08,-2.0673776e-08,1.8776682e-08,-1.24056e-07,1.4336983e-08,1.9979776e-08,-1.3257889e-08,8.313302e-08,3.358989e-08,3.489278e-08,-4.102919e-09,-1.9077632e-08,-0.085172,-4.3354262e-09,-3.43778e-08,-5.271787e-08,-4.556349e-08,3.6905348e-08,-4.0133813e-08,5.441537e-08,1.5298227e-08,-7.2465866e-08,-1.2325044,6.434864e-08,-5.194902e-08,-2.296031e-08,5.9327765e-09,-2.8501411e-08,5.068842e-08,-7.946848e-08,1.4709812e-08,3.5646714e-08,2.4528788e-08,-8.7258556e-08,-1.675429e-07,-4.002524e-08,-1.9932642e-08,9.2044395e-08,-2.5065066e-08,-3.0236848e-08
-1.8738247e-08,-1.652085e-08,-1.165159e-07,-3.050704e-08,-1.4476981e-08,-2.1946633e-08,-1.0330545e-07,1.0817853e-08,7.6358674e-08,8.9540976e-08,2.2727018e-08,-2.9461233e-09,-1.8775294,-1.0308438e-07,-8.9619334e-08,3.0075757e-08,5.854461e-08,-1.1550424e-07,-2.3188313e-09,-7.714116e-09,1.1961625e-07,-2.8576736e-08,1.3656186,-3.2372295e-08,7.939271e-09,9.833088e-09,2.8152929e-08,-9.751179e-08,-3.4472013e-08,4.6189427e-08,-5.7044627e-08,-2.457996e-08,8.529108e-09,-4.1920217e-08,3.1507252e-08,-8.327304e-08,3.2614217e-08,3.298992e-08,-1.6644654e-07,-2.3949903e-08,1.3715454e-08,-4.5287024e-08,-1.8863265e-08,2.8885822e-08,1.6413235e-08,6.15683e-08,-8.005915e-08,5.4711165e-08,5.0666927e-08,-5.107753e-08,4.4757776e-08,-9.12481e-08,0.3248203,-6.56169e-08,-1.1876263e-07,-6.0014585e-08,-2.0779579e-08,4.2012843e-08,6.7124972e-09,-1.1975322e-07,9.467415e-09,-6.7634566e-08,-1.9161087,-5.060506e-08,-1.9268683e-07,-4.0476046e-08,3.7669338e-08,1.2387709e-08,-1.7832029e-07,5.3298088e-08,6.0599376e-08,1.3116332e-07,9.88989e-09,2.638626e-08,-2.9353792e-08,1.5623449e-09,7.0840436e-08,-3.734997e-08,-5.5971654e-08,-1.0711115e-07
1.0146023e-07,-2.1829683e-07,-1.2306993e-08,8.022505e-08,3.4332782e-08,-5.485844e-08,-8.232628e-08,-4.0333564e-08,3.0301496e-08,1.3590747e-08,-7.100068e-08,2.0387244e-08,-1.5709028,-7.714053e-08,-2.1192962e-07,-7.024014e-08,6.675949e-08,3.6300143e-08,-1.8855483e-08,1.2854684e-07,1.5155331e-08,-9.0160206e-08,1.2980098,1.2165945e-07,5.830753e-08,-5.5742614e-08,1.4198226e-07,7.41365e-08,6.8946235e-08,-1.0133871e-08,7.5023365e-08,-3.1070485e-08,1.0710273e-07,-1.2619192e-07,-3.6673285e-08,-2.3964505e-08,-4.2518245e-08,2.6970245e-08,-3.754563e-08,-9.365522e-10,2.9174876e-08,-5.3436437e-08,-4.0145054e-08,8.1622844e-08,-2.026825e-09,2.0240863e-08,1.1569391e-08,6.64143e-08,-4.1154657e-08,1.1733192e-10,9.93861e-08,5.12634e-08,-0.19660327,2.627504e-08,8.31251e-08,-2.9442681e-08,1.02451185e-08,-1.4323288e-07,-5.3657175e-08,6.0364496e-09,5.555598e-08,-1.0953548e-08,-1.6266943,1.9815841e-08,-9.4917894e-08,2.8577789e-08,-1.1983579e-08,-6.9133943e-10,-1.4006297e-07,-7.21859e-08,1.5334503e-07,1.1358764e-07,3.7773898e-08,-8.793702e-08,6.1000826e-08,-9.95602e-09,-7.877368e-08,6.244148e-08,1.12245175e-07,2.7074265e-08
-2.539977e-10,1.6006553e-08,2.7104306e-08,-5.2304884e-08,2.0455978e-08,-1.4627842e-07,-6.661242e-08,-1.0191808e-07,8.662013e-09,-2.128519e-08,3.920068e-08,-5.0330577e-08,-2.2082014,-5.9880605e-08,-3.366008e-08,-5.657859e-08,8.469634e-08,-5.6698255e-08,4.9416077e-08,-3.1694555e-08,-1.711528e-08,5.378564e-08,1.8204204,2.222254e-08,-6.7422317e-09,-1.0118872e-07,6.371881e-08,-1.627788e-08,1.5544579e-09,-7.151757e-08,-3.184498e-08,-3.7092967e-08,-3.9576204e-08,7.0662914e-08,8.949984e-08,-1.2485944e-07,3.0405513e-08,2.759215e-10,9.010764e-09,4.1077232e-08,4.7757275e-08,2.1610385e-08,3.6807684e-08,2.5864997e-08,-6.224177e-11,2.1855364e-08,-1.9218005e-09,8.768158e-08,-1.9454827e-08,1.19189195e-07,4.284132e-08,4.8130946e-08,0.7181207,-1.13435554e-07,5.248623e-09,-3.5425053e-08,2.1942169e-08,-3.4601868e-08,-7.222257e-08,-7.750149e-09,-6.595169e-10,-1.0051458e-07,-2.2083523,6.4033316e-08,1.09876936e-07,-1.8147217e-08,7.0887566e-08,2.8063347e-09,8.97413e-09,-1.5539719e-07,7.504987e-08,1.9946919e-08,2.4336003e-08,3.46023e-08,7.114177e-08,-5.7191627e-08,7.683562e-08,-1.1214962e-07,-9.0422134e-08,8.933226e-08
-1.0305806e-07,2.9603337e-08,2.0073731e-08,8.601589e-08,-3.1795434e-08,9.061485e-08,-1.3149702e-08,8.997521e-08,3.085477e-08,-9.13389e-08,2.4840439e-08,-5.1675293e-08,-1.3382527,-3.838549e-09,6.5420096e-09,4.3648722e-08,-3.9833843e-08,6.4408724e-08,-1.199347e-07,-2.1577886e-08,4.2944848e-08,1.6354225e-08,1.3025991,-6.011636e-08,3.3798585e-08,-6.2893456e-08,-2.1869283e-08,1.345179e-07,5.2284236e-08,1.2089004e-07,1.0128562e-07,-8.3299796e-08,9.512878e-09,3.8660893e-08,-1.7525473e-07,-2.4055058e-08,2.1937462e-08,2.0403508e-08,-7.752665e-08,5.1192558e-08,-3.1491048e-08,1.8054484e-08,5.496357e-09,2.1482489e-08,-3.0662575e-09,1.18948495e-08,-1.2030652e-07,-2.2116549e-08,-1.6007563e-07,4.349087e-08,2.00859e-08,2.9970266e-09,-0.096691534,3.051317e-08,3.7734168e-08,-5.1813956e-08,4.142441e-08,1.0483809e-09,-1.3064476e-07,2.8401114e-08,-1.4691931e-08,-2.0964131e-07,-1.3087121,3.8289194e-10,4.026745e-08,7.033424e-08,-4.306634e-08,6.9183116e-08,3.6598255e-08,1.17040074e-07,-1.45868455e-08,-1.8284066e-08,-4.289757e-08,4.4354348e-08,3.1748826e-08,1.5410419e-07,3.4052132e-08,3.0882298e-08,-2.8726866e-08,1.1017565e-08
-8.283397e-08,2.4321416e-09,3.111548e-08,-5.2787563e-08,2.0492028e-08,2.3133884e-08,-2.184084e-09,4.240319e-08,-3.893242e-08,-5.406741e-08,-8.10618e-08,4.4823448e-08,-2.0163023,4.6195602e-08,-5.841094e-09,4.906427e-08,-2.3867464e-08,-7.213927e-08,-7.4681225e-08,4.2146254e-08,-7.86768e-09,3.5219205e-09,1.5165642,2.1598936e-08,7.6187916e-08,4.145934e-08,-3.2264715e-08,-9.3911694e-08,1.03150185e-07,1.9765912e-07,-7.755317e-08,-8.450968e-09,4.3682924e-09,4.5394913e-08,8.9633865e-08,5.118465e-08,-2.660255e-08,-2.9794311e-08,9.345588e-08,6.2654635e-08,-6.286803e-08,-3.875199e-08,2.5924004e-08,-1.2511171e-07,-7.48636e-08,-1.18838926e-07,2.2488475e-08,-9.324565e-08,-8.609656e-08,-2.4569502e-09,-2.4684324e-08,-1.1640438e-08,0.96596533,9.190454e-08,6.2708736e-08,7.84017e-08,1.4410144e-08,-9.561516e-10,-5.9191812e-08,-2.1750566e-08,9.379809e-09,6.4235465e-08,-2.0591142,-4.9015956e-08,-3.437136e-08,4.3748415e-08,-7.554167e-09,-8.2880135e-08,-1.067022e-10,4.3608672e-09,8.01148e-08,2.4978704e-08,-1.1720539e-08,1.0139608e-07,8.214147e-08,6.1712214e-08,3.5022424e-08,-6.871165e-09,6.878543e-08,-2.3722079e-08
1.786664e-08,8.464106e-09,6.789406e-08,1.4670439e-08,1.8969683e-08,5.3769515e-08,8.785622e-08,1.547029e-07,5.3444502e-08,-1.4292024e-08,-5.9630786e-08,-1.0940553e-08,-1.1100098,-2.71321e-08,-5.1017793e-08,1.5111006e-08,-1.8099564e-07,1.07890926e-07,-1.2161255e-08,1.0147975e-07,-6.988439e-08,3.9378296e-08,0.6975769,1.0732375e-08,-1.2202243e-07,-2.1867983e-08,3.7084508e-08,1.6378783e-08,2.8879882e-08,-8.8629385e-08,4.643318e-08,2.6892733e-08,-7.405343e-09,-5.331507e-08,5.9641394e-09,-4.249704e-08,-8.111538e-08,-4.794827e-08,-3.5026417e-09,4.843709e-08,9.317898e-10,-1.5609187e-07,9.760589e-08,7.4184214e-11,4.2064617e-08,-5.452849e-09,-6.986842e-08,4.383219e-08,-5.213525e-09,-2.6217025e-08,-1.8286482e-08,-4.7581654e-09,-0.15577945,5.1969916e-08,7.976251e-08,-7.476568e-08,-4.6538933e-08,-8.597823e-09,8.9217835e-08,-1.07428406e-07,-1.3096678e-07,1.5009793e-08,-1.3035669,1.7592126e-07,-1.0269617e-07,6.822077e-08,-1.1670434e-07,2.0956142e-08,-6.412211e-08,-1.105427e-07,-8.948781e-09,-8.190039e-08,-6.7866864e-08,-4.3349857e-08,1.08596865e-08,5.4284044e-09,4.1505682e-08,3.632485e-08,-3.8544767e-09,-1.03923114e-07
-5.0817206e-08,-1.5947595e-08,-6.513012e-08,-1.1445648e-08,5.985452e-09,-4.5194692e-08,2.0696564e-09,-1.3562568e-08,4.077408e-08,-1.3378066e-07,-9.0965795e-09,4.6473346e-08,-1.5697812,2.3391035e-08,-5.1652048e-08,3.0628826e-08,-2.714657e-08,-2.5765406e-08,1.314378e-08,-2.7109395e-09,1.4493382e-07,-6.195716e-08,0.80126554,-2.4006209e-08,-3.810864e-08,5.2498144e-08,3.471782e-08,1.9784121e-08,9.3208094e-08,-6.4952786e-08,1.7009933e-08,-1.8732498e-08,2.394189e-08,-1.1790691e-08,-6.864249e-08,4.924275e-08,5.395841e-08,-2.6340857e-08,8.269314e-08,1.6935541e-08,4.0142837e-08,6.565754e-08,1.4232143e-07,1.6356068e-08,-1.5849384e-09,-7.840178e-09,1.4723122e-07,-1.9799788e-08,3.545727e-08,1.8685302e-08,-3.6245467e-08,7.326681e-08,0.5095592,3.2911373e-08,4.4489976e-09,-1.061284e-07,2.5266722e-09,-1.6687358e-07,3.214593e-08,-4.981713e-08,1.4539713e-08,5.384181e-09,-1.7484035,4.4511907e-08,-8.6425665e-08,6.9675643e-10,-6.189941e-08,-9.458404e-09,-1.516889e-07,5.396816e-08,2.3472687e-08,-3.060142e-08,-2.3817456e-08,-1.47621515e-08,1.8188185e-08,4.819636e-08,1.4494746e-07,1.45445735e-08,-2.9018825e-08,2.4823905e-08
-5.7361323e-08,-8.0781874e-08,1.6505558e-07,-1.0452867e-08,-5.617219e-08,2.2308043e-08,1.03636104e-07,5.9845874e-08,4.9443933e-09,-7.1393416e-08,1.4087223e-07,1.7451327e-08,-0.859027,-4.0470482e-08,7.416681e-08,-6.754213e-09,5.627839e-08,-2.2721938e-08,2.7433785e-08,7.5307206e-08,3.099302e-08,1.0222362e-07,0.89648277,2.1345048e-08,-5.6547496e-09,-3.2307867e-08,-1.3941993e-08,4.123857e-08,4.002579e-08,-6.055188e-08,-6.281487e-08,-7.387536e-08,-1.5475216e-08,-1.1440009e-07,7.510816e-08,-5.9246076e-08,1.3976525e-07,-5.046863e-08,-5.238412e-08,2.8566147e-08,3.6078717e-08,4.9070128e-08,2.1834715e-08,1.1857996e-07,-2.0541524e-08,1.08253655e-08,-7.807025e-08,6.584844e-08,3.235222e-08,-4.1531823e-08,-8.899001e-08,4.1685485e-08,0.17268139,1.6393168e-08,1.4115014e-07,1.2613992e-07,-1.5963096e-08,-1.3283753e-08,-3.446906e-08,-5.6821456e-08,-1.4460325e-07,4.7831893e-08,-0.90982485,-1.2198424e-08,-5.798075e-08,1.4043553e-07,-4.9262404e-08,4.718675e-08,-1.7564525e-07,3.4859827e-08,-4.0602934e-08,-8.473306e-08,8.5340844e-08,9.00701e-09,-7.8877015e-08,-3.7292466e-08,-4.3281826e-08,-1.1393239e-07,9.6287884e-08,-1.2268424e-07
4.3710063e-08,-1.3252949e-08,1.921978e-08,-1.0985339e-07,-2.1007278e-08,7.177931e-08,4.925863e-08,6.3998975e-08,2.7893961e-08,-2.6824914e-08,6.736303e-08,-8.0451855e-08,-2.1638665,-6.222682e-08,9.4418894e-08,-3.5102843e-08,9.810664e-09,6.5879824e-08,7.501566e-08,-6.4168105e-08,2.0979009e-08,4.7324626e-08,1.8911285,5.4022664e-08,4.7567973e-08,9.889561e-09,-7.9685485e-09,-5.5030043e-09,1.8863652e-08,5.342404e-09,-2.725474e-08,-3.9626784e-08,-7.1234645e-08,2.2093365e-08,-1.6754406e-08,-9.143393e-08,3.1472666e-08,-1.0160388e-07,-4.248463e-09,-7.231389e-09,-9.899761e-08,1.5017967e-07,-3.1852423e-09,8.146547e-08,-9.151065e-08,-6.3810326e-09,1.04611075e-07,1.7431496e-09,6.784525e-09,2.3249743e-08,-7.44389e-08,5.7488762e-08,0.63180155,1.3159097e-07,1.3059784e-07,1.4867284e-07,-2.2170479e-08,3.4602984e-08,1.378327e-08,9.800694e-10,-5.5662127e-08,-5.204811e-09,-2.0354972,-3.7309658e-08,-2.3566464e-09,-1.6582327e-09,-1.7152209e-07,1.8961254e-08,-5.8327636e-08,3.8645673e-08,1.6957694e-08,-3.7876788e-08,-9.6272494e-08,-1.4478651e-08,5.743207e-08,2.731884e-09,1.298081e-07,-1.0724662e-07,-3.1013982e-08,-3.6310343e-08
8.4781e-08,2.3629669e-08,-8.145974e-08,-2.6710762e-08,-1.1731318e-08,1.43327e-07,-1.2866984e-08,-1.1105108e-08,-2.4597938e-08,-2.0254035e-08,4.407489e-08,2.62135e-08,-0.9727006,5.042471e-08,-1.1129115e-09,-4.048676e-08,1.1719224e-07,8.815469e-08,-8.873201e-08,6.6934565e-09,-5.7982483e-08,-1.2536906e-07,1.0340861,-3.739362e-08,9.128487e-08,4.7322533e-08,-5.442864e-10,-7.2442276e-08,1.1694041e-07,-6.670894e-08,-7.8521644e-08,4.2939643e-09,1.4275179e-07,-6.790263e-08,5.8486258e-08,-4.5391758e-08,-3.6148215e-08,-2.2658543e-08,-1.5859437e-07,7.302342e-08,9.062396e-08,5.716551e-09,3.4700324e-08,-6.9628875e-08,-1.0479622e-07,-1.3378425e-08,-3.6370587e-08,-2.6886653e-08,1.3491078e-07,2.2066653e-08,-1.2236221e-09,-7.9269284e-09,0.035739195,-1.0685723e-07,-6.143914e-09,1.5156093e-08,-1.7983336e-07,-1.8835447e-08,-6.95564e-08,-6.948678e-08,-5.53617e-08,-4.332253e-08,-0.98338294,9.004579e-08,-9.803721e-09,6.422706e-09,4.6436206e-09,-2.2766786e-08,-6.7773776e-08,-3.950502e-08,-8.925414e-08,4.105731e-08,-3.2064406e-08,3.912233e-08,-1.2419841e-07,2.0092635e-08,-6.929744e-08,1.1392311e-08,1.998055e-08,-6.2671134e-08
2.45214e-08,3.3815382e-08,1.2002874e-07,-3.2248092e-08,-5.117991e-08,8.848565e-08,3.173049e-08,-2.8248092e-08,-2.9284436e-08,6.0648766e-08,3.300375e-09,1.7451443e-07,-1.8493679,-8.386383e-09,-1.928003e-08,2.3040066e-08,-7.819615e-08,5.302909e-08,-1.3103692e-08,-3.3267675e-08,8.8853625e-08,1.2088164e-07,1.5069188,8.698006e-08,2.6643235e-08,-3.6124625e-08,-4.1847535e-08,6.648687e-09,4.410067e-08,2.232057e-08,9.493753e-08,5.5000907e-08,-6.4030544e-08,7.6875565e-08,-1.2809455e-08,-2.1060512e-08,2.7191389e-08,-7.454568e-08,2.5913018e-08,1.1796132e-07,-3.702472e-08,-4.00839e-08,-1.2378489e-07,-2.4782102e-08,7.5449385e-08,-3.9341614e-08,1.5436353e-07,-1.5318527e-08,6.01146e-08,4.6095842e-08,-1.5077582e-08,3.4158116e-08,0.4224595,-1.0493712e-07,-5.465637e-09,5.138996e-08,-2.1587194e-09,-7.2858924e-08,-8.5058396e-08,5.5330947e-08,-1.6721452e-07,3.479842e-08,-1.8855815,1.640945e-07,3.5744705e-08,-1.5189151e-08,-5.4829115e-08,-5.3666838e-08,5.9757443e-09,1.010096e-08,-5.803686e-08,-1.6156529e-08,4.8825264e-08,7.3819066e-08,-6.330058e-08,7.220322e-08,8.448118e-08,4.5245784e-08,1.003905e-07,7.937675e-08
-7.0500494e-10,-2.1273603e-08,6.700745e-08,-3.421607e-08,-5.325455e-08,1.3925401e-07,3.6343945e-08,1.06551894e-07,2.2001794e-08,8.079448e-08,-7.814282e-08,-1.6510988e-08,-1.498193,-4.6967354e-08,6.396253e-08,-8.6534335e-08,2.2769997e-08,-4.6079226e-08,1.07229845e-07,6.472246e-08,1.0223103e-07,5.49377e-08,1.3694519,1.8544501e-08,-1.15847584e-07,6.169231e-08,2.8394176e-08,-1.086341e-08,8.261712e-08,2.7621157e-08,-6.614134e-08,-2.6188259e-08,6.727113e-08,-2.7045921e-08,-3.7890164e-08,-7.682968e-08,1.42427e-07,8.648064e-09,-1.5079495e-08,-2.0135406e-08,3.871603e-08,-5.2924587e-08,1.3286682e-07,1.1752675e-08,5.903005e-08,-3.0627636e-08,-6.497481e-08,1.5151315e-08,-1.3259799e-07,-5.579982e-09,8.355042e-09,-1.0446838e-07,-0.08720293,3.607393e-08,5.337206e-08,-6.4929864e-08,-8.2877065e-08,-1.227428e-07,-1.9644443e-08,2.4443153e-08,-3.517991e-08,2.789588e-08,-1.4734509,1.1444186e-07,5.4599226e-08,-3.0331684e-09,-4.6624145e-08,3.4759342e-08,-1.0665473e-07,-4.555207e-08,5.72279e-08,-2.3042688e-09,1.1906887e-07,-8.525952e-08,-9.27312e-08,-3.0554254e-08,-2.8962681e-09,-8.9007614e-08,-8.157302e-08,1.04793145e-07
8.7289365e-08,4.5377917e-08,2.1024405e-08,-1.3703428e-08,-7.667609e-09,-1.1613386e-09,8.217002e-08,6.188298e-09,-1.4140932e-07,1.574687e-08,-7.7486916e-08,1.30255025e-08,-1.9311519,3.8460083e-08,2.6573098e-08,4.261822e-09,7.281764e-08,3.108067e-08,1.1825048e-08,4.3092644e-08,5.3106888e-08,-1.907424e-07,1.2182801,-3.7159843e-08,2.631493e-08,1.5297628e-08,3.9945128e-08,-3.830949e-08,5.7374532e-08,-4.8487117e-08,5.8883526e-08,2.4716599e-08,-1.0114504e-07,4.8222514e-08,-1.082763e-08,8.847239e-08,-9.914881e-09,3.002107e-08,-7.588469e-09,2.122784e-08,6.480865e-10,1.2966055e-08,6.617384e-08,-4.4951957e-08,-2.6800313e-08,-3.8470667e-08,1.8490338e-08,-5.5600374e-08,1.5809576e-08,2.522131e-08,1.1413469e-07,-9.9760584e-08,0.6305509,7.2871046e-08,-3.10542e-08,-6.003193e-08,2.367151e-08,8.328698e-10,1.7137273e-07,4.3911918e-08,-6.042339e-08,1.2036945e-07,-2.0361767,-7.868052e-08,6.184493e-08,5.5294624e-08,-2.5063347e-09,-2.2593778e-08,1.2544518e-07,-1.4424373e-10,-1.007597e-08,-1.258166e-07,-1.0749718e-07,-3.0163857e-08,-1.3121068e-07,-3.8274173e-08,3.017597e-08,1.103953e-07,1.1101403e-07,-4.4213024e-09
-3.30785e-08,-6.350514e-08,-8.4511726e-08,6.095733e-08,1.7139294e-08,-4.8620237e-09,-9.348445e-09,-6.5471994e-08,1.0415613e-07,4.284922e-08,-7.047242e-08,-1.5886176e-08,-1.2356421,3.257715e-08,-1.4607392e-07,2.8661386e-08,-3.0035068e-08,1.8345602e-08,5.150114e-08,-6.489627e-08,-4.9364974e-09,-4.891569e-09,1.0348159,7.334973e-08,-3.3308787e-08,3.4389043e-09,-1.0215029e-08,-2.783767e-08,-2.4137826e-08,1.314614e-07,5.2043454e-09,1.5335009e-07,9.045402e-09,-3.8556806e-08,9.3486506e-08,-6.053725e-08,-3.6340328e-08,3.3122163e-09,-8.326223e-08,9.84856e-08,-4.1532093e-09,2.4833025e-08,-2.0200808e-08,-2.3521743e-08,-6.687868e-08,1.9682401e-08,3.4750975e-08,-1.561207e-08,-5.431138e-08,-3.8492303e-09,3.2793317e-08,-3.0859656e-08,0.41574067,8.211e-09,2.6924079e-08,8.7817824e-08,5.3770364e-08,-2.8240944e-08,-2.5590836e-09,-4.7692406e-08,1.4756263e-09,1.4890176e-07,-1.3349228,-5.7918033e-08,-9.388542e-08,-2.9808e-08,9.721955e-09,-2.4563047e-08,-1.1310916e-07,1.8518216e-08,4.913248e-08,4.1533248e-08,7.915512e-08,-5.3812272e-08,-1.7968338e-08,-4.1670575e-08,-5.3251092e-08,2.128432e-09,7.688152e-08,2.5592911e-08
1.2893967e-08,-2.0300067e-08,-7.018291e-08,9.0570005e-08,-3.331096e-08,-8.467816e-08,-6.5743855e-08,3.1968987e-09,-3.699546e-08,2.5664868e-08,8.7923944e-08,1.5516154e-08,-1.4960911,2.5082961e-08,1.1639259e-07,-9.9212905e-08,6.0256276e-08,-3.7687037e-08,1.4965565e-08,-5.5901612e-08,3.4583113e-08,-5.0645216e-08,0.9702192,-1.864481e-07,-6.697757e-08,1.0248203e-07,-5.824286e-08,-6.2998105e-09,-1.7058888e-09,-9.89786e-08,-1.2060052e-07,1.0804948e-07,1.6532127e-09,4.515489e-08,3.2055887e-08,-1.6694797e-08,1.7712772e-07,-1.1182797e-08,-8.442803e-08,-1.4005381e-07,4.6898084e-08,-1.03568354e-07,-2.2394714e-08,-2.6159498e-08,-1.7275786e-07,-2.2557764e-08,3.219668e-08,7.1944815e-09,-5.3565476e-08,-3.424694e-08,-2.972726e-08,-9.233974e-09,0.57485396,-5.1712426e-08,-8.029916e-08,2.472424e-08,1.2486414e-07,-3.9072393e-08,-4.8256187e-08,2.4279508e-08,6.4947145e-08,-4.9765575e-08,-1.7739139,7.5735315e-08,-2.7172968e-08,-1.0661568e-07,2.5139304e-08,9.471819e-08,7.610266e-08,3.017538e-08,-1.0480484e-08,4.776921e-08,-1.10148726e-07,5.2794526e-08,-3.095723e-08,5.69322e-08,1.2710576e-08,-2.3138279e-08,3.9939735e-08,1.7370787e-08
-2.4833469e-09,-1.0612171e-08,-6.3947345e-09,-2.9240852e-08,-5.629271e-08,-3.66958e-08,3.4889567e-09,1.5620907e-07,1.5035945e-07,4.3147814e-09,-7.805056e-08,6.5232285e-08,-1.5489454,-1.191824e-08,-3.75814e-08,4.780146e-08,-1.8712743e-08,-5.397284e-08,4.6851046e-08,7.855176e-09,6.33776e-08,8.895534e-08,1.363841,3.252387e-08,4.3536703e-09,1.3382458e-08,-9.798681e-09,-1.4964726e-07,-8.3183895e-09,8.178923e-08,-7.225861e-09,-1.501898e-08,2.9150794e-08,6.1039856e-08,-6.7458835e-08,1.5646783e-07,-1.0924913e-07,1.05775285e-07,-3.5344865e-09,-1.8590969e-08,-1.034571e-07,-8.125684e-09,-1.8069686e-08,2.8870861e-08,3.0179866e-08,1.6915486e-08,-2.6361562e-08,7.178869e-09,-7.177654e-09,-2.285207e-08,4.9950195e-08,6.17383e-08,-0.2735049,1.0521167e-07,4.0546848e-08,2.0872655e-09,9.470327e-10,-1.0122585e-07,-1.0976443e-08,-4.2387526e-08,1.1551191e-07,5.5519394e-08,-1.6339861,-1.0287388e-07,-1.8350468e-07,2.8019274e-08,1.8813964e-07,3.9703217e-08,-1.1914237e-08,1.8732225e-08,-2.46421e-07,7.351028e-08,7.04023e-08,1.8246737e-10,-6.766459e-08,1.3062155e-08,-2.7563722e-08,1.523042e-08,4.2414577e-08,2.3831712e-08
-4.074703e-08,3.7002216e-08,-3.7662396e-08,5.806417e-08,-6.840973e-09,-7.328465e-08,3.3091943e-08,-6.395702e-08,3.3011496e-08,-1.503194e-09,3.9362952e-08,6.966433e-08,-2.006034,1.2265154e-08,5.337192e-08,6.2597247e-09,4.0808658e-08,2.1892191e-08,-1.9217257e-08,1.551777e-08,-6.9462274e-08,6.3742576e-08,1.5236356,-9.006366e-08,-1.7091052e-08,9.7872274e-08,-2.4009923e-09,-9.459612e-09,-4.9968065e-09,-2.4667484e-08,1.8231788e-07,-5.91001e-10,-9.2329586e-08,1.6830686e-08,-3.119797e-08,-1.5747966e-07,3.0091176e-08,8.5755936e-08,8.289993e-09,-1.1324373e-07,4.4677435e-08,4.234498e-09,-5.8342614e-08,-6.185657e-08,-3.450038e-08,-8.4935614e-11,4.303348e-08,4.9912977e-08,5.0667463e-08,3.8933198e-08,6.549279e-08,5.5594825e-08,0.3968141,-2.0270274e-08,4.9743818e-08,1.0663577e-07,-1.119947e-07,-1.1711485e-09,-1.1350907e-08,2.155551e-08,1.724181e-08,-7.767765e-08,-1.9831189,-2.5685456e-08,1.4136421e-07,7.050872e-08,-9.286177e-09,-3.4598717e-08,5.3399184e-08,-1.6605084e-08,-1.3873947e-08,-2.2055833e-08,-6.096761e-08,-4.5174637e-09,-4.0047965e-08,4.8960867e-08,7.594552e-08,8.3401574e-08,2.4865688e-08,6.193325e-08
7.977088e-08,1.2453079e-07,1.00669535e-08,-1.0458102e-07,5.121733e-08,6.375652e-08,-1.1597683e-07,-5.164209e-08,2.3085848e-08,2.7479233e-08,6.9099414e-08,3.2423486e-08,-1.1745317,3.541201e-08,4.5285358e-09,-6.7109184e-08,2.8326046e-08,1.703889e-08,3.9841353e-08,-5.5095434e-08,9.4787545e-08,5.6118893e-08,1.0518197,-2.1961355e-08,-1.0771197e-08,-2.849859e-09,-1.9479963e-08,-9.8354604e-08,5.7355933e-08,5.658218e-08,-5.168995e-09,-2.4168667e-08,-8.131504e-09,-2.2252244e-10,-5.3191407e-08,-5.2080996e-08,-3.0547707e-09,-1.223756e-07,6.7449946e-08,2.5425361e-08,-2.9032993e-08,-1.0467197e-07,-3.5917353e-08,2.5369717e-08,-6.6322855e-08,-3.6881893e-09,-5.640519e-08,1.5739313e-07,-7.150085e-09,1.6494374e-08,4.2989967e-09,8.360968e-08,-0.7988345,-4.8874083e-09,5.65326e-08,9.382925e-08,2.8572709e-08,5.387941e-08,1.205679e-07,-2.2181732e-08,-2.6101198e-08,-1.2984857e-07,-1.0328274,-5.213736e-08,-9.1756405e-08,7.876682e-08,9.2165905e-08,-5.37694e-09,3.338756e-08,7.520816e-08,-4.7601418e-08,-1.0587453e-07,6.564448e-08,-2.7978686e-08,-1.3775541e-09,-1.029896e-07,-5.0824527e-09,1.7258655e-08,5.2999486e-08,-1.3620426e-08
4.3231914e-08,-5.918201e-09,2.3708274e-08,3.1657276e-08,-1.828468e-07,4.0981607e-08,-1.1431871e-07,9.365134e-08,-5.5471986e-08,1.1412926e-07,-2.7227571e-08,-1.3812036e-08,-1.852008,-3.657535e-08,1.9084236e-08,1.0991735e-08,-6.1655335e-08,2.8173108e-08,1.277318e-07,-1.1477436e-07,-1.5615349e-08,-1.7733107e-08,1.2477272,1.2586666e-08,-6.064742e-08,1.8566413e-07,-1.1112204e-07,6.672759e-08,4.4876582e-08,-2.6182374e-08,-1.4331167e-07,-1.1501735e-07,-6.2700636e-09,2.4782276e-08,1.1647802e-07,3.810867e-08,-3.307916e-08,1.9333532e-08,-1.0225124e-08,8.144512e-08,-1.3097726e-08,2.8332833e-08,-2.283622e-08,-5.6386398e-08,5.212044e-09,-7.481388e-09,-1.0990114e-07,3.9696786e-08,1.5870363e-08,-4.5600615e-08,4.9473414e-08,-1.689354e-07,0.38875976,-1.39236676e-08,2.8319132e-08,-9.299223e-08,-3.0812345e-08,-3.1195857e-08,1.1422461e-07,-9.143477e-10,3.718938e-08,2.135426e-08,-1.9428747,-2.7369929e-09,1.3834245e-08,2.4037565e-08,-1.1286543e-08,6.616913e-08,-8.3512497e-10,2.3331701e-07,2.7211797e-08,4.544915e-08,-1.38298715e-08,-5.758891e-08,6.769778e-08,3.7317003e-09,-4.980092e-08,-4.7262404e-08,8.7485944e-08,2.624592e-09
-5.0211376e-08,1.2614731e-07,-3.501487e-08,-1.0933856e-08,-1.0296051e-07,8.9564914e-08,-3.0907724e-08,-5.4527625e-08,-5.3516175e-08,-9.521578e-09,-2.4954465e-08,-1.3579555e-07,-0.8315701,-7.6743184e-08,5.183208e-08,-1.7108947e-07,1.6642506e-08,-5.864453e-08,6.8827674e-08,1.6780947e-07,-9.4005244e-08,-7.991906e-08,0.7251842,1.755271e-08,-2.1456865e-08,-1.8474594e-08,-1.716936e-08,-1.2184306e-07,-1.2695348e-08,-6.466588e-08,7.528337e-08,-6.71438e-10,4.771687e-08,6.7286123e-09,-4.81579e-08,6.972553e-09,1.5864213e-08,-3.0225756e-08,7.529734e-08,4.5688008e-08,6.85387e-08,7.039802e-08,7.221561e-08,-6.619246e-08,-7.216041e-09,-8.711419e-08,5.0524342e-08,-6.1209207e-09,-1.9125567e-08,8.92727e-09,2.5592534e-08,3.1673288e-08,0.07040324,2.7775945e-08,-5.3720626e-08,2.7638801e-08,5.3474224e-08,-8.585435e-08,-1.368083e-07,-1.1322037e-08,1.3272004e-08,4.328583e-08,-1.0686202,-1.5643115e-08,4.2441023e-08,-4.1267675e-08,1.7135163e-08,-1.4104883e-07,4.201806e-09,-8.679331e-08,1.7976246e-08,2.7598482e-08,-7.230871e-08,-2.1644055e-09,1.8052994e-08,8.615231e-08,-1.1589039e-07,5.090138e-08,-1.3184315e-07,4.3811728e-08
3.756866e-08,-4.7970993e-08,-7.664683e-08,1.9217406e-07,-1.236693e-07,4.787278e-08,1.1878668e-07,-1.3160257e-08,4.6956284e-08,4.714031e-08,8.055518e-08,-4.394351e-08,-2.0468776,-1.5656296e-07,-2.3114115e-08,-5.8693526e-08,-1.1509671e-07,4.5107534e-08,9.0262354e-08,3.099607e-08,4.4965628e-08,-7.257091e-08,1.8142778,-2.1442222e-08,2.2089855e-08,-1.1445061e-07,-7.668866e-08,-1.2062502e-08,-1.8804515e-08,2.0476108e-08,-9.139251e-08,-5.5492254e-08,-1.2713275e-08,9.264658e-08,-2.4184743e-09,1.6529852e-07,-3.363419e-08,-1.1534994e-08,-1.4461548e-08,-9.4161635e-08,-1.518592e-08,4.8592867e-08,9.772336e-08,4.0830173e-08,1.0802958e-07,-3.5762632e-08,-1.9300352e-08,-4.2254662e-08,-4.908672e-08,5.5093814e-09,2.8777325e-08,1.5496491e-07,0.95107794,-1.0335177e-07,6.148313e-08,-7.1510854e-08,8.666049e-09,-6.1043714e-08,-1.3905691e-08,-1.2412995e-07,3.4972274e-09,-9.0804456e-08,-2.0865602,4.2602327e-08,-1.6049877e-07,9.065752e-09,-1.05138966e-07,3.445497e-08,4.389657e-08,2.7217531e-08,9.833448e-08,-7.2758105e-08,5.4842346e-08,1.2336362e-07,-3.8809425e-08,5.2227314e-08,-6.9361725e-08,-6.4995653e-09,8.818389e-08,6.628434e-08
4.8351644e-08,-1.1073038e-08,7.277956e-10,6.687138e-09,-9.365401e-09,-8.054611e-08,-5.8405906e-08,-4.0826084e-08,-1.2150346e-07,5.8309602e-08,-1.4727393e-08,2.5948014e-08,-0.8728982,-2.1269226e-08,-1.1199466e-08,6.108547e-08,8.640535e-08,4.9988564e-09,3.6495003e-08,-3.2093688e-09,-2.629827e-09,2.9066445e-08,1.3112441,2.577918e-08,7.067709e-08,-7.309264e-08,-2.8909044e-08,-1.4735159e-08,-1.15015e-08,-6.8647495e-08,-1.6644972e-07,-6.26278e-08,-3.4413873e-08,1.8554934e-07,6.704028e-08,-2.596456e-08,3.690971e-09,-2.1072331e-08,-8.433328e-08,-6.504301e-08,4.0122416e-08,-4.5471882e-08,4.7323237e-08,7.974322e-08,1.3524414e-07,3.968455e-08,2.13422e-09,1.1362308e-07,9.771532e-08,-4.4079663e-08,-1.1676683e-08,7.852084e-08,0.5986934,3.1651478e-08,-2.4655442e-08,1.7883116e-07,9.759294e-09,-4.8709765e-09,1.8446148e-07,7.083116e-08,-1.5963715e-07,1.5021097e-08,-0.60100514,4.1298147e-08,-5.5316786e-08,-9.2517185e-09,-4.664173e-09,1.5148909e-07,1.1260085e-07,2.1362176e-08,1.3221236e-07,4.187889e-08,1.571367e-07,4.269708e-09,-3.4731634e-08,6.851508e-08,-1.8019737e-09,-4.4841855e-09,5.5198743e-09,1.7527474e-07
5.253723e-08,-7.942749e-09,-9.6604936e-08,-4.4867488e-08,3.658692e-08,3.2268712e-08,-6.462437e-08,-3.528288e-08,-2.7384399e-08,9.77233e-08,-3.5173308e-08,-2.1792149e-08,-2.0214977,9.919802e-08,-6.0773553e-10,6.511904e-08,-7.966661e-08,-7.89539e-08,-9.572181e-08,-6.651769e-08,2.7488413e-08,3.209374e-08,1.6491363,6.203686e-08,1.1888576e-08,-6.1730283e-09,2.3015964e-08,-3.932348e-08,1.5754544e-08,-1.1083031e-08,2.3508335e-08,-2.3742768e-08,-1.6619413e-08,-3.3199026e-08,-3.7975127e-08,-4.639914e-08,2.706112e-08,7.534011e-08,1.220397e-08,-5.0657444e-08,3.2325318e-08,6.4693864e-08,1.1843753e-09,-1.5573177e-07,5.2674523e-09,-9.5625786e-08,2.2914284e-08,2.0399915e-08,-8.3252935e-08,-1.1060927e-08,2.9677697e-08,-1.4283712e-07,0.8264925,8.788353e-09,1.2245014e-09,-1.609622e-08,1.10681476e-07,-5.5828433e-08,4.1701142e-08,-1.0427812e-07,1.02944995e-08,8.816897e-09,-2.0431125,1.0395674e-08,8.767388e-08,2.1570894e-08,-1.28272895e-08,-1.460771e-08,4.6110156e-08,2.7671366e-08,-2.7532388e-07,8.585117e-09,-1.7464019e-07,1.5223556e-10,-1.7833605e-07,5.403604e-08,-1.7896014e-09,-1.4596478e-08,-8.749929e-08,4.8620375e-08
2.145462e-08,1.04125036e-07,-3.6466474e-10,-2.2620146e-09,-2.7505397e-08,-9.1955144e-08,2.3763977e-08,-7.886675e-09,5.666587e-09,6.604737e-08,-2.2982102e-08,4.4171397e-08,-1.008831,1.3186549e-07,-2.2902586e-08,-5.815494e-08,7.37756e-08,-6.62442e-08,4.252928e-08,-9.429441e-08,6.798841e-08,-3.7776655e-08,1.146247,-4.2254207e-08,6.3194925e-09,-1.8872868e-09,-1.08839906e-07,-3.0780534e-08,2.8968454e-09,5.067384e-08,-2.6167097e-08,4.3256044e-08,-1.35241e-07,-5.2076268e-09,-7.750684e-08,-3.559769e-08,-2.2838563e-08,-2.9813414e-09,-1.0179768e-08,7.7220186e-08,-5.2811544e-08,3.3423856e-08,4.5416915e-08,-6.448559e-09,-2.8221788e-08,1.8169038e-07,1.115442e-09,9.121303e-09,1.17753025e-08,-2.36363e-08,2.958113e-08,5.8338735e-08,0.5048794,6.3435834e-08,2.6696192e-08,-2.0164492e-08,-1.0480619e-07,4.587754e-08,-1.3959056e-08,2.4690511e-08,2.0948743e-08,-2.0622613e-08,-1.0317076,2.0420426e-08,4.9335082e-08,-1.8284204e-08,-1.0678985e-07,2.2465734e-08,-2.8837981e-08,-2.2584842e-08,-1.3400329e-07,2.2504613e-08,-3.5136782e-09,1.3827362e-07,-4.849481e-08,1.3604203e-07,3.134651e-08,6.8500995e-08,4.4255508e-08,5.9442517e-08
4.0771475e-09,-1.6154402e-07,5.4121877e-08,-2.3346143e-09,6.606104e-08,1.6468851e-08,2.3464963e-10,-2.1486304e-08,1.947664e-08,-1.9931454e-08,-4.1880845e-09,1.3775458e-07,-2.05024,-7.5736935e-08,4.936121e-09,-6.7148456e-08,2.0089962e-08,4.5375675e-08,-1.05164474e-07,1.3591343e-08,2.1092362e-08,1.01205046e-07,1.3425676,-1.5062525e-08,8.8316504e-08,-2.2740632e-08,-1.8559389e-08,1.6920648e-08,1.5384224e-07,9.606899e-08,7.3110414e-08,-2.9164116e-09,-9.181053e-08,-2.101484e-08,6.4055754e-08,-1.2516577e-07,-4.1635392e-08,1.2749391e-08,8.7083194e-08,1.171061e-07,-3.87582e-08,1.1255709e-07,-1.6797621e-09,4.0717453e-08,4.2761894e-08,1.3765806e-09,-4.03348e-08,1.0456122e-07,1.9077719e-08,-2.106935e-08,3.3296004e-08,-1.2606862e-08,1.2804703,5.9333736e-08,-1.097786e-08,-1.1847729e-07,-1.3087564e-08,9.588847e-08,-2.2352467e-08,-7.390983e-09,-1.7554058e-08,7.846174e-08,-2.1850488,-1.3066412e-07,-1.7377449e-08,-2.0095623e-08,1.1593227e-07,1.3332913e-08,-5.6980173e-08,-8.5926104e-08,8.5587445e-08,4.0088192e-08,5.712379e-09,4.3236006e-09,-1.78215e-08,-1.9648603e-09,-8.690337e-08,2.2186631e-08,6.226942e-08,5.337102e-08
8.1043616e-08,7.02704e-08,-1.1809298e-07,4.2098087e-08,6.3949145e-08,3.271913e-08,2.5565129e-08,-1.10953955e-07,2.0370425e-07,6.2796545e-08,-3.904371e-08,5.7967185e-08,-1.4976913,7.7723115e-08,-4.230141e-08,-7.118561e-08,9.9729775e-08,2.1219165e-08,3.0730703e-08,2.6432932e-08,-6.408725e-08,-5.279542e-08,1.4201794,-3.1801157e-08,-9.623301e-08,-4.205724e-08,5.184499e-08,2.3116444e-08,4.809361e-08,1.0594971e-07,8.845996e-08,-7.398231e-08,-7.4746005e-09,1.361734e-07,-5.5359614e-08,-8.755087e-09,-6.8781475e-08,-3.174621e-08,1.0920756e-08,1.4415218e-07,5.866661e-08,1.9863467e-08,6.664702e-08,1.13582715e-07,2.302317e-08,7.995149e-08,6.056346e-08,1.0920657e-07,3.5809972e-08,-4.672091e-08,8.295906e-10,3.994993e-08,-0.42222974,-3.6209823e-08,1.9850408e-08,-9.680504e-08,7.487857e-08,-5.1956345e-08,7.22492e-08,6.459346e-08,-5.3005536e-08,2.4162533e-08,-1.499385,-3.9669057e-08,2.8047513e-08,-1.6329375e-08,-1.9473257e-08,-3.3400173e-08,-3.3198617e-08,1.3661138e-07,-5.262488e-08,4.8166648e-08,-1.7763298e-08,5.5163035e-08,-2.9732915e-08,2.2091058e-08,-1.5241033e-08,2.728489e-08,-6.7334625e-08,-2.8591582e-09
-1.31763e-07,-2.9054483e-09,-1.00576514e-07,-1.1055412e-07,-7.896954e-09,3.222122e-08,4.2777042e-08,-2.9552004e-08,-3.2091794e-08,9.833889e-08,-4.7484377e-08,-4.6873755e-08,-1.4075955,-1.7349606e-08,8.573605e-08,1.2580668e-07,1.493228e-08,2.579351e-09,4.0932083e-08,-6.0061716e-09,-5.7590462e-08,6.93322e-08,0.85148036,1.6377939e-08,6.1746164e-08,2.9165445e-08,-6.6981464e-08,5.6678918e-08,-9.9140145e-09,-1.4727796e-08,-6.6840364e-09,1.8744885e-07,1.564656e-08,4.2969624e-08,2.5449046e-08,1.4476069e-07,-1.6607876e-07,3.858034e-08,8.2652406e-08,4.8464408e-08,5.0662464e-08,-2.4880798e-08,-1.3737349e-08,-1.5508663e-08,7.0363825e-08,1.6635204e-07,-7.4285566e-08,6.9098974e-08,5.7557994e-08,-4.9721947e-08,1.1683255e-07,1.4088982e-07,0.32942194,3.7980882e-08,-8.0856125e-08,-9.852819e-09,-1.7877078e-08,4.823166e-09,-3.5118774e-08,6.878661e-09,-2.5799213e-08,8.053124e-08,-1.5274822,6.236459e-08,-4.7332172e-08,2.8179876e-09,2.6444985e-08,6.751255e-08,-9.689316e-08,4.4139327e-08,8.004872e-08,6.6860125e-08,-5.572151e-08,-2.3505441e-08,1.926028e-08,1.2779893e-09,-1.2524264e-08,-3.7613113e-08,8.0264e-08,1.4120718e-07
-4.6151563e-09,9.1868557e-10,3.1862555e-08,1.3578556e-07,2.5606226e-08,1.1576114e-07,-1.2496587e-08,-1.399064e-08,-4.0433022e-08,-3.6637417e-08,5.8007515e-08,2.4735478e-08,-1.3455275,1.0736963e-07,-5.4396327e-09,6.648814e-08,6.9540256e-08,-1.6817765e-09,-1.09119014e-07,5.422738e-10,1.019678e-07,-1.9110525e-08,1.5077683,1.4621406e-09,-2.9890135e-08,-1.5687467e-08,-4.8920526e-08,-8.273139e-09,-3.382743e-09,2.7999782e-08,-1.0848435e-07,3.013367e-08,6.6822274e-08,9.441653e-09,1.6514556e-07,7.0260604e-08,1.0876893e-07,2.6155953e-09,9.5117144e-08,3.5431633e-08,-6.3395174e-09,3.34878e-08,-1.4814777e-08,-5.552499e-08,-7.778026e-08,1.0245011e-08,3.3825287e-08,-1.4627723e-08,8.260744e-08,-2.1953769e-08,8.477586e-08,7.260354e-08,-0.014618455,4.5021576e-08,1.6009277e-08,1.7704005e-07,9.7010386e-08,-1.4867485e-09,-6.408654e-08,-7.767664e-08,-8.664476e-08,1.17087936e-07,-1.185171,8.241439e-08,-2.1286272e-08,1.0788996e-08,4.1029384e-08,-5.3624355e-08,-1.16398695e-08,-1.8190233e-08,-1.3890909e-07,6.413707e-08,-1.344633e-08,-1.18525435e-07,-4.4840327e-08,5.06974e-09,-5.8174844e-08,-1.2972018e-07,5.996626e-08,1.2482136e-07
5.6718047e-08,6.455946e-08,9.818983e-09,3.5590592e-08,7.28961e-09,-1.172722e-08,-2.190907e-09,-8.585701e-09,1.95147e-09,1.7232716e-07,-5.5099516e-09,1.4519821e-08,-2.1772385,-4.027068e-08,2.5615762e-08,1.5291857e-07,-2.5285901e-08,2.7295464e-08,-2.3083885e-08,3.3863984e-08,4.1974477e-09,-1.10729886e-07,1.941853,-7.929862e-08,1.4319971e-08,-5.0878683e-08,-1.3817711e-09,-1.5387586e-08,2.729827e-08,1.4551152e-07,1.7633033e-07,-9.44614e-09,-3.058968e-08,4.6391634e-08,-6.9777585e-08,3.4486785e-08,6.570595e-08,-2.0953255e-08,9.82698e-09,-3.5255233e-08,-9.458968e-08,1.1837496e-08,-9.160259e-08,-6.42833e-08,7.992272e-09,-4.808311e-08,2.2534088e-08,-2.4740201e-08,-4.8042637e-08,-2.9410216e-09,-1.7952466e-09,5.2384124e-08,0.9240668,6.8983205e-08,-2.6453524e-09,9.773501e-08,8.482344e-08,3.2127993e-08,1.7882146e-08,-7.664749e-09,6.23098e-09,-1.5044532e-07,-2.1814833,4.167926e-08,-5.0463616e-08,-9.592734e-08,2.6933098e-08,3.0200965e-08,-8.366537e-09,-3.3452494e-08,-5.204466e-09,1.5737456e-10,-8.39792e-08,5.0912483e-09,2.054054e-08,-4.275453e-08,-1.783297e-08,-9.506799e-09,-1.1825518e-07,3.575946e-08
-4.8713954e-08,9.271968e-09,-1.969938e-08,9.4851806e-08,5.5709144e-09,2.292806e-08,1.08103514e-07,1.9220583e-07,-3.1073753e-08,-6.962917e-08,-3.4681232e-08,-3.5350958e-09,-1.1209658,-3.7347714e-08,1.1348273e-09,-7.684035e-08,2.8019707e-08,-1.2065717e-08,6.0470086e-08,-4.3666255e-08,3.879137e-10,1.0024122e-07,0.79288757,-3.4163023e-08,6.303118e-08,5.1593425e-08,5.060833e-08,1.7336857e-08,-6.610945e-08,9.635285e-09,1.4148112e-07,-5.1301953e-08,-1.4090121e-08,3.6400312e-08,6.46577e-08,-7.3195416e-08,6.402754e-09,-5.8754473e-08,1.5830415e-07,-4.60503e-08,1.5255532e-07,-3.114387e-08,4.9853153e-08,-8.923591e-08,-6.519578e-08,-2.9265923e-08,2.1762137e-08,-2.2090026e-08,-3.9254687e-08,5.197736e-08,-3.198874e-08,2.6898539e-08,0.1280311,1.7002122e-08,5.760044e-08,-7.111811e-08,-4.6629353e-08,6.503035e-08,-8.616615e-08,5.911597e-08,4.399894e-09,-1.4834956e-07,-1.3748217,2.4660315e-08,-1.2759752e-08,7.6870876e-08,7.804012e-08,-2.8407937e-08,-3.6225348e-08,6.1442435e-08,8.7559826e-10,-7.222731e-09,4.4117016e-08,1.3699261e-07,-4.6245383e-08,3.1345813e-08,-2.904666e-08,-6.702313e-08,2.7356332e-08,-1.914471e-08
3.8451798e-08,-2.2787397e-08,1.4850743e-08,-4.257199e-08,-4.789278e-08,-1.1088955e-07,-3.709321e-08,5.2965156e-08,-5.7492137e-08,7.276725e-09,4.583456e-08,4.8918846e-08,-2.0369132,1.40645815e-08,2.9988488e-08,-1.0636612e-08,-4.4133e-09,5.0671044e-08,-4.696433e-08,1.4476522e-07,-8.2664286e-08,6.86424e-08,1.4622273,5.3026113e-08,2.427604e-08,-4.0986052e-08,-3.1465937e-08,-4.665877e-08,2.0861087e-08,1.9106015e-08,-6.4398264e-08,-1.2722457e-07,3.8639232e-08,-2.2977963e-08,-9.093978e-08,-2.896427e-08,-3.7420474e-08,-6.874535e-08,-4.345025e-08,1.3095593e-07,-8.618639e-08,-2.033834e-08,-3.6484835e-08,9.520603e-08,-6.900334e-08,1.633138e-07,-2.508743e-08,1.1952466e-07,8.086573e-09,-2.7243333e-08,9.9247806e-08,3.516491e-08,0.85320663,-5.5537903e-09,-8.985795e-08,9.9945176e-08,3.927749e-08,3.9174054e-08,-6.03055e-08,-8.192028e-08,4.626191e-08,-9.081623e-08,-2.078352,-1.3650105e-08,-1.286724e-08,1.3217477e-08,2.784797e-08,3.1599427e-08,7.6760614e-08,-2.1432445e-08,-4.8158654e-08,-2.2284617e-08,3.2281648e-08,2.3162515e-08,-5.7446243e-08,-4.3048125e-08,-3.114745e-08,-6.4773374e-08,7.6409556e-08,9.190529e-08
6.695784e-08,-1.10276304e-07,-3.1941518e-08,6.249648e-08,-1.0434529e-07,1.156002e-07,3.585463e-08,-3.151677e-08,-3.4440568e-08,4.783866e-08,-5.1378013e-09,-2.067273e-08,-1.1797574,8.3562995e-08,1.4516506e-08,-3.019803e-09,2.3541858e-08,2.562345e-09,4.068143e-08,8.0452736e-08,-4.8273947e-08,8.751281e-08,0.9940515,-3.2857734e-08,-3.057708e-08,-5.346019e-08,-5.6622234e-08,-4.310973e-09,2.9127172e-08,1.4249426e-07,6.6639515e-08,2.8132504e-08,-1.7325743e-08,-5.2581022e-08,8.12461e-08,9.976013e-09,-1.0576588e-08,2.7431681e-09,-6.170463e-08,3.991525e-08,3.530777e-08,6.7183907e-09,-1.3098519e-07,2.5634648e-08,-6.519572e-08,-4.935658e-08,2.711026e-08,-4.9788945e-08,-2.2651744e-08,3.586539e-08,1.8839689e-08,-7.5135675e-09,0.008591197,5.804052e-08,1.434794e-07,-1.9637394e-09,-1.8434081e-08,-4.5543963e-08,1.0125286e-07,-1.1762827e-08,4.6551637e-08,-5.8514498e-08,-1.280112,1.2081163e-07,3.5975937e-08,-2.6632849e-08,-4.7191246e-08,5.191268e-09,7.110335e-08,9.631153e-09,-8.542402e-09,-4.913159e-08,1.5130137e-09,9.420966e-09,5.6558722e-08,-3.1913302e-08,4.274225e-08,1.5851198e-07,1.3252375e-08,-6.806235e-08
-8.664325e-08,-1.46779175e-08,5.26931e-08,-3.225751e-08,-3.2798635e-08,7.6144735e-09,-1.0038427e-08,7.678508e-08,6.231198e-08,4.3641357e-10,1.3587863e-08,7.652956e-08,-2.1229084,-4.3486892e-08,5.6919696e-08,-5.708136e-08,-8.431167e-08,7.2643196e-08,1.1416236e-07,-7.268847e-08,2.5813506e-08,-1.2467967e-07,1.5739031,-3.9675356e-08,5.3134286e-08,-6.288074e-08,2.964674e-08,1.2709614e-07,-6.074212e-08,-7.168061e-09,3.3677004e-08,-2.8398278e-08,4.487178e-08,1.7184608e-08,6.785665e-08,2.985159e-08,3.4763339e-09,2.609223e-08,8.2830326e-08,-5.753752e-08,-4.380977e-08,6.212763e-08,1.1389307e-09,4.0146304e-09,-1.0659946e-08,-7.601083e-09,1.8029567e-08,-1.12708236e-07,6.568211e-08,-8.4963865e-08,-1.7235411e-08,2.9375336e-08,0.67140454,-6.154373e-08,-5.330235e-08,-4.422023e-08,-3.485873e-08,1.2200877e-07,-1.654529e-08,4.589227e-08,1.7986803e-08,7.071136e-08,-2.1916754,1.269152e-07,8.121697e-08,-1.4568623e-07,8.472405e-08,-1.9617966e-08,-5.428219e-08,-4.532688e-08,1.0697163e-08,-3.249508e-08,-4.5738794e-08,-6.795683e-08,3.224068e-08,1.7373729e-09,8.215073e-09,-6.871393e-08,-5.427818e-08,2.9932718e-08
1.4889729e-07,-4.647858e-08,4.4671562e-08,-9.835014e-08,-1.7719823e-07,-3.33155e-08,8.046781e-08,1.561595e-08,-5.7599138e-08,6.8813435e-08,2.4566539e-08,-1.6306265e-07,-0.5436519,-5.3032206e-08,-5.721561e-08,4.7118025e-08,2.4879686e-08,-6.8750744e-08,9.051662e-08,4.7007386e-08,-3.922724e-08,5.5712146e-09,0.22117847,2.1076744e-08,-8.012101e-08,3.220667e-08,2.1571552e-08,-9.70907e-08,-4.7271996e-08,-2.4560432e-08,-3.638375e-09,-8.4913694e-08,-7.5926906e-08,5.3471467e-09,-3.6744275e-08,-9.6150224e-08,-7.067288e-08,-5.8676072e-08,-3.0687083e-08,-2.1961494e-08,-1.4410344e-07,2.3998897e-08,-1.17510226e-07,-1.7486563e-08,7.493114e-09,-1.2523305e-09,-7.23075e-08,2.1540387e-09,-1.1755146e-08,7.843743e-08,4.0045954e-08,3.7241573e-08,0.36433163,5.6044435e-08,-4.2216108e-08,7.494761e-08,8.518376e-08,-3.0770316e-08,3.5124707e-08,1.01196605e-07,4.5576737e-08,-1.9259335e-08,-1.1372169,-1.059797e-07,9.957553e-08,-2.2739655e-08,-1.7410235e-07,1.4895807e-07,-9.222447e-08,2.737005e-08,6.2484533e-09,2.2751113e-08,3.947205e-08,5.931338e-08,7.989959e-08,9.896556e-08,-2.6372874e-08,4.800931e-08,2.1668018e-08,8.5182535e-08
-1.6889672e-08,-2.0690925e-08,1.8609452e-08,9.546762e-08,6.4014536e-09,5.542011e-08,1.6414308e-08,9.173761e-08,1.0493453e-07,-7.3415585e-08,-7.968823e-08,-1.0555682e-07,-1.6539409,3.2337066e-09,-6.260837e-08,1.4364439e-09,6.414092e-08,1.04132605e-08,-9.126347e-08,1.05703336e-07,2.113837e-08,-1.00347215e-08,1.1609192,3.5667007e-08,1.1688331e-07,9.624943e-09,-3.1579706e-08,1.04050706e-07,-6.049042e-08,1.5698346e-08,-1.1957444e-07,2.8690259e-08,-1.9000575e-07,-2.5724756e-08,1.502401e-08,-4.2347565e-09,1.1384091e-07,-2.578934e-09,2.8131636e-08,-2.1497351e-08,3.2806206e-08,-5.4875215e-08,2.8613787e-08,1.1307457e-07,7.702717e-09,-3.1951167e-08,3.8401055e-08,-1.5840126e-08,-6.244658e-09,-6.845672e-08,-3.638901e-08,6.69041e-08,0.29263258,-2.12958e-08,1.3937152e-07,5.319255e-08,-5.55078e-08,-1.7201678e-08,-6.025359e-08,5.9191816e-09,-1.1708439e-08,-1.4627645e-07,-1.8120668,-3.961335e-08,1.6319296e-08,-3.185002e-08,-7.9737575e-08,-7.263709e-08,-5.1222298e-08,-2.2825027e-08,4.2227413e-09,-1.5525572e-07,9.889819e-09,1.2786014e-08,-1.9793426e-08,-3.5043595e-08,-3.615805e-08,1.6921996e-08,2.660826e-08,2.1359252e-08
9.910629e-09,6.6460473e-09,-9.387453e-08,-4.1795744e-08,2.080996e-08,2.9770662e-08,-5.7555454e-08,1.9641115e-08,-1.8299959e-08,1.0117998e-07,1.8978413e-07,1.5193146e-08,-1.4593321,-3.5207783e-09,1.1024934e-07,-7.859896e-08,7.228815e-08,-9.146295e-08,2.174802e-07,-4.7788024e-08,1.0739185e-07,-5.6668085e-08,1.3348992,-3.8962927e-08,-6.5194584e-08,8.130414e-08,1.0806874e-08,-5.0052194e-09,-8.260182e-08,-9.106192e-08,3.374013e-08,-4.0246945e-08,3.4874624e-08,4.6561585e-08,1.3893055e-07,3.047323e-08,3.5776665e-08,7.334627e-08,6.6070854e-08,-9.802741e-08,-2.1561803e-08,4.139526e-08,-6.6023986e-08,-2.0926459e-08,-6.010801e-10,1.18507735e-07,-5.49707e-08,3.6331237e-08,-1.7036935e-08,3.1919303e-08,-9.7250044e-08,1.319413e-07,-0.51336217,2.2720116e-08,-8.656052e-08,-4.2662844e-08,-1.7369661e-08,6.072809e-08,1.4777406e-08,1.996774e-08,7.721443e-09,-2.5326571e-08,-1.5007838,-5.406637e-08,-5.527839e-08,1.6190249e-09,-1.11209495e-08,-2.406606e-08,-9.70839e-08,1.9196735e-07,-2.2314762e-08,-1.5076026e-08,-1.0063507e-07,2.9312153e-08,1.4621166e-09,-2.1533044e-08,1.9539728e-08,4.1020943e-08,1.399356e-08,-1.2149262e-07
-9.902789e-09,-1.9056854e-09,1.15335006e-07,-4.1840902e-08,5.0166115e-08,-2.1715701e-08,-7.7313686e-08,2.9396457e-08,1.2947685e-07,2.8391945e-08,5.6334535e-08,4.6383626e-08,-2.228025,-2.8941438e-08,1.7624193e-07,-3.846226e-08,3.8635623e-08,1.1501056e-07,1.4425403e-07,-2.2351836e-08,1.0698409e-07,2.7819311e-08,1.8138236,-1.3108156e-08,-1.1307147e-07,1.7689192e-08,-1.05846825e-08,1.17323836e-07,-4.714081e-08,-8.811376e-08,2.8032261e-08,-1.6781485e-08,-4.6636064e-08,-1.478632e-08,-5.5517027e-08,1.5510533e-08,3.065191e-08,8.295526e-09,6.82071e-08,7.014668e-09,-1.6862423e-08,-1.03787565e-08,6.1379595e-08,1.2894549e-08,6.570346e-08,-7.2519484e-08,2.3798421e-08,7.178302e-08,8.512508e-08,-4.8561354e-08,-1.1489995e-08,3.9342336e-08,0.3974221,-1.08731484e-07,-3.2940925e-08,6.4642784e-08,-8.397819e-08,8.295457e-09,2.0377518e-08,-1.9625233e-08,5.1673137e-09,1.5553393e-08,-2.2604318,1.14417794e-07,-4.576533e-08,-3.0121363e-08,-4.4666333e-08,-1.2797939e-07,-5.2311748e-08,-2.2242125e-07,8.456456e-08,5.4453164e-08,-1.7929271e-07,-7.3519706e-09,1.8976202e-08,-8.1685016e-08,-2.6938462e-08,-7.503711e-08,-7.6123925e-09,-9.421157e-10
4.065038e-09,-6.0480914e-08,-4.4746564e-08,-2.515555e-08,-5.1260816e-08,-2.4071326e-08,2.8692291e-08,1.2606236e-09,7.162904e-08,-4.8227637e-08,-9.753684e-09,-8.50778e-08,-1.202264,2.8732057e-08,-3.2918138e-08,-6.3336486e-08,2.9901457e-08,-1.8190736e-08,5.0861324e-08,8.171247e-09,1.3574989e-08,1.5633138e-07,1.2140706,-1.918508e-09,-1.0148144e-07,1.3097768e-08,2.0443856e-08,4.2059657e-08,-4.9483484e-10,4.3596646e-08,1.1125611e-08,-4.0050654e-08,-1.58278e-08,5.080229e-08,-6.382827e-08,-2.1507809e-08,-1.2761495e-07,1.274479e-07,-6.5138856e-08,1.9778845e-08,2.849867e-10,-1.8299934e-07,5.5662532e-09,3.9168683e-08,2.9588199e-08,8.470142e-09,1.1927978e-07,-4.5968488e-08,-4.4626706e-08,-8.2713704e-08,4.6219064e-09,6.0165615e-09,-0.1434496,-2.5430614e-08,-1.7991072e-08,-3.2824538e-08,5.9542078e-08,4.625445e-08,-5.924366e-08,5.3214308e-08,4.6335584e-09,1.4262408e-08,-1.1034187,-3.2464694e-08,-8.636874e-09,-1.5960207e-08,4.7717144e-08,3.0216366e-08,-7.9825995e-09,-7.175011e-09,-6.4126944e-09,-9.345679e-08,1.308064e-07,-1.6206663e-07,5.63184e-09,9.9555066e-08,-3.8690686e-08,-2.8353533e-08,5.4474903e-08,6.077964e-08
-7.868762e-09,-3.8248444e-08,9.665901e-08,5.0463008e-08,2.4384263e-08,8.984296e-09,-4.8541068e-08,-3.7740477e-11,6.490229e-09,7.106054e-08,-8.759522e-08,-2.9058038e-08,-2.1500268,7.495004e-08,5.477864e-08,2.339944e-08,4.7739512e-08,1.0387551e-07,3.712586e-12,-1.517197e-08,-3.45781e-09,-1.18554496e-07,1.5706964,-9.945195e-08,8.9902485e-10,8.53903e-08,-4.3768523e-08,-1.6779809e-07,-2.5787326e-08,5.8559706e-08,5.2114867e-08,6.754786e-08,4.5517872e-08,7.116009e-08,-1.281856e-07,-4.0299962e-08,-3.3098267e-08,-3.0482056e-08,6.2241625e-08,-3.2896082e-08,-9.599191e-09,-7.469679e-08,-4.625994e-08,2.3482833e-08,3.7072603e-08,1.5795315e-08,-1.3249313e-07,-1.890996e-08,7.802199e-08,-4.5576805e-08,1.0078038e-08,3.845649e-09,1.131038,-4.336118e-08,-6.3374934e-08,-2.3171802e-08,-6.365343e-08,-1.7589045e-08,5.399561e-08,-3.8719904e-08,1.00648e-07,-5.8606016e-08,-2.2068977,-6.280756e-08,1.0815395e-08,-9.723077e-08,7.071529e-08,1.2278527e-08,-2.9347586e-08,-6.6889875e-08,-7.408727e-08,3.101323e-08,4.3828985e-09,3.2407737e-08,-3.476049e-08,6.992376e-08,-2.54913e-08,-2.7436258e-08,3.217675e-08,-2.2785482e-08
3.137562e-08,-8.685182e-09,-2.206238e-08,2.5854678e-09,-8.478896e-08,1.17052934e-07,2.6172046e-08,4.0880543e-09,1.1459516e-08,1.7672079e-08,-8.922649e-08,6.4749273e-09,-0.6917629,1.1304187e-08,6.868868e-08,6.4083956e-09,-9.986078e-09,2.187111e-08,-9.554579e-09,1.6980659e-08,-4.0660986e-08,-9.966255e-08,0.84569496,4.18856e-08,2.9827266e-08,6.674916e-08,-1.1828195e-07,2.598966e-08,-7.946125e-09,-4.196177e-08,-8.434122e-08,-5.692981e-08,2.6959059e-08,-1.499306e-08,4.2082164e-08,-9.327634e-09,-8.7194806e-08,-3.6878628e-08,1.0297901e-08,1.195029e-07,2.7534874e-08,1.7468553e-08,4.5710774e-08,-4.7613018e-08,-7.412848e-08,-5.6788423e-08,1.5700707e-07,3.6026684e-08,8.249703e-08,2.8502392e-09,2.5574103e-08,9.743582e-09,0.5511121,1.7347435e-07,1.4338184e-09,-4.8532534e-08,-1.7163595e-08,3.0148158e-08,5.5154786e-08,-3.6148165e-08,-7.170446e-08,-6.527661e-08,-0.7171726,-5.6299356e-09,-1.38971386e-08,-7.859948e-08,-4.6296897e-08,-5.3080615e-08,4.147123e-08,-9.2683024e-08,5.3367053e-09,3.584962e-08,-1.6576621e-08,-1.4033313e-08,-6.871133e-09,7.197454e-08,4.239858e-08,-5.3034835e-08,-2.9549613e-08,-5.4618243e-09
-4.1788955e-09,1.0507305e-08,2.761244e-08,-1.0308373e-07,5.5719926e-09,-5.3827403e-08,5.257682e-08,9.3340745e-08,8.707982e-08,-7.646342e-09,1.5352771e-08,4.5578012e-08,-1.4924175,-1.0346522e-07,-5.0055558e-08,-3.3994736e-09,-6.164547e-08,-1.4119975e-08,-5.8864984e-09,4.257616e-08,6.358464e-08,-2.477207e-08,1.0010316,-9.141221e-09,-1.4003451e-08,7.136543e-09,-7.4924124e-08,-1.6429496e-07,6.6388246e-08,-2.815687e-08,1.0248999e-07,5.227423e-08,-1.2823235e-08,-7.329482e-08,2.7315586e-08,5.266664e-08,-7.964701e-08,2.0218888e-08,-5.5181186e-08,-7.600729e-08,6.689312e-09,5.4887035e-08,-9.7474086e-08,-1.9207015e-08,-7.568269e-08,6.7378934e-08,2.6115083e-08,-5.516361e-08,3.023965e-08,6.5506754e-08,8.132281e-08,3.2220981e-09,0.96074545,3.7611827e-08,8.997779e-08,5.2880004e-08,3.624772e-08,3.1565307e-08,1.2062412e-07,-3.0005157e-08,2.0762217e-08,-4.4605137e-08,-1.7541207,1.2537237e-08,5.441684e-08,5.4111744e-08,2.2106956e-08,-1.7435923e-08,6.759322e-08,4.4325898e-08,-1.9032491e-09,2.0442638e-08,-5.7582458e-08,4.7924317e-08,9.149652e-09,9.223907e-09,-2.190085e-09,5.273916e-08,2.4393643e-09,4.3330473e-08
6.873788e-08,-2.4446969e-08,3.6034965e-08,3.295882e-08,4.6256897e-08,1.4125279e-08,-7.0790335e-08,7.55415e-08,-2.991462e-08,6.3921775e-08,-9.202733e-09,-6.718024e-08,-0.68775934,1.3331682e-07,9.3029e-08,4.3018648e-08,4.3989676e-08,1.2584054e-07,4.790708e-08,-6.1389738e-09,-1.5278966e-08,5.496606e-09,0.7673537,-8.904258e-08,-1.5563548e-07,-1.7973598e-08,-1.4268228e-07,-2.4907015e-08,-1.4658728e-08,2.8900498e-08,1.810971e-08,3.7453855e-08,1.3644691e-07,-3.7966828e-08,-3.664443e-08,1.3199154e-07,-1.0207472e-08,2.6280826e-08,-1.913547e-08,-6.836821e-08,4.2979895e-08,-4.8042416e-08,-1.6933022e-08,-5.4277862e-08,7.375849e-08,5.6676203e-08,3.8101838e-08,-1.4401375e-07,4.8259285e-08,2.5774668e-08,-1.1637396e-07,1.060684e-09,0.43216002,-1.1878136e-08,-8.748215e-09,1.096364e-07,6.1293335e-08,6.8469674e-09,-4.4660343e-08,2.7447541e-08,-5.6813114e-08,1.466406e-08,-0.9889602,-7.44062e-08,-1.3732745e-08,-6.9341928e-09,1.07006166e-07,1.5036287e-07,-3.068542e-08,9.63367e-09,1.7911454e-08,-3.969012e-09,-3.587155e-08,-6.781111e-08,1.9446809e-09,-1.5512342e-07,-3.7780953e-08,-7.38339e-08,-2.7107454e-09,-7.102443e-08
3.1743518e-08,-2.6695157e-09,1.24283925e-08,5.3321504e-08,5.225884e-08,9.597446e-09,-2.1513085e-09,-8.3108404e-08,-5.573465e-08,4.107773e-08,-3.4318493e-08,7.5467725e-08,-1.9381781,6.9252664e-08,1.9308569e-08,-3.1628183e-08,-6.0757084e-09,-7.609226e-08,1.1707264e-07,1.5260596e-08,-5.1064934e-08,7.950845e-08,1.2858076,7.7272816e-08,1.0887841e-07,-2.534479e-08,8.3053735e-08,-1.0406842e-07,4.107123e-08,1.4437547e-08,5.7331718e-08,2.6164546e-08,3.8649958e-08,1.2221797e-07,-1.7713138e-08,4.7794444e-08,-4.6996036e-08,-1.065789e-08,-9.183075e-08,9.8585986e-08,-1.5232398e-08,2.5653035e-08,-5.0335345e-09,6.256309e-08,-1.8657218e-08,-2.7376348e-08,1.8626721e-07,-9.451004e-08,5.37245e-08,-6.343886e-08,2.3293804e-08,2.0298073e-08,0.8708028,3.1387533e-08,-8.6227665e-09,9.359525e-08,7.130261e-09,1.4992683e-07,7.379775e-09,1.1559144e-07,-3.2230187e-08,-9.989732e-09,-2.0519106,-2.1542927e-08,7.546492e-08,5.4779726e-08,8.2105416e-08,-6.87336e-08,1.7697733e-08,9.502235e-09,-1.9065634e-08,-3.942592e-08,3.588349e-08,-1.0394491e-07,-8.0859905e-08,2.1950248e-08,-1.5247013e-08,-1.2086206e-08,1.13448e-07,-2.265637e-08
-6.430651e-09,7.842744e-08,-8.735496e-08,-5.8588423e-08,1.12366635e-07,-4.096763e-08,-8.34087e-08,6.001679e-08,-1.170087e-07,1.5645342e-07,3.0932448e-09,2.7671234e-08,-1.0864841,7.6428535e-08,-6.098561e-08,6.230866e-08,9.295333e-08,1.0236256e-07,-6.443002e-08,5.7817605e-08,-9.5707016e-08,3.5079662e-08,1.0115517,1.3207878e-07,-1.3990733e-07,-1.8105875e-07,-2.749891e-08,7.1069266e-08,2.9895915e-08,6.027257e-08,2.6615963e-08,-2.1451292e-08,2.336354e-08,-1.3244112e-07,5.128732e-09,3.5759925e-08,-4.0616733e-08,4.507077e-08,-1.0502466e-07,-3.9656882e-08,5.9056536e-08,-7.256219e-08,-7.095933e-08,1.4195199e-07,-7.875555e-09,8.186441e-08,-1.9127965e-08,-3.5499067e-08,-7.2276755e-08,-5.7812887e-08,-4.597532e-08,1.8220833e-08,0.5274288,5.1570172e-08,1.4907154e-07,1.7824958e-08,5.8228988e-08,-6.833388e-08,-1.9992859e-08,9.614027e-08,-4.888969e-08,3.628199e-08,-1.1820977,1.0011964e-07,5.1475674e-08,4.422798e-09,2.5943656e-08,7.594855e-08,-6.1338596e-08,6.467471e-08,-1.506075e-08,1.5040385e-08,1.4312248e-07,-7.624339e-08,1.8195887e-08,-5.3229927e-09,-1.402704e-07,7.386747e-09,1.6324776e-08,-3.859139e-08
-2.3454524e-08,1.0823608e-07,4.5088797e-08,-5.5011732e-08,2.8769772e-08,7.201595e-08,-4.982917e-08,1.2356132e-08,-7.7267465e-08,-6.1404855e-08,-3.2952556e-08,4.946568e-08,-1.7499259,-2.4639387e-08,6.8810024e-08,-6.269879e-09,-3.171381e-08,-4.548874e-08,3.1919473e-08,1.3510803e-08,4.472597e-08,-3.5000596e-08,1.2028685,4.124169e-08,-5.8036168e-08,-9.253853e-09,3.4433164e-08,-4.6749445e-08,8.161658e-08,4.4256936e-08,2.4142226e-08,-2.0372873e-08,4.9444377e-08,7.295913e-08,-1.548244e-08,-6.3962915e-08,1.1043269e-08,1.2897493e-07,1.2688493e-08,-1.4915575e-08,-1.20263195e-08,-1.2647925e-07,4.0773003e-09,-3.352332e-08,1.0899484e-07,-8.10073e-09,2.3185468e-08,-2.3166749e-08,1.3068298e-08,7.577241e-08,-1.4515237e-08,6.245891e-08,0.8987281,-2.822538e-08,1.415667e-07,-6.051116e-08,-2.9988556e-08,-3.436233e-08,5.5036e-08,2.8807055e-09,1.8209974e-07,1.1466872e-07,-1.9526608,6.06763e-08,-5.442778e-08,-2.3729632e-08,-1.9006684e-08,-6.16354e-08,-5.9050063e-08,9.92724e-08,-6.602863e-08,1.5515556e-07,2.0968471e-10,-6.8577464e-08,1.9952209e-09,-4.3858098e-08,1.9361043e-08,-5.7500763e-08,1.4483209e-08,-1.05831806e-08
-8.3766245e-08,-1.8366498e-07,3.057678e-08,-5.7740976e-08,4.0883155e-09,-2.1690902e-08,-1.08056454e-07,-7.738617e-08,4.8687873e-08,1.382248e-07,4.0454253e-08,7.3503756e-08,-1.047752,1.7283259e-07,-9.888613e-08,2.8153817e-08,2.8869147e-08,-4.3427285e-08,2.1288216e-10,-2.8063244e-08,2.4072865e-08,-1.2395436e-07,0.5843848,-3.44505e-08,-7.8687155e-09,3.5781987e-08,4.7475666e-08,4.4728857e-08,-7.47024e-09,9.8656756e-08,2.687954e-08,-9.068119e-08,6.9811094e-08,-9.923106e-08,4.645854e-08,2.386784e-10,1.5487657e-07,-1.5528616e-07,4.324543e-08,6.112378e-08,1.2226145e-08,-2.6783443e-08,1.8217353e-08,2.573433e-08,-6.053256e-08,4.1930058e-08,-3.5113196e-08,8.471713e-08,-1.3620459e-07,7.9665604e-08,-2.103118e-08,-1.3466432e-08,0.51173586,-6.766642e-08,-3.3005996e-08,4.1310166e-08,-1.2989354e-08,1.39694905e-08,-1.3694782e-07,1.0527842e-08,5.5948796e-08,-5.1266213e-08,-1.345478,1.476496e-07,-8.248417e-09,8.817732e-08,7.516541e-08,-5.050639e-08,-3.2152535e-08,5.6053604e-08,1.8302993e-07,1.5785272e-08,-7.620078e-08,1.3514523e-08,7.864751e-09,1.08009345e-07,-6.698198e-08,-1.1265031e-07,-9.4216475e-08,-2.6491978e-08
8.767189e-08,2.8039082e-08,8.295942e-11,-2.0010836e-07,6.052888e-08,2.7264008e-08,7.579928e-10,1.0261784e-07,3.058124e-08,1.5873097e-07,6.096383e-09,-7.417408e-08,-1.8026074,-1.0480954e-07,-1.0931505e-08,-1.9958042e-08,-8.2292466e-08,-3.3681356e-08,2.385189e-08,-4.4697913e-08,-1.7346498e-08,9.5335025e-08,1.1875898,-1.04920076e-07,-1.4574425e-07,2.7303235e-08,4.5819526e-08,-2.5253414e-08,1.6457026e-08,3.844015e-08,-4.5921382e-08,-9.985432e-08,1.6712143e-08,3.082815e-08,2.4945361e-08,6.293961e-09,5.888925e-09,-2.4382217e-08,-1.2254542e-08,5.456065e-09,6.9174e-08,4.7071254e-09,-5.2112547e-08,7.338201e-08,-6.89247e-08,4.7891486e-08,5.2396434e-09,1.2071283e-08,2.8485161e-08,8.900002e-08,1.8209999e-08,7.2929666e-08,1.0612693,3.6866734e-08,-1.473434e-08,6.937941e-08,-4.562047e-08,1.2849682e-08,5.7134557e-08,1.739306e-08,-8.708258e-08,-1.644406e-08,-1.8158168,-1.0329389e-08,-2.9920304e-08,3.2132768e-09,1.6634145e-08,-4.700381e-08,1.601377e-08,3.7816843e-09,-4.7124878e-08,-6.1157164e-09,4.484172e-08,-3.891409e-08,3.408555e-08,-1.818259e-08,-2.8043045e-08,1.2727073e-08,-1.1724417e-08,-4.190374e-08
5.4242445e-08,2.933156e-10,-6.6507326e-08,-4.7978176e-08,8.266165e-09,9.77213e-09,-1.1623615e-07,1.2379783e-07,-5.84568e-08,-2.3677599e-08,-3.736202e-08,-8.818789e-09,-1.0138402,-4.9733746e-08,-4.4334335e-08,3.5284813e-08,5.8238494e-09,-7.2990126e-08,-1.148679e-08,-1.6635107e-07,-6.437165e-08,-4.9050783e-08,0.5950724,5.3860077e-08,2.0251122e-08,-6.183253e-09,4.6754064e-08,-1.4620962e-09,-1.2190691e-07,-7.321927e-08,7.361165e-08,-8.7850104e-08,3.8213077e-09,-1.3092239e-07,1.3604094e-07,-6.4922126e-08,1.286144e-08,-7.26398e-08,-3.283435e-08,3.0589188e-08,1.2759492e-07,4.1790035e-08,1.0171309e-07,4.286423e-08,2.1847537e-08,-3.294708e-08,-1.12220064e-07,6.4311095e-08,1.2615121e-08,-1.06438016e-07,4.4680554e-08,1.7934605e-08,0.7498689,-2.0463284e-08,6.335078e-08,-5.2292076e-08,6.001797e-08,-1.2207843e-08,8.514219e-08,-5.484731e-08,-7.061746e-08,6.200298e-08,-1.2868109,-3.945914e-08,6.1108416e-08,-4.1373433e-08,-6.958656e-08,1.1311229e-07,-8.8923535e-09,8.065133e-08,-4.635969e-08,1.27393225e-08,-1.4530045e-07,1.9067846e-08,2.1040286e-07,-9.031962e-08,1.8510711e-08,-9.008362e-08,-8.071458e-08,5.321404e-08
-1.1338192e-07,-7.468902e-09,-7.8468005e-08,-6.405021e-08,8.276689e-08,-6.445598e-08,4.7104052e-08,3.3189107e-08,-7.649196e-08,3.751856e-08,3.365471e-08,-1.6797652e-07,-1.7834367,-2.2292049e-08,7.395843e-08,-3.391213e-08,4.8421498e-08,-2.830209e-08,-1.2967467e-08,8.726742e-08,6.2791685e-08,3.6980165e-08,1.1306139,4.076582e-08,1.0516845e-07,6.3540604e-09,9.827158e-08,-4.0698616e-08,-1.6866654e-08,6.6782953e-09,6.4110516e-08,6.4936554e-09,4.448055e-08,1.2633531e-07,1.692352e-07,3.512868e-08,-1.5532615e-08,-2.8242853e-08,-3.6675715e-08,5.9038026e-08,1.954512e-07,-5.6481223e-08,-6.102051e-08,1.4977754e-08,2.9264553e-08,5.579999e-08,-1.3549463e-08,-2.7343063e-08,-1.4676016e-07,2.3121867e-08,-3.0141404e-08,5.6423126e-08,0.8759016,3.7310308e-08,1.5440163e-08,4.015457e-08,-2.9789607e-08,-3.586612e-08,8.372311e-09,5.900483e-08,-1.1476615e-09,-8.590186e-09,-1.8764522,8.619696e-09,1.3225513e-08,-7.859015e-08,-1.3260906e-07,3.5930828e-08,2.0897666e-09,-1.159945e-08,2.9513824e-08,2.6919857e-08,-2.2130877e-08,1.1396857e-09,-6.193686e-08,5.958853e-08,2.0728763e-08,4.0625203e-08,1.01932976e-07,3.2201605e-08
3.2605776e-09,-1.2283561e-08,-1.941755e-08,-1.1050015e-08,3.8693425e-08,-5.4073517e-08,-1.4482062e-08,-2.870636e-08,-1.245587e-07,1.01846375e-07,1.1819619e-08,8.479506e-09,-1.1830574,1.8560867e-07,-7.677003e-08,8.952309e-08,-8.041996e-09,1.909853e-08,2.023502e-08,-5.3857146e-08,-9.1621644e-10,-2.5434275e-08,0.94044185,-9.999734e-09,-6.161889e-08,-5.423855e-09,1.5365096e-09,6.7917455e-08,-1.5667412e-07,-1.4900259e-09,1.344769e-07,-8.1271985e-08,4.7064614e-08,3.3031355e-10,-7.370842e-08,-5.126144e-08,1.4417386e-08,-2.6708166e-08,-4.3665494e-08,6.18467e-08,4.9174826e-08,3.1760194e-09,1.01375214e-07,-1.3883779e-07,-3.5183916e-08,6.6117735e-08,-3.234753e-08,-1.0230443e-07,3.1215222e-08,-2.113214e-09,3.6105394e-08,-3.2691375e-08,0.28857553,1.8604332e-08,1.3142616e-08,-1.3491324e-07,-3.3662218e-08,1.545539e-08,8.61385e-08,2.1466526e-09,-1.5120584e-08,-5.8230953e-08,-1.321002,-1.2605842e-07,9.732896e-08,-9.475338e-08,2.6644003e-09,3.2174594e-08,-3.1009034e-08,3.7240245e-08,-9.348081e-08,-1.947805e-07,4.8567628e-08,2.5057595e-08,8.863551e-08,7.217549e-08,2.9339269e-09,1.2266145e-07,-2.7975721e-08,-1.5112903e-07
-1.1995408e-07,-4.745663e-08,-4.0230064e-09,1.6645245e-08,4.0955157e-08,-6.728634e-08,-8.5320675e-09,-2.991422e-08,-1.7167864e-07,-8.7743956e-08,-4.365935e-09,-3.1111234e-08,-1.9253908,6.709627e-08,1.5044192e-08,2.9755412e-08,-1.0364321e-08,-3.5171865e-08,1.7989316e-07,-5.7252436e-08,7.669081e-08,-6.691942e-08,1.0508869,-1.4886075e-08,2.631512e-08,-1.2442752e-08,-1.08250816e-07,3.2995964e-09,-6.1832225e-08,-3.8865995e-08,1.1305321e-07,-5.7853658e-08,-7.2138285e-08,-1.12541855e-07,5.432991e-08,-9.255658e-08,-9.621669e-09,1.4606748e-07,-1.16072954e-07,1.14713174e-07,-9.099892e-09,-7.2626904e-08,-5.935288e-08,-3.780972e-08,-6.104951e-08,6.1415385e-08,1.2529478e-07,-6.9008976e-08,-3.5795193e-08,-1.9526924e-07,3.53656e-08,1.5237628e-08,0.59734046,-4.6542636e-09,-1.13706136e-07,1.3021885e-07,-2.5781144e-08,5.888485e-10,-1.3675182e-07,2.5429618e-08,-1.8914795e-07,-2.2547265e-08,-1.9905128,-2.0331633e-08,4.8816485e-08,-3.1366696e-08,-1.7868473e-08,7.753286e-09,6.31093e-08,-3.718599e-08,1.2732211e-07,4.6552948e-08,1.1325131e-08,1.1334805e-08,1.500695e-07,3.846313e-08,-1.8058582e-08,-5.588829e-09,-1.4242229e-08,4.5185864e-09
2.485255e-08,-1.2022117e-07,1.1985415e-08,-4.0033335e-08,-1.4990288e-08,9.388577e-08,7.702636e-08,7.563001e-08,-6.408823e-08,2.5817378e-08,4.4671463e-08,-7.392289e-08,-0.9332154,-8.299899e-08,7.093325e-08,-7.441969e-09,1.5348267e-07,-6.3039884e-08,-2.258472e-08,-5.3486545e-08,-6.240131e-08,1.6021035e-07,0.9666313,3.855214e-08,-1.24480515e-08,2.900062e-08,1.9248763e-08,2.1759021e-08,5.595698e-08,-8.359707e-08,-8.6773056e-08,9.654631e-09,-2.9007548e-08,3.198539e-08,-1.06898966e-07,1.8320976e-07,2.7507276e-09,-3.0718475e-08,-1.18982875e-07,-7.072833e-08,4.5275677e-08,-4.518873e-08,1.5455186e-08,-3.7583447e-08,-1.4437692e-08,-6.6104676e-08,-5.374241e-08,-5.326005e-08,-9.904913e-08,-4.0933884e-08,4.4775113e-08,-1.6668722e-08,0.3822776,-1.0880794e-07,1.3510162e-08,-8.891548e-08,-2.553804e-08,-1.5073091e-08,1.5721203e-07,6.6259645e-08,2.154132e-08,2.0289187e-08,-0.9970042,-2.6343221e-08,1.0446026e-08,4.0428812e-08,-1.430265e-08,6.254218e-08,7.4001516e-09,-1.6835578e-08,-2.0531216e-08,-3.55846e-08,4.974193e-08,7.65241e-09,3.8053855e-08,1.711135e-07,1.1114753e-08,5.539956e-08,-1.4761827e-08,5.9521536e-08
-2.0830493e-08,-8.50251e-09,-1.0302319e-09,9.756977e-08,-2.143809e-08,8.629408e-08,-1.5422508e-08,9.069586e-09,1.05149155e-07,7.40401e-08,1.7598171e-07,3.5098026e-08,-1.9908669,5.3396786e-08,-2.2715017e-08,1.6434907e-08,1.6390597e-08,1.0783783e-08,-1.5639571e-07,4.1564228e-08,-3.5590638e-08,1.2549062e-08,1.5698807,2.7635503e-08,4.6121653e-09,-8.6661515e-08,4.6480565e-08,2.6193767e-08,2.1616415e-09,4.9426284e-08,-2.8276869e-08,-7.674943e-08,6.8881135e-08,1.07407544e-07,3.966321e-08,6.435916e-08,-7.02259e-08,7.8651695e-08,7.617938e-09,1.6182504e-08,-1.07169505e-07,-3.3189878e-09,1.65482e-07,-5.7387226e-08,7.487243e-08,3.7225718e-08,1.25579795e-08,-4.006445e-08,7.822505e-08,-2.504536e-08,7.119101e-08,-7.160637e-08,0.5790898,-7.1647094e-08,4.8531604e-08,-1.0584963e-07,-1.2045884e-07,-4.453054e-08,1.5346228e-07,7.4953874e-08,-4.3147146e-08,-9.195324e-09,-1.8501064,1.3051584e-07,1.3973442e-07,-9.786592e-08,5.1480587e-08,5.2435517e-08,-3.3818772e-09,-5.397209e-08,1.5887282e-07,-1.6229365e-09,1.4948758e-07,-3.3107295e-09,-6.652671e-08,6.181974e-08,1.1068532e-07,-2.5786548e-08,-1.2006396e-08,1.09428186e-07
4.708891e-10,-3.4530366e-08,4.9961677e-08,-8.360088e-08,7.750053e-09,-3.608866e-09,-1.4490778e-08,-3.6679957e-08,3.453561e-08,2.3375733e-08,-7.54715e-08,4.6195403e-08,-1.094251,-2.7066683e-08,-1.3086682e-07,-1.14948456e-07,3.6400863e-08,7.685729e-08,6.5399615e-09,3.730616e-09,1.3040541e-07,2.6332012e-08,1.127341,-1.3905495e-08,-4.518533e-09,-1.0409233e-07,-4.4259057e-08,-1.698015e-08,7.364946e-08,-1.1551593e-07,4.988254e-08,-6.584056e-09,5.6060287e-08,-2.635381e-08,-1.8692365e-08,-2.6365608e-08,2.3689902e-08,2.73514e-08,-5.9764034e-08,-9.565682e-09,3.739943e-08,-5.0553645e-08,-1.554622e-08,-2.3154037e-08,2.368715e-09,-8.587151e-08,6.002266e-08,-1.13138256e-07,5.6194402e-08,8.519358e-08,-9.103286e-08,-4.7925706e-08,0.12225901,1.3005504e-08,-1.5183044e-08,-9.278641e-08,4.218535e-08,-1.169321e-08,-5.7326076e-08,2.4008562e-08,-4.031973e-08,2.4201356e-08,-1.0473843,-5.076302e-08,1.15741425e-08,-4.5135607e-08,-2.117558e-08,5.294688e-08,1.07073035e-07,1.48437325e-08,-2.7835014e-08,-1.1082477e-09,2.874009e-08,5.677627e-10,4.1542947e-10,-4.3186596e-08,8.9194625e-09,-1.663949e-08,-1.11179745e-07,5.127248e-09
-9.5924435e-08,1.1848387e-08,2.5456329e-08,-1.5624849e-08,-7.724468e-09,3.4179184e-08,-7.182267e-08,-5.593232e-08,-2.932584e-08,2.6996094e-09,-4.0237367e-08,5.87324e-08,-1.9439965,3.0141678e-08,-7.184216e-08,4.82048e-08,-7.099294e-08,-1.1818523e-07,3.600875e-08,-5.9017985e-08,7.1642816e-08,7.4812135e-08,1.4150296,-8.033522e-09,1.7769867e-08,2.1863487e-08,3.4274954e-08,-1.2638536e-08,-9.514768e-08,-3.5106744e-08,-5.0893554e-08,-1.7727718e-08,5.590037e-08,2.3001963e-08,-1.2254844e-08,-7.864459e-09,6.214232e-08,-8.416936e-08,-2.0704206e-08,-8.850908e-09,-8.196969e-09,-8.267449e-10,8.295389e-09,3.6499916e-08,1.6268311e-08,-4.583827e-08,-1.6302788e-08,-6.9799526e-08,-3.8558312e-10,-3.8948222e-08,5.13267e-08,5.4919074e-09,0.58942235,9.857775e-08,3.477907e-08,8.459191e-09,1.7392738e-09,2.8311227e-08,-1.4471226e-07,4.817931e-08,3.103737e-08,1.2952361e-08,-1.9254391,1.5928872e-08,-1.3445591e-08,-1.5082631e-07,-2.596348e-08,-1.8635863e-08,-2.6759377e-09,-7.653496e-09,4.7303587e-08,-3.4962433e-10,-8.5811706e-08,-6.9362606e-08,1.1817631e-07,2.8310826e-08,3.1540914e-08,1.969974e-08,-3.5747956e-08,6.599852e-08
1.2651824e-07,2.4489108e-08,8.99487e-08,-5.15713e-08,-9.885771e-08,1.1643807e-07,-2.0500575e-08,2.4408738e-08,-1.99029e-08,6.2806905e-08,-4.7932648e-08,-1.792699e-08,-0.7343721,2.3949477e-08,-4.784104e-09,7.21494e-08,1.6602437e-08,2.102194e-09,-4.6917204e-08,1.7336323e-07,-4.264011e-08,7.750582e-08,0.8822228,6.983859e-08,2.9574322e-08,-1.1031198e-08,-6.1672495e-08,8.7641965e-09,-2.9856913e-08,9.82957e-08,-3.6151235e-08,-4.648266e-08,1.198257e-07,-6.234036e-09,8.425989e-09,7.341106e-08,-1.5985258e-10,-2.2601924e-08,-3.5388393e-08,-6.0526204e-08,-1.6850136e-07,-3.4335184e-08,1.6253871e-07,2.623043e-08,-1.2131469e-08,-5.334833e-08,-1.6696727e-07,1.5048063e-07,-1.1301666e-09,1.17428534e-07,5.0757684e-08,4.3970957e-08,0.2010386,1.7863809e-07,1.8615129e-08,6.0836705e-08,1.7784751e-10,-4.393517e-08,-6.0752505e-08,3.8650818e-08,-6.288473e-08,-1.3722568e-08,-0.6942873,4.7126008e-08,-3.286495e-08,8.361845e-08,1.0510968e-07,7.101073e-10,2.8068651e-08,-1.4414762e-07,-7.097578e-08,1.19980825e-08,3.4109327e-08,1.5246478e-07,-6.3873145e-08,-2.6184484e-08,1.9320492e-08,2.9802557e-08,-6.391926e-08,6.240731e-08
8.043366e-08,-3.199586e-08,2.1345883e-07,-1.00678484e-07,-1.8474633e-08,3.7311025e-09,-3.7344364e-08,3.8978122e-08,2.6330007e-08,-1.9686125e-08,3.0286156e-09,1.43132635e-08,-1.8668394,9.398471e-09,-6.883579e-08,-2.0679788e-07,1.5672803e-07,5.163005e-08,5.959582e-08,-5.1403262e-08,-4.3670568e-08,-5.4790778e-08,1.4827309,1.4639893e-07,-6.563519e-08,1.04235184e-07,-5.531622e-08,8.656034e-09,-2.2689374e-08,-4.839031e-08,-1.1368449e-07,-2.0145173e-08,3.0937162e-08,-6.7095115e-08,3.8945263e-08,1.0056361e-07,-1.2741357e-07,-1.7013695e-08,9.008512e-08,-2.3572806e-09,-2.2861432e-08,-3.3195317e-08,6.2565476e-08,-6.9092906e-08,5.4742017e-08,3.7779056e-08,1.2308384e-07,-1.3929136e-07,-2.5328664e-09,5.4514246e-08,-4.302727e-08,-3.9850008e-08,0.420195,2.8790076e-08,2.072699e-08,8.985546e-08,4.366973e-08,1.5902838e-08,5.485877e-08,-2.8612359e-08,-1.25641755e-08,-1.1132292e-07,-1.8977836,6.1493694e-08,1.1183572e-07,-4.607697e-08,8.065015e-11,2.0266022e-08,3.5775834e-08,1.1074238e-07,1.5379133e-08,-3.6899955e-08,-1.835117e-08,3.341413e-08,-1.1840639e-07,4.7963653e-08,-1.1689509e-07,-7.976956e-09,3.969042e-09,-2.8707277e-09
-5.8753333e-08,3.4563508e-09,3.46638e-08,1.4763793e-07,2.7508591e-08,2.7336458e-08,6.1293655e-08,1.06490155e-07,5.104539e-10,5.3411057e-08,9.094072e-08,7.44553e-08,-0.9674339,5.3164033e-09,-1.1267503e-07,1.8423246e-07,5.485029e-08,2.7200409e-08,6.178411e-08,-2.031701e-08,3.6581064e-08,1.13869785e-08,1.6661879,1.08213094e-07,-9.791501e-09,2.2591996e-08,-3.986428e-08,5.3723113e-08,-5.104287e-08,-2.844838e-08,1.2883274e-07,1.2668113e-07,-1.8804355e-08,-4.962525e-08,-6.506876e-08,4.6325187e-08,1.7901618e-08,1.3943442e-09,1.8982682e-08,8.17055e-09,2.137006e-08,5.753144e-08,5.910614e-08,-4.643333e-08,-4.691751e-08,3.651094e-08,7.214352e-08,-5.990561e-08,4.1801748e-08,2.8240915e-08,1.1607657e-09,-4.453446e-08,-0.13406529,1.8220214e-07,-3.6696377e-08,1.9257495e-08,4.9033744e-08,-9.241581e-08,6.7681754e-09,2.9914766e-08,8.6838785e-09,1.7475274e-07,-0.24381642,2.6174467e-08,8.877802e-08,1.0424522e-07,-8.1930835e-09,9.786255e-09,5.1291824e-09,-1.702702e-09,1.5893566e-08,7.593018e-09,-1.1581148e-07,-1.1018031e-09,9.3467676e-08,-1.2304108e-07,-9.723568e-09,-5.090131e-08,1.3867046e-08,-3.482236e-08
1.8950125e-08,2.5319304e-08,8.2551495e-08,-5.2994885e-08,7.4527364e-08,-4.9018066e-08,5.391748e-08,-3.7331052e-08,-6.180297e-09,8.766321e-10,-1.3301104e-08,4.3052214e-08,-2.119164,-3.7470897e-08,2.1267667e-08,7.1199636e-08,2.5450069e-08,1.04311866e-07,9.201495e-08,-5.8045643e-08,-3.076784e-08,-1.39839e-07,1.8075432,1.669882e-10,1.34544145e-08,1.3617523e-07,-4.269593e-08,4.8406633e-08,3.9727272e-08,1.1085753e-08,2.4597291e-08,2.80405e-08,-1.1657859e-08,1.0184747e-08,-5.2951954e-09,9.068694e-08,1.1217263e-07,3.459766e-08,-3.6078411e-09,3.8377095e-08,-2.9767556e-08,1.2347186e-07,-1.5886022e-07,1.1975469e-07,-1.0619509e-08,9.356011e-09,5.3063243e-08,1.7468292e-08,-4.656361e-08,-2.2479178e-08,-2.945908e-09,6.951393e-08,0.5287827,-3.1704346e-08,-9.724488e-11,2.9516235e-08,1.9496527e-07,-4.60849e-08,-2.6343828e-08,7.2316126e-08,-1.7207934e-07,-4.7727745e-08,-1.903183,2.8711766e-09,-3.528332e-08,9.71763e-08,-7.0194695e-08,2.541855e-08,-9.4839066e-08,-5.331843e-08,1.0940812e-07,1.2348327e-09,-5.1047575e-09,-4.125269e-09,-1.0779853e-07,3.700097e-08,2.4631724e-08,-3.1640333e-08,1.2244098e-08,3.9169034e-08
-1.6512821e-08,4.426303e-08,8.928569e-08,-4.5316327e-08,-7.28718e-08,-3.8508432e-08,-6.388848e-08,1.732293e-07,3.671584e-09,-9.172805e-09,2.8825399e-08,-4.859313e-08,-0.3657767,-2.8913961e-08,3.7981636e-08,-6.774685e-08,4.450211e-08,3.0823315e-08,-7.362617e-10,-1.7824245e-08,-1.5951544e-08,-3.5688558e-08,0.39026818,4.524159e-08,1.9783297e-08,-5.6646883e-09,2.1120382e-08,-1.3773787e-07,-4.880551e-08,1.7379804e-07,-5.0195457e-08,-1.1604679e-07,-1.0978728e-07,3.0974803e-08,-2.3487988e-08,-6.8216366e-09,2.841837e-09,-5.2154423e-08,7.036485e-08,4.9382756e-08,-7.1349824e-08,-7.953548e-08,-9.931284e-09,-1.5166522e-08,-4.2916696e-08,-6.044237e-08,8.468984e-09,2.3117881e-08,-4.8564928e-08,-6.544387e-08,-3.153581e-08,7.456034e-09,0.33128852,-3.8439318e-08,9.480711e-08,5.663556e-08,-9.128634e-08,1.260291e-07,-6.471459e-08,-7.303676e-08,-8.3264204e-08,1.1892233e-08,-0.77464604,4.3179668e-08,2.5453891e-08,6.457945e-08,-3.6148638e-08,-3.7742893e-08,-6.02566e-10,4.0021753e-08,-9.7372904e-08,7.671609e-09,5.174618e-09,-7.159224e-08,3.0720237e-08,4.803722e-09,-4.6485887e-08,9.076693e-08,-2.3333788e-08,3.8464123e-08
-9.463535e-08,9.9276676e-08,-3.9527006e-08,7.431554e-08,-1.559475e-08,-2.6219388e-08,5.462347e-08,1.7528545e-07,6.279595e-08,8.62318e-08,-1.0657691e-07,-4.8790305e-08,-2.1425679,-1.1438718e-08,3.4812e-08,9.390649e-08,-7.340915e-08,5.564094e-08,7.248005e-08,7.384794e-09,-1.6699513e-08,-3.2288168e-09,1.6679453,3.272367e-08,-2.6609554e-08,-4.018376e-08,-1.9577676e-08,4.617637e-08,-2.0721385e-08,-2.318036e-08,-3.890245e-08,-5.5321536e-08,5.5458713e-09,-2.1578312e-09,4.5222716e-08,-5.022949e-09,3.1026204e-08,6.533686e-08,-4.4285503e-08,8.234905e-08,-5.177593e-08,-4.0851944e-09,9.657714e-08,-3.2187437e-08,5.5664938e-08,4.2956874e-09,1.08105326e-07,7.3530124e-09,-6.635234e-08,2.5032913e-08,-8.2152845e-08,-2.2998968e-08,0.5268567,3.4036468e-08,-5.0502624e-09,4.5647216e-08,6.0017484e-08,1.3096173e-08,-2.7523095e-08,3.161796e-08,-9.787501e-08,-1.9152775e-08,-2.2069888,-1.0892691e-08,5.2507e-08,4.6771532e-08,3.9757328e-08,-4.2920995e-08,3.179302e-08,-8.2648285e-08,-7.6170686e-08,-1.0168789e-07,-3.4688227e-08,4.6685756e-08,2.7277348e-08,2.8416643e-08,6.2100938e-09,-2.2246724e-08,-1.1249965e-07,9.733928e-08
-1.341486e-07,-1.4070643e-07,-1.9988626e-08,-6.786187e-09,-1.16513865e-08,2.5757386e-08,2.0819762e-08,-7.704106e-08,-2.127603e-09,-7.2555295e-08,5.992794e-08,-8.585904e-08,-1.0618392,-4.9233975e-08,2.778366e-08,7.172993e-09,3.347984e-08,7.381379e-08,8.4791814e-08,-2.6909579e-08,5.6661335e-08,9.918929e-08,1.3885247,-5.994247e-08,-2.4464006e-08,4.983878e-09,-2.5006663e-10,-1.2367742e-07,-3.348831e-08,2.4659634e-08,-2.712836e-08,6.127815e-08,-3.5479317e-08,-7.7949e-08,-1.0167469e-07,4.331138e-09,-1.8207547e-08,6.113224e-08,-6.0846816e-08,4.7336588e-08,-1.765307e-07,1.0208495e-08,2.3578504e-08,-2.985366e-08,1.1138917e-08,-1.4552674e-07,1.8209988e-08,3.5386346e-08,-1.0445741e-07,-1.3781343e-07,2.2319716e-08,-4.8590937e-08,0.037090063,-4.4749704e-08,-1.5881184e-08,7.211628e-08,-1.1391688e-08,-1.05144736e-07,4.0349185e-08,-2.9206614e-08,-6.925578e-08,5.695907e-09,-0.6825175,7.004419e-08,6.692366e-08,1.3526693e-07,-4.254386e-08,-6.224453e-08,-7.167232e-08,-1.7807462e-09,1.0898283e-08,-2.1479059e-08,-4.3323105e-08,1.0674992e-07,-7.974444e-08,1.1331428e-07,-5.364811e-09,-1.2770739e-08,3.5507405e-08,-2.5765273e-08
-3.364945e-08,-1.2862654e-08,3.2952364e-08,-6.894163e-08,-2.755461e-08,2.5001235e-08,-9.1355815e-08,-5.009191e-09,-3.2783014e-08,-1.7058724e-07,-9.659484e-08,-1.645982e-07,-2.23565,-5.4860493e-08,2.1649512e-08,-5.965717e-10,-8.899143e-08,-1.2308303e-07,1.2213125e-07,1.7593997e-08,2.9855372e-09,3.1265987e-08,1.8228527,1.821466e-08,-2.0175588e-07,5.916629e-08,-1.6234152e-07,8.886669e-09,2.1956815e-08,3.72982e-09,1.1143394e-08,-4.876313e-08,8.780524e-08,2.5386983e-08,8.9962626e-08,-5.4042047e-08,-1.055428e-07,6.7614536e-09,-7.0035924e-09,7.2099326e-08,-2.5744828e-09,4.3784954e-08,6.186738e-08,1.0505593e-08,-9.51608e-08,6.0930887e-09,-8.024315e-08,1.3254969e-07,-3.4986755e-08,5.989989e-08,1.6006497e-08,-7.2151067e-09,0.5327184,-1.6353564e-08,-5.5406232e-08,-1.762513e-08,-5.978241e-08,-5.1819722e-08,6.064536e-08,1.0595148e-07,5.819345e-10,1.373974e-08,-2.2254884,4.520981e-08,-6.781562e-08,1.6205477e-07,5.5045437e-08,2.656709e-08,-2.0040432e-08,-5.5346362e-08,7.212554e-08,-9.398669e-10,-5.2763166e-08,-1.7731658e-08,-2.779916e-08,3.1369424e-08,1.7756573e-08,4.7097657e-08,4.5714845e-09,2.5436158e-08
-3.134196e-08,-1.6451787e-08,-5.6305513e-08,-2.5385908e-08,-1.897732e-08,-9.004538e-08,7.838871e-08,-1.02735214e-07,-5.240584e-09,1.0482944e-08,1.3400886e-08,-1.7669572e-08,-1.0862398,2.4435975e-08,1.1889286e-08,8.377117e-08,-1.7344853e-08,1.6380385e-08,7.344278e-08,1.7315593e-07,1.1169146e-09,-1.47609e-07,1.3184373,1.6420278e-08,-7.311008e-08,3.5700257e-08,6.498068e-08,-4.3699487e-08,2.6952776e-08,1.0487655e-08,8.9397467e-10,1.3951542e-09,6.8570984e-08,3.377004e-08,1.554593e-08,1.8286865e-09,7.733507e-08,-5.3359685e-08,-4.651395e-09,8.285736e-08,-6.892238e-08,1.08597725e-07,-4.2057138e-08,-3.929468e-08,-4.3379842e-08,7.3852675e-08,-1.9913061e-08,1.1888699e-07,5.0579875e-08,4.5906283e-08,4.7370285e-08,-5.9558374e-08,0.26675567,-4.8046232e-08,-5.8502113e-08,-5.855194e-08,-3.2801697e-08,-3.7689038e-08,6.7247974e-08,6.2516584e-08,1.607317e-09,5.557962e-08,-0.71826065,1.8298529e-08,-3.9958813e-08,6.876274e-08,3.9320987e-08,-6.691771e-08,7.830164e-08,-4.9084974e-08,9.333532e-09,-2.3030173e-08,-6.102441e-08,7.464126e-08,-6.299355e-08,3.9429963e-08,7.087965e-08,-1.00580294e-07,2.7163196e-08,1.4572388e-08
