3.4750902e-14,-1.02657825e-13,-0.0010074936,3.3461818e-13,3.221935e-13,3.2490078e-13,-4.5294711e-13,2.251192e-13,8.1688454e-14,1.1583529e-13,1.1231187e-09,8.4918184e-13,-4.431715e-13,-5.7211825e-13,0.5100664,-0.0003193843,1.6231718e-13,-0.49671224,3.4577492e-13,1.2082423e-12,0.35394272,-1.6360052e-13,2.3517576e-13,-3.1048e-14,-3.2926307e-13,2.8537754e-13,-1.5060198e-13,1.0593087e-12,3.141391e-13,8.213444e-14,1.9958498e-13,2.8595133e-13,2.6512494e-13,1.0312204e-07,4.5493286e-14,0.0062950067,0.59105754,2.7663708e-13,7.166816e-13,-3.0771802e-13,-3.391284e-13,-0.09461173,-5.6026364e-14,4.407458e-13,5.9626154e-13,0.09339528,0.041421965,-3.887241e-13,-0.17925265,2.6464987e-13,3.4829455e-13,5.351933e-13,0.0006817976,-6.5950365e-14,-2.290219e-13,-5.6776323e-13,1.02467134e-13,-3.1044308e-13,-2.2978115e-13,8.759962e-13,-3.0833514e-09,1.1338776e-13,-1.3379091e-13,-2.1835859e-13,0.3371516,1.1976303e-05,-3.8256534e-13,-0.64991844,1.2339576e-14,2.0249454e-14,0.42263097,6.062198e-13,-4.6425906e-13,4.2469088e-13,-9.70621e-15,4.2303373e-13,2.488004e-13,-1.6112133e-13,3.466256e-13,-1.2305559e-13,-2.7938247e-13,-2.3670402e-13,1.4802879e-13,2.8919487e-08,-2.0545782e-13,-0.0019912408,-1.477843,-4.924657e-13,-2.984961e-13,1.2339934e-13,-3.3160795e-13,-0.030274276,3.7897184e-13,-4.5838637e-13,-1.4387027e-13,0.1866825,0.054389976,6.076015e-13,0.1751406,-3.8789292e-13
2.8436438e-13,5.1773703e-14,-0.0003189231,-7.28985e-14,2.197699e-13,4.5159338e-13,-3.4871628e-14,1.3143322e-13,6.120468e-13,3.3649578e-13,-9.400474e-10,2.2676994e-13,-2.9250596e-13,2.5763373e-13,-0.34656087,2.9261478e-06,-5.867183e-13,-0.4292301,4.437447e-13,4.2814973e-13,-0.51908237,2.8346525e-13,-8.655832e-14,6.68103e-14,-6.01659e-14,1.3150096e-13,9.467924e-14,-7.5352105e-14,-1.9855165e-13,1.9733076e-13,-6.85108e-13,6.431509e-14,1.8557836e-13,3.533324e-08,3.702653e-13,0.0020980318,0.8830336,-3.758073e-13,-1.777676e-13,-1.7493971e-13,5.901664e-13,0.037262633,-3.1782948e-13,-3.3915438e-13,-3.0709116e-12,-0.16385369,-0.0088029755,5.941026e-13,-0.008534435,-4.7690384e-13,-3.813738e-14,3.2377586e-13,-0.0008081681,1.2155886e-13,2.3176892e-13,2.5034038e-13,-1.11255704e-13,2.999567e-13,5.092286e-13,2.7094212e-14,3.3353027e-09,-5.4602113e-13,-3.0070263e-13,-9.110249e-13,-0.76266164,-1.2197606e-05,4.1950826e-13,-0.6168288,-2.2512061e-13,3.6880933e-14,-0.36779037,4.241167e-13,-2.5440945e-13,4.3750878e-13,1.0951499e-14,2.506624e-14,-3.3871907e-13,3.9280024e-13,-1.6331654e-13,4.4658496e-13,1.6528895e-13,2.9414833e-13,7.427941e-13,-5.9164158e-08,4.9635318e-14,-0.0013358723,-1.7893667,3.497891e-13,3.9623036e-14,-2.7237422e-13,-3.3177546e-13,-0.008352895,5.0507114e-13,-8.6369686e-14,3.589394e-13,-0.027837297,-0.00038573187,4.588284e-13,0.05261658,-1.825935e-13
-1.7038241e-13,-1.6557526e-13,-1.576831e-05,-3.2018222e-13,3.3087376e-13,-5.062331e-13,-1.0011265e-13,-4.8788236e-13,2.813246e-13,-1.1694012e-12,-2.653556e-09,-8.8554836e-13,5.720484e-14,4.9280838e-14,-0.39061376,0.0001602589,8.60006e-14,-0.58914775,2.616795e-13,1.2119103e-13,-1.3877126,-3.0063717e-13,-9.249613e-14,4.4816207e-13,4.6683794e-13,3.8895395e-13,1.2866964e-13,-3.3701205e-14,1.4736053e-13,3.1064742e-13,5.833592e-13,6.669688e-14,-4.1424646e-13,-1.1511884e-07,5.0361993e-13,-0.0013300672,0.11061879,-2.1359433e-13,-9.15408e-14,-2.0320703e-13,-1.2340414e-13,-0.099417135,-1.2322738e-13,9.361049e-15,2.7991064e-13,0.09093248,0.06527677,5.2565916e-15,-0.08178522,-1.1911415e-13,-4.0099038e-13,-2.3289882e-13,-0.0016204087,-6.245999e-13,3.0568728e-13,-1.877212e-13,-7.347584e-14,2.282979e-13,-8.208679e-14,-1.1876513e-12,1.9971007e-09,1.0716665e-12,7.541954e-14,-8.0180106e-13,-1.037763,-7.731294e-05,3.9200305e-14,-0.73905057,-8.1523866e-13,2.7980678e-13,-0.18596292,-3.5001825e-13,7.948595e-14,-2.5419868e-13,1.0002364e-13,-1.9688241e-13,-2.5285682e-13,-1.6838755e-13,-2.8736074e-14,-1.0148012e-13,1.3719622e-13,4.165648e-13,2.299884e-13,8.620566e-09,2.584364e-14,0.0013252565,-1.4210865,3.8519134e-13,2.6696427e-13,4.533135e-13,-5.352844e-13,0.054768126,2.525642e-13,2.1789948e-13,2.0229711e-13,0.11875452,-0.005279855,4.920552e-13,0.15948877,-4.9869765e-13
-3.8730564e-13,-1.7754895e-15,-0.00011169547,2.765055e-13,-3.114973e-13,-1.33678875e-14,-3.0593915e-14,-1.3383652e-13,4.145176e-16,8.9883873e-13,2.7497595e-09,5.723181e-13,-8.059737e-14,-1.5829894e-15,-0.40781927,-7.941022e-05,2.7968806e-13,-0.6487271,2.506811e-14,9.498139e-13,-0.92732847,4.62559e-13,7.0250354e-13,4.1730153e-13,-5.2790866e-13,5.623742e-13,-1.0288509e-14,-3.3889298e-13,-2.9833582e-13,5.416103e-13,1.4691003e-13,5.1035733e-13,-1.3472852e-14,-1.6758223e-08,1.696505e-13,0.0019343981,0.4020047,-5.368293e-13,-2.826244e-13,1.9656255e-13,-2.817011e-13,0.031511627,7.2918055e-13,7.6529885e-13,1.8723387e-12,-0.050937857,0.0021173186,-6.2611876e-14,0.002098749,-1.11005714e-13,-2.270752e-13,-2.0993317e-13,0.0005662773,-2.2596345e-14,-1.1419977e-13,2.7472463e-14,-1.1146788e-13,-2.4127998e-14,-5.8826154e-13,1.6226907e-13,1.2559699e-09,3.6938361e-13,3.4871398e-13,1.6569827e-13,-0.801977,3.787064e-05,5.5474484e-13,-0.32340536,7.004101e-13,1.038552e-12,0.31011313,3.0487863e-13,3.507097e-13,-4.202052e-13,1.5563928e-13,3.6999229e-13,3.3340523e-13,2.4411145e-13,2.9509126e-13,6.6291514e-13,-1.2245016e-13,2.2726024e-13,-4.4218147e-13,-5.228225e-08,-6.0076813e-13,-0.0009127415,-1.857584,-4.4527684e-13,-4.9778215e-13,-7.413996e-14,3.462732e-13,0.016236253,4.569575e-13,5.1550805e-13,-1.7123784e-12,-0.0056162467,-0.0031278853,6.5026646e-13,0.07595639,-4.7375905e-13
-6.8999033e-15,3.5732734e-13,-0.000594703,-4.7575285e-13,2.6217255e-13,1.8097211e-13,-1.2132932e-13,1.4042863e-13,-3.717527e-13,-3.5123082e-14,-1.3389514e-09,-1.3549014e-12,-3.4803058e-13,-1.1034529e-13,-0.98435634,-2.8362349e-05,2.0821376e-13,-0.6595192,1.680959e-13,4.832943e-13,-0.86983037,-5.4129027e-13,3.10677e-13,3.9460975e-14,4.2474244e-13,2.3304595e-13,2.2655963e-13,2.533217e-13,1.0010924e-13,-3.6519716e-13,5.9097784e-13,-1.3849008e-13,-2.7754491e-13,-1.8324666e-08,2.2002711e-13,0.0037572572,0.44013906,2.7931422e-13,-2.875844e-13,-2.9135928e-13,2.6309353e-13,0.04496117,-4.8088394e-13,3.6358004e-13,-8.0784316e-13,-0.0015865245,-0.006044414,2.0774468e-13,-0.30854416,3.7252935e-13,9.1421066e-14,2.1900926e-13,-0.0018359747,-7.2518814e-13,-3.3618884e-13,3.0159967e-13,2.6767404e-13,-3.0132667e-13,-3.269218e-13,1.0520128e-12,-1.0410889e-09,-3.1221057e-13,-4.485525e-13,3.8752706e-13,-0.10212304,-7.643742e-06,-1.24924e-13,-0.66927594,1.042175e-13,-4.2618207e-13,-0.13991737,-5.2047505e-14,2.703409e-13,1.9005723e-13,1.2316051e-13,-3.457557e-13,1.9006652e-13,4.3136935e-13,-1.5963424e-13,-2.1903315e-13,-2.548552e-14,4.4431017e-13,-1.31114195e-14,3.2990165e-08,-5.0022584e-13,-0.002037579,-1.3897392,-2.728417e-13,-2.7814155e-13,-4.1974074e-15,-5.5490497e-14,-0.0800129,-2.2331534e-13,-9.506377e-14,-1.8337283e-12,-0.1230099,0.019897792,-5.064603e-13,0.08250904,-3.981636e-13
3.0790214e-13,1.4295612e-13,-0.0016744273,-1.1674757e-14,-6.043127e-13,3.7602105e-13,-7.4450396e-13,-2.1418053e-13,3.72111e-13,1.7029878e-13,8.6360813e-10,2.7059575e-13,3.3243975e-13,4.784044e-13,-0.5182388,-0.00011461793,-4.924298e-13,-0.6846452,-1.9696023e-13,-2.283625e-13,-0.27186644,-2.6757508e-13,-4.784594e-13,6.879019e-14,-3.2313437e-13,-2.4128263e-13,-1.8957186e-13,2.2793917e-13,-2.2103197e-13,-5.4525368e-14,2.9020877e-13,5.024912e-13,1.6009468e-13,-2.6540437e-08,4.6751096e-14,0.003354792,1.0377935,-3.9178993e-13,2.6124307e-13,-2.8496322e-13,3.0860804e-13,0.04476353,-8.6578693e-14,-1.6880315e-13,9.903117e-13,-0.058204483,-0.004130681,-3.6868013e-13,-0.018966183,-2.5125445e-13,2.8357576e-13,-3.7110408e-13,-0.0023801844,4.628864e-13,-1.5523672e-13,-3.868262e-13,-1.0045674e-13,-5.366121e-13,3.2982503e-13,-2.5423993e-13,-1.1944472e-09,-3.8588536e-13,-4.7009515e-13,-1.2295362e-13,-0.11484641,2.9169601e-05,-7.7232844e-14,-0.30968508,-1.9775791e-13,1.9827816e-13,-0.18850641,9.1530977e-14,4.4769743e-13,-5.046396e-13,-2.551246e-13,-4.2810368e-13,-5.0829702e-14,-2.0786964e-13,1.3929465e-13,4.5147927e-13,3.4179018e-13,-2.3744648e-13,3.002172e-13,-3.212442e-08,-2.8836642e-13,-0.0018538552,-1.9935694,4.5653385e-13,2.3393172e-13,-8.986952e-16,-4.687751e-13,-0.02509754,-1.6372473e-13,4.9333107e-13,1.146308e-12,0.010838998,0.00058769673,9.0283114e-14,0.030079398,-8.5389405e-14
-3.9388854e-13,5.0168387e-13,-0.0016916357,2.4055974e-13,-3.2703126e-13,-2.3209315e-13,1.9180312e-13,-3.7224607e-13,3.840498e-13,-1.4332009e-12,-3.843338e-10,9.265153e-14,1.06433905e-13,4.0540179e-13,-0.72195345,-0.00031803956,-3.3147893e-13,-0.18372224,-5.755785e-13,-5.685085e-13,-0.98449093,3.4142855e-14,6.340639e-14,2.2676793e-14,7.428346e-14,3.3793858e-13,-2.1738573e-13,-3.274845e-13,2.0301577e-13,-1.6537932e-13,-3.4065483e-14,3.4752266e-13,1.09257926e-13,-2.7840823e-08,1.4117228e-13,0.004069219,-0.24797016,-2.368546e-13,-1.1381781e-13,2.1794465e-13,-2.1230547e-13,0.017902518,6.2548876e-13,2.8766925e-13,-9.750371e-14,0.025802143,0.01610832,3.3170653e-13,-0.079822324,-4.3021224e-13,3.5691637e-13,2.6844187e-13,-0.003567925,1.243645e-13,-1.9722722e-13,-1.803975e-13,1.6030048e-13,-1.6857213e-13,-2.9702103e-13,1.3064904e-12,6.303237e-10,1.8987656e-13,-1.4148519e-13,-6.588579e-13,-0.99988985,0.00011696707,1.3047598e-13,-0.26211503,3.6283585e-13,2.4585084e-13,0.06681772,4.067068e-13,-1.1260125e-13,-4.067623e-14,2.0616256e-13,7.648103e-14,3.9647924e-13,-7.297991e-13,-1.8174631e-13,4.9810075e-13,-1.0787067e-13,4.028237e-13,8.776802e-13,2.3723592e-08,4.688951e-13,-0.0020296378,-1.3441819,4.5104323e-13,4.5173968e-14,-6.637139e-13,1.9419351e-13,-0.01600621,2.215109e-13,-2.1107469e-13,1.1370408e-13,-0.015762724,0.0038039833,-1.8422427e-13,0.10400435,2.2186357e-13
2.491123e-13,-3.6671913e-13,0.00068700616,2.6843772e-13,1.5404109e-13,-8.270598e-14,1.476646e-13,-4.101184e-13,-1.622251e-14,2.4502573e-13,-1.083777e-09,-7.3783053e-13,3.1535912e-13,-5.110305e-13,-0.6079318,-7.073952e-05,-6.6486096e-14,-0.46694386,-5.2338515e-13,-1.5767944e-13,-0.5856918,-6.2738714e-14,1.9308299e-14,-3.1698139e-13,-5.957588e-14,5.3119716e-13,-4.9524397e-14,-7.105626e-13,-1.0314861e-13,6.1177365e-13,-4.2460767e-13,-3.448833e-13,8.14389e-14,1.6832555e-08,-3.6487556e-13,-0.0014216453,0.49441814,1.6055419e-13,-2.3594467e-13,2.7599976e-13,-2.3756726e-13,0.01424667,-5.734206e-13,4.4757516e-13,-3.348688e-13,-0.19324413,-0.007073124,3.7603373e-13,-0.015620427,-2.4744296e-13,-2.0442204e-13,-2.4206405e-13,0.0007973809,-3.5328058e-13,4.984316e-14,-1.1399676e-13,4.1789066e-13,-1.6002675e-13,2.116727e-13,-5.240709e-13,1.9096963e-10,-4.539251e-14,2.400224e-13,4.9707406e-13,-0.559534,-3.95528e-05,-1.0049497e-13,-0.47634733,6.540762e-13,-5.952435e-14,0.2776,7.092601e-14,-3.9978014e-13,1.8403153e-13,4.4351843e-13,-1.6446129e-13,-4.5873434e-14,2.4474913e-13,3.3377467e-13,-2.7094375e-13,-5.863381e-13,3.4307697e-13,-2.1033517e-13,1.6250153e-08,-3.9816018e-13,0.0005895585,-1.8437431,-1.5395435e-13,-2.470882e-13,-2.0335892e-14,3.9872486e-13,-0.005527815,-3.8075654e-13,1.1037307e-13,5.607769e-13,-0.056057993,-0.0013393841,-2.565187e-13,0.16246067,-1.6044723e-13
-2.8363217e-14,5.268202e-13,0.002649229,-4.1743489e-13,-2.007296e-14,-2.6823164e-13,-1.833356e-13,-3.8281997e-13,-2.6122287e-13,-8.8398207e-13,2.6499314e-09,-1.623506e-14,-3.3912966e-13,-3.3179243e-14,-0.5059795,-0.00016182006,-1.4219082e-13,-0.8129397,5.906422e-13,-1.3620241e-13,-0.07208411,3.3001894e-13,1.3062068e-13,5.5156324e-13,5.893861e-13,-4.3855135e-13,-2.8295769e-13,6.442897e-13,1.2921424e-13,-6.3268916e-14,6.985783e-14,-3.5309375e-14,7.8466877e-13,-7.513155e-08,3.3233025e-13,0.0022022102,-0.37988323,-6.270494e-14,3.0519464e-13,-1.4349844e-13,4.876551e-13,0.033605877,1.0459019e-13,-1.2214145e-13,8.744601e-13,-0.18940882,-0.012686582,2.5997008e-13,0.00020368374,2.6559365e-13,3.4513101e-13,-7.276601e-14,-0.0028862453,-1.760952e-13,-1.5684665e-13,1.1489946e-13,-1.245873e-13,-6.524118e-14,4.583223e-13,-3.2627668e-13,-5.324947e-10,-6.2185565e-13,-2.1055163e-13,-8.2532353e-13,-0.7404658,5.016693e-05,-4.2555236e-13,-0.7746457,8.1364575e-14,-4.89999e-13,0.29464456,2.7602486e-14,3.5343695e-13,3.5702748e-13,4.6179437e-14,-1.0292597e-13,-1.4212697e-13,2.3198498e-14,1.5069554e-13,-2.0726387e-13,-6.594895e-13,1.8762365e-13,3.670397e-13,-1.6582504e-08,3.1135863e-13,-0.0010894334,-1.5866026,1.7914569e-13,3.658417e-13,1.6848702e-13,3.9120616e-13,-0.03247919,8.968985e-13,-2.9801555e-13,7.6657165e-13,0.16756754,-0.001196014,4.1085549e-13,0.21415883,-3.8238217e-13
3.835388e-13,1.6729004e-13,4.9761482e-05,5.7266296e-13,5.352541e-13,-3.2311945e-14,-4.4511183e-13,-6.249753e-14,-3.6135762e-13,-1.5513052e-13,-5.4731863e-10,-8.181768e-13,3.533974e-13,-4.2571562e-13,-0.954396,-1.1307674e-05,3.2465393e-13,-1.3858553,-3.5500766e-13,5.0824124e-13,-0.39616036,5.363338e-13,4.5376268e-13,-4.1730427e-13,-4.5244039e-13,1.9875929e-13,-2.1326387e-13,-5.5642307e-13,-3.1213183e-13,-1.3150676e-13,-4.4484924e-14,-2.2443392e-13,-1.2775157e-13,-4.2304414e-08,3.7886325e-13,0.00014865486,0.35229313,-2.777931e-13,-1.8369868e-13,-2.1481037e-13,4.4230464e-13,0.011785161,3.2266347e-13,-1.9986129e-14,-1.1743021e-12,-0.007291556,-0.004469312,-2.8002478e-13,0.040610194,-2.26136e-13,-2.0758116e-13,5.231583e-13,-4.3393666e-05,-1.0188535e-13,3.1445208e-13,8.057747e-14,-6.918424e-14,1.5790526e-13,4.787609e-13,6.162947e-13,2.2999904e-09,2.1238518e-13,3.5578422e-13,-9.417545e-13,-0.8388867,8.0519203e-07,5.037561e-14,-0.98028564,4.016828e-13,-2.200062e-13,0.10769253,-3.2354647e-13,-3.0898014e-13,2.4038508e-13,5.8328114e-13,1.6032222e-13,3.6901341e-13,-6.3578884e-13,-7.7601906e-14,-3.2812913e-13,5.699809e-13,-5.328959e-13,-3.319068e-13,-2.9384472e-08,8.539232e-15,-5.3435862e-05,-1.7265149,-3.019023e-13,3.9040548e-14,6.0073935e-14,-2.9688223e-13,-0.0076899678,-1.73941e-13,2.008419e-13,-8.3067814e-13,-0.0070712827,-0.0008791608,4.908144e-13,-0.035607602,2.714811e-13
3.2708837e-13,-1.7608861e-13,0.00040463777,3.1188976e-13,2.9564141e-13,-4.7096e-13,6.824912e-14,-4.4219622e-13,3.5399442e-13,8.018369e-14,-4.1017034e-10,-2.4536547e-13,3.8438979e-13,-6.226339e-13,-1.3407058,7.1784445e-05,1.0777151e-13,-0.94738406,-6.079214e-14,-1.3421518e-13,-0.79340065,-2.298766e-13,1.5231515e-13,2.57727e-13,-2.520602e-14,-9.994853e-15,-4.1390367e-13,-5.3288244e-13,-7.568485e-14,-4.498855e-13,1.3770732e-13,-1.5993825e-14,-8.9868103e-13,3.627643e-08,1.3116995e-13,-0.0026621665,-0.46679023,3.9170498e-13,-2.468139e-13,3.8111764e-13,3.6683636e-13,0.013867587,2.7904328e-14,-2.4427509e-14,-6.8739556e-13,-0.10290775,-0.00443514,-4.0778877e-13,-0.0045614676,2.6534027e-13,5.0375735e-13,1.2344566e-13,0.0028760035,-1.632233e-13,-3.8863013e-13,2.0371972e-13,-9.9274376e-14,-6.974006e-13,-2.012282e-13,2.7344284e-13,-1.8659345e-09,4.9165767e-14,-5.391805e-13,-6.3462934e-14,-0.8866445,-2.2253813e-05,-1.07544724e-13,-0.73221064,1.220478e-13,4.5767334e-13,0.46986696,3.4354656e-13,-3.740543e-13,2.4882586e-13,-9.416784e-14,2.5727673e-13,-3.327153e-13,3.238557e-13,4.541949e-13,1.6781791e-13,5.8074796e-13,-2.4869408e-13,2.7110977e-13,1.4840707e-08,7.851456e-14,0.0013648027,-1.3180752,1.7024782e-13,2.6322731e-14,1.4484009e-13,-5.9497654e-13,0.0035991985,5.5523294e-13,-2.0525606e-13,1.074485e-14,-0.065106794,-0.0033156993,-4.6184524e-13,-0.0029837033,-1.8563411e-14
5.0122634e-13,-3.4892954e-13,0.0006813874,-1.3264292e-13,-9.602139e-14,3.4676802e-13,-2.969356e-14,-4.1173757e-13,3.099667e-13,3.8489408e-13,-7.918198e-10,-1.4762104e-13,-2.2253972e-13,-3.007682e-13,-1.6004109,2.4153153e-06,8.11479e-14,-0.7169212,3.396681e-13,-3.9654413e-13,-0.15390833,-5.047487e-14,2.832886e-13,-1.1781093e-13,-3.285559e-13,-2.4676862e-13,2.7085186e-13,-2.706978e-13,-2.9018438e-13,-2.1681637e-13,3.4871563e-13,-3.687932e-13,-6.353107e-13,-3.2875793e-08,9.557116e-14,-0.0019515498,0.041885126,-4.4014903e-13,4.400629e-13,-5.1894833e-13,4.1478106e-14,-0.0014919308,4.78952e-14,-3.0330545e-13,-1.7547831e-12,-0.05470009,-0.0022115274,4.580876e-13,0.0068029435,-2.1499137e-13,-9.1476495e-14,-2.1161327e-13,0.0015468334,-1.6240633e-13,-8.004181e-14,3.201812e-13,-4.2750176e-13,-4.1303275e-13,-2.7156876e-13,-6.859731e-14,1.2257531e-10,-1.2283422e-13,-9.9080195e-14,5.812413e-13,-0.6077506,1.4769901e-06,3.7852382e-13,-0.41302693,2.6491355e-13,-3.6117263e-13,0.4387552,-4.571096e-13,3.9063262e-13,3.0672963e-13,-1.2904743e-13,2.1968923e-13,2.4245783e-13,-3.2513507e-13,-2.43336e-13,-1.0563623e-13,-8.544679e-15,5.103704e-13,-3.0961464e-13,-1.9899538e-08,-3.789696e-13,0.0014642001,-2.123259,3.6137133e-13,-3.1705335e-13,-5.263537e-13,-3.438059e-13,0.003956285,-2.3811953e-14,4.307466e-13,-1.6764375e-12,-0.07812705,-0.00026299752,-4.369534e-13,-0.011222437,-3.2957122e-13
-1.3054197e-13,3.6961062e-14,0.0001320974,-2.5396167e-13,-4.781993e-14,2.5914898e-13,-2.72449e-13,6.985431e-13,-2.8956002e-13,-3.2594172e-13,5.488289e-10,-5.5062053e-13,-4.2402283e-14,3.0695067e-13,-1.9241216,-9.650363e-05,-2.8806281e-13,-0.3136653,2.820582e-13,3.2345676e-13,-0.50196594,-2.1561625e-13,-5.561656e-13,3.109546e-13,1.5318511e-13,-3.3939952e-13,-2.3933335e-13,2.7243133e-13,-2.3915432e-13,-3.0501486e-13,-3.0586883e-13,4.0201585e-13,-5.5733407e-13,-1.13105656e-07,2.0347293e-13,0.0015078981,0.4124887,2.8431866e-13,-4.1039248e-13,-2.1512126e-13,4.7099813e-13,0.029141042,-8.649545e-13,6.544071e-13,9.562373e-13,-0.003196753,-0.017368404,3.014185e-13,-0.03955237,4.9930237e-13,1.255814e-13,2.6394091e-13,-0.0010092512,-2.9745152e-13,-3.4047648e-13,4.577178e-13,1.9531089e-14,-3.1882878e-13,4.632766e-13,-2.543166e-13,4.025208e-09,5.80059e-13,1.5635589e-13,-1.10808884e-13,-0.12969606,2.0039446e-05,-2.1611207e-13,-0.71747285,6.341776e-13,-1.8080187e-13,-0.039564367,4.075017e-13,-4.5174265e-13,3.1765676e-13,5.2343237e-13,5.0365484e-13,4.3460767e-13,6.084686e-13,2.0389617e-13,1.0156627e-13,-1.7697238e-13,-4.7837813e-13,-1.843924e-13,3.1561562e-09,-2.3795993e-13,-0.0007888042,-1.4242395,-2.1289014e-13,-2.453901e-13,2.4877252e-13,-4.512757e-13,-0.020458978,1.6297017e-13,3.0429394e-13,6.614232e-13,-0.08581399,0.0068183937,-5.062586e-13,-0.027111849,-3.7544493e-13
3.9405463e-13,1.3906313e-13,-0.00034082503,9.6932824e-14,-6.7746996e-14,-4.4645277e-13,-4.593866e-13,-8.572212e-14,4.1737902e-13,1.0322471e-12,4.0299356e-10,-1.3880715e-14,3.3181967e-13,3.6054588e-13,-1.6999586,1.6707952e-06,-3.3804855e-14,-0.98382854,-1.6248634e-13,2.4242153e-13,0.12091284,4.4769987e-14,3.3753686e-13,3.6853498e-13,2.8419202e-13,-1.6507897e-13,-3.215424e-13,-3.915628e-13,2.6897703e-13,-1.2661448e-13,4.0990263e-13,1.3220989e-13,5.012981e-13,2.0930926e-09,3.463233e-13,-0.00015238862,0.45010042,6.117611e-16,1.2184286e-13,3.402252e-14,1.251041e-13,0.001264686,2.1703711e-13,4.2793834e-13,3.6784426e-13,0.09383175,-0.0018187489,4.3160728e-13,0.00070351805,2.6298945e-13,-3.1701491e-13,4.3260157e-13,7.0535985e-05,-2.9054808e-13,-2.7553881e-13,3.500649e-13,-2.1140536e-13,-3.572592e-13,-2.7343655e-13,-3.3097583e-13,-6.480879e-10,3.4719802e-13,6.5444124e-14,3.128945e-13,0.74922925,6.283849e-06,-1.9321749e-13,-0.53743714,-2.1899964e-13,-1.1823219e-13,-0.05565989,3.254205e-13,-4.4762994e-14,3.1387406e-13,1.3612874e-13,-1.4308921e-13,-3.578953e-13,-7.9293234e-14,4.234151e-14,-2.7884382e-13,6.0441295e-13,-2.1204121e-14,-3.208699e-14,-1.7065852e-09,3.9303424e-13,4.505593e-05,-1.3689051,1.8942652e-13,8.282193e-14,2.595851e-16,7.833884e-14,-0.0026382587,-4.51663e-13,4.532453e-15,7.456526e-13,0.08280388,0.000289303,-3.7040572e-13,0.002961432,-1.6520491e-13
-1.5575446e-13,4.5612765e-13,-0.0029425402,-4.5221414e-13,-2.3996273e-13,-1.5367896e-13,-4.002454e-13,-7.0104296e-14,-3.8913268e-13,5.9496516e-14,2.9574982e-09,2.2807304e-13,-3.971045e-13,4.673255e-13,-1.2273628,-0.0001627163,-3.8106736e-13,-0.052451424,-7.612387e-14,-3.5821384e-13,-0.34784672,1.2345948e-13,-6.253201e-13,1.5920308e-13,1.9942387e-13,-1.07997e-13,-2.5551688e-13,2.9665864e-13,3.646852e-13,5.1641735e-14,-3.8344938e-13,1.0589995e-13,-5.355229e-13,-5.095992e-08,-3.7248958e-14,-0.0004942501,-0.34869307,2.767099e-13,-2.2439529e-14,5.209417e-13,-1.7666058e-14,-0.07023387,6.5530697e-13,-2.432672e-13,8.741103e-13,0.467873,0.025511045,5.7548204e-13,-0.12678891,-2.5056912e-13,-2.3356124e-13,4.198238e-13,-0.0006884532,-6.090655e-13,2.664058e-13,-1.13761e-14,1.5812509e-13,-2.7360666e-13,4.6893533e-13,1.5607578e-12,-2.3925923e-09,-6.400269e-14,-5.288673e-13,1.611939e-13,0.79656965,6.02455e-06,1.7694383e-13,0.016433425,2.7439116e-13,8.557145e-13,-0.23207122,-4.759279e-13,4.803696e-14,8.7317374e-14,-9.88788e-14,-3.11163e-13,-1.2166232e-13,5.848588e-13,-4.270507e-14,2.676185e-14,3.9501085e-13,6.798358e-14,2.4621315e-13,-1.7673157e-08,3.0224917e-13,0.00021903336,-1.4658766,4.4331037e-13,-4.4980312e-13,-1.3237713e-13,-3.4438956e-13,0.001276822,-4.7724026e-13,5.6467916e-13,8.8860256e-13,0.42689365,0.015680123,-5.364386e-13,-0.017694084,2.866063e-13
-3.146726e-13,2.2743228e-13,0.0002125325,3.325004e-14,4.0635835e-13,6.8628425e-14,-4.71815e-13,3.0003764e-13,4.3076708e-14,-4.0708512e-14,4.682822e-10,1.8547021e-13,1.00131654e-13,-4.5673548e-14,-0.07944903,-2.4102636e-05,-1.579273e-13,-0.6447416,2.9981042e-13,5.5785584e-13,-0.7989762,-1.7340013e-13,3.0174292e-13,4.1330017e-14,4.9260785e-13,7.202423e-14,-5.8265236e-13,2.623186e-13,5.052974e-13,1.5848824e-13,-2.0753001e-13,4.033353e-13,-3.3387635e-13,-8.345113e-08,-2.6491138e-13,-0.00020696674,0.85807556,-3.1589537e-13,5.959842e-13,3.301617e-13,-3.4125903e-13,-0.002227012,2.7517517e-13,-4.200285e-13,3.044033e-14,-0.10645019,0.0005198669,6.50815e-14,0.013803486,2.687814e-13,-2.1119597e-13,-2.3651472e-13,0.00041722896,3.037736e-13,2.4947882e-13,3.6733748e-13,6.168091e-13,-8.787605e-14,-2.0924454e-13,-2.6621354e-13,3.7039277e-10,-3.6374492e-13,9.410535e-14,3.9319156e-13,0.56397337,-1.3583455e-05,6.05137e-13,-0.5493974,1.4708216e-13,1.9270216e-13,-0.003216453,4.114466e-13,3.0958667e-13,5.0622104e-14,-2.2600272e-13,-2.9896883e-13,3.7550716e-13,1.6510171e-13,3.5077686e-13,2.602733e-13,-3.9329464e-13,2.4763937e-13,2.8292695e-13,7.0046e-09,-1.817956e-13,-0.0005961631,-1.9460903,2.0582388e-13,4.1351422e-13,1.8537464e-13,5.9368e-14,-0.0038129443,-5.1488035e-13,-5.679097e-13,-4.6640036e-13,-0.14681159,-0.0009495248,2.383533e-13,0.04187834,-3.0989005e-13
1.6697673e-13,4.9112217e-14,0.00044830388,2.745841e-13,1.0541904e-13,3.466694e-13,6.3686784e-13,2.5004216e-14,4.6270756e-13,9.1577435e-14,1.1635753e-09,-5.4353278e-14,-5.921102e-13,1.7693258e-14,0.14373796,2.2776454e-05,-3.095591e-14,-0.036229957,4.9028197e-13,-2.1463961e-13,-1.1691817,-1.8086341e-13,-2.4391453e-13,-7.989627e-14,2.9773308e-13,1.2979635e-14,6.4990515e-13,-4.8114274e-13,-1.6839603e-13,6.23813e-13,6.25319e-14,1.1924069e-13,6.6910073e-14,4.961636e-08,-7.5855565e-13,-0.0022480853,0.029178513,-9.647307e-14,-2.8352827e-13,-5.5044137e-13,-3.1295276e-13,-0.062715866,2.6655804e-13,-2.3259143e-13,-1.3280867e-12,0.1389752,-0.01320567,-3.9825586e-13,-0.24657105,-2.9037948e-13,-1.0257393e-14,-3.3490433e-13,0.0014579725,3.396684e-13,1.7413371e-13,-5.2811043e-13,-2.7732482e-13,-1.5110211e-13,-4.0678254e-13,-1.1241415e-12,-2.1607696e-09,-2.5391546e-13,-1.9686732e-13,1.11630215e-13,1.6465839,3.60511e-05,7.6951276e-14,-0.08911086,-5.922499e-13,-2.860158e-14,-0.07673305,4.1816954e-13,3.787964e-14,3.5029488e-14,-1.1793951e-14,3.1584514e-13,1.8671547e-13,2.1180499e-13,-4.0256145e-13,3.916584e-13,4.0933175e-13,-4.04504e-13,9.040751e-13,2.1286196e-08,3.3322385e-13,0.0031449683,-1.5603241,-4.693907e-13,-1.6505298e-13,8.651757e-14,3.6898728e-13,-0.01554499,-5.742256e-13,-2.5146465e-13,-8.8065373e-13,0.11460769,0.0022640957,-3.7855548e-13,-0.09411148,2.5724236e-13
-3.9540753e-13,-3.0761832e-13,-0.0014143105,-2.5812441e-13,-4.9138764e-13,6.962708e-13,2.6972277e-13,1.8262708e-13,4.2851085e-13,-7.27472e-13,5.9211297e-10,4.6667596e-13,6.038851e-13,-4.4113872e-13,0.12616575,1.4054847e-05,2.9759767e-13,-1.2238218,-3.120092e-13,-2.7106857e-13,-1.418191,-4.794408e-13,-1.8328953e-13,-4.4601302e-13,-2.335652e-13,-1.7004974e-13,3.2217848e-13,8.3167414e-14,-4.2891062e-13,-5.983689e-14,2.6491168e-13,-1.5901264e-13,1.3506188e-13,6.79594e-08,6.937284e-14,0.0037389968,0.5871449,3.338237e-13,-1.9116155e-13,-1.5735053e-13,-3.9099263e-13,0.0068503413,-3.0612475e-13,-9.351399e-13,-1.014537e-12,0.06214975,-0.0065603703,-1.9547883e-13,0.0006730213,2.6531847e-13,-4.0423226e-13,-1.9708923e-13,-0.002208614,-1.1215852e-13,2.7278326e-13,3.3947506e-13,2.5751428e-13,3.1354222e-13,-8.818944e-14,-5.4847305e-13,1.4324459e-09,5.823949e-13,-3.114134e-13,2.8612185e-13,1.2981484,1.40384345e-05,1.4971778e-13,-0.85837835,8.1224323e-13,1.7523206e-13,0.20512487,4.9555477e-13,2.131706e-13,3.1009266e-15,2.9839157e-13,-4.9998986e-14,1.682491e-13,-3.2412771e-13,-4.3685452e-13,2.4145491e-13,4.9471516e-13,-1.0651825e-13,-2.740798e-13,2.4901704e-08,4.2784263e-13,-0.0016547417,-1.8192353,-5.965351e-14,-1.3563366e-13,-4.996188e-13,-1.7743619e-14,-0.02129315,6.55882e-13,1.1940042e-13,5.920058e-14,0.047434352,0.0032678267,3.219658e-13,-0.0033337728,-1.365899e-13
6.692876e-14,-2.316823e-13,1.6388425e-05,-2.6199033e-13,-2.791822e-13,4.726402e-13,1.1505011e-14,-1.7016664e-13,-2.96799e-13,5.2761273e-13,-9.979464e-10,1.6815873e-13,-2.1547282e-13,3.5135976e-13,-0.21537659,0.0001951481,2.093282e-13,-0.33003283,-1.1857103e-13,1.3492937e-13,-0.92184764,-1.7363957e-13,-4.302768e-13,-1.3728916e-13,-5.75401e-14,-2.2039786e-13,-4.241701e-14,9.622766e-14,-1.01520815e-13,5.465298e-13,-1.2092549e-13,1.8572077e-13,3.7730558e-13,-6.545977e-08,-1.3930282e-13,0.0016880904,0.3482803,-3.4439357e-13,-1.5677764e-13,-2.3846176e-13,-4.1445477e-13,0.03904342,-1.3863338e-13,-2.8658857e-13,2.4789656e-12,0.07798919,-0.023449931,-5.016973e-13,0.06644962,1.9723279e-13,4.4001069e-13,4.121367e-13,-0.002202956,-4.704113e-13,-9.600415e-14,7.2363204e-14,4.524079e-13,-4.603643e-13,-9.598355e-14,7.882077e-13,6.797589e-09,1.3961258e-14,-2.0253222e-14,-2.382745e-13,1.493976,2.6295304e-05,-2.609981e-14,-0.68313843,-1.9896088e-13,8.521283e-13,0.059676554,-7.026941e-13,-6.203035e-13,-3.2883117e-13,-3.8146537e-13,2.2241272e-13,-2.3365367e-13,-4.4345043e-13,-4.1572675e-14,-2.3978473e-13,2.2222138e-13,4.009187e-13,-2.992768e-13,5.4207725e-08,7.802294e-13,0.0002616797,-1.5277555,4.0749256e-13,-3.852033e-13,-4.082121e-13,2.1037709e-13,-0.00023252983,-3.807059e-13,-9.653842e-14,8.0157875e-13,-0.054726172,-0.0034948667,-2.1930526e-13,-0.068338744,3.6882503e-13
-3.6990484e-14,3.639981e-14,0.00066414004,-3.8700634e-13,3.6489065e-13,-5.6723127e-14,4.7113474e-13,1.16433284e-14,2.3386298e-13,1.807522e-13,2.440352e-10,-3.743949e-13,-3.7862075e-13,2.5435376e-14,-0.20888688,-4.2091142e-05,-2.431955e-13,-0.582197,3.0287863e-13,-3.018975e-13,-0.65490395,-2.4135313e-13,2.3708994e-14,-2.5634058e-13,-5.1763905e-14,-1.6387556e-13,4.357262e-13,-2.277096e-13,2.0537703e-13,-2.2909834e-13,5.4227857e-13,-8.575841e-14,-1.995302e-13,-2.6378334e-08,-2.6845133e-13,-0.00030739515,0.8463141,-4.0520552e-13,-3.1290514e-13,2.28564e-13,-6.1927937e-13,-0.0011654424,-2.1903665e-13,-7.0400554e-13,-4.2118858e-13,0.033961575,0.005264396,-2.6025932e-13,0.0073767784,-2.5348159e-14,4.980001e-13,-2.7402592e-13,-0.00057330093,2.1477029e-13,-1.5287776e-13,5.614333e-13,8.506558e-14,-2.9954885e-13,1.0994867e-13,3.3633786e-13,4.36585e-10,-3.9299515e-13,3.6537933e-13,-3.6258515e-13,1.1162667,-1.3796365e-05,1.4353048e-14,-0.8298842,2.468373e-13,2.0463018e-13,-0.5844235,3.7579445e-13,-1.6934425e-15,-2.6584307e-13,2.787378e-13,-2.0861383e-13,-7.134407e-14,-2.8586305e-13,-2.733214e-14,3.180994e-13,3.1502104e-13,-2.5557597e-13,-4.9010053e-13,-8.163e-10,-2.7434218e-14,3.2410302e-05,-1.5275375,-5.649799e-13,-1.6948197e-13,4.1874148e-13,4.414065e-14,-0.00017746765,5.177816e-13,-1.6475016e-13,-2.8012973e-13,-0.0107185505,0.00040229302,-3.2237884e-13,0.010803301,8.262352e-15
-4.8816474e-15,-4.723617e-13,-0.00012755874,-5.963299e-13,3.1874283e-13,4.3452747e-13,-3.3395866e-14,3.3122284e-13,-1.3260366e-13,3.530802e-14,2.0938368e-10,6.4443356e-13,-2.8958324e-13,-3.4901365e-13,-0.40028492,4.110269e-06,3.9636217e-13,-0.5677872,-2.9602728e-13,-4.970487e-14,-0.20387076,3.7125172e-13,-5.03013e-13,4.2211715e-13,-4.678539e-13,3.9255212e-13,5.6804046e-13,6.7063895e-14,-2.4306937e-13,-1.7779314e-13,4.4541226e-13,1.8731222e-13,5.960369e-13,6.913699e-08,-2.4956702e-13,-0.0049679866,0.8395456,3.846139e-13,4.5216868e-13,5.8038904e-13,-2.213057e-13,-0.13620913,2.126318e-13,4.2147514e-13,1.5808228e-12,0.096003644,0.026939377,-1.3143832e-13,-0.01910053,2.3495507e-13,3.9155135e-13,-5.6822575e-14,0.00319959,2.1115264e-13,-4.0555883e-13,-5.9907775e-13,2.8565561e-13,1.993773e-13,-1.6916546e-13,6.8587415e-13,5.1265547e-11,4.3758074e-13,-4.0808405e-13,-8.193592e-14,0.82444495,2.9342202e-05,5.443857e-13,-0.70805883,-2.4713407e-13,4.8815335e-14,-1.2693537,3.5077906e-13,-3.4344286e-13,-1.9818235e-13,5.1831606e-14,-3.020327e-13,4.2802887e-13,1.664624e-13,-5.8387106e-14,1.439555e-13,3.0886648e-13,-2.5221313e-13,-3.07413e-13,2.937248e-08,-4.1960126e-13,0.004214767,-1.1521658,3.6625734e-13,1.7353558e-13,2.0354957e-13,3.915336e-13,0.04713386,-1.984898e-13,8.2516876e-13,-1.188302e-12,0.04810582,0.004161558,2.7027333e-13,-0.035190403,-3.1284865e-13
3.5212106e-13,3.7793943e-13,0.0009611098,2.764503e-13,-1.1619517e-13,-2.3885836e-13,-2.3759776e-14,6.1656013e-13,-3.0177095e-13,-1.1170257e-12,-3.6005747e-09,1.4782053e-12,3.0211394e-13,5.7448626e-13,0.094583035,1.6368671e-05,4.520967e-13,-1.1151057,-5.110177e-13,-3.630985e-13,-0.2745429,-1.7845347e-13,-1.2007027e-13,6.4836564e-14,6.003518e-13,4.3225113e-13,4.3608414e-13,7.01085e-13,1.1570747e-13,6.6608394e-14,-3.711059e-13,2.9879539e-13,1.7564346e-13,-1.1523614e-08,9.178883e-14,-2.7176793e-05,0.44492063,2.1132878e-13,2.708473e-13,-4.8163253e-13,3.6511378e-13,0.024378274,1.7875079e-14,-6.1913945e-13,-3.2246619e-12,0.059126157,-0.00065161206,1.6122303e-13,-0.040385578,2.3255508e-13,2.4326315e-13,1.4124387e-13,0.00036451448,9.018581e-14,-4.5601435e-14,-1.02722084e-13,-4.2569762e-13,4.598555e-13,1.6551277e-13,-4.1690826e-13,5.1984053e-09,8.364237e-13,8.616206e-14,7.011351e-13,0.6251546,-4.3026785e-06,3.1187715e-13,-0.7678692,-6.037843e-13,-5.530874e-13,-1.0174555,6.661311e-13,7.649339e-14,1.8653473e-13,1.977382e-13,1.7690211e-13,3.8160425e-13,5.432359e-13,8.7363114e-14,7.708844e-14,3.660203e-13,1.491255e-14,-3.195222e-13,-3.975674e-08,4.099873e-13,5.35306e-05,-1.9267142,-5.5568245e-13,4.7483355e-13,-3.0851073e-13,-4.0403195e-13,-0.010644246,-5.3817947e-13,-3.6825577e-13,-6.013321e-13,-0.08287977,-0.0067022787,-1.9502087e-16,-0.048901897,-4.897939e-13
1.4598874e-13,-2.3378933e-13,0.0025626433,3.535304e-14,1.8986901e-13,-5.45672e-13,-1.7388615e-13,8.856358e-14,-3.173622e-13,-3.8146483e-13,-1.5482866e-09,2.844689e-14,-4.1704067e-13,-1.0137978e-12,-0.33152956,-2.4113016e-05,2.2487963e-13,-0.8886614,2.881239e-14,-3.0090535e-13,-0.20001052,-3.8259923e-14,4.224934e-13,-5.1148365e-13,5.08101e-13,-2.7741757e-13,-1.2276643e-13,-2.4674875e-13,1.4996956e-14,4.5884433e-13,5.869759e-13,2.0038992e-13,-1.9916443e-13,2.4694502e-08,-1.3210143e-13,-0.003875636,0.5453838,2.5332102e-13,-6.460685e-13,5.045494e-13,1.235708e-13,-0.05212704,-7.215079e-13,3.799283e-13,-5.924397e-13,0.31694427,0.031258427,5.0602925e-13,-0.05228075,8.31022e-14,-3.3367124e-13,-4.917502e-14,0.0029393071,2.6366816e-13,4.9529445e-14,2.1243284e-13,-5.071969e-13,1.2423402e-13,-3.1688823e-13,1.0028497e-12,-1.1644581e-09,3.9966825e-13,2.8554023e-13,3.4759551e-13,0.87031704,-4.9431666e-05,-1.8981404e-13,-0.6331712,4.10009e-13,5.918436e-13,-0.6683725,-4.2573613e-13,-1.5645658e-13,5.587483e-13,1.94889e-13,4.7175604e-13,2.5506195e-13,2.498319e-13,-5.9376976e-14,-4.4386548e-13,-2.2256475e-13,-3.2984446e-14,3.854084e-13,3.7219712e-09,4.9454527e-14,0.001419191,-1.4655274,-3.2728228e-13,1.5304637e-13,-1.9398906e-13,1.984046e-13,0.046107914,-4.5578125e-13,8.697036e-15,-1.04678907e-13,-0.39355743,-0.0016854458,-1.2366001e-13,0.068891585,9.189996e-15
5.518333e-13,3.3212712e-13,0.0005155361,-2.318395e-13,4.6201823e-13,-6.361827e-14,4.2767545e-13,1.1436075e-13,5.206968e-13,8.800081e-13,6.2987526e-10,2.382017e-13,-1.146722e-13,3.7293313e-13,-0.53147686,-4.848344e-05,6.188971e-13,-1.0686072,4.292004e-14,-4.5900794e-13,-0.47986323,-3.5863416e-14,3.8084233e-13,-4.1479976e-14,1.1699647e-13,2.920228e-13,2.8664804e-13,8.2774926e-14,-1.1156516e-13,-3.995189e-13,2.5624847e-13,5.063561e-13,2.6753784e-13,1.3581047e-08,-4.058565e-13,0.0026807324,0.62904507,-1.895579e-13,2.7415654e-13,7.1018874e-13,3.4241737e-13,-0.007154904,3.2777055e-13,-5.5333385e-13,-2.236102e-14,0.08827493,0.0010242306,3.3532292e-13,0.07105242,2.0707183e-13,-2.8611691e-13,6.932931e-15,-0.0024806834,-1.7724109e-13,-1.2872965e-13,-6.96949e-14,4.8325124e-13,-5.351983e-13,1.9758636e-13,-3.9251444e-13,-3.5270245e-09,2.3664992e-13,5.402613e-13,1.776947e-13,0.999286,-3.0292895e-05,-6.359778e-13,-0.8523298,-3.0950278e-13,-9.267031e-14,-0.28310576,1.1844523e-12,1.3846704e-13,-2.2746431e-13,1.8100094e-13,4.4794404e-13,-4.3649844e-13,-3.4537992e-13,3.586893e-14,-3.2177852e-13,-5.0013303e-13,-3.232503e-13,1.8408305e-13,7.218622e-09,3.9464376e-13,-0.0004078687,-1.9798198,-2.4434233e-13,-4.449383e-13,-1.4987631e-14,4.498377e-13,-0.0109289745,4.352689e-13,6.9907486e-14,-1.1982255e-12,-0.043983,-3.7009188e-05,-2.325128e-13,-0.034212746,2.9527438e-13
3.9445546e-13,2.587637e-13,-0.0010020246,-2.909818e-13,2.2915713e-13,-1.08850646e-14,6.9486745e-13,5.610074e-14,-3.8489887e-13,2.0660199e-13,-1.6787329e-09,-5.0592446e-13,-1.1482902e-13,3.0329135e-13,-0.59371835,0.00011884836,4.0763974e-13,-0.7784908,-6.421467e-13,-7.4124214e-13,0.11406156,-1.1277147e-12,-9.2285446e-14,-4.729549e-13,1.5451313e-13,-3.4630426e-13,3.5954106e-13,-2.6498405e-13,2.8252032e-13,5.1623148e-14,-1.033247e-13,3.935553e-13,2.95127e-13,1.549176e-07,5.7271614e-13,-0.0014628345,0.31358656,-4.397665e-13,-7.783357e-14,-5.4460207e-14,-5.502492e-13,0.059050303,6.543073e-13,-5.7116535e-13,1.7256563e-13,0.2877285,-0.013538126,3.6648158e-13,-0.037674006,-1.03010265e-13,-3.33741e-14,-4.280227e-13,0.00040659696,1.3668431e-13,-3.7332718e-13,-7.230475e-13,4.5276944e-13,-8.028436e-14,-8.2305636e-14,-1.5744367e-12,-1.0368122e-09,-6.9789313e-13,-3.587503e-14,1.4331738e-13,0.83868974,-2.3792205e-05,-3.3154013e-13,-0.54521513,-7.892905e-14,1.040709e-12,0.060399257,8.5397406e-13,-1.8849801e-13,2.2203571e-13,3.7180925e-13,-3.638395e-13,3.476631e-13,1.1841629e-13,-1.7651925e-13,-5.2655742e-14,3.925419e-14,-6.0612e-14,-1.4962779e-13,-3.8212637e-08,-5.6934947e-13,0.001551874,-1.4746209,1.1507697e-13,-4.7729426e-13,6.734379e-13,3.92021e-13,0.004488275,-8.159278e-14,1.590788e-13,-3.055583e-13,-0.0109204035,-0.012614796,-3.2786217e-13,0.13667142,-1.4254025e-13
2.4750576e-13,-4.0883228e-13,4.4611606e-05,2.1456507e-13,-2.0970725e-13,-2.2837477e-13,-4.607472e-13,-3.693812e-13,-3.6501816e-13,-3.6881641e-13,-8.8984964e-10,2.2046801e-13,-4.3355938e-13,3.331439e-14,0.3404367,3.6313331e-06,1.3992838e-13,-0.91389275,-6.159746e-13,-4.5145994e-13,-0.6615108,-3.4619844e-13,4.768293e-13,-4.6564976e-13,-4.95325e-13,-1.4186154e-13,5.2585556e-13,2.0723061e-13,1.8182835e-13,2.9352806e-13,-4.0701643e-13,2.995035e-13,3.5825775e-13,8.256089e-08,2.9550022e-13,0.00080437004,0.48646072,5.0148384e-13,4.687356e-13,-5.0046507e-13,-3.2258964e-13,0.0069388114,1.476367e-13,-3.0069664e-13,-9.42835e-13,0.09228702,0.0028163658,2.876261e-13,0.014069163,2.6405988e-13,-1.2227329e-13,-1.1654642e-13,-0.0005333839,4.220319e-13,-8.832952e-14,3.8076332e-13,-3.8158192e-13,-7.801431e-15,2.659769e-13,1.2505188e-15,1.6977059e-09,-5.520235e-13,3.1622914e-13,3.3608798e-13,0.8575843,-2.0749325e-05,2.4751062e-14,-0.5902668,-1.5786424e-13,-6.2500114e-13,-0.34215087,2.1153153e-13,-3.2326867e-13,-5.0643176e-13,-1.6784293e-13,-5.4195282e-14,-8.895098e-14,-3.1415373e-13,1.2085255e-13,-3.4213382e-14,3.4642178e-13,1.03333195e-13,3.2725632e-13,-1.3722304e-08,-3.7854827e-13,-0.0009094241,-1.8156214,-4.14965e-13,4.548987e-13,2.6041902e-13,5.462575e-13,-0.006844133,5.6686784e-13,-1.2663766e-13,-1.1631809e-12,-0.044937585,0.0019911735,2.2441975e-13,0.00026223972,-5.0575516e-13
1.839259e-13,9.413108e-14,-0.0012940862,-7.644945e-14,5.4242803e-13,-3.5576072e-13,-1.1712208e-13,-2.7344568e-13,-2.808479e-13,-7.9740256e-13,2.2797293e-09,-3.892301e-13,-4.7102643e-13,-1.0190069e-12,0.83443636,4.796431e-05,-4.1975543e-13,-0.86631733,5.303282e-13,1.8629683e-13,-0.62274766,-1.0848501e-12,2.0202937e-13,9.1664835e-14,-4.9249325e-13,4.9063062e-14,6.4650433e-14,-2.8208767e-13,2.275666e-13,-5.4694026e-13,-4.454468e-13,8.819562e-14,-3.9138373e-13,1.2200238e-07,2.2439543e-14,0.00012541807,0.6615018,4.0511356e-14,-4.9410465e-13,8.317216e-14,-1.4839638e-14,-0.11694196,-2.06615e-13,6.7268717e-13,2.4392146e-12,0.053272136,0.061168697,-5.167994e-13,0.11335399,4.3935897e-13,1.8355218e-13,-1.2999447e-13,-0.001216361,1.9863568e-13,6.2728566e-13,5.1691247e-13,-1.0136488e-12,3.5152267e-14,6.8263673e-15,7.928131e-13,-9.336909e-10,-7.9531976e-14,-7.042665e-13,-7.1060714e-13,1.1138804,-1.2551225e-05,-5.0079336e-13,-0.780853,-3.7314008e-13,-1.006075e-12,-0.22503196,3.170224e-13,-4.2100004e-13,1.6004201e-13,-3.0675636e-13,2.7392108e-13,3.2856067e-13,-1.1824312e-13,2.5433242e-13,-2.6135452e-13,8.537355e-13,-1.6033914e-13,-4.3799252e-13,-2.0512495e-08,9.175684e-14,0.0017166203,-1.716925,-5.5384126e-13,-3.0207073e-13,-2.1827524e-13,2.2027132e-13,0.10316865,2.7720084e-13,2.115189e-13,1.0235542e-12,-0.023079388,-0.01610353,3.9433143e-13,0.09377514,-3.5053397e-13
-2.624552e-13,-3.1720912e-13,0.00016756986,1.2169169e-13,5.99217e-13,-1.4952652e-13,-4.2781333e-13,-5.33691e-13,1.121026e-13,-1.1834587e-13,-2.495697e-09,5.2531357e-13,-8.165452e-15,-7.67666e-13,0.15344507,4.6303503e-06,-6.004634e-14,-0.7536388,8.448573e-13,-2.3472256e-13,-1.4608922,4.4464232e-13,2.377944e-13,4.9875083e-13,1.1694855e-14,1.6091593e-14,-3.7449384e-13,-5.989792e-13,-3.1276265e-13,2.913508e-13,4.8598346e-15,-2.6152003e-13,3.5558492e-13,3.898915e-08,2.4606635e-13,-0.0007654575,0.6042888,-2.2499363e-13,3.3627433e-13,4.265975e-14,-3.048243e-13,-0.006441399,2.5138756e-13,-1.414825e-13,6.6777806e-13,0.070165165,-0.0032790524,-8.4595444e-14,0.016809292,1.2140786e-13,-3.4367217e-13,-2.1495173e-13,0.0005199698,-4.9654096e-13,-2.521623e-13,-4.0353598e-13,1.7741559e-13,5.754493e-13,2.8498105e-13,2.1417549e-13,-1.630464e-09,5.818838e-13,-3.3904428e-13,-2.1421868e-13,0.79749817,7.1332774e-06,2.7233782e-13,-0.91358244,-7.7825203e-13,4.357208e-14,0.11914972,4.077809e-13,7.283219e-13,-4.2750856e-13,4.035768e-13,-4.0938487e-13,-3.1599216e-13,3.308469e-13,1.02647274e-13,-1.2779011e-13,2.000398e-13,-2.8362677e-13,-3.9178854e-13,1.5496155e-08,6.007564e-14,0.000668368,-1.8109646,-1.7826448e-13,-2.751636e-13,-5.9878925e-13,8.614439e-14,0.0064407913,8.5108055e-14,2.1916933e-13,-2.6139952e-14,0.06495971,0.0023550005,5.258311e-13,0.12927207,-9.3282614e-14
-3.2653096e-13,8.757291e-14,0.0042506773,-5.4657234e-14,-8.8978724e-14,5.96441e-13,7.40302e-13,-7.214049e-13,4.2105967e-13,-8.720688e-13,-1.4720642e-09,-8.750596e-15,-5.465633e-13,-3.9787956e-13,0.12013871,0.0003626145,-1.9151651e-13,-0.44533396,-2.7052262e-13,-9.100021e-13,-1.6174378,3.4732547e-13,-4.365481e-13,2.9319995e-13,-4.878232e-13,5.8328104e-13,1.8590382e-13,6.6886985e-13,3.2942057e-13,3.8847614e-13,2.4305446e-13,5.2995434e-13,5.2767507e-13,-1.2034288e-07,3.405273e-13,-0.0052048103,-0.07534407,-2.7892543e-13,-1.4435133e-13,5.6003725e-14,1.5222631e-13,-0.046940606,1.087741e-13,4.931784e-13,-3.721446e-13,-0.10542783,0.014623801,-9.562864e-14,0.001830481,-2.14593e-13,4.301976e-13,1.6828182e-13,0.0044092,-2.6089992e-13,-4.941097e-13,-1.42277e-13,9.954832e-13,7.464678e-15,-1.685575e-13,1.4352916e-12,4.7729767e-09,-4.4029613e-14,-3.9144903e-14,-7.506902e-14,0.8691872,-8.6586675e-05,-1.8140442e-13,-0.540756,-7.616913e-13,-8.555651e-13,-0.052030645,-1.7255175e-13,-2.411938e-13,-6.192434e-14,7.418458e-14,1.513224e-13,-2.7884541e-14,-3.3530681e-13,-9.422267e-14,8.90256e-14,-1.707722e-13,1.2598782e-13,-4.9232065e-13,3.0276144e-08,8.2017227e-13,0.00021573214,-1.4234494,5.3221934e-13,1.1076661e-13,1.1739709e-13,-8.025118e-13,0.01592261,-8.186155e-14,6.400147e-13,1.63374e-12,-0.07490008,-0.006128741,-3.914036e-13,0.17610843,-2.16022e-13
4.881983e-13,1.9075285e-13,0.0004379958,3.1056077e-13,2.5710928e-13,3.555782e-14,2.7560072e-13,2.8037465e-13,-2.1973412e-13,-7.9349873e-13,-1.4794683e-09,4.1243005e-13,-5.062687e-13,-1.1061437e-13,-0.07489856,3.832881e-05,2.0738066e-13,-0.47434682,-3.3405743e-13,-1.0201575e-12,-1.3873593,-3.5353046e-13,-1.468134e-13,-7.5217244e-14,-2.7235606e-13,2.8186465e-14,4.0170027e-13,5.2934523e-13,-7.3624524e-14,-3.2241275e-13,-7.9732645e-13,3.4696145e-13,1.00890216e-13,-3.744566e-08,2.0924312e-13,-0.00057443045,0.56541634,-3.6113107e-13,-2.7886927e-14,-5.5834555e-14,-6.5838063e-13,0.005089321,3.4165064e-13,1.2631088e-13,5.723832e-13,-0.012835863,-0.0013661543,-3.7924462e-13,0.010810803,-3.2145464e-13,-2.8296701e-14,5.3407376e-13,3.762111e-05,1.7755545e-13,-2.3028422e-13,4.9098025e-13,-2.2543241e-13,-2.0230513e-13,-3.8714306e-13,2.3851084e-13,-1.1327819e-09,-2.6470254e-13,2.9009252e-13,-7.1069084e-13,0.23835044,-2.893944e-05,-4.4639707e-13,-0.6503808,-7.74603e-13,-7.546024e-13,0.41323838,-4.2017903e-14,-1.835294e-14,-2.5402206e-13,-1.8810441e-13,9.222386e-14,-1.5268594e-13,2.4110867e-13,1.4243435e-13,-4.0026183e-13,-6.014694e-13,-3.6255666e-14,8.5321116e-13,-1.6756879e-08,5.456736e-13,-0.0004066004,-1.8521032,-9.704569e-14,-1.4522937e-13,4.923766e-14,1.0864877e-13,-0.0055103013,-7.5535606e-14,-5.558846e-13,-4.1068212e-13,0.00837063,0.002751351,6.1371204e-13,-0.0059815277,-2.8233817e-13
5.5521115e-13,-4.7407987e-13,0.00012330574,-5.4679097e-13,-3.1941507e-13,-6.588694e-14,-3.0392794e-13,-2.7890743e-13,-3.0367278e-13,9.076604e-13,-8.16644e-10,1.6950815e-13,2.455648e-13,4.354478e-13,0.3661043,-2.434454e-05,1.1918404e-13,-0.54753405,-3.509641e-13,-3.6452617e-13,-1.4423808,-2.1490768e-13,2.9555183e-13,-2.2507735e-13,8.762583e-14,3.600679e-13,2.687099e-13,-2.2776475e-13,1.7701089e-13,2.935919e-13,3.0598487e-13,-3.607542e-13,-3.2708211e-15,1.4134422e-08,3.972457e-13,0.0016449991,-0.3687651,4.9137208e-14,1.6073922e-13,-4.7420287e-13,5.515679e-13,0.028508836,5.4183773e-13,5.1222785e-13,1.438601e-12,0.018223777,-0.025369497,-2.3931074e-13,-0.029283343,4.7238136e-13,-2.908714e-13,-1.3795104e-13,-0.001120179,2.657287e-13,-4.2552634e-13,-6.2591534e-15,-1.8118498e-13,7.003583e-14,-2.4937726e-13,-1.42417e-14,-1.3742402e-09,-3.2346651e-13,3.5931685e-13,-1.2725297e-13,1.0312905,-7.967036e-06,4.4269457e-13,-0.48387972,4.1835751e-13,-3.286747e-13,-0.076719575,-2.0256556e-13,-1.5071919e-13,-9.302265e-14,-1.7520295e-13,-3.4019117e-13,-3.3388605e-13,1.642592e-13,-2.7913107e-13,-4.188561e-13,4.639828e-13,1.8105417e-14,4.626937e-13,1.5993235e-08,-4.8736717e-14,0.00027422738,-1.4044801,5.759078e-13,-4.4230768e-13,2.1827077e-13,9.1529594e-14,-0.01620832,-5.134869e-13,2.888075e-13,1.9026562e-16,-0.15555641,0.002838335,6.464623e-13,0.027816996,-3.1111707e-13
-2.7687507e-13,-2.8199911e-13,0.0011419314,1.2027033e-13,3.5969613e-13,-1.9629968e-13,7.933557e-14,-4.1679496e-13,1.7780997e-14,7.7416876e-13,-1.6947371e-09,-1.1400221e-12,-5.377968e-15,1.7572174e-13,0.5381734,0.00013044415,-3.18792e-13,-0.70831627,-2.304038e-15,1.0783781e-13,-1.3494502,6.9985243e-14,-1.5945199e-13,-3.34292e-13,1.04222485e-13,4.171831e-14,-4.4676835e-13,2.595642e-13,3.165513e-13,-6.376464e-14,3.7040363e-13,-4.1606703e-13,-4.6097273e-13,-6.080398e-09,-4.3418752e-13,0.0018216493,0.45022812,2.3374182e-13,3.739382e-13,-2.30268e-13,-5.423534e-13,0.018846668,7.1626326e-15,2.6575647e-13,-1.695162e-12,-0.0094814375,-0.009960763,-1.3909571e-13,0.009662664,-4.307183e-13,2.062001e-13,3.3660837e-13,9.07091e-05,6.7016163e-15,4.5106486e-13,-1.6149292e-13,-3.6864535e-13,-4.2627108e-13,-6.45106e-14,-8.5783203e-13,6.348565e-10,1.4342042e-13,5.754069e-13,-4.6824973e-13,1.3867221,-4.6524343e-05,1.7797268e-13,-0.6112286,-4.642407e-13,-2.13129e-13,-0.046497095,1.540731e-13,1.4136739e-13,2.8925747e-13,-1.4498301e-13,2.516832e-13,6.6340303e-13,-2.981458e-13,5.072562e-14,-2.2126588e-14,2.5582596e-13,-4.5617427e-14,2.8299046e-13,-1.5717204e-08,-8.306875e-14,-7.07681e-05,-1.3581675,5.747917e-13,3.0699575e-13,-4.0880943e-13,-3.4235372e-13,-0.01659411,-1.3857586e-13,-8.752463e-14,-1.9018858e-14,-0.0074187214,-0.0022637614,2.8111427e-13,0.0082966145,-4.9075555e-13
-3.1069003e-13,2.6793292e-13,-0.00089011714,-3.832801e-14,2.1455212e-13,1.1423506e-13,5.539769e-14,-2.1034005e-13,-4.5298048e-13,-2.2093221e-13,3.2993586e-09,1.508548e-13,-5.5592846e-13,-4.9290037e-13,0.20624535,4.8241774e-05,4.4582691e-13,-0.54119813,-1.8260377e-13,3.5239503e-13,-1.0920478,5.5092717e-15,4.1969493e-14,-4.8619095e-14,5.171987e-13,2.3071516e-13,4.2226612e-13,-2.5319753e-13,-3.7126538e-13,1.8683595e-13,-7.3664187e-13,3.3481985e-13,-2.605075e-13,-4.22215e-09,1.4462157e-13,0.0005020214,0.26012066,1.1045426e-13,-4.0660143e-13,-5.819224e-13,-2.1165619e-13,0.04042437,-3.1910992e-13,1.2736986e-13,2.2037347e-13,0.066147245,-0.013163698,2.3223854e-14,-0.016753105,7.229883e-14,-1.0639235e-13,-1.0406311e-13,0.00090110686,-1.8098466e-13,1.6709269e-13,-2.1876947e-13,-5.883243e-13,-5.5516475e-13,5.3671645e-13,-4.185762e-13,-2.28915e-09,-8.052773e-13,-5.89871e-13,3.6045597e-13,0.9527018,5.6926085e-05,-3.6301778e-13,-0.7110576,6.185253e-13,6.651569e-13,0.37255543,3.7039783e-13,-3.6740972e-13,5.033385e-13,3.6972308e-13,-4.783851e-13,-3.3529334e-13,-1.4006602e-13,4.2293472e-13,-1.4163124e-13,-5.4856456e-13,-3.143667e-13,3.7897303e-13,6.842854e-09,2.0848015e-14,-0.00079333957,-1.3948041,-2.7492158e-13,9.006435e-14,6.965766e-14,-2.9984628e-13,-0.026806016,-4.6518106e-13,-2.2630275e-13,2.0192788e-13,-0.09204716,0.001500003,-2.9924278e-14,-0.024420897,-3.5724676e-13
2.0687719e-13,3.2813826e-13,0.0012569518,3.666597e-13,3.9662018e-13,-2.3311604e-13,-5.207201e-13,-3.0479005e-13,2.5579707e-13,3.4562327e-13,-2.0734228e-10,-3.9427695e-13,-5.814961e-14,4.3381138e-13,0.19091006,5.5718596e-05,-5.564734e-13,-0.6725219,-1.243539e-13,-4.9971404e-13,0.030135594,6.750697e-14,4.0403228e-13,-9.6520665e-14,-3.9419517e-13,-1.9630245e-13,-1.5060792e-13,5.4437563e-13,9.6949575e-14,3.0391645e-13,-5.976593e-13,1.3723132e-13,-3.180333e-13,-6.293356e-09,-7.525073e-14,-0.00065701234,0.29362947,-3.887461e-15,8.485725e-15,8.0782364e-13,-1.9642152e-13,0.009952067,6.431985e-14,3.8859465e-13,-7.6121217e-13,0.04119561,-0.007796599,4.6334675e-13,-0.02059239,2.536067e-13,1.4433584e-13,3.6780282e-13,4.694998e-05,-2.0248266e-13,-3.7647286e-13,1.5403417e-13,3.1228825e-13,5.379835e-13,-3.730634e-14,-8.33871e-13,-8.909357e-10,-6.7508927e-13,2.2282565e-13,-3.8201733e-13,-0.00096754543,-1.06142115e-05,3.0315922e-13,-0.16116445,5.7390507e-13,5.251101e-13,-0.7009688,-5.0357103e-13,-2.9601077e-13,-3.8413999e-13,7.357837e-13,1.7438308e-13,2.5316744e-13,2.0324489e-13,-4.4812103e-13,1.8320453e-13,-1.5029999e-13,4.1648868e-13,-4.126307e-13,1.8409619e-08,3.1001138e-13,6.5412765e-05,-2.2678702,4.4470455e-13,2.9530027e-13,4.925845e-13,-2.5812197e-14,0.0013389097,6.41149e-13,-1.7962769e-13,-9.605728e-13,-0.09841382,0.0012869713,6.602173e-14,0.022485392,-2.1586641e-13
2.6512809e-14,-3.6418877e-13,0.0022002517,4.9682925e-13,3.1434658e-13,3.249732e-13,-8.8029096e-13,3.14489e-13,-2.920569e-13,5.407877e-14,5.246061e-10,-6.586953e-13,-1.6632315e-13,4.3148563e-13,0.5829164,0.0001432831,-3.4199688e-13,-0.90031236,-1.7160852e-13,-4.485951e-13,0.6295032,5.999135e-13,5.0496066e-14,5.2138198e-14,-6.9718536e-13,-9.703444e-14,-2.6041181e-14,-6.015825e-13,4.107596e-13,2.4263306e-14,-2.949697e-13,-1.9185687e-13,3.0829853e-13,2.163127e-08,-2.7667018e-13,-0.0058083837,0.44623476,-1.8206755e-13,-4.7360683e-13,2.9897436e-13,3.9481084e-13,-0.06623291,2.1770563e-13,8.187391e-13,-2.21375e-12,-0.30918705,0.027017757,4.9545833e-13,-0.055690628,-1.2484488e-13,-1.6443159e-13,-3.6882137e-13,0.0058010374,-3.9886402e-13,-4.8803474e-13,4.144029e-13,-5.432865e-13,3.7639157e-13,-3.2565446e-13,6.62287e-13,2.6070204e-10,6.276917e-13,3.832357e-13,8.3815165e-13,-0.095973864,-4.7016742e-06,4.1750137e-13,-0.49732825,-2.5841671e-13,-6.0495207e-13,-1.7716722,5.3256675e-14,2.851866e-13,-3.8516805e-13,-1.8301367e-13,5.996348e-14,3.9678533e-13,-7.161863e-14,-3.1392749e-13,6.701963e-14,-5.572616e-13,1.6703517e-14,-3.0263468e-13,3.3108102e-10,2.992419e-13,0.0042770905,-1.2835236,1.6927106e-13,-5.284575e-13,-4.562404e-13,-2.075985e-13,0.06146528,-2.302311e-13,5.699417e-13,-2.1672737e-12,0.24113438,-0.010488162,2.3410635e-15,0.1047071,-1.0323017e-13
-3.1332434e-13,-2.2071361e-13,0.0004611583,-3.2366893e-13,3.108849e-13,3.6424938e-14,3.891588e-13,-3.4162622e-13,-3.838264e-13,7.4543475e-13,-2.3213134e-10,4.857654e-13,2.1037864e-13,-2.8986806e-13,0.7243993,5.490362e-05,-1.9019823e-13,-0.9398357,2.872259e-13,2.6786353e-13,0.4357173,6.0493966e-13,2.5965439e-13,-1.9311641e-13,3.6276556e-13,4.4783188e-14,3.562271e-14,1.1151697e-15,3.2496995e-13,-2.883916e-13,-1.902523e-13,1.5126683e-13,3.4351355e-13,-8.903378e-09,-3.5143055e-13,-0.0005312592,0.72030824,-3.0854637e-13,5.010401e-13,2.8021986e-13,1.03487856e-13,-0.020505304,-5.2721526e-13,2.4263648e-13,2.2004252e-13,0.11928298,0.015520825,6.8918395e-14,-0.0707849,-8.844336e-14,1.3045496e-13,4.147751e-13,-0.00058661756,4.9972824e-13,-5.112176e-13,2.9469374e-13,2.3273972e-13,-4.0565836e-13,-3.374343e-13,2.7110703e-13,3.6668864e-09,2.161501e-13,8.994333e-14,-2.2509e-13,0.24037087,1.4658863e-05,2.8624753e-13,-0.5800969,-1.8281839e-13,1.4940211e-13,-1.4790341,-1.3076527e-13,4.0131134e-13,-2.949148e-13,2.7159956e-13,2.8369855e-13,2.0311704e-13,-4.80736e-13,1.1799806e-13,-1.07322896e-13,-4.341836e-13,1.2944276e-13,-2.9596464e-13,-2.0780568e-09,-2.0597077e-14,-0.0005660635,-1.9282553,-1.3146733e-13,3.378387e-13,4.9841994e-15,4.408037e-13,0.008459816,-5.126431e-13,1.7993557e-13,4.0896057e-13,0.04755986,0.004413745,2.7484894e-13,0.12174606,2.7367876e-13
3.286921e-13,-3.0610093e-13,0.0030135314,-4.4539876e-13,4.0649667e-14,-1.9010902e-13,-7.1934743e-13,-2.669535e-13,1.4737414e-13,-9.832126e-13,-2.2146593e-09,1.570559e-13,2.723458e-13,-3.4772684e-13,0.2566639,8.854222e-05,3.6399716e-13,-0.7637276,5.665194e-13,-4.688619e-13,0.17775726,-5.083805e-13,3.8647327e-13,-4.794158e-13,4.636388e-13,5.92315e-13,-3.88043e-13,4.9484613e-13,-4.4589554e-13,-1.5476653e-13,-7.7964897e-13,3.4338008e-13,-3.1530003e-13,-4.4331458e-08,9.516685e-14,0.0007387316,0.27267793,2.4658498e-14,-6.522882e-13,-9.86483e-14,3.3624397e-13,0.07490593,-2.0522494e-13,5.98477e-13,1.9465978e-12,0.022392046,-0.0023937356,2.2959846e-13,0.12988324,8.1378155e-14,-3.227179e-13,2.0264348e-13,-0.0007805107,-2.8119662e-13,3.8258863e-13,-6.1058434e-13,-1.9180469e-13,-2.64211e-13,5.221451e-13,8.9285925e-13,-4.8142303e-09,-3.3531928e-13,5.4162095e-13,-7.737527e-13,0.5095617,-3.4970974e-05,2.028616e-13,-0.63163817,1.4665919e-13,-5.0182067e-14,-1.5853627,8.70946e-13,-1.04217524e-13,-3.4074512e-13,1.1572118e-13,-4.693224e-13,-4.22743e-13,3.5081348e-13,4.0523913e-13,6.051718e-13,-3.7324316e-13,-5.18323e-13,4.5653786e-13,2.2766764e-08,-5.637696e-13,-0.00270228,-1.4077461,1.9341858e-13,7.950303e-14,-4.8326414e-15,-3.5796778e-13,-0.00942642,-6.0542034e-13,-8.081071e-13,-1.6969191e-12,0.03332068,-0.009343535,-4.9497087e-13,0.06449622,5.171741e-13
-4.3812496e-13,-2.8831494e-13,-0.00034248063,3.8796567e-13,-8.223999e-14,1.5755488e-13,1.0896687e-13,-4.8604995e-13,-5.284644e-13,-3.340396e-13,9.0199104e-10,4.8249653e-13,4.5380382e-13,-3.274753e-13,0.6648093,7.02167e-06,3.9352647e-13,-1.076245,-7.381682e-15,-9.146816e-13,0.24999972,-8.318358e-14,-5.5473014e-14,-1.6106283e-13,3.617363e-13,4.0368625e-13,-4.018148e-14,-2.3350844e-13,1.8046914e-13,-3.9706926e-14,8.0705364e-13,1.2181732e-13,-2.5907943e-13,-7.132563e-08,2.6533357e-13,-0.001931405,0.6851992,-4.3095199e-13,3.831143e-13,-2.829694e-13,-1.9994442e-13,0.011840929,-5.886083e-14,-5.6460045e-13,-5.0699993e-13,-0.0034875544,0.02697062,6.220149e-15,-0.032043666,-3.5736794e-13,1.4203428e-13,1.3171267e-13,0.0009066444,-2.3985425e-13,-1.5727819e-13,-9.4222115e-14,-5.012439e-13,2.1198368e-13,-4.260302e-13,7.8343115e-13,-1.4737666e-09,-4.182395e-13,1.1755836e-13,-4.5665945e-13,0.1996684,3.3978927e-06,-4.4447188e-13,-0.39425504,3.788712e-14,-2.8616107e-13,-1.6595659,-4.6810537e-13,2.939169e-14,2.1765723e-13,-4.0742035e-13,1.6097453e-13,-1.8568998e-13,-6.0166824e-14,2.8675245e-13,4.818317e-13,1.8372405e-13,-3.9766926e-13,-1.0917021e-14,1.11314975e-08,-4.817279e-13,0.0018346971,-1.9505188,-1.9371007e-14,1.1769603e-13,2.7672032e-13,-4.865406e-13,0.015975567,1.727345e-13,4.3962127e-13,6.660781e-13,0.16730265,-0.017875403,2.0971144e-13,0.013834051,3.3256037e-13
-3.1681374e-13,-2.5755412e-14,0.0008398817,2.9145536e-13,2.1457537e-13,2.3306858e-13,1.4970996e-13,3.4060707e-13,2.3220477e-13,6.7442243e-13,2.7857283e-10,4.139717e-13,-4.922099e-13,5.247558e-13,0.36283144,2.6890906e-05,5.0087067e-13,-0.38364863,1.6308222e-13,3.8060391e-13,0.24431938,7.4913524e-13,-4.4211293e-13,4.702076e-13,-2.1493275e-13,8.5833494e-14,-5.219409e-14,2.840717e-13,-3.7014567e-13,-4.517979e-13,-3.4648917e-13,-1.1208462e-13,-2.491687e-13,-4.69933e-08,-6.380031e-13,-0.0077362573,-0.43763003,2.1364534e-13,-2.1846026e-13,-4.1543795e-13,5.651482e-13,-0.16470277,-8.237951e-13,2.8664538e-13,4.3121702e-13,0.32175457,0.046733003,-1.2604384e-13,-0.29954475,2.692212e-13,4.1045945e-13,5.2422422e-14,0.0053052986,-3.0893642e-13,-1.832879e-14,-1.04436316e-13,-5.096575e-13,6.456511e-14,-4.644985e-13,-8.301503e-13,-4.302884e-09,-1.0503577e-13,-5.860493e-13,-1.5508948e-13,-0.20936048,1.3008397e-05,2.5514476e-14,-0.16774803,3.6681256e-13,-4.5234514e-13,-1.8409672,-3.6372915e-13,-3.4898064e-13,4.752623e-13,1.6475181e-13,-3.2052995e-13,-1.3605569e-13,2.1991041e-13,-1.7110563e-13,1.6257874e-13,-6.723667e-13,1.2773731e-13,-4.516835e-14,-3.807434e-08,-1.0596049e-13,0.0053599374,-1.5552051,-5.693574e-14,6.218655e-13,-6.81254e-13,-4.881305e-13,0.062636904,-4.3496803e-13,1.04610825e-13,-1.5722607e-12,0.029012715,0.011807089,-5.935783e-14,0.03897876,-4.5343167e-13
-4.484397e-13,1.4357932e-13,0.0009388172,4.748518e-13,-2.559044e-13,1.5883784e-13,7.754485e-14,-8.37045e-14,2.9882043e-13,1.6126914e-13,8.091992e-10,-2.0736929e-13,-3.7219286e-13,3.1839478e-13,0.3967933,1.8887444e-05,-2.9613015e-13,-1.0343827,1.3975946e-13,-2.8741015e-13,0.58493835,4.2561533e-13,-4.6479997e-13,-2.4350574e-13,6.388569e-14,5.5252986e-13,-4.1558548e-13,2.4644956e-13,1.9859521e-14,-2.1221859e-13,-4.8964966e-13,3.7259125e-13,4.6329444e-13,-6.774579e-09,2.8526948e-13,-0.0029951704,0.7180143,3.9382424e-13,-2.487329e-13,2.6295993e-13,-1.01497966e-13,0.002374667,-3.6536974e-13,1.8974804e-13,3.2049805e-13,-0.090964526,0.0012704703,1.3866715e-13,-0.097960815,-5.3325026e-13,-2.5544573e-13,1.7047166e-13,0.00052908866,1.7971104e-13,-6.295371e-14,-2.6569851e-13,2.3891587e-14,-4.2497055e-13,-3.4685557e-13,-1.0533859e-13,3.6172365e-10,-5.246576e-13,-2.6816873e-14,-1.7857693e-13,0.23435625,6.867127e-06,2.1332694e-13,-0.48728782,4.5514482e-14,-1.5022562e-13,-1.2002256,-1.0837105e-13,-3.5696557e-13,-1.8918428e-13,3.2604895e-13,-1.2294126e-13,3.5806053e-13,-1.7631407e-13,-1.8360457e-13,5.778362e-13,2.0182964e-13,8.312383e-14,-7.221046e-14,-2.967154e-09,-3.8175027e-13,0.0009498643,-1.2222745,-1.470698e-13,3.623885e-13,2.9116607e-13,1.5657508e-13,0.015713936,3.2201726e-13,-5.019569e-13,6.169017e-13,0.19922738,0.0061673215,4.6939975e-13,-0.0745291,4.0902394e-14
-1.7889623e-13,9.1968235e-14,-0.001100443,4.3632676e-13,2.0238257e-13,1.2399993e-13,-2.4297534e-13,5.4749575e-13,-6.3728385e-13,-3.9961155e-13,2.5769535e-09,4.1422811e-13,-4.5138996e-13,-7.7755044e-13,0.51403415,6.8534406e-05,3.5453238e-13,-0.9373452,-4.89686e-13,-3.0170262e-13,0.3962119,1.1601898e-14,6.8812024e-13,3.654694e-13,6.838411e-13,2.9077505e-13,3.5310071e-13,-7.3359775e-14,-3.7463115e-13,-6.265262e-14,2.7890667e-14,-2.1996272e-13,3.4412127e-13,4.1157193e-09,1.1061033e-12,0.0039144075,-0.5236667,-5.748091e-13,-2.915155e-13,-1.0354669e-13,-1.5320397e-13,0.13580199,5.138234e-13,-8.628073e-13,1.4011767e-12,-0.6885309,0.0044697737,-3.346476e-13,0.37784362,-6.1132165e-13,-1.471737e-13,3.7431874e-13,-0.0018781405,-2.7914953e-14,-4.0340805e-13,5.4283265e-13,-9.386465e-13,-6.4864227e-13,-4.2838308e-13,-1.8813259e-13,-3.892156e-09,6.0094713e-13,-4.4969258e-13,5.797759e-13,0.47949865,-6.93636e-05,-4.589821e-13,-0.4472377,-5.5319947e-13,1.1488358e-12,-1.3645761,-6.339727e-13,4.1650656e-14,2.2810982e-13,-7.311484e-13,-4.332185e-13,1.4785818e-13,-4.0523035e-13,4.561091e-13,-3.9200793e-14,-7.3072993e-13,2.754465e-13,-5.173226e-13,-3.706698e-08,-2.2011166e-13,-0.0023124246,-1.693195,2.0009645e-13,3.4601532e-13,-3.4724768e-13,-8.8051826e-14,-0.0383789,3.5796526e-13,6.419789e-14,2.1223886e-13,0.6766139,-0.03875753,3.7489353e-13,-0.008381564,2.0875448e-13
-4.5431578e-13,-2.6102796e-13,-0.0005060103,-1.6519265e-13,-1.351661e-13,-6.189385e-15,-3.5822896e-13,4.2003873e-13,-3.4427425e-13,-2.96952e-13,-2.371044e-10,4.126671e-13,2.7349393e-13,-3.943894e-15,0.26161855,-4.6331043e-05,-1.8086934e-13,-1.044379,-1.8661484e-13,7.75326e-14,0.6445764,-7.333943e-13,4.9647883e-13,3.5306336e-13,-1.6912779e-13,-4.316474e-13,-5.6484234e-13,-1.9718358e-13,2.5754125e-13,9.2019627e-14,3.8493113e-13,2.3052032e-14,-2.809872e-13,-1.8955628e-08,1.6327671e-14,0.00041057102,0.024877563,1.0029683e-13,-3.718465e-13,3.098201e-13,-8.0047324e-14,0.0009742136,-1.1577653e-14,2.266812e-14,-1.7080998e-12,-0.07784359,-0.0062328787,-4.3651725e-13,0.030220017,1.8501775e-13,-3.1824188e-13,2.2117507e-13,0.00018594913,4.7669307e-13,-3.6121754e-13,2.8399147e-13,-3.066311e-13,5.267463e-13,-1.0628155e-13,5.2342814e-13,7.4650625e-10,9.973825e-13,-3.1287538e-13,2.733977e-13,0.59410805,3.675596e-05,-2.412609e-13,-0.33579814,-1.6565316e-13,-6.4841096e-13,-1.3033558,-2.3420133e-13,2.821305e-13,-3.2167357e-14,-3.2284874e-13,-2.3330285e-13,3.1869678e-13,3.1632983e-13,2.889896e-13,-1.7804668e-13,-1.05723535e-13,-4.022208e-13,5.6286556e-13,1.1152961e-09,-2.971847e-14,-0.00021259552,-1.9463395,-1.9274811e-13,-5.811552e-13,-7.825498e-13,1.2457518e-13,-0.0051408736,-1.0407972e-13,1.3565436e-13,-2.2970818e-12,0.14094485,0.0019462771,-5.223357e-13,0.026604984,-4.271438e-13
-1.7157849e-13,3.730072e-13,-0.0017449589,-3.2197191e-13,-3.5473144e-14,6.1368353e-13,-1.6601298e-13,7.083792e-14,-3.3669793e-13,-1.2922057e-12,-1.7925169e-09,-4.1508485e-13,3.600273e-13,-4.2175652e-13,0.0072065387,-8.1083155e-05,1.1440211e-13,-0.82770145,6.456356e-13,-1.5595218e-14,0.3330887,-4.9425996e-13,2.5029572e-13,2.494708e-13,-5.5438835e-13,-2.0924126e-14,2.6324968e-13,-1.5353952e-13,3.756422e-13,2.815528e-13,5.66713e-13,7.427448e-14,3.782543e-14,3.6622716e-08,8.2940246e-14,-0.00069611665,-0.14052267,-2.6427173e-13,1.4886746e-14,6.197245e-13,-5.5488654e-14,-0.098856896,-6.050045e-13,9.383485e-13,-2.9748298e-12,-0.090602905,0.04315161,1.2691394e-13,0.041210216,-3.3110027e-13,-1.7182314e-13,3.9558206e-13,0.0011728957,4.3774045e-13,-2.4965693e-13,5.1220925e-13,1.9358175e-13,-2.9427955e-13,-5.030828e-13,5.449491e-13,2.6119285e-09,-6.784547e-13,-5.37208e-13,-2.587937e-13,0.28803742,2.4662006e-05,-6.019779e-13,-0.5817007,2.78489e-13,7.331708e-13,-0.8853663,1.3239733e-13,1.3589816e-13,-1.5408844e-14,-4.743561e-14,-1.0963669e-14,1.4117169e-13,1.9768556e-14,3.678298e-13,-4.625013e-13,6.649242e-13,-7.296976e-14,1.530438e-13,-8.295038e-08,2.9399635e-13,0.0033267692,-1.7044991,1.4546701e-13,5.035612e-13,-2.295641e-13,-6.4236675e-14,0.055908456,1.8255196e-13,-4.4111204e-13,-1.3264246e-12,0.38708478,-0.0045423317,6.673765e-13,0.025073532,3.5766854e-14
-3.6797637e-13,-2.9800256e-13,4.2896187e-05,5.5107026e-13,-1.3340452e-13,-5.429667e-13,5.776904e-13,-1.5561811e-13,1.9957376e-13,5.4285447e-14,-5.989932e-10,-1.8878063e-13,-1.7661759e-13,6.7528914e-13,-0.26222852,-4.4618406e-05,-1.9593202e-13,-0.937174,-2.6288731e-13,9.446372e-13,0.20327081,-3.509002e-13,-2.1736454e-13,4.23921e-13,3.125801e-14,-2.393416e-13,4.4569556e-13,4.740245e-13,3.2038456e-13,7.49593e-15,-2.34934e-13,-3.6987744e-13,-2.8648115e-13,9.44944e-09,3.5768431e-13,-0.00037946142,0.33364764,5.2922207e-13,2.4983704e-14,3.401552e-13,-5.938384e-14,0.017714236,3.4421213e-13,8.238202e-14,-7.119229e-14,-0.22895503,0.0048521245,1.4601376e-13,0.041460555,3.836924e-13,1.6255264e-13,3.7620232e-13,-0.00012651831,-2.1779873e-13,1.2921038e-13,1.5368773e-13,-1.612825e-13,2.7399757e-13,4.9108016e-14,4.5856694e-13,2.975582e-09,-1.5572523e-13,-8.182756e-14,-5.383403e-13,0.10838754,8.7281405e-06,3.0325604e-13,-0.81426597,3.3155873e-13,4.119211e-13,-0.704608,6.2757937e-13,3.5235007e-13,2.8680872e-13,-4.0395644e-13,-3.4652142e-13,-1.411255e-13,-2.6910426e-13,-4.1812663e-13,4.002612e-13,3.7487084e-13,2.9819883e-13,-5.834644e-13,-2.2696614e-08,5.2608878e-15,-0.0001431641,-1.9904411,3.364172e-13,3.695814e-13,3.9294663e-13,1.6324702e-13,-0.010273882,8.971762e-14,6.3453073e-13,-5.816864e-14,0.15379249,-0.0093296785,2.2634515e-13,-0.031229135,-3.658158e-13
2.0532702e-14,7.94261e-14,-0.00070546364,-2.6779523e-14,-5.3869642e-14,1.2597318e-14,2.2042371e-13,-2.3700185e-13,-2.143688e-13,-1.0898965e-12,1.2334079e-09,2.0758117e-13,-4.637357e-13,4.2631025e-13,-0.5035025,-5.525185e-05,4.73959e-13,-0.73836213,2.3782305e-13,4.2974952e-13,0.12903607,3.4734593e-13,1.1934117e-13,4.691836e-14,-4.06653e-13,1.715045e-13,-3.207865e-13,1.3922012e-13,-2.367474e-13,3.6026303e-14,1.6045242e-13,1.3131897e-14,1.6388208e-13,1.829727e-09,3.0321213e-13,0.0023299048,-0.12114108,9.363866e-14,-2.9482818e-14,1.4141927e-13,5.0168967e-13,-0.014555636,-4.7670594e-14,-1.2123469e-14,-1.2061115e-12,0.32869357,-0.013069371,-3.571297e-14,-0.030944608,2.4127868e-13,-2.738724e-13,6.945502e-14,-0.0019800973,2.8030857e-13,-1.8687761e-13,3.1963158e-13,-2.9947843e-13,5.2990327e-14,-5.9112756e-14,-3.5192075e-13,-2.9341276e-09,3.3779495e-13,-4.2062328e-13,4.094881e-13,0.5134691,-6.267317e-05,2.6489124e-13,-0.7244061,-2.4070134e-13,1.284714e-13,-1.0218469,1.8688669e-13,-5.2921865e-13,-3.1176353e-13,4.750295e-13,-3.7599145e-13,3.700589e-13,-3.535166e-14,-3.4766157e-13,1.21995e-13,-3.4695939e-13,4.8887706e-14,7.504233e-13,-4.073631e-08,2.157699e-13,-0.0010472627,-1.6750834,-2.2477143e-13,3.6852178e-13,-1.7334991e-13,3.967159e-13,-0.00044390827,4.3574343e-13,4.0559396e-13,1.5071288e-13,0.11497019,0.014626009,1.8573484e-13,-0.04939685,-1.3431762e-13
-3.667199e-13,-8.715584e-14,-0.00026698346,2.5115576e-13,3.8516242e-13,-9.425392e-14,-9.0452595e-14,5.8460837e-13,2.2095844e-13,7.635944e-13,-1.9144542e-10,-4.0218718e-13,-6.123089e-13,-3.3848846e-14,-0.39995885,-3.3448832e-05,2.0471607e-13,-0.65341824,-8.470744e-14,-5.012909e-13,0.3078741,5.4609496e-13,7.966569e-13,5.037338e-13,3.5968757e-13,1.1431394e-14,-2.7756405e-13,-4.3945858e-13,-3.655137e-13,-1.4653437e-13,-4.070351e-13,1.962986e-13,8.9631265e-14,-3.4300292e-08,-7.0880714e-13,0.0012255087,0.1837575,3.0866965e-13,-4.666491e-13,6.1456255e-13,-5.8855405e-13,-2.48355e-06,-2.9257917e-13,-2.0341639e-13,7.3469464e-13,0.14170857,-0.004362772,1.1531475e-13,-0.10044842,3.9640296e-13,-7.8210394e-14,2.3044907e-13,-0.0007923383,2.2071673e-14,-1.9259242e-13,1.2524806e-13,6.2316206e-13,-3.2419903e-13,1.8841173e-13,-1.2240469e-13,-1.8945865e-09,-2.6560462e-13,-4.2428994e-13,-2.1032384e-14,0.14501905,-2.082906e-05,2.2716139e-13,-0.5699354,5.8365037e-13,-1.3372007e-13,-1.2006279,-4.692221e-13,-3.2649485e-13,1.374172e-13,4.2896535e-13,-2.3681065e-13,-1.0491307e-13,-5.798619e-13,3.1568162e-13,2.897327e-13,-1.9476155e-13,-3.941346e-16,2.0295012e-13,-1.3184977e-08,-6.378425e-13,-0.00034277773,-2.014719,-6.490898e-13,-6.335262e-13,6.841473e-13,-4.2842571e-13,0.00219383,9.365648e-13,1.3264547e-13,7.2968075e-13,0.014655495,0.0027939563,4.3426298e-13,0.00217322,3.1202146e-13
1.7230481e-13,-2.5039373e-13,-0.00053926837,-6.5598644e-13,-3.197651e-15,4.156869e-14,6.062403e-13,-3.7222553e-13,3.813294e-13,-4.651165e-13,-1.5346606e-09,-3.8757902e-13,2.888627e-13,4.2471167e-13,-0.41844475,-7.4249125e-05,-4.3482812e-13,-1.1040844,6.8196956e-13,2.118947e-13,-0.037053138,7.6112326e-13,-2.4863195e-15,2.792689e-13,5.531914e-14,2.5365203e-13,1.526844e-14,-2.3772702e-13,2.4650762e-13,5.515348e-13,-5.5994705e-14,3.1659462e-14,1.3913716e-13,-1.2440904e-07,-3.0516564e-13,-0.006755474,-0.6817176,4.6475275e-13,-8.9145054e-14,-2.9921413e-13,-1.8404798e-13,-0.07156406,5.7796454e-13,1.6423101e-13,4.3556565e-13,0.100233644,-0.021426667,-3.9734942e-13,0.008543908,1.5319268e-13,-1.9889342e-13,-1.5792974e-13,0.0016868855,1.5835494e-13,3.1737959e-13,2.8998565e-13,3.532622e-14,-3.3235426e-13,-3.4811737e-13,-4.0927017e-13,4.7249404e-10,1.8888244e-13,1.9152757e-14,3.9410798e-13,-0.7078661,1.5162174e-05,-2.1085816e-13,-0.6956183,2.3716397e-13,-7.509021e-13,-1.4146262,-3.9441687e-13,8.2250206e-14,-4.1686798e-13,1.831278e-13,-7.776093e-14,-4.760634e-13,-3.3983187e-13,2.5347855e-13,7.6105e-14,-3.2016582e-13,4.1297613e-13,-2.1543912e-13,3.0702818e-08,5.319038e-14,0.00083264953,-1.4285779,-2.6714484e-14,4.1373326e-13,2.5394075e-14,-2.0373814e-13,-0.00029315928,-2.390132e-13,-3.8176637e-13,-1.5599447e-13,-0.16068365,-0.0011520146,-4.486177e-13,-0.021438392,3.752254e-13
2.1133369e-13,3.8933586e-13,0.00062490307,-1.3044442e-13,-1.7147641e-13,3.3596685e-13,5.688513e-13,2.8920442e-13,-2.2587733e-13,5.5182015e-13,1.1576147e-09,1.7828027e-13,-4.5142658e-13,2.010438e-13,-0.014342272,-2.4386381e-05,-5.011598e-13,-1.034055,-1.2716274e-13,7.295936e-13,-0.052866206,-5.5394654e-14,4.7925845e-13,5.9078746e-14,4.786834e-13,2.5974177e-13,-4.49823e-14,-6.941996e-14,-6.470733e-14,-2.747559e-13,1.6908675e-14,1.0401032e-13,3.104909e-13,4.065276e-08,-2.406952e-13,0.0010283238,-0.3400339,2.6947463e-13,3.9378616e-13,6.3617763e-13,2.7314118e-13,-0.027674006,-4.1313302e-13,-2.1036504e-13,2.0149381e-12,-0.06044184,0.012350608,-1.044831e-13,-0.029859006,3.579217e-13,4.6632105e-13,2.3248997e-13,-0.0024381576,3.2265724e-13,4.7983037e-13,-3.3014894e-13,6.786165e-14,3.1553829e-13,8.946752e-14,-8.5183027e-13,-2.9474181e-10,-1.5056668e-13,-1.8712839e-13,3.7554692e-13,-0.42480874,-1.4852201e-05,2.804684e-13,-0.5678291,3.805497e-13,5.841252e-13,-0.7901737,-1.1259949e-13,-1.0240737e-13,-1.4103085e-14,-2.458509e-13,-8.3963706e-14,-1.406362e-13,1.9841241e-13,2.2430408e-14,-3.4883598e-13,-3.104298e-13,5.8782753e-13,-6.9268224e-13,3.139522e-09,-1.5947134e-13,-0.0017722568,-1.9399195,-2.8239276e-13,3.4324247e-13,3.0950302e-13,2.4932516e-13,0.007823526,2.9595846e-13,1.388929e-13,1.1015683e-12,-0.0314555,-0.0019239968,-5.535765e-13,-0.033319015,-2.3130597e-13
-4.6815075e-13,5.592676e-13,-0.00035787924,-1.526851e-13,1.5366148e-13,5.2374153e-13,-4.7776453e-13,-2.8680067e-13,3.4974465e-14,5.3251105e-13,2.779841e-09,8.2171775e-13,2.0228976e-13,3.3862697e-13,-0.3290863,-8.444346e-05,-4.3734612e-13,-0.52069557,-2.4393855e-13,6.577471e-13,0.1444807,4.15854e-13,3.469328e-13,7.6093943e-14,3.9889614e-13,1.8510286e-14,-1.5953463e-13,-5.140866e-13,9.3617144e-14,-1.6805132e-14,1.8716758e-13,-5.9061686e-13,1.5709837e-13,-1.319862e-07,-1.5174765e-13,-0.00040354877,-0.27124816,-1.5020704e-13,5.0147237e-14,2.4818353e-13,-1.2251601e-13,-0.0023596233,-2.7530037e-13,-5.1172113e-14,-1.3125766e-12,0.28560817,-0.015536207,-2.9487922e-13,-0.11433826,1.1601031e-13,5.130084e-13,3.6378127e-13,-0.00016111265,-1.1524977e-13,-2.918087e-13,-5.410699e-13,2.5050578e-13,-9.779314e-14,-2.2574671e-13,6.9814185e-13,-6.6960193e-10,1.6109688e-13,3.313781e-13,2.2917323e-13,0.08653327,1.3702987e-05,-1.7909055e-13,-0.09772965,2.3318752e-13,-2.5391795e-13,-1.8225361,2.580382e-13,-4.2513828e-13,-7.087924e-14,4.8946475e-13,-3.9851396e-13,2.1110163e-13,-1.8907372e-13,-3.0681168e-13,4.7625434e-13,-2.0400977e-13,6.342783e-13,1.157938e-13,1.9660044e-08,3.9326604e-13,0.001156643,-1.4302934,3.9343068e-14,-8.969317e-14,-4.6547857e-13,2.6715826e-13,-0.009368594,-1.6375681e-13,-2.642944e-13,-2.694134e-15,-0.20919499,0.019087862,-3.6604652e-13,-0.32901093,4.1876032e-13
2.3340666e-13,-3.0691587e-13,0.0010616992,-4.0169484e-14,1.9636908e-13,4.7594795e-13,-1.9260974e-13,-9.0019084e-14,1.7665536e-13,6.373374e-13,-2.7339377e-09,-3.050572e-13,-1.0832126e-13,-3.345378e-13,-0.18509327,3.4119555e-05,-3.8962938e-13,-0.8377123,-1.7387583e-13,2.0290491e-13,-0.010749331,-2.6753523e-13,-4.1693504e-13,2.8464373e-15,-1.2347258e-13,-2.4425497e-13,6.991421e-14,-4.0932072e-13,-3.586678e-13,4.580317e-13,-2.38168e-13,3.8000966e-13,-6.2422506e-14,1.7966743e-08,-8.056589e-14,-0.0029394098,0.3254279,4.0900744e-13,4.7504633e-14,-4.9084527e-13,-2.2091828e-13,-0.014291903,5.603797e-13,2.1903903e-13,5.4414367e-13,0.22267656,-0.004966797,-1.8675194e-13,-0.02597281,-1.5511087e-13,3.1158065e-13,3.5041512e-13,0.0021385744,2.6306447e-13,2.5162148e-13,4.6723676e-13,6.981991e-14,-6.3156804e-13,-4.1237356e-13,-1.655394e-13,3.3175018e-10,6.640437e-13,-4.122127e-13,-2.9706587e-13,0.38035515,-2.0483722e-05,1.7535153e-13,-0.5241621,1.8577796e-13,-9.555e-13,-1.5910323,2.0001878e-13,-3.8299355e-13,-8.121791e-14,3.1711867e-13,-4.4926435e-13,6.105271e-13,2.8011393e-13,3.9153479e-13,5.007158e-13,1.3997142e-13,4.28537e-14,1.5472514e-14,8.567483e-09,-4.0001376e-13,0.0013188224,-1.6044186,-2.2283655e-13,-3.3967276e-13,5.994969e-13,1.4724333e-14,0.005964051,2.9383746e-13,1.1218265e-12,-9.671853e-14,-0.18727796,0.0044394694,4.9041175e-14,-0.10606078,-5.812954e-13
-3.3533528e-13,1.2619468e-13,0.00040102718,-1.5037879e-13,-5.5701862e-14,4.453133e-13,3.729913e-13,-4.855851e-13,-7.863312e-16,7.052223e-13,6.4811245e-10,2.5725147e-13,-2.2677173e-15,3.4690008e-13,-0.24644709,1.7056103e-05,-1.5351965e-13,-0.63524926,-1.9550594e-13,-1.2541465e-12,1.0770581,-3.0959854e-13,-3.2432528e-13,-3.0001227e-13,-1.3849273e-14,2.7380333e-14,1.1771468e-13,8.58926e-14,2.8104727e-13,-6.8721873e-13,7.880987e-13,-4.0542396e-13,-1.7433659e-13,4.5712262e-08,-2.5697878e-14,0.0013330076,0.30982023,3.0132656e-13,-7.6256994e-14,-4.7493763e-13,-2.3684e-13,0.06310149,-6.2570636e-14,3.9806117e-13,-1.3928087e-12,0.09813722,0.02421153,2.2465981e-13,0.027013369,-7.0838544e-14,-3.9494398e-13,4.8903064e-13,7.811953e-05,-1.7310498e-13,-4.979362e-13,-3.7918247e-13,-6.788888e-13,7.729663e-13,3.5981236e-13,2.0836891e-13,1.0485427e-09,3.980252e-13,6.533075e-13,1.1498007e-13,0.11881571,-4.916104e-05,3.2301231e-13,-0.52177477,3.4954017e-13,4.867759e-13,-1.0199436,3.4945923e-14,-4.8153896e-13,-3.2944548e-13,6.588802e-14,3.1028863e-13,1.562731e-13,-1.3545022e-13,-4.8344857e-13,-8.1446617e-13,5.0521544e-14,-6.2630386e-13,-8.785549e-13,-7.236103e-08,2.1405376e-14,-0.0011573385,-1.5981046,-7.57058e-14,-2.3013584e-13,7.608009e-14,-5.9359944e-13,0.056306023,-7.1630733e-13,-1.5234042e-13,5.0397674e-13,0.26477164,0.00014087313,-6.9812374e-14,-0.16609348,2.2699252e-13
-1.8745281e-13,-2.0440621e-13,0.00014896873,2.8802514e-13,2.6050735e-13,-4.099102e-13,2.095235e-13,2.9422585e-13,3.8494804e-13,7.488952e-14,-4.7482226e-11,5.4321673e-14,4.3557814e-13,1.787269e-13,-0.23273373,8.433527e-06,-3.0629432e-13,-0.55296665,4.009846e-13,4.0546657e-13,0.8577504,-2.0816424e-13,-1.3087044e-13,2.3719633e-14,-1.9082086e-13,-5.488399e-13,-3.2599533e-13,3.2286204e-13,-2.732606e-13,-6.3616755e-14,2.0039948e-13,1.4070922e-13,-6.7156567e-15,3.8230086e-09,3.0794887e-13,-0.0002033538,0.40269828,1.5616156e-13,-4.336066e-13,1.8660675e-13,-6.340241e-14,-6.0629798e-05,2.477873e-13,4.3600708e-13,2.323905e-13,0.025223935,-0.00017480677,-5.0023744e-13,0.0026941085,2.0099669e-13,-3.0906189e-13,-3.1305769e-13,-0.00011385055,-4.1692973e-13,-1.2567117e-13,2.4136097e-13,-3.6920814e-13,-2.051111e-13,3.9543396e-13,-6.399849e-13,-6.8406464e-10,-2.2042188e-13,-2.4162812e-13,-1.6278782e-13,0.34694642,-2.3139337e-06,1.3657261e-13,-0.6292541,-4.0852624e-13,2.2090886e-13,-1.117446,-3.9461514e-13,-7.448328e-14,-4.2548633e-13,3.650975e-13,-3.817123e-13,-3.4987242e-13,5.230997e-13,-3.4911662e-13,-2.5517576e-13,9.947609e-15,-2.963885e-13,-7.395763e-14,1.3836821e-08,-3.2540702e-14,-8.924459e-05,-1.1563296,4.4628195e-13,-2.304495e-13,-9.131861e-14,2.301439e-13,0.0044007893,2.7131013e-13,1.7462491e-13,-3.6815315e-13,0.05612224,0.0007262241,-1.6174751e-13,-0.006141027,1.2982408e-13
-3.365017e-13,-9.439427e-14,0.0007983417,-2.0602129e-13,1.4438319e-13,3.2001566e-13,-9.579591e-13,-3.655611e-13,-1.9204148e-14,9.343909e-13,8.998873e-10,3.7654184e-13,-5.169664e-13,3.9931844e-13,-0.4872231,4.0395907e-06,1.6963424e-13,-0.9182248,-3.051475e-13,-1.8199361e-13,0.9075884,-2.623843e-13,6.0598477e-13,5.714503e-13,-7.566438e-14,2.0789144e-13,-6.112591e-14,-5.445752e-13,1.371523e-13,2.0680533e-13,4.844436e-13,3.0002934e-13,6.2065446e-13,-3.8880934e-08,-5.372276e-13,-0.0007255012,0.071650065,-1.8455705e-13,5.399853e-13,-4.0101706e-13,1.0653262e-14,0.08156241,4.1077005e-13,2.1334952e-13,2.4110258e-12,-0.25346443,-0.018583007,-4.1541784e-13,0.16565971,-3.56374e-14,4.9963804e-13,-2.8168467e-14,0.00046205407,8.0706356e-14,-3.2232086e-13,1.4584812e-13,-6.147006e-14,2.967055e-13,-2.0290093e-13,-4.9942635e-13,1.2309198e-09,6.0258385e-14,-2.7834633e-13,4.763976e-13,0.28662127,4.9333007e-06,-1.6807557e-13,-0.6239548,-4.959747e-13,-1.4268315e-13,-1.4993507,1.7280109e-13,9.616429e-14,7.115504e-14,1.3120424e-13,-6.713055e-13,1.4940387e-13,2.061508e-13,-1.195328e-13,1.335215e-13,-9.135146e-14,-1.24823925e-14,-4.747662e-13,-3.1873764e-08,-1.091591e-13,0.0007170204,-1.558169,4.8157e-13,-2.607469e-13,-4.679147e-13,-1.6867291e-13,-0.01780869,-6.4580524e-13,-5.8795205e-13,-2.402059e-12,0.07718186,-0.01728557,-1.6920211e-13,-0.35510004,3.598769e-13
3.076093e-14,-1.2707988e-13,0.00021191707,2.3962684e-13,3.878867e-13,3.047519e-13,-7.0935787e-13,3.2792427e-13,-2.471112e-13,7.7076106e-13,-1.6761095e-09,7.8216285e-13,3.9974477e-13,2.9024133e-13,-0.44276428,-3.3757906e-06,-3.578897e-14,-1.0420386,3.631622e-14,-4.869891e-13,0.40011024,-3.4257964e-13,-2.7233071e-13,4.826177e-13,-4.3114004e-13,-5.3784505e-14,-1.445254e-13,-4.2621185e-13,5.2041856e-13,7.721777e-14,2.2261038e-13,5.069983e-13,-2.5928275e-14,7.04811e-08,-4.9257923e-13,0.00092440605,0.25209907,-6.7081616e-13,3.7609686e-13,2.0814454e-13,4.3100696e-15,-0.021731803,1.5197641e-14,2.9861232e-14,-6.746672e-13,0.011921876,0.0017601497,8.619876e-14,-0.019112084,2.8369234e-13,-1.293184e-13,3.5335678e-13,-0.0008513584,3.2519e-13,1.3921966e-13,-7.5777546e-14,4.956579e-13,4.095666e-14,-5.075023e-13,1.0266032e-12,-3.0323142e-09,5.0487135e-14,-1.3309658e-13,2.3440939e-14,-0.010949232,6.480714e-06,-5.727336e-14,-0.54935414,2.3499236e-13,-2.117772e-15,-1.4401445,2.5316942e-13,2.1736953e-13,-1.32885985e-14,-5.244828e-15,9.1518454e-14,2.0008948e-13,4.3902336e-13,-9.721176e-14,4.4812084e-13,3.442342e-13,4.693997e-13,-1.0650335e-12,6.3056786e-09,6.868045e-13,-0.00045112736,-1.8866876,1.7912049e-13,1.9826393e-13,4.737725e-13,4.558127e-13,0.018347252,3.6104838e-13,3.2823681e-13,-2.2770403e-13,-0.13485985,0.009304875,-5.9996246e-13,-0.0565061,2.1353253e-14
7.258972e-14,4.3191476e-13,-0.00026259903,1.5066588e-14,-1.6217686e-13,-1.2739682e-13,-1.7007854e-13,1.6867334e-13,1.04699506e-13,-3.2790312e-13,-2.3540072e-09,-2.1619149e-13,-4.648769e-13,-2.6512646e-13,-0.10146728,-4.5866524e-05,-1.8789703e-13,-0.5024938,-1.5809226e-13,2.5124016e-13,0.11917623,2.2060432e-13,-1.6517432e-13,9.50479e-14,1.2209567e-13,6.6145494e-14,2.9213584e-13,-3.1543268e-13,-3.8690833e-13,3.839057e-13,5.363947e-13,-1.0815174e-13,2.567445e-15,1.05912605e-07,-4.8341166e-14,-0.00611545,0.30274805,-3.075675e-13,-4.7221916e-13,7.631184e-15,3.5765534e-13,-0.094354205,1.5930204e-13,-4.6312585e-13,3.028562e-13,0.010673051,0.015339507,-1.9624604e-13,0.037840843,4.0351704e-13,3.632221e-14,1.1861025e-13,0.0031482803,1.4458942e-13,-3.5182976e-13,4.4108868e-14,1.0417662e-13,6.9890377e-13,-2.4977476e-13,5.5375843e-14,-5.0535987e-10,2.8225743e-13,-2.2135227e-13,1.0376696e-13,-0.15093006,3.6280856e-06,-4.0254047e-13,-0.5776787,1.5505343e-13,7.72585e-13,-1.2503942,3.2609782e-13,-3.6645413e-13,-1.98809e-13,1.8117787e-13,-4.139969e-13,2.137614e-13,-1.9699758e-13,1.9532355e-13,-9.80135e-15,5.0067535e-13,-2.2588986e-14,-3.5042455e-13,-1.1034609e-08,3.0583674e-13,0.004869989,-1.4704204,2.8711988e-13,-2.5116557e-13,8.6815266e-14,-2.248715e-13,0.04028948,9.539875e-13,1.288776e-13,-1.4838969e-12,0.19663917,0.02089055,-5.151821e-13,0.00661915,-1.1471304e-13
-1.02921415e-14,-6.116593e-14,0.0005184197,-4.341643e-14,2.6082695e-13,1.9252314e-13,-2.6485894e-13,-5.6678685e-13,-3.9491546e-13,-3.8553045e-13,-3.0001562e-10,2.4740548e-13,4.0494444e-13,-2.068635e-13,-0.03938938,2.1845655e-05,-5.292729e-13,-0.27803582,1.2558531e-14,-2.251058e-13,0.30859497,-4.410366e-13,-5.968003e-13,-3.6947772e-13,-4.4770893e-13,-6.421586e-14,3.3840538e-13,6.048062e-13,-2.2374657e-13,1.0288385e-13,5.425824e-13,1.3960118e-14,-4.1017388e-13,-8.1513015e-08,-2.88998e-13,-0.00037293622,0.40279847,3.7257372e-13,-1.6151154e-13,-3.7749575e-13,-4.316049e-13,0.020213297,-7.572702e-14,-4.5615925e-13,1.5596259e-12,0.143293,-0.0034955177,1.4360258e-13,0.009395555,1.4790343e-13,2.0488713e-13,-7.425648e-14,0.0014473359,-3.0438962e-13,2.0485217e-13,-8.277751e-14,4.52795e-13,5.593255e-13,3.4479686e-13,3.1595793e-14,2.4278649e-10,4.4905337e-13,2.6007102e-13,1.3203718e-13,-0.11143439,-1.715679e-05,2.936548e-13,0.1537316,1.2190162e-13,-1.03211954e-13,-0.7733678,-4.0742176e-13,1.5269394e-13,1.257411e-13,5.611674e-13,5.887052e-13,-3.7103111e-13,2.8908202e-13,4.3630567e-13,9.9736354e-14,-2.4801816e-13,6.6892217e-13,7.145304e-14,-2.0524617e-08,5.252586e-13,0.000151657,-1.9923457,-1.452491e-13,4.0694412e-13,2.3495312e-14,2.555325e-13,0.0012793932,3.3168263e-13,2.7997329e-14,-1.0864661e-12,-0.04278823,-0.0013205865,4.1686554e-13,-0.05011826,-4.8360654e-13
3.171268e-13,-3.0193713e-13,0.0016797159,-3.736104e-13,2.771837e-13,-4.265683e-13,-2.883329e-13,3.2742472e-14,-3.501026e-13,-2.0957552e-13,-7.0540263e-09,-1.1014776e-12,1.2114582e-13,-7.591792e-14,-0.5481753,-4.385851e-05,-1.3360047e-13,-0.7706553,2.4915925e-13,8.410159e-14,0.5870307,4.7565543e-13,-1.7715452e-13,4.6183814e-13,4.726768e-13,2.6143408e-13,-3.2218702e-13,-9.332853e-14,-4.6510625e-13,2.1209129e-13,-3.3233786e-13,-5.5290185e-13,2.4863027e-13,-6.8554506e-08,8.608194e-14,-0.005095107,0.31519115,2.7186985e-13,-1.9824274e-13,8.549605e-14,-1.2500576e-13,-0.040634554,-2.724124e-13,-9.098199e-13,3.4168013e-13,0.33507496,-0.03035444,2.440296e-13,-0.36077467,6.8920855e-14,3.7136383e-13,-3.4835806e-13,0.0025965904,6.3878563e-13,1.6696993e-13,-4.7317207e-13,3.9127393e-13,6.8525947e-13,-2.6465012e-13,1.5848867e-13,-2.1195368e-09,-3.812651e-15,-4.1764622e-13,-8.104781e-13,0.91258025,4.7616366e-05,4.679262e-13,-0.7490335,6.590091e-13,3.3379457e-13,-0.41597882,3.0590036e-14,2.8200456e-13,2.7507136e-13,6.595731e-13,-4.6369034e-13,3.0157937e-13,-5.7128494e-13,3.0845882e-13,7.07617e-14,1.1388297e-14,3.6879777e-13,2.8916027e-13,4.4500837e-08,-8.926708e-14,0.004355306,-1.3042552,1.2966941e-13,1.2189606e-13,-2.8878777e-13,-4.998308e-13,-0.0075113764,1.7108198e-13,-3.0400042e-13,1.7291095e-13,0.39920247,-0.014067815,-2.6008937e-13,-0.16694954,-1.4300637e-13
-5.857542e-13,2.8990615e-13,-0.0005393554,6.0015133e-13,1.413889e-13,-4.551678e-13,-3.122136e-14,-4.4911763e-13,1.9289889e-13,-2.5349243e-13,-2.8492517e-09,-3.8058415e-13,-1.2209531e-13,-5.120851e-13,0.33909115,6.750493e-05,1.4106579e-13,-0.78956133,-2.5158396e-14,-5.533531e-13,0.7048195,2.864886e-13,-3.1021531e-13,-1.091127e-13,5.57222e-13,2.1024258e-13,-6.264788e-13,-4.033538e-13,-3.2459457e-13,3.1716226e-13,6.6752756e-13,8.688102e-14,5.552048e-13,-4.625898e-08,2.6722938e-13,-0.00045784932,0.4569736,2.3395213e-13,3.7183798e-14,-2.4083974e-13,-4.956746e-13,-0.0014812719,-1.7328837e-13,-7.4022505e-13,-6.3805954e-13,-0.16888501,-0.01163556,-3.5271807e-15,0.06278399,-6.302084e-14,-3.6164485e-13,-4.4442298e-13,0.00020360226,-2.7277166e-13,-3.5055224e-13,2.3355314e-14,1.0348303e-13,7.758069e-13,2.9199652e-13,1.282596e-12,-3.9798093e-10,-5.87499e-13,-1.6117289e-13,2.1601189e-13,0.5418989,-7.11181e-06,-4.795934e-13,-0.6764632,5.700941e-13,-3.0680745e-13,-0.8433288,7.210477e-13,4.0265504e-13,-4.0735481e-13,-2.0400497e-14,-3.8476736e-13,1.6483595e-13,5.293838e-13,-3.4766984e-13,5.8879247e-13,4.84855e-13,5.211583e-13,-5.3339933e-13,5.1330083e-08,-2.2948857e-13,0.00015712544,-2.0305507,5.933842e-13,-5.9015905e-13,-5.211707e-13,-6.942152e-14,-0.00021089235,-3.8752595e-13,-6.837147e-13,1.1419014e-12,0.33647567,-0.000761,6.262165e-14,0.06684748,4.7974683e-13
3.5961034e-13,-3.1937297e-13,-0.0011498071,-3.118014e-13,1.4996386e-13,-8.204738e-14,-6.5464297e-14,-5.5557295e-13,-4.381683e-13,3.795971e-13,1.7863228e-09,-8.7276936e-13,1.5205347e-13,-3.5261271e-13,0.42289305,-0.00021352369,-3.1548857e-13,-0.8350818,-3.8296105e-13,-6.4431696e-14,0.7672567,3.3152203e-13,4.3391294e-13,-3.749548e-14,-1.590346e-13,-8.214528e-14,-5.028993e-13,2.6770873e-13,-3.1172425e-13,4.3495809e-13,-2.0396716e-14,4.665297e-13,2.398178e-14,-3.3831718e-08,8.90916e-14,0.0041564107,0.7831787,2.9893622e-15,-2.9028768e-13,-4.509066e-13,-4.3582976e-14,-0.06929008,3.2191494e-13,1.3222596e-13,3.3269806e-13,-0.041545123,0.04825582,-5.8976175e-13,-0.17015664,1.926653e-13,-3.3638123e-13,-3.004314e-13,-0.0018370135,-4.144948e-13,8.220174e-14,3.8117624e-13,3.4489913e-13,-4.7784465e-13,3.787484e-14,3.5627195e-13,8.7329466e-10,7.117099e-13,-3.016398e-13,2.2174645e-13,0.50231624,-6.633094e-07,2.1211006e-14,-0.99158275,5.2893004e-13,1.2760843e-14,-0.75450295,9.569396e-14,-3.692989e-13,-1.01734485e-14,2.0125796e-13,2.8051893e-13,-1.0915368e-14,2.0210134e-13,-4.2674116e-13,1.5719782e-13,1.7420578e-13,-7.324474e-14,8.678931e-13,5.87512e-09,2.5698942e-13,-0.0024428722,-1.3147666,-4.1082873e-13,1.3200899e-13,-2.1186709e-13,-4.5118726e-13,-0.031016113,2.3989534e-13,3.641591e-13,5.5220563e-13,0.14857905,0.023293883,1.2517705e-13,0.21405542,-3.509805e-13
-3.813219e-13,-4.1322235e-13,-0.00068637385,-3.3755485e-13,-5.5760344e-13,-2.5654256e-15,-2.642184e-13,-4.7080905e-13,-1.3284333e-13,9.924545e-13,3.6095965e-10,1.12377935e-13,-3.643172e-13,-4.3774e-13,0.6128758,2.9118817e-05,3.044026e-13,-0.42981246,2.986087e-13,-2.4433624e-13,0.34709153,-5.056083e-13,-9.012325e-14,3.4180403e-13,2.6756876e-14,1.52218e-13,-1.9699249e-14,-3.882306e-13,3.0338275e-13,1.9347543e-13,-4.400451e-13,-1.8818611e-13,4.5534746e-13,-7.240134e-09,5.446837e-13,-0.0016002571,1.0762209,1.9961084e-14,3.142173e-13,-4.2540448e-13,-4.1188518e-13,0.014111661,-1.4665606e-13,6.1949187e-13,-3.7479698e-13,-0.08486665,-0.014102123,-3.1876831e-13,0.026544705,8.619375e-14,-7.580975e-14,2.5111646e-13,0.00047324685,4.0155254e-13,-2.4544521e-14,-2.2996416e-14,2.6289534e-13,3.0924536e-13,-4.316131e-13,4.841176e-13,-1.633014e-09,5.2234573e-13,2.0112476e-13,-6.724764e-17,0.47454098,-1.2317643e-05,2.6016515e-13,-0.83639437,-5.0464244e-14,-1.3070675e-13,-0.77204096,3.9069976e-13,2.4929651e-13,-6.0428436e-13,2.9727804e-13,5.4811483e-13,1.4585108e-14,-4.0175908e-13,-2.1745827e-13,1.1870387e-15,-5.3065083e-14,-6.935392e-14,5.233388e-13,-3.2350155e-08,-6.0855493e-13,7.54772e-05,-1.726073,1.8286432e-13,2.30745e-13,7.667895e-14,-1.3453865e-13,-0.003722469,2.3700592e-13,2.4988356e-13,-5.447912e-13,-0.021121496,0.0010314295,-2.924673e-13,-0.0119694425,-8.5795764e-14
4.94394e-13,1.7414314e-13,0.0019617246,2.5531576e-13,4.6976816e-13,1.2648687e-13,7.7335317e-13,3.7514872e-13,-3.5948938e-13,2.9117073e-13,1.5160766e-09,-5.816389e-13,4.021644e-13,3.8510303e-13,1.1226194,-2.0908356e-05,-3.300802e-13,-0.69442964,-9.725437e-14,1.1057084e-13,0.5797682,5.805819e-13,1.3280097e-13,-4.0870353e-13,8.508418e-14,-5.704165e-13,5.256532e-13,8.4697955e-14,-5.764603e-14,-4.214093e-13,-4.761036e-13,-3.094301e-13,-2.4276536e-13,1.1844945e-07,-5.7285394e-13,0.00086850417,0.4994667,-1.8798792e-14,-1.2321655e-13,3.247614e-13,-2.3599615e-13,0.023944966,4.325205e-13,7.455273e-13,9.171049e-13,-0.6793709,-0.010286529,-3.2897467e-13,0.29090682,-5.762578e-14,-2.3335668e-13,1.8171162e-13,-0.0018660198,-4.1030596e-13,-2.4617664e-13,-5.2333116e-13,-5.241586e-13,-1.6533102e-13,-2.2321146e-13,2.791363e-13,1.6796033e-09,-5.072834e-13,-4.2460192e-13,1.2219739e-13,-0.21855663,-9.731e-06,3.1130103e-13,-0.5016586,-5.7851293e-13,-1.6379042e-15,-1.1583468,-6.9896476e-13,-4.817948e-13,3.3864738e-13,2.9776707e-13,3.1806106e-13,-2.7776403e-13,-7.7889884e-14,2.4318264e-13,2.3507796e-13,-1.9242599e-13,6.1270823e-13,-3.3648136e-13,1.0042923e-07,-4.4593035e-13,-0.0021414063,-1.4067075,2.1730665e-13,5.240676e-13,3.494512e-13,4.4471824e-13,0.0094387345,-1.5482651e-13,2.7480283e-14,-1.0143186e-15,0.2131776,0.0018851191,4.0521726e-13,0.06089922,4.712019e-13
2.8988208e-13,-9.171754e-15,-9.152571e-05,2.9993732e-13,5.709102e-13,1.3562496e-13,4.4872542e-13,1.4543851e-13,-1.0679261e-13,9.909505e-14,2.2196813e-09,5.020915e-13,-2.9895994e-13,-9.86164e-14,1.2695678,8.9868176e-05,2.7274472e-13,-0.5523455,-6.5429845e-13,-2.3976e-13,0.39101583,9.17949e-13,-5.988512e-13,-4.6868e-13,2.659497e-13,-2.4076097e-13,3.0465664e-13,9.908312e-14,2.2098404e-13,2.2662831e-13,-3.615226e-13,-1.6672129e-13,-8.198842e-13,-4.5606868e-08,4.2028826e-13,-0.00024880003,0.68080413,8.424844e-14,5.4913463e-13,-6.716102e-13,-2.4582468e-14,-0.014067849,-7.339208e-13,-4.1546953e-14,-2.0275411e-12,0.037593707,0.012249861,-2.5707233e-13,0.03548961,-2.701729e-13,3.1930757e-13,4.0044864e-13,-0.0006746734,-2.733761e-13,-1.4370775e-13,-3.9876278e-13,-5.302742e-13,-7.4943014e-13,3.7121155e-13,2.1766638e-13,2.7115583e-09,-3.0032918e-13,5.510891e-13,-4.5396187e-13,-0.38723326,-2.980944e-05,-2.9052149e-13,-0.49518627,5.110474e-13,-1.8956223e-13,-1.0932412,-1.4806724e-13,-3.9070708e-13,5.059538e-13,6.9580984e-13,3.7038783e-13,3.6175815e-14,-3.5968957e-13,4.0439153e-13,-1.2644058e-13,1.3133315e-13,-8.510326e-14,-3.3231824e-13,1.5235921e-08,1.3501177e-13,9.199888e-05,-1.8391025,7.4266775e-13,-2.0231199e-13,3.911102e-13,3.9062693e-14,0.006056895,-4.310294e-13,9.083631e-13,-1.4894198e-13,0.16097619,-0.003172013,-4.7156018e-14,-0.018399293,-5.0483375e-13
1.3890028e-13,1.5865754e-14,-0.0012193907,2.0148748e-13,-2.653135e-13,-4.5055404e-13,3.511639e-13,2.8840558e-13,4.767534e-13,1.7052984e-12,-3.0062075e-09,-8.813692e-13,-4.738822e-13,-4.728839e-13,1.5240525,0.00015274828,-1.5841842e-13,-0.13339372,-3.7939926e-13,4.050729e-13,0.16892003,-1.1445082e-14,8.509567e-14,4.0829655e-13,-1.4600303e-13,3.2320446e-13,1.2435605e-13,5.4139836e-13,5.3721215e-13,1.2062638e-13,-2.6268053e-13,1.2210187e-13,2.3183425e-13,4.4298233e-08,3.489228e-13,0.004119105,0.21798356,4.3606774e-14,-4.7450975e-13,-5.97993e-13,-3.55255e-13,-0.03117012,4.853387e-13,5.154831e-14,7.995783e-13,0.3925285,-0.012482175,-3.186912e-14,-0.107167214,5.8681196e-13,5.096765e-13,-3.1604477e-13,-0.002862115,4.133347e-13,-4.0757924e-13,7.048539e-14,-5.6623597e-13,-5.1508683e-14,6.434713e-14,-4.2057417e-13,-6.323329e-10,-7.05062e-13,-4.190244e-13,6.4815433e-13,-0.9794138,-4.18387e-06,4.3409086e-13,-0.26677543,2.482505e-13,1.015877e-12,-0.8171923,-6.364163e-13,5.63158e-13,-2.5919853e-13,-6.992473e-13,3.4422993e-13,6.094463e-14,-2.2137985e-13,-3.5518732e-13,4.4671897e-13,8.939187e-14,-1.2617809e-14,4.5388498e-13,-5.3872235e-08,5.8802345e-13,-0.0011893926,-1.400944,2.1900216e-13,-1.15623e-13,3.6098574e-13,-2.6200778e-13,-0.010352232,-2.2144374e-13,-8.392909e-14,5.213031e-13,0.2167191,0.013066431,5.066724e-13,-0.2610128,1.4666805e-13
-3.4591893e-13,-4.0486996e-13,0.0030031367,4.676266e-13,3.1244126e-13,-4.2491225e-13,-3.7692863e-13,6.702955e-14,3.7652604e-13,4.384501e-13,-5.28781e-10,6.7943047e-13,-4.500688e-13,-1.7254755e-13,0.85013425,7.340824e-06,-2.690987e-13,-0.4087775,-3.0544458e-13,-1.1495335e-13,-0.78822017,-5.814e-13,-1.9833088e-13,-5.266067e-13,2.671118e-13,-5.3160655e-13,1.7213878e-14,3.2735018e-13,3.1294376e-13,3.3301758e-13,-3.5491477e-13,5.1828247e-13,-5.975086e-13,-6.521843e-08,-4.5261134e-13,-0.0065727993,0.9485053,-5.076298e-13,-2.2271452e-13,5.733592e-13,1.4172772e-14,-0.097682394,-4.668514e-13,-3.8818796e-13,-7.761538e-13,0.16841252,0.0024955312,-2.5854172e-13,-0.07017954,5.2605788e-14,-8.8129374e-16,-5.286163e-13,0.0033822996,-2.6430418e-13,-7.027853e-14,4.653674e-13,4.1337964e-13,-6.651537e-13,5.2325505e-13,6.324121e-13,6.5942335e-10,-9.995492e-13,5.294824e-13,1.4484697e-14,-1.1745883,4.867816e-06,-2.2511042e-13,-0.07653097,2.0585882e-13,-6.990928e-13,-1.0436075,-2.432369e-13,1.8579035e-13,-4.0159743e-14,-3.4250277e-13,5.85293e-15,1.1999047e-13,5.2373665e-13,2.1415253e-13,-2.3814474e-14,-5.581612e-13,-9.08913e-14,1.00969824e-13,-6.078459e-08,5.882353e-13,0.004868573,-2.3460326,1.9000109e-13,2.5029767e-13,5.400975e-13,-7.059186e-14,0.023927419,-1.0231059e-13,3.524935e-13,2.6703292e-13,0.20469035,0.0031506587,3.3892312e-13,0.13049422,2.1409504e-13
-6.297285e-14,-3.9527528e-13,-0.0022913946,-2.655448e-13,2.8668729e-13,3.9775453e-13,-3.6473133e-13,5.3673835e-14,-3.5824208e-14,4.7038735e-13,-1.039726e-09,3.021162e-13,4.0582267e-13,-3.3188933e-13,0.8251807,-6.004687e-05,2.40022e-13,0.032334365,-2.2457473e-13,6.482938e-13,-1.2533948,-2.0660711e-13,-1.0956291e-13,-3.1138422e-13,2.6153895e-13,-1.9901531e-13,3.109991e-13,3.721199e-13,6.218089e-15,4.1490522e-13,-2.6333067e-13,3.3005423e-13,-5.7712743e-13,8.097616e-09,4.117345e-13,0.0034174868,1.059325,4.4550098e-14,5.202573e-13,-3.1718432e-13,-2.0536383e-13,0.062257394,-3.663313e-14,4.0994633e-13,-2.3953257e-13,0.23852935,-0.032567468,3.7638845e-13,-0.008114022,-2.421853e-13,-3.0527623e-13,4.4922264e-13,-0.0019983149,-4.9433466e-13,2.91632e-13,-1.872965e-13,4.654981e-13,-3.149587e-13,-4.5047196e-13,2.6831873e-13,1.2124738e-09,-2.6993455e-13,-2.4108759e-13,-4.8564137e-13,-0.9131427,1.1849847e-05,2.4179703e-13,-0.4816698,-3.520922e-13,9.860103e-13,-0.45281407,2.8935093e-13,4.0493745e-13,2.516152e-13,-1.875989e-13,1.06129786e-13,-3.1713136e-13,-4.957952e-13,1.9496395e-14,2.1758372e-13,5.349446e-13,3.7681352e-13,-5.6023643e-13,6.1900596e-09,1.1051869e-14,-0.0024129264,-1.0367801,7.622058e-14,3.3004307e-14,-5.5075156e-13,5.9815277e-13,-0.03858108,3.5832735e-13,-5.961108e-13,3.6177476e-13,-0.110127196,0.009672213,1.5288736e-13,0.014364687,1.1433215e-13
-3.0454407e-13,-3.8350855e-13,-4.9532013e-05,-4.2730373e-13,2.5998913e-13,4.7648568e-14,1.9114955e-13,1.9573016e-13,9.649657e-14,-6.56943e-14,-8.183938e-10,7.800686e-13,8.812096e-14,-3.8279598e-13,0.8675542,-0.00010462694,-4.4228325e-13,0.21300675,2.4472698e-13,3.6512595e-13,-1.5150536,1.3119269e-13,-3.1424394e-13,3.8769462e-13,4.2315676e-13,-4.5562013e-13,4.5830505e-13,4.0671747e-13,3.1140758e-13,3.2850708e-13,-2.4781257e-14,-2.7087328e-13,-3.8515832e-13,-3.2373347e-08,1.8804214e-13,-0.00025605338,1.0820615,5.7472527e-13,-1.6614423e-13,-5.783348e-13,-3.3354434e-13,-0.06199295,-5.55001e-13,-1.0081141e-13,7.4054163e-13,0.29356253,0.01058542,-5.0023565e-13,-0.03722182,-1.8666679e-13,-3.6789457e-13,1.04300466e-13,-0.0006356139,-2.1179688e-13,3.2530397e-13,6.3915995e-13,2.1045215e-13,1.0409016e-13,4.1355225e-13,8.0931095e-13,1.8150008e-09,7.915128e-13,-1.05124866e-13,-1.0479768e-13,-1.3126191,7.2236755e-05,-1.738464e-13,-0.09006155,-1.7554166e-13,4.618376e-15,-0.50324064,-2.3925995e-13,-3.6924082e-13,-5.0737843e-13,-1.0420301e-13,2.7599356e-13,4.9234607e-13,3.3884535e-13,4.081638e-13,-6.505714e-13,4.0832488e-13,-4.4940513e-13,4.207615e-14,-2.4176536e-08,1.8165374e-14,0.0004954946,-1.8647585,-1.1179493e-14,3.357245e-13,-7.515012e-14,-2.8742205e-13,-0.01575625,2.5879095e-13,1.791373e-14,-4.2769564e-13,0.25719386,0.007211208,-1.6427792e-13,-0.011512907,4.1042639e-13
3.89861e-13,1.8061648e-13,-0.001130738,-1.7477718e-14,-4.3124402e-13,-5.423728e-13,-2.307455e-13,1.590453e-13,2.5789622e-13,-3.3630748e-13,-9.410556e-10,-3.440185e-13,3.8974195e-14,5.540387e-13,0.87414837,6.313189e-07,-1.6666952e-13,-0.16881934,3.360075e-13,-1.3222686e-13,-1.6933025,3.5753787e-13,9.1604404e-14,-3.3857994e-13,8.2434805e-14,-3.7799215e-13,-4.6337077e-13,-1.8442127e-13,-2.3467271e-13,1.9814003e-13,-2.714185e-13,-5.2752995e-14,-2.0406761e-13,-1.343091e-07,3.2999965e-13,0.0023566913,0.5926767,2.008173e-13,-3.5200228e-13,-2.9600319e-13,-5.060725e-13,0.046037145,-2.2379857e-13,-2.7610802e-13,-1.5683548e-13,0.3498979,0.047706224,3.897002e-13,0.0703267,7.496483e-14,1.1038829e-13,1.6244666e-13,-0.0014988724,1.8738074e-13,4.2160115e-13,-3.0731515e-13,1.3228363e-13,-4.0093512e-13,-4.0595083e-13,4.923607e-13,3.6305647e-09,1.9799551e-13,1.9004926e-13,2.524458e-13,-1.5086108,2.6290189e-05,3.14742e-14,0.039602146,-2.6135772e-13,3.06719e-13,-0.603113,3.7940218e-13,3.856111e-13,-3.451916e-13,-2.0838162e-13,4.3521117e-13,1.7039825e-13,2.5554274e-13,-9.6670285e-14,1.4364562e-13,4.369572e-13,-2.6446534e-13,4.2273913e-13,-1.2732771e-08,-2.4803334e-14,-0.0010422899,-1.0465316,-1.4316719e-13,2.1890321e-13,2.7232242e-13,-8.611712e-14,0.015655251,2.0982241e-13,4.7790027e-13,3.739192e-13,0.5218368,-0.024818612,4.1717655e-13,-0.13421462,2.2788038e-13
-4.933924e-13,3.977896e-13,0.002266505,-7.140834e-13,2.29456e-13,-7.717714e-14,8.0285916e-14,-1.727737e-13,1.4523617e-13,-7.57397e-13,-8.108132e-10,-4.3458005e-13,-3.8611874e-13,3.118003e-13,0.5041955,-1.0797363e-05,2.6249502e-13,-0.84983766,-4.4842575e-13,1.9545512e-13,-1.1395274,-2.911464e-13,-1.6809942e-13,-1.6837318e-13,-1.6931035e-13,-8.844062e-14,4.0555894e-13,3.765949e-14,3.9826952e-13,-4.3980789e-13,-6.077324e-13,-3.472299e-13,7.022681e-14,3.398146e-08,-3.9356295e-13,-0.00056162744,1.0449789,-4.9918836e-14,7.6279846e-13,-5.832982e-13,-3.2745258e-13,-0.0007813828,-1.6400965e-13,-5.800941e-13,5.0660864e-14,0.14842479,-0.0036423495,3.5608116e-13,-0.010210974,-3.292782e-13,-5.413867e-13,-4.1532134e-13,0.0006300159,4.743488e-13,-4.1671053e-13,2.881647e-13,6.0138103e-13,4.8385937e-13,1.9087069e-13,2.966284e-13,8.2873813e-10,8.240057e-13,5.5962353e-13,1.9190834e-13,-1.24867,2.2867353e-05,5.416118e-13,-0.51721764,2.553971e-13,-2.3129355e-13,0.014214064,-3.58014e-13,3.2063517e-14,2.9636178e-13,3.211032e-13,-8.320319e-14,-3.3292761e-13,6.911943e-13,-1.1175547e-13,4.8944036e-13,-2.541372e-13,-3.9695095e-13,2.8333889e-14,1.5419303e-08,-2.575223e-13,-0.000465061,-1.8941679,2.0182749e-14,-4.305208e-13,-5.9436435e-13,-3.799358e-13,-0.0055327984,-8.9293265e-14,-9.385559e-14,9.139382e-13,0.14616913,0.005033419,-2.9277058e-13,-0.0070528365,1.0403665e-13
1.495126e-13,1.8405252e-13,-0.00049193995,-6.539899e-13,4.572381e-13,3.7014838e-13,-2.6475545e-13,-1.59153e-13,4.982344e-13,-5.9144177e-13,4.1938506e-09,-9.040918e-13,-6.5597994e-13,3.8777534e-13,0.3640784,-1.5411108e-05,-4.0024722e-13,-0.8632645,-8.094805e-14,1.3624853e-13,-0.9248338,1.1103897e-13,3.9729241e-13,-4.224088e-13,2.5728196e-13,-3.7643808e-13,-4.5375718e-13,-7.453352e-14,1.2299894e-13,6.291246e-13,1.30577515e-14,7.525963e-13,3.134272e-13,-1.2045959e-07,5.908743e-13,0.0020614145,-0.1718727,-2.7458022e-13,6.8854953e-13,-4.3915994e-13,6.88494e-14,-0.03595576,5.8863233e-15,5.68194e-13,-9.324895e-13,0.35051978,0.010302141,8.084496e-14,0.020628445,2.4875382e-13,4.1021502e-13,3.4896586e-13,-0.0013236129,7.0590845e-14,1.7312897e-13,-5.3361346e-13,-2.178819e-13,4.413272e-13,-1.4578524e-13,-1.0382594e-13,-1.473234e-09,2.1959293e-13,-6.6726686e-13,3.8117523e-13,-1.0442351,3.0847354e-05,-2.3445384e-13,-0.45423204,6.982381e-14,-3.5500945e-13,0.07322917,6.9823e-14,4.3364338e-13,-3.5222324e-13,-4.1764406e-13,-1.8898633e-13,4.700309e-13,2.8126714e-13,-2.0043933e-13,2.5386697e-13,1.9412098e-14,2.9093226e-13,4.6974837e-13,2.1902052e-08,-3.6716807e-13,0.00018846321,-1.5294997,4.571714e-13,3.0032265e-13,5.3046857e-13,-1.687268e-13,0.0045780577,-8.1957065e-13,9.222202e-13,-5.0824904e-14,0.108414724,-0.0024803816,4.8507617e-13,-0.13775009,-4.3203573e-13
5.106611e-13,-4.157846e-13,0.0018140968,4.413354e-13,4.1240313e-13,3.557552e-14,-4.4209487e-13,4.5697907e-13,1.182989e-13,4.75027e-13,6.9942063e-10,-4.622276e-13,1.3320592e-13,-1.6261336e-13,0.08547062,7.424098e-05,1.6284988e-13,-1.067883,1.4286098e-13,-5.015272e-13,-0.9368652,3.2018892e-13,2.2557786e-13,-5.0397485e-13,3.8106053e-13,-2.0188254e-13,4.72839e-13,2.2427889e-13,2.8569662e-13,1.8928774e-13,3.7769e-13,-3.4225829e-13,-2.857706e-13,2.679488e-08,-3.4386323e-13,-0.003424381,0.838819,6.0413957e-13,2.7733092e-13,-2.9596792e-13,-9.336374e-14,0.025330318,-4.0616032e-13,3.5662283e-14,1.684327e-12,0.10884097,-0.0024771958,2.0649926e-13,-0.05142505,-3.1990312e-13,4.6926026e-13,-3.121326e-14,0.0041339956,-5.4931857e-13,2.907008e-13,-1.4512889e-13,-3.9178494e-13,2.7016041e-14,-2.5801355e-14,4.3487756e-13,-9.160176e-10,5.7590017e-13,6.797484e-14,2.017332e-13,-0.7449286,-1.560962e-06,5.8893564e-14,-0.65259093,1.3891354e-13,1.978142e-13,0.06652029,7.3400194e-13,2.8379548e-14,1.1863207e-13,4.3093328e-13,2.9255222e-13,5.496711e-13,-6.3241816e-13,2.4129307e-13,-5.98223e-13,-3.9369959e-13,4.663965e-13,4.7156165e-13,7.129784e-09,6.8824975e-13,0.0013687022,-2.0616217,2.8042935e-13,-1.29401156e-14,2.3383395e-13,2.6186925e-13,0.019835928,5.2232443e-14,-4.3758942e-14,1.2662212e-12,0.06593262,-0.00018183608,2.944014e-13,-0.007884097,2.7193097e-13
1.3577957e-13,3.6625236e-13,0.0028163567,3.1059581e-13,1.8034318e-13,-1.07050545e-13,-3.408088e-13,-2.0278381e-13,2.7218315e-13,-1.1686936e-12,2.6372418e-09,-3.5443553e-13,-6.3196844e-13,1.5254643e-13,-0.12399842,-0.0001238845,-4.1176364e-13,-0.48830333,4.4993387e-13,1.3327535e-13,-0.810462,-4.3342318e-13,4.122372e-13,-1.4969842e-13,5.1512223e-13,-8.147248e-14,-4.603763e-13,-3.50731e-13,3.538337e-14,8.2436364e-14,-1.145072e-14,4.2533967e-13,4.501449e-14,3.2629167e-08,2.1663487e-13,-0.0029934351,0.52104825,5.3828795e-13,2.1442583e-13,7.5279084e-14,2.142615e-13,0.022358017,8.386011e-14,-6.748977e-13,1.0872285e-12,0.27251706,-0.015075327,-2.0047039e-13,-0.18694034,3.671727e-13,-4.8140804e-13,-4.9320346e-13,-0.00028569496,-2.960787e-13,-2.8777545e-14,-2.1363614e-13,-1.3629939e-13,6.2136e-13,5.667987e-13,-6.245243e-13,3.1145437e-09,-1.5657289e-14,4.2043165e-14,8.115706e-13,-0.5762911,7.651012e-06,1.1632018e-13,-0.45031568,8.6879126e-14,-4.1811964e-13,0.2964592,-9.014859e-14,2.9067758e-13,6.9035814e-14,-1.0959427e-13,-2.2891628e-13,-4.0959312e-13,-1.1036388e-13,-4.021896e-13,-3.4266142e-13,-3.7084024e-14,5.442596e-13,4.172402e-13,4.5725017e-08,-2.9806076e-13,-0.00064340554,-1.4021206,-6.7089465e-13,1.9793558e-13,4.575337e-13,-3.7516805e-13,-0.0070286845,-1.4616823e-13,-4.2461976e-13,1.5138171e-12,0.6504937,0.0028534299,5.1796306e-13,-0.04466321,-3.5303254e-13
-3.6868376e-13,3.274073e-13,2.6312642e-05,3.0777312e-13,2.8127511e-14,-1.1650643e-13,1.153428e-13,3.5065378e-13,3.3686297e-14,-5.277566e-13,-1.9246157e-10,2.5219933e-13,3.3298565e-13,1.1657826e-13,-0.27136314,3.0315296e-06,1.5419984e-13,-0.9510685,7.0298856e-14,-2.899696e-13,-1.0708448,-2.4980528e-13,-5.764729e-13,3.274441e-13,2.7248296e-13,4.5326682e-13,3.4388746e-13,1.5580213e-13,-1.1085753e-13,3.9352703e-14,-4.4900485e-13,1.9095513e-13,1.7068763e-13,-1.3913386e-08,6.2381166e-13,-0.0008682226,0.83044744,-4.756025e-13,-7.371729e-14,2.5546004e-13,-2.325499e-13,0.0044870283,-3.6547374e-13,4.2476705e-13,6.8127535e-13,0.03976137,-0.0017205518,5.226093e-13,-0.0232786,-2.1568747e-13,-1.6800865e-13,4.380355e-13,-0.00014126016,-2.2974428e-13,-1.4007113e-13,1.476015e-13,3.9913927e-14,1.2217403e-13,3.6870618e-13,2.3954986e-13,1.27756e-10,-3.9320356e-13,-2.893084e-13,2.42647e-13,-0.3512469,-7.143517e-06,-3.9787908e-13,-0.49042082,1.273004e-13,1.4842327e-13,0.23243503,-2.0795307e-13,3.5107393e-13,-3.8778255e-13,2.7367288e-13,3.6462977e-13,4.4267175e-13,-8.8678956e-14,5.1032713e-13,-2.735867e-13,2.4178711e-14,3.83551e-13,2.6639642e-13,4.635941e-08,1.5517305e-13,0.00020523796,-1.3842139,1.7454611e-13,-4.1414108e-13,2.9711723e-13,2.3583796e-13,-0.0040166317,1.6381911e-13,-1.6935498e-13,1.1501767e-12,0.18953216,-0.0002498175,-2.8058087e-13,0.00014281925,-2.9363174e-13
