2.2556317e-12,1.0097843e-13,-0.67300135,1.2775988e-12,1.1119901e-12,-8.212254e-13,-2.4243298e-12,-1.3949604e-12,-1.2602146e-12,6.7658526e-12,-0.033866797,-3.8593477e-14,-1.6998414e-13,-1.8301723e-12,-4.334946,-0.97743547,1.7005056e-12,-3.9799743,-2.663451e-14,-3.5230623e-12,-4.2489614,-1.6693738e-12,5.6368495e-13,2.593203e-13,-1.039398e-12,-7.1413513e-13,1.1548557e-12,2.867898e-13,-4.858175e-13,-1.1253867e-12,1.1880464e-12,2.8444624e-13,-2.8673479e-12,-0.48461246,-2.6750316e-12,-2.38022,-7.2479587,1.7488567e-12,6.644725e-13,-2.4112956e-12,-1.9021538e-12,-3.577183,-3.6132247e-12,-4.366092e-12,-2.977004e-12,-6.1266737,-3.3594415,1.1291673e-13,-2.0432382,-5.368535e-13,-7.326352e-13,-4.244665e-13,-1.0817512,3.779789e-14,-7.4535864e-14,-1.8417251e-12,-1.5078179e-12,5.5461603e-13,-3.5164848e-13,-1.5326835e-12,-2.0247324e-08,1.423374e-12,-5.681843e-13,-2.9992632e-13,7.452005,-0.022361297,-1.62441e-13,3.014002,2.9399911e-12,-5.0431386e-12,9.139101,-2.650035e-12,-1.7275109e-12,-2.4059883e-13,1.4291775e-12,-4.4157912e-13,3.1398606e-13,-8.172861e-13,-6.9483297e-13,-2.5189356e-13,4.4393037e-13,-2.5221348e-12,2.6067638e-12,0.08319116,-8.260907e-13,1.0301833,-25.796993,-8.427056e-14,1.6326478e-12,-2.0812978e-12,-4.7951324e-13,3.4566116,6.057713e-13,7.972619e-13,-2.9129706e-12,5.6425047,-2.0472147,-9.12309e-13,-2.9377067,-5.574707e-13
2.9618723e-14,2.4922973e-13,-0.00073269865,-2.807603e-13,1.4169975e-13,-3.102398e-13,4.822401e-14,-1.122207e-13,6.15302e-13,2.7850064e-13,1.2851558e-09,6.430647e-13,6.2862974e-13,-1.0141047e-13,-0.05347479,-2.9763046e-07,-3.1155468e-13,-1.4410549,2.514447e-13,-6.9265026e-13,-1.2080498,-1.0729357e-13,-7.910339e-14,4.9668147e-13,1.1476101e-13,2.837241e-13,-3.9931657e-13,1.6497513e-13,2.686433e-13,-6.23678e-13,-1.6688441e-13,3.3532023e-13,-3.5623772e-13,2.0717462e-08,5.729172e-13,-0.07185432,-5.646523,-3.515613e-13,4.293903e-13,-4.395681e-15,-5.0624105e-13,-0.08613911,-3.8028454e-13,-1.8364313e-13,-5.554609e-12,-0.6734105,-0.010397022,9.978474e-14,0.003340241,2.605656e-13,2.889553e-13,-7.535446e-13,-4.303748e-06,3.3059425e-13,2.8827377e-14,1.6149126e-13,7.75187e-13,-1.4637275e-13,4.7472836e-14,1.4068499e-13,3.082985e-10,-7.55752e-13,2.8760596e-13,5.894564e-13,2.4946675,9.212188e-08,4.236778e-13,2.8676577,2.033034e-13,-2.6457336e-13,-5.6585026,2.3326827e-13,-4.4749575e-13,-1.681777e-13,-8.20325e-13,4.8069323e-13,3.1477007e-13,-4.651121e-13,6.968238e-13,4.374327e-13,2.915798e-13,1.7821248e-14,1.2394041e-13,-5.463917e-05,-6.358155e-13,-3.846413e-06,8.340733,-2.2363025e-14,-5.489374e-13,-5.0194376e-13,-4.1481906e-13,0.04467086,-3.4871612e-13,6.1355695e-13,7.002604e-13,0.48709825,-0.9108186,7.3660446e-13,-0.0020756575,5.70991e-13
-1.9196393e-13,2.0798328e-13,-3.5546076e-05,-1.778805e-13,6.02921e-14,-1.2828901e-13,4.958728e-13,1.9245474e-13,-3.6178756e-13,-2.058375e-13,4.8663403e-11,3.301384e-13,-1.8640395e-13,4.2202125e-13,0.20894815,7.6502636e-07,6.4693314e-13,-3.3638265,4.505811e-13,-3.965063e-15,0.28640252,-4.1193993e-13,-4.59842e-13,1.0558438e-13,-2.7484666e-13,-7.0525454e-15,2.3505037e-13,-3.0414798e-14,4.8933383e-13,9.216413e-13,7.4306165e-13,6.460571e-15,3.6642618e-14,-5.59104e-10,-7.818786e-13,-2.7295293e-06,-2.9260304,7.4679217e-13,-4.856361e-14,1.3573555e-13,-7.8093456e-14,-0.0006103098,-4.3723862e-13,-1.3644926e-13,-1.2275684e-12,-0.19798444,-0.0016340002,-1.1325729e-13,-0.010037047,9.192704e-13,9.891198e-14,-6.9660586e-14,-2.1530982e-06,-6.657939e-14,4.3479407e-13,4.6112344e-13,4.128257e-13,-2.063459e-13,-2.2544996e-13,1.001211e-12,-4.600523e-11,-1.7028165e-13,-4.6708503e-13,-1.4166457e-14,0.038333077,-3.3415083e-07,3.6072003e-14,-6.2215075,7.3717356e-13,-2.1660381e-13,0.08934297,-2.612064e-13,-5.473447e-13,2.8483008e-13,-7.349806e-13,1.9223647e-13,-4.5126408e-13,6.0580176e-13,3.8162225e-13,-5.166542e-13,-5.113194e-13,-9.847131e-14,-7.454458e-13,-1.5556475e-09,5.1952258e-14,-2.0849106e-06,2.9407935,-3.8968823e-13,1.073925e-12,2.5599818e-13,1.504275e-13,0.0006987739,-5.975744e-13,-3.0592884e-13,6.221534e-13,0.021872766,0.00019604574,5.51425e-13,0.0056848717,-8.656601e-13
4.0042936e-13,-1.74816e-13,4.908679e-05,-2.7143308e-13,3.2293572e-13,6.021197e-13,-6.328503e-14,-3.5450413e-13,5.4353966e-13,-3.1047818e-13,2.5825453e-11,-2.4969718e-13,1.4241809e-14,-4.284466e-14,9.106924,2.1854626e-06,9.821048e-14,9.291013,-8.4325564e-13,8.367239e-13,9.529936,-3.8342898e-14,7.5195384e-13,9.35812e-14,-3.5679478e-13,-5.1503165e-13,-1.655771e-13,7.246789e-13,4.4128744e-13,4.912764e-13,-1.1063591e-12,5.5055797e-13,3.3840628e-13,-3.725356e-09,-2.6198924e-13,-7.507374e-06,3.860336,-4.9369146e-13,-2.314385e-13,-5.0090585e-13,-1.4431861e-13,-0.002039435,2.6850047e-13,-3.5064042e-13,-1.2087275e-12,1.326307,0.093302496,8.5058105e-13,0.11512036,-5.296543e-13,-3.3655733e-13,-2.4428376e-14,4.2759337e-05,2.460174e-14,1.3471209e-13,-3.6465254e-13,4.6558514e-13,1.3197783e-12,-2.6597228e-13,2.361453e-13,-3.2978864e-10,7.454748e-14,-9.724922e-13,-9.35341e-13,0.22707973,-1.116489e-05,-4.1534636e-13,0.2766705,-2.2190125e-13,1.7008599e-13,0.41608003,-3.3857612e-13,6.001337e-13,-3.674816e-13,1.1378404e-13,5.668313e-13,-7.0737746e-13,2.6133173e-13,1.0314429e-12,-5.8368e-13,2.28807e-13,-4.249673e-13,3.2660167e-14,-4.515651e-09,-3.3310724e-13,5.7202665e-06,-0.60924065,5.1636717e-13,-1.2646167e-13,4.6511205e-13,2.8949372e-13,0.0009669276,4.605674e-13,6.842451e-13,-1.4351645e-12,0.04817673,2.5048772e-05,-5.446847e-13,0.043896653,-8.697405e-13
