-6.6304045e-16,6.437635e-14,1.5141717e-13,-4.2532986e-13,4.0112973e-14,-1.0589305e-13,-1.3436108e-13,1.01928035e-13,1.752684e-15,1.5793966e-13,1.8125272e-13,-1.1305293e-13,-1.8504454,8.20261e-14,-2.1259102e-14,8.729247e-14,-1.5280613e-13,-3.3158437e-13,-1.2957951e-14,-1.3699308e-13,-2.9854233e-13,8.7104355e-14,1.2491925,-7.8316626e-14,-3.4928678e-14,5.2170873e-14,-9.8065206e-14,-7.6928223e-14,-1.307032e-13,-5.521782e-14,1.1623013e-13,-1.0188009e-13,1.327305e-13,-7.0569974e-14,4.470518e-14,6.2041674e-14,-2.2496158e-14,8.988531e-14,-2.3134207e-13,-2.6793986e-13,-7.859852e-14,7.772866e-14,2.6315302e-13,-2.3898247e-13,4.224764e-14,3.653246e-14,-1.8498348e-13,1.3811817e-13,2.2169588e-13,-8.9274935e-14,7.201302e-14,1.513082e-14,-0.53017193,-8.544066e-14,-9.866651e-14,-8.572701e-14,-5.5389253e-14,-1.1041047e-14,-1.4950574e-14,-4.1155613e-14,-1.3113187e-13,-3.045581e-13,-1.3822714,-1.636806e-13,2.8353544e-14,-1.2232225e-13,-4.160128e-14,-3.2309913e-14,9.958133e-15,-1.1866907e-13,-4.444585e-14,-1.3478625e-14,1.7267694e-13,-3.560486e-14,3.6818886e-14,1.558092e-14,1.2575727e-13,-1.0553082e-14,3.3574838e-13,-5.137509e-15
5.470652e-14,-1.7500546e-13,1.712128e-13,1.822272e-13,2.843177e-15,1.6957605e-13,-2.240107e-13,-3.0981554e-13,-2.520792e-13,1.2998818e-14,8.825028e-14,3.969454e-15,-2.1204927,1.0870592e-13,1.6174037e-13,2.273662e-13,2.5661236e-15,5.3068606e-14,-1.5878329e-13,-7.913029e-14,6.17e-14,2.3415102e-13,1.3416901,-9.273677e-14,1.7159898e-14,-1.3924574e-13,-1.9526893e-13,1.3710242e-13,-5.7168795e-14,7.253456e-14,8.173086e-14,7.757579e-14,-7.129082e-14,-4.9351338e-14,-1.7459919e-13,3.1015294e-13,-9.840341e-15,3.2984954e-13,2.5643309e-13,-1.4635364e-14,-3.647428e-13,3.160963e-14,1.3031153e-13,1.0352057e-13,1.305276e-14,-7.351939e-15,1.0332439e-13,1.6360952e-13,-2.6435949e-14,2.524904e-13,-3.1378007e-14,-1.4866222e-13,-0.3264432,2.7796537e-13,1.6285295e-13,2.7637506e-14,1.5069524e-13,1.4573794e-13,4.1012112e-14,-6.193135e-14,-4.303151e-14,-2.959025e-13,-2.1686287,3.394315e-13,8.5885644e-14,-1.2953213e-13,1.6993168e-14,8.626485e-14,2.367781e-13,-3.7986473e-14,1.2436989e-13,-1.4477525e-13,1.2192466e-13,-1.7851103e-13,1.2124397e-14,-1.8544245e-14,-1.3573234e-13,4.2191853e-14,9.440649e-14,9.3115145e-15
2.3728203e-14,-4.3142486e-13,1.0862559e-13,-1.2114711e-13,-9.7166334e-14,2.4488538e-13,-1.757636e-13,2.5681937e-14,2.036979e-13,-2.1807671e-13,1.7700508e-13,3.6743693e-14,-1.3127263,8.12751e-14,-4.7070133e-13,-1.4200566e-13,-3.1324032e-13,1.0952734e-13,1.383329e-13,1.2139785e-13,-9.2157686e-14,-1.591782e-13,1.1912646,-6.668685e-14,-7.467902e-14,-6.2919615e-15,-1.8529676e-13,3.0434663e-14,-4.7087873e-14,-1.0416066e-13,-1.2450716e-13,-4.0041714e-14,1.5776616e-13,1.3899927e-13,-1.4726428e-13,1.0888618e-13,-2.0093627e-14,5.1172086e-14,-1.4103103e-13,5.4470683e-14,-1.4437068e-13,-7.9099847e-14,4.502117e-14,-7.5898895e-15,-1.256745e-13,7.646008e-14,-1.3384171e-15,-2.1599646e-13,-2.477432e-14,-3.2591752e-13,3.028204e-13,-2.4426618e-14,0.12894319,1.6356962e-14,1.8418389e-13,1.8048171e-15,8.648057e-15,-1.06992736e-13,9.621468e-14,-4.0222396e-14,-7.109365e-14,6.960029e-14,-1.0830623,-4.8002143e-14,-4.7394285e-14,1.612343e-13,-8.956111e-14,2.3267895e-14,7.6444344e-14,-1.6179582e-13,1.9685802e-13,-3.7224184e-14,-1.116962e-14,-3.6882556e-14,-6.910496e-14,-2.2839257e-14,-1.1862614e-13,-8.560623e-15,1.700067e-13,-4.0665845e-14
-1.1745487e-14,-8.9301396e-14,-2.9231907e-14,-3.7492728e-14,2.2599326e-13,2.3481602e-13,6.007421e-14,-9.834785e-14,1.5787286e-14,-2.33635e-13,2.9613512e-14,2.3039235e-14,-2.074657,8.947051e-14,-1.13177574e-13,-1.6755952e-13,3.4094605e-13,3.2036514e-14,4.4980125e-13,7.3646005e-14,-7.03653e-14,1.1922621e-14,1.5621977,2.0282309e-14,-1.2487262e-13,-1.9104645e-14,-7.580872e-14,1.4054919e-15,7.635892e-14,-6.3176833e-15,-8.7023325e-14,-3.557255e-14,3.915598e-13,1.283322e-14,-3.3096234e-14,1.9027989e-14,1.78477e-13,-4.1263657e-14,6.94946e-14,8.2352683e-14,-2.1118059e-13,-7.521829e-15,-3.319447e-14,5.4496135e-14,-6.4350076e-14,1.9503417e-13,-2.8162764e-13,-2.8887415e-15,-1.6042384e-13,-9.088683e-14,-9.68511e-14,-1.2796142e-13,0.2894926,7.717038e-14,2.1246622e-13,-5.0539417e-14,-1.9652186e-13,9.8015454e-14,-5.70875e-14,1.0968338e-14,-1.3752373e-13,-1.8315773e-13,-1.9651024,7.859787e-14,7.786259e-14,-9.7167276e-14,-1.7682409e-13,-6.070136e-14,9.3898285e-14,-1.2045006e-13,3.8632604e-14,-5.755097e-14,-3.3361104e-14,-2.4240145e-13,3.1460858e-13,1.0022733e-13,4.981138e-15,3.976562e-15,1.400427e-14,4.2256994e-13
-4.4675984e-14,-1.3333845e-13,1.9155829e-13,1.7170694e-13,-1.0744733e-14,-3.2111884e-13,3.2495504e-14,-6.823943e-15,6.4156945e-14,-1.7290097e-13,5.1912888e-14,-2.340717e-14,-1.091444,7.46111e-14,1.1058062e-13,1.0421866e-13,1.384561e-13,4.1042592e-14,-5.6478016e-14,2.9224717e-14,-6.968513e-14,9.172927e-14,0.9775705,1.06418116e-13,2.8173197e-15,1.5671133e-13,-1.161567e-13,-5.38254e-14,8.1739486e-14,2.8622612e-13,-4.9194532e-14,1.5713398e-13,1.5900828e-14,3.080671e-14,2.3188349e-14,1.8580812e-13,5.446527e-15,-2.3880195e-14,-6.190809e-14,1.2231523e-13,4.094818e-14,4.9184852e-14,2.064922e-14,-3.440914e-13,-1.0302242e-13,-6.825778e-14,2.843581e-13,1.4871062e-13,-2.7510783e-16,-2.1202746e-13,-3.4299874e-14,4.8838537e-14,0.22470818,7.228481e-14,6.9391236e-14,-2.2634195e-13,-2.0487653e-14,-1.614733e-13,3.3866613e-14,9.735973e-15,-1.1363107e-13,8.7123336e-14,-0.9364275,2.9221964e-13,-9.5851183e-14,1.9811128e-13,3.2686107e-14,-8.210778e-14,-5.988634e-14,-1.3470851e-13,-4.2829645e-15,3.0678287e-14,3.5212854e-16,-1.9361232e-13,-2.5679234e-13,-2.9261874e-13,-3.8163097e-14,-9.9628856e-14,-2.5781352e-13,1.9526087e-13
-1.7723756e-13,1.0599364e-14,-2.4373797e-14,-9.990079e-15,1.0943816e-13,-9.694563e-14,3.4544462e-13,4.8803585e-14,-1.0463143e-13,-1.3206267e-13,1.5257878e-13,-1.0645001e-13,-2.0074,-2.7020825e-13,4.2604247e-13,-2.1588173e-14,-9.498554e-14,2.8133618e-13,2.1443196e-13,6.99405e-14,1.1393162e-13,-5.3125906e-17,1.1387757,2.3720332e-13,3.2755774e-14,-2.0950859e-13,-1.9191933e-13,1.2554015e-13,-1.0180951e-13,3.6733244e-15,-2.9977526e-14,-3.788621e-14,1.2516519e-13,1.25046915e-14,-6.26202e-14,-2.0579453e-13,-3.3872126e-14,2.3522152e-14,-2.1462327e-13,1.3230149e-13,-3.827193e-15,-4.4412783e-15,5.42036e-14,-1.10570515e-13,-8.7102634e-14,-5.240901e-14,2.890299e-13,2.1240523e-13,1.4274206e-14,-9.442803e-14,-2.6762696e-13,-5.474752e-14,0.57860124,4.313898e-15,7.138233e-14,1.5024284e-13,4.123208e-13,-7.495633e-14,-1.12945535e-13,2.2913914e-13,-2.9050675e-14,9.539658e-14,-1.5761517,-7.855134e-14,1.5930252e-13,-7.821562e-14,-7.341078e-14,1.4080962e-13,-1.204918e-13,-1.9050401e-13,1.05796584e-13,-2.7207044e-14,-2.0785538e-13,-7.529739e-14,-1.4288282e-13,-5.5758146e-15,1.8117162e-13,3.4585856e-14,3.2951164e-14,1.8941854e-13
1.5143643e-13,-7.906635e-14,4.3893177e-13,2.6750839e-14,5.0926968e-14,4.5689444e-15,5.106938e-15,1.225452e-14,-3.8033372e-14,-4.2687197e-13,-7.628602e-15,5.6767857e-14,-1.4870461,4.237275e-14,6.616395e-14,1.2569657e-13,-1.2997435e-13,-4.4386864e-14,3.5975786e-14,3.59318e-14,-2.3429742e-13,-2.1168802e-13,1.5540149,-6.271316e-14,-6.793602e-14,-1.3004433e-13,4.6182618e-14,2.0994626e-15,-1.7088147e-13,-2.8890478e-14,-1.5887073e-13,5.8749785e-14,4.2818017e-14,3.2712998e-13,2.8360338e-13,1.1577352e-13,1.2038211e-13,6.0449164e-14,2.9556283e-14,-6.565518e-14,-1.1451223e-13,-1.8418859e-13,9.500276e-14,-1.3760491e-13,4.312995e-13,-3.0992617e-14,-1.9649785e-13,9.826184e-14,1.7791573e-13,-1.1608574e-13,7.183887e-14,6.778985e-14,0.16022053,-6.5951544e-15,-5.1078757e-14,-2.878907e-13,-2.5465236e-13,7.553715e-14,1.7155839e-13,-4.7998294e-14,1.4408488e-14,-2.153924e-13,-0.66299313,7.398321e-15,6.821822e-14,2.0188509e-13,9.214475e-14,-1.0349547e-13,1.1922887e-13,1.2953137e-13,5.884121e-14,2.8392577e-13,-1.6077488e-13,-4.251828e-14,-3.3851557e-14,1.8628592e-13,3.267506e-14,-4.9876583e-14,2.6395585e-13,-2.572963e-13
-1.3423049e-13,-1.1009859e-13,-8.836595e-14,-2.2268728e-13,1.2732002e-13,-1.2950571e-13,-3.0096585e-13,3.0507213e-14,7.943802e-14,1.5753865e-13,-1.230989e-13,-1.31458e-13,-2.0724576,1.3117212e-13,1.9617554e-15,-2.0214571e-13,-2.3423443e-15,1.2971925e-13,3.376107e-13,7.447489e-14,1.2889451e-13,-5.870627e-14,1.6213658,6.73287e-14,9.7990104e-14,4.118075e-14,2.4847928e-14,9.18097e-15,1.3342158e-15,8.539275e-14,-2.1935147e-13,-2.3051168e-14,3.1586843e-13,-3.2336733e-14,9.5929016e-14,-7.109362e-14,1.2173688e-13,1.878779e-13,1.8045573e-14,1.3858424e-13,2.5634605e-13,9.0929875e-14,-1.3897084e-13,-1.3360175e-13,-1.4940692e-13,-2.5718509e-14,1.1174166e-13,1.2052552e-13,7.915709e-14,-1.5809963e-13,-6.1197534e-14,1.7624811e-13,0.548357,2.402651e-13,1.11192875e-13,1.723795e-13,6.029479e-14,1.4272494e-13,-2.9628473e-13,-2.4632306e-13,-1.5147897e-13,-7.5069325e-14,-1.7565966,-1.6752553e-13,1.474975e-14,7.190476e-14,1.6491454e-13,1.3771458e-14,3.1841798e-15,8.913351e-15,-4.741993e-14,-3.998522e-13,1.0703402e-13,3.9598994e-15,1.2649904e-13,2.0914516e-13,-1.5372794e-13,-1.0764874e-14,6.40369e-14,-2.11939e-14
1.3469485e-13,-2.4437578e-15,9.419905e-14,-1.0755959e-13,3.4123407e-14,3.1718074e-13,-7.411645e-14,-4.5938662e-14,-1.2101069e-13,-2.1888149e-13,2.4678211e-13,1.5243399e-13,-1.3167013,9.771252e-14,2.5089699e-14,-4.591563e-14,-7.3880335e-14,-8.9143685e-14,2.9640838e-13,-1.725423e-13,3.2192368e-14,2.116026e-13,1.7533286,1.7816388e-13,1.4784778e-13,-4.469439e-14,1.1741966e-13,1.2450571e-13,4.3198767e-13,-8.148224e-14,1.9184653e-13,-2.5187262e-14,-5.1530774e-16,-1.2078972e-13,-5.2452034e-14,5.5997768e-14,-1.7326742e-13,4.451213e-14,8.342148e-14,1.2242064e-13,4.7416996e-14,-2.7212844e-14,-5.1885366e-14,-3.742171e-13,-7.671141e-14,1.2855727e-13,2.951388e-13,-1.1661153e-13,-5.2603355e-14,2.344889e-14,1.2908092e-13,7.798162e-14,-0.08683396,7.467273e-15,-5.3477703e-14,-1.5679763e-13,-5.5831733e-14,-1.0388183e-13,6.4166032e-15,-2.167287e-14,9.669249e-14,1.5389624e-13,-0.29185236,-2.663816e-13,-2.0671155e-14,5.3164884e-14,-9.214309e-14,-9.1759296e-14,1.0092242e-13,5.864572e-14,-2.4798411e-13,-5.4082274e-15,-5.6417727e-14,3.4503493e-13,1.0542635e-13,1.4429595e-13,6.6749876e-14,3.8194166e-13,3.5550583e-14,-9.961253e-14
-2.7472638e-14,-1.2724725e-13,-2.2173233e-13,2.2707982e-13,1.6120558e-13,2.890821e-14,-7.243507e-14,4.6035004e-14,1.3434107e-13,-3.2897784e-13,-1.1855645e-13,1.9157684e-13,-2.286268,-1.4029304e-13,-4.0777714e-14,-1.2933715e-13,1.7597982e-13,-1.7712814e-16,3.9726528e-13,-1.9983844e-13,-2.7803435e-13,-1.0099619e-13,1.393409,1.1674594e-13,1.5082546e-14,1.9177357e-13,-1.323338e-14,-1.3215111e-13,1.4140898e-14,8.2384966e-14,-2.1180896e-13,9.1752425e-14,-1.5549373e-13,5.0162287e-14,-1.8607713e-13,8.6607615e-14,-1.7242024e-13,1.2963666e-13,3.9550107e-13,-7.8759414e-14,1.0309509e-13,4.9207173e-14,1.362437e-13,1.3635023e-13,-2.1158937e-13,7.4141194e-14,3.1074324e-13,-1.644529e-13,-1.3344028e-13,-5.126429e-14,-1.0160437e-13,1.4551355e-14,0.85274607,1.5435339e-13,2.7775315e-14,-1.002618e-14,1.7894921e-13,1.26258596e-14,-1.01632156e-13,8.5446956e-14,-9.7610024e-14,-5.0847998e-14,-1.6773897,-1.7993601e-13,-4.8528178e-14,8.942086e-14,1.7616266e-13,1.6055726e-14,-2.7092755e-14,2.631721e-13,-9.1452264e-14,-3.6610377e-14,2.4803371e-14,-3.6611644e-14,1.9483636e-13,-4.6924568e-14,-5.324369e-14,-1.6321037e-15,1.5245208e-13,1.5965097e-13
2.7012582e-14,-4.160741e-14,-7.315279e-15,-1.8746335e-14,-1.1495573e-13,8.219842e-14,1.5187515e-13,1.5853797e-14,-4.879262e-14,1.5348413e-13,8.3144524e-14,-9.644317e-14,-1.2446688,1.5815939e-13,-4.4002326e-13,-6.666262e-14,-4.3506255e-14,-7.0061734e-14,-4.761812e-14,-2.3682933e-14,3.1937516e-14,-7.434121e-14,1.9328384,6.017903e-15,-2.1773131e-13,2.8250795e-14,-4.380736e-15,1.3639167e-13,1.302669e-13,7.0005654e-14,-3.0595622e-13,5.486148e-14,-6.3757817e-14,4.678712e-14,-2.724558e-14,-3.057091e-15,-2.1003356e-13,2.4244712e-14,-1.1376571e-13,-7.232966e-14,5.3642885e-14,-1.6347633e-13,2.9000906e-13,2.157872e-14,-1.4274638e-13,4.1233157e-15,2.7906114e-14,2.9842963e-14,2.525255e-13,2.2993134e-13,6.425342e-14,-3.7497203e-14,0.8163854,7.147124e-14,1.4797553e-13,-2.7331429e-14,9.255868e-15,2.4977257e-15,7.108211e-14,1.7833688e-13,1.6372776e-13,3.6809694e-13,-0.32917267,-9.583229e-14,-5.797766e-14,1.5831355e-13,1.3210693e-13,4.9171e-14,1.12500924e-13,-1.5509471e-13,-1.1266371e-13,1.1844919e-14,-7.259388e-14,3.0876472e-14,2.7107063e-13,1.1828101e-13,-1.8258137e-13,2.2969032e-13,3.9534484e-15,-2.679858e-13
5.9673735e-14,-6.7767406e-14,7.459537e-14,6.297679e-14,-1.0117794e-13,-9.145142e-14,-6.1526596e-14,1.2857125e-13,-2.5049494e-13,-1.2683292e-13,-8.452075e-14,-2.7504745e-14,-1.8918543,1.2414321e-13,-2.2649477e-13,4.454726e-15,1.1631192e-14,-8.205418e-14,-4.817573e-14,-2.4363774e-13,-9.5783746e-14,6.082136e-14,2.0331497,-2.587055e-13,-4.9186593e-15,1.0198942e-13,-3.476531e-13,-1.6304857e-13,-8.332134e-15,-1.5692615e-13,-4.0629623e-13,1.2669835e-13,-8.492164e-14,2.2617146e-13,-1.601394e-13,6.5257844e-14,-1.3260442e-13,-1.1476416e-13,1.1407929e-13,-1.6062878e-13,-1.0554468e-14,2.9635928e-14,-3.5629784e-14,-6.133188e-14,1.9876779e-13,3.012298e-14,-9.163102e-14,-7.2070645e-15,1.579237e-14,-2.0798185e-13,-8.950273e-14,-5.841241e-14,0.9961365,-4.2130755e-14,-1.08895735e-13,2.6071506e-13,-2.3591627e-13,-2.318389e-13,3.9968998e-14,1.2430356e-13,-8.443128e-14,7.827407e-14,-0.86063594,-1.1277771e-13,-3.949652e-14,-1.675272e-13,-3.4900332e-15,3.153158e-14,3.666862e-13,1.0806484e-14,4.4508275e-14,7.293617e-14,-2.4957857e-13,1.9304415e-13,2.634073e-14,-1.4469949e-13,-1.5828052e-13,-1.559783e-13,-1.3786068e-13,2.1531974e-14
5.3802516e-16,-3.8000046e-14,2.0895395e-13,-3.528049e-13,2.2705333e-13,2.4456213e-13,-9.796862e-14,-1.5009326e-13,-2.7072862e-13,7.240546e-15,1.1267467e-13,1.1003629e-14,-1.4470067,1.6382695e-13,-1.6584417e-13,-1.2024421e-14,-2.2182515e-13,-4.697703e-14,1.31214e-13,1.7376955e-14,1.9114935e-14,7.2873944e-14,1.3336722,1.3435378e-13,1.690812e-14,1.3270293e-13,7.2899464e-14,-5.1404315e-14,4.0094566e-13,6.17782e-14,1.1208526e-13,-1.0271018e-13,-3.866156e-13,-1.3260867e-13,-1.8720862e-13,2.0815577e-14,-1.23902624e-14,4.0124418e-14,2.9007057e-14,5.3579123e-14,8.631847e-14,2.3905872e-14,3.7915695e-14,-1.2392097e-13,-3.2121007e-14,4.007429e-13,-7.8733025e-15,1.601244e-13,1.5376354e-13,2.495692e-13,9.405772e-14,-2.4686043e-14,0.488208,-1.2777942e-13,1.1188038e-14,-2.9603287e-13,-1.1530229e-13,2.624907e-13,1.1913125e-14,-1.8884178e-13,1.4376238e-14,-1.6102964e-13,-0.5872788,8.5989484e-14,-7.501297e-14,2.3224792e-13,-1.094129e-13,2.7223e-13,5.999861e-14,-3.8671086e-14,4.568212e-14,1.4377471e-13,5.635288e-14,7.788873e-14,2.1355624e-13,4.567829e-14,3.881167e-13,8.56501e-14,-1.9322985e-13,3.0997374e-14
4.6950142e-14,6.6967916e-15,2.1431885e-14,6.767349e-14,-1.7710106e-13,-1.6346042e-13,-2.2430576e-13,-4.549272e-14,3.0744836e-14,4.6955912e-14,-1.2018756e-13,1.3802048e-13,-1.6485194,-8.012926e-14,-6.224352e-14,1.3983677e-14,8.98264e-14,2.2410686e-14,1.03329854e-13,2.2282482e-13,8.927817e-14,-7.048596e-14,0.8564433,-7.46907e-14,1.2615039e-13,-4.8859906e-14,2.1382699e-13,1.9971611e-13,-2.0951014e-13,7.219526e-15,-2.1666354e-14,8.807381e-14,5.010672e-14,9.3980284e-14,9.450532e-14,-3.7136408e-14,1.7550441e-13,6.8319855e-14,-5.192377e-14,6.669912e-14,-1.4139273e-13,-1.0787814e-13,5.723429e-14,2.823829e-14,-6.408524e-14,-3.915153e-14,-2.1484638e-14,-3.5402345e-14,5.750993e-14,-1.7454422e-13,-8.961724e-15,2.0383562e-13,0.8707885,2.1167533e-14,-2.299107e-14,-5.329775e-14,-1.0702697e-13,-1.0022756e-13,2.9236818e-13,7.012163e-14,-1.0339748e-15,-1.5725501e-13,-1.6222694,-2.376029e-15,1.4043913e-13,2.3785586e-14,-2.2623175e-13,2.3718701e-14,-1.1675563e-13,1.09229107e-13,-2.1119857e-13,-1.316599e-13,1.2812982e-13,-1.2407667e-13,-1.3025721e-13,6.2264945e-14,1.461474e-14,9.008393e-14,-1.6190846e-13,-2.8356188e-13
-1.3497536e-13,1.465721e-13,-2.4761852e-13,-1.6022496e-13,1.5249171e-13,7.082581e-14,-1.8779355e-13,9.381148e-14,1.1554605e-13,-8.761643e-14,7.416972e-14,4.1115616e-14,-1.3246255,1.9410103e-13,1.9035525e-13,-1.7191598e-14,-4.6056265e-14,2.1402835e-13,-1.4019053e-13,1.6708535e-13,-3.1376733e-14,1.5879117e-14,0.9779692,-3.4698386e-14,-3.9952386e-14,-1.8722209e-13,5.426694e-14,-5.165979e-14,1.247941e-13,1.1705554e-13,-8.180654e-14,9.817902e-14,-1.7821012e-13,-4.1962876e-14,3.8534856e-14,-6.252537e-14,1.2119843e-13,6.53953e-14,-1.0936328e-13,1.4209303e-13,1.0074434e-13,2.8293722e-13,9.384923e-14,-8.6424174e-14,1.21467e-13,-9.572631e-14,2.1343845e-13,-1.06887935e-13,-7.056516e-14,-1.4375651e-13,-4.617634e-14,1.8742755e-14,0.53398085,1.4685131e-13,-9.266441e-14,3.5424273e-15,-9.526956e-14,1.0609515e-13,-2.986367e-16,-1.043946e-13,2.3734628e-13,2.895209e-14,-1.0996315,-4.197488e-14,-4.9999664e-14,-1.6768845e-13,1.6941272e-13,-1.7588205e-14,3.731685e-13,5.690754e-14,-1.4347971e-13,-4.5721263e-14,-3.1875642e-14,-3.62619e-13,-4.4865404e-14,-1.7245572e-13,1.18024106e-14,-2.3911957e-14,-3.6545495e-13,-3.6640917e-14
-8.488223e-14,-5.6034333e-14,6.323663e-14,-7.656921e-14,2.1172381e-14,-1.02302295e-13,6.2066834e-14,1.1549615e-13,1.01475116e-13,5.095047e-14,-3.0648085e-14,-1.6202734e-14,-1.8497336,-8.118962e-14,-8.507664e-14,-8.6561455e-14,3.2724108e-13,-1.463295e-13,-4.801093e-15,7.694163e-14,-6.420074e-14,-1.2200646e-13,0.46086428,-4.9328e-14,-8.702314e-14,-9.956781e-14,8.62349e-14,2.9502158e-15,-1.024355e-13,2.0597494e-13,-3.6480665e-14,1.291463e-14,2.8387245e-14,1.5510279e-13,2.2109196e-13,6.3378034e-14,1.4919649e-13,2.1218279e-14,2.0106991e-13,-7.32757e-15,4.3600933e-14,3.597044e-15,-1.3731437e-13,-1.0862696e-13,2.9165998e-13,1.3011058e-13,-1.0845677e-13,-1.3518781e-15,-2.5055972e-13,-2.553246e-13,-6.275624e-14,1.9602362e-13,0.1464099,-4.9160928e-14,1.0017978e-13,-2.4839871e-13,1.5857458e-14,-5.409206e-14,2.8743284e-14,1.6250324e-13,9.4596795e-14,-2.0037804e-13,-2.1398313,8.743006e-14,9.038869e-14,-5.324945e-14,2.852759e-14,-1.9233218e-14,3.2803865e-14,-1.2307622e-13,8.4247225e-14,1.3942975e-15,-2.4149758e-13,-1.6865895e-13,4.497101e-16,2.2964389e-13,5.4175218e-14,2.5923613e-15,-5.203682e-14,-1.00690025e-14
2.4413255e-14,-2.122155e-14,9.959471e-14,-1.9923138e-13,-2.545889e-13,-9.9861044e-14,-1.8276103e-13,2.7490556e-14,5.0896617e-14,-8.0493175e-14,-3.11154e-13,2.965511e-14,-1.4209942,1.6027585e-13,-1.0188455e-13,-4.1209542e-14,-6.577563e-15,-3.5573684e-13,4.554473e-14,1.1202043e-13,-8.9156764e-14,-1.3436192e-13,0.29389828,1.4094918e-13,-1.3779447e-13,-7.8901065e-14,3.0157256e-14,1.8609845e-13,4.0303467e-14,1.7473485e-13,1.0659185e-14,-5.7619206e-14,2.201398e-13,1.472174e-13,2.0120305e-14,-2.7804683e-14,5.4833654e-14,-6.73218e-14,-1.05269614e-13,-1.194547e-13,-1.2610776e-13,-2.4033846e-13,2.2827817e-13,-3.0517194e-14,1.550668e-13,-1.0519355e-13,2.5791478e-13,-3.041106e-13,1.1483907e-13,-1.2626544e-13,7.256014e-14,-6.850019e-14,-0.3263311,-9.516307e-14,4.937576e-14,2.421199e-13,9.3108965e-14,1.3299561e-13,-1.2505169e-13,-1.9503477e-13,-1.16556816e-14,2.0787641e-13,-1.7318684,-2.0482345e-13,3.293516e-14,-1.9838803e-13,-2.1173157e-13,-3.970081e-13,-9.55044e-14,3.0311786e-13,-1.8478936e-13,-4.2614973e-15,-2.4911938e-13,4.697708e-14,-4.770021e-14,1.4944624e-13,-5.699593e-14,-2.7360225e-14,-3.9812148e-14,1.1945127e-13
1.3323278e-13,1.1244667e-15,-2.0966781e-13,-5.148643e-14,-1.1067483e-13,-6.1727235e-14,7.6200155e-14,1.9828517e-13,2.9821485e-13,8.270464e-15,1.3766795e-13,3.9045678e-14,-1.9500794,-1.3030684e-13,1.0961819e-14,1.6666231e-13,-3.774155e-15,1.2591283e-13,1.6721992e-13,-1.7824514e-14,-2.0709556e-14,-8.613017e-15,0.7139198,2.3535343e-13,-7.442186e-14,-1.1539522e-13,-1.3686074e-13,4.5846624e-15,-6.921695e-14,2.2785753e-13,-9.258486e-14,3.3725605e-13,9.0393486e-14,-2.6041601e-14,2.0816675e-13,5.1036608e-14,-9.521275e-14,-4.8819984e-14,-5.3026228e-14,-1.8222204e-13,-2.762483e-13,3.490036e-14,8.3163314e-14,1.5192556e-13,1.9018452e-13,-1.6588762e-13,-1.8262566e-14,2.60201e-13,-1.0047224e-13,1.07421206e-13,-5.969661e-15,1.9005592e-13,0.65807533,-3.125292e-14,4.4147392e-13,6.216572e-14,1.0128278e-14,2.8260087e-13,-1.9992504e-13,6.402764e-14,6.387546e-14,1.6312516e-13,-2.008734,-5.0191784e-15,-1.0643667e-13,8.918257e-14,3.2844716e-14,5.8319906e-14,3.4134224e-13,1.9855138e-13,-1.6202596e-13,6.6632924e-14,-1.5482109e-13,4.7825174e-14,-7.4580695e-14,1.8398777e-13,1.5221765e-14,-1.3269157e-13,1.1194147e-13,8.095272e-14
-2.8833728e-13,-9.777163e-14,-2.2160416e-13,1.2179744e-13,6.6549115e-14,-2.1682049e-13,2.1419365e-13,1.227046e-13,2.2877994e-13,-2.0289242e-13,1.3903066e-13,-7.443816e-14,-1.3639431,7.606491e-14,-2.3445093e-14,9.5501853e-14,1.4307373e-13,-6.900424e-14,1.3331358e-13,6.1616904e-14,1.89824e-13,-6.645344e-14,0.72158587,4.2336494e-15,-7.7901525e-14,-8.6627686e-14,-2.295132e-13,1.1419347e-13,1.5729344e-13,3.1152882e-14,2.1590741e-13,-6.1104205e-14,3.4005324e-16,4.1741357e-14,-4.1367785e-13,-1.4926049e-13,-1.1326855e-13,-7.054268e-14,-1.0920674e-13,-2.2821415e-13,-1.8543813e-13,6.6814304e-14,-1.6559364e-13,2.439807e-13,1.8697282e-13,-1.9330303e-13,-6.261791e-14,2.0891424e-14,-1.94478e-13,6.373818e-15,1.5119918e-13,-1.2227799e-13,0.73711866,-3.1650453e-13,8.9688395e-14,-7.204797e-14,3.419876e-14,6.394733e-14,6.7421695e-14,-1.1724482e-13,1.7261657e-13,4.2021935e-14,-1.5893161,-4.9324426e-14,1.453602e-13,-1.411193e-13,-1.5902202e-13,5.780119e-15,-2.3934324e-13,-4.2250193e-14,3.5178056e-13,1.428398e-13,-7.025835e-14,-3.8320668e-13,-2.4143898e-13,2.5636128e-13,-2.0915846e-13,-1.6388566e-13,-1.0859404e-13,-1.540652e-13
6.331499e-14,-1.2770857e-13,-5.5153758e-14,2.3212495e-13,1.7565295e-15,-1.7778137e-14,2.0322204e-14,-2.1428998e-14,-4.6270493e-14,-1.3711238e-13,7.575546e-14,1.7886273e-14,-1.6041389,-1.1396751e-13,-1.8173036e-13,3.801267e-14,-9.607468e-14,-4.2624853e-14,1.11543804e-13,8.062617e-14,-2.7374928e-13,1.7392876e-13,0.36904168,4.7812875e-14,-3.1818813e-14,-2.1394736e-13,-2.2212905e-13,5.952152e-14,8.240628e-14,6.5499906e-15,-7.1905006e-14,1.3024963e-13,-2.968509e-14,2.5376711e-13,2.2284309e-14,-2.0055732e-13,-2.3955192e-13,9.335365e-14,8.265009e-14,-6.0704886e-14,2.1298456e-13,3.035529e-15,1.7600929e-13,-4.6357266e-14,-1.5029517e-13,-1.9451178e-13,-9.131083e-15,-1.7675873e-13,1.333939e-13,2.3393283e-13,-2.4698532e-15,-1.6422718e-13,0.8184539,1.6557702e-14,-8.7882325e-14,1.9500204e-13,-7.3306385e-14,-1.8898954e-13,1.2475204e-13,5.74186e-14,-4.1554657e-15,1.1738057e-13,-2.0003428,2.618509e-14,-4.061602e-14,1.8459816e-14,-1.901715e-14,8.1925406e-14,6.7828637e-15,7.7316205e-14,5.796549e-14,1.0944716e-13,1.2350704e-13,6.673827e-14,-1.3434517e-13,-6.926944e-14,-3.1294744e-14,-3.4131586e-14,-9.147191e-14,8.692057e-14
2.5481163e-13,2.2004676e-13,2.0609135e-14,2.3638892e-13,-1.1249411e-13,-2.5051508e-14,-4.1546722e-14,-3.067694e-13,-6.814587e-14,2.8357952e-14,1.3490424e-13,-2.1655032e-13,-0.8763445,1.4058856e-13,2.2310943e-13,-1.658827e-13,-6.692529e-14,1.2102994e-13,-2.1226551e-13,-8.152741e-14,-7.298449e-14,8.392229e-14,0.4548332,-1.3326469e-14,-2.798891e-13,-1.13669186e-13,1.8597988e-13,-1.02282495e-13,-5.29437e-14,2.7160125e-14,-7.1460985e-15,-7.592856e-14,1.4348314e-13,4.2701528e-13,-1.2745335e-13,-3.799634e-14,8.2457634e-14,-6.0785287e-14,-1.538048e-13,-2.0768848e-14,9.0178245e-14,-1.5560838e-13,-1.7496683e-13,1.674346e-13,4.0853456e-14,1.7275709e-13,1.294463e-13,1.2946165e-13,4.6160633e-14,1.1606522e-13,3.409461e-13,1.438639e-13,0.3741538,2.4116e-13,-1.0071682e-13,1.4680028e-14,-8.9164367e-14,-1.2421417e-13,2.1567634e-14,3.3164717e-13,4.2430943e-13,1.244497e-13,-1.4916264,-1.8555116e-13,-5.285684e-14,7.638834e-14,-3.203165e-14,-1.5069495e-14,-1.9015482e-13,-3.650842e-14,-1.796712e-13,-3.5576238e-14,1.1737971e-13,1.01933625e-13,-4.0065024e-14,-2.2873203e-14,-1.2850951e-13,5.571957e-14,1.9152434e-13,-7.887804e-14
5.875963e-14,-3.0426592e-14,1.1826797e-13,5.482992e-14,-1.2203068e-14,-7.959933e-14,-4.066782e-14,3.8206844e-14,1.3161729e-13,2.1788537e-13,5.4613093e-15,-1.7426718e-13,-2.0996397,1.05460576e-13,-1.7169843e-13,-2.2284452e-13,-1.7661359e-13,1.2580366e-13,1.06060106e-13,-2.063108e-14,-1.1524505e-13,1.661751e-13,1.012306,3.393473e-14,-2.3093314e-13,-5.047766e-14,5.2214655e-14,-1.5802585e-14,-9.978305e-14,9.6706734e-14,1.2913146e-14,2.1716624e-14,-1.7827677e-13,-3.237585e-14,-1.6436226e-13,-1.6306222e-13,3.1158222e-14,3.298883e-14,-1.1473704e-13,2.5794525e-13,-3.8343345e-14,2.5454824e-14,-6.372563e-14,-4.9865155e-14,-1.4656589e-13,2.0623782e-14,-1.1919545e-13,6.306323e-14,-1.6379998e-14,1.2169752e-13,2.2386505e-15,7.2724365e-14,0.71750855,1.5319324e-13,7.3848276e-14,-2.7887293e-13,-1.9572407e-14,8.949271e-14,1.8898846e-13,1.4385089e-13,-6.4722194e-14,1.41487265e-14,-2.3419025,-4.263133e-14,-5.1809333e-14,-1.7936042e-13,-2.8982266e-14,-4.920996e-14,2.4992386e-13,8.0946155e-14,-1.2580307e-13,-8.441551e-14,-3.19453e-14,-1.7981485e-13,4.6550352e-14,5.784453e-14,1.632313e-13,1.2242337e-13,1.6498105e-14,1.6957385e-13
-6.3729675e-14,1.0232883e-14,-3.065343e-13,-2.0475174e-13,1.2580262e-14,-1.369502e-13,-2.163083e-13,3.4824644e-13,-2.425657e-14,-1.8441693e-13,-6.4107418e-15,-8.8123085e-14,-1.592951,-3.5108242e-14,-8.71077e-14,-1.7024113e-13,3.2083345e-14,2.5243994e-14,-9.497305e-14,3.074396e-14,-7.329062e-14,6.841094e-14,0.49109885,1.3280123e-13,-1.7155052e-13,6.5758624e-14,-2.3843796e-13,2.4132026e-13,-1.382053e-13,9.772312e-14,4.1498423e-15,-2.1603463e-13,-3.4114133e-14,-1.731769e-13,-2.496388e-13,-2.6255983e-13,-2.2221785e-13,2.5784293e-15,4.1173774e-14,-2.9925327e-13,-2.3971078e-13,-2.2463714e-14,-7.139322e-15,1.904251e-13,5.882394e-14,-3.1009168e-14,-1.611555e-13,-1.466472e-14,9.170688e-14,3.4038663e-15,1.05290464e-14,9.464831e-14,0.20475304,1.151766e-13,6.0108406e-14,1.5837954e-14,-2.2569823e-13,3.662689e-14,3.7116387e-14,-1.122526e-14,-1.10299e-14,-4.1841124e-14,-1.9164524,1.6900648e-13,-1.8306954e-13,-2.0578001e-13,1.499425e-13,-1.5495744e-13,8.012722e-15,-1.4136022e-13,8.605374e-15,-1.4464908e-13,6.895246e-14,1.1585535e-14,-1.1318049e-13,6.1668566e-14,2.0011873e-13,2.4391879e-14,1.2371999e-13,9.201096e-14
-5.854132e-14,-1.3971624e-14,-2.5486945e-13,-1.7964571e-13,-2.8418397e-13,-5.335397e-14,-5.8104766e-15,7.352336e-14,-1.1243423e-14,-8.812818e-14,-1.0587182e-13,-7.643786e-14,-1.9865954,-3.6203955e-13,-1.6542635e-13,1.5643438e-14,-1.0416078e-13,2.0684554e-13,-6.94645e-14,8.431614e-14,3.63935e-13,1.7054983e-13,0.87343013,-8.582214e-14,-2.6080462e-13,2.4401507e-13,-2.4296312e-13,-5.475702e-15,-1.1057593e-13,2.302528e-13,-1.3339588e-13,-3.3695618e-13,-1.1559341e-13,4.09546e-14,-1.04620184e-13,5.1746232e-14,1.3264751e-13,6.682518e-14,-2.3652608e-13,-8.915697e-14,1.2885415e-13,-9.119752e-14,5.721919e-14,-1.7508862e-14,-1.1991004e-13,-1.4891612e-13,1.1677101e-13,-1.3235844e-13,-2.411308e-13,1.7346502e-13,-2.87933e-13,-1.4894488e-13,0.19124237,6.0082405e-14,1.3201128e-13,-7.983535e-14,-2.1241272e-13,1.4496087e-13,1.7893585e-14,2.0935613e-13,-1.9637925e-13,-1.0919587e-13,-2.1191208,7.59553e-14,1.4627327e-13,-2.9330833e-14,-6.2964736e-15,-3.3677806e-14,-1.2545672e-13,-1.7757795e-13,2.1200047e-13,-2.3382403e-13,-1.9692799e-13,1.9595243e-13,2.386923e-13,9.57814e-14,8.4348855e-14,1.0543577e-13,1.9301035e-15,-4.36611e-14
-7.35159e-14,-2.1672779e-13,3.985847e-14,-2.0197304e-13,9.2651046e-14,1.1853238e-13,2.9604433e-13,3.24008e-14,4.23298e-14,5.5605728e-14,-1.0352349e-13,6.512257e-15,-1.4886233,7.0158384e-15,1.6889574e-13,-3.4966604e-13,-1.4406824e-13,1.3105723e-13,-1.6954076e-14,2.3720304e-14,-6.007198e-14,6.470017e-15,0.92111814,-8.500715e-14,4.5626284e-14,9.501411e-14,-3.4663143e-14,1.5966755e-13,3.1387276e-13,-9.203898e-14,-3.3687066e-14,-6.605627e-14,2.9742745e-13,6.04606e-15,-4.73742e-14,6.659333e-14,1.369737e-14,2.6709516e-13,-2.8258353e-13,2.0280815e-15,-2.2678765e-14,6.474753e-14,-3.6246552e-14,1.6323415e-13,-1.3522066e-13,-8.0962594e-14,1.1705311e-14,-2.0368093e-16,1.6664529e-13,-2.6232041e-14,-1.229022e-13,-3.2541163e-13,-0.28162804,-1.3750088e-13,1.1629006e-13,-2.2551565e-13,1.5130562e-13,1.11062296e-13,-8.401149e-14,-4.5602885e-14,-5.869802e-14,-1.12689785e-13,-1.3766274,-9.2700655e-14,2.727664e-13,-1.08713e-14,-1.1884731e-14,-6.152064e-14,1.3659084e-14,1.2439709e-13,-3.1881556e-13,7.389192e-14,-2.2923148e-14,-7.859135e-14,-2.6790815e-13,-6.1359934e-14,3.447034e-14,9.817066e-14,-1.381391e-13,8.138686e-15
-3.6129326e-14,1.9996586e-14,2.3088738e-13,-7.0631096e-14,-1.7326008e-14,-3.8850032e-13,2.6968797e-13,1.2268108e-13,-1.600435e-13,-5.827796e-14,-1.7928271e-13,3.4211742e-14,-1.9440243,1.2714742e-13,1.6221437e-13,-7.03662e-14,5.8181785e-14,-2.2424287e-13,9.371617e-14,-4.3964452e-14,-1.9034169e-13,7.6304455e-14,0.8646519,-5.2270857e-14,-1.4689218e-14,-2.6795272e-14,-7.279438e-14,-2.0849465e-13,7.809562e-14,3.501385e-14,9.7759725e-14,3.6762114e-14,-8.7524524e-15,-8.765768e-14,-9.1361475e-14,-1.7313475e-13,1.1702413e-13,6.914881e-14,3.5756998e-13,6.760017e-14,5.3398475e-14,-8.268245e-14,3.0549893e-14,1.415533e-13,1.3211502e-13,4.5631996e-14,-2.0682056e-13,1.682483e-13,2.6945872e-13,-8.600081e-14,-2.1797993e-14,-1.4081314e-13,0.30623117,-1.7790707e-13,-8.080367e-14,1.1309027e-13,8.062531e-14,6.876716e-14,1.13307374e-13,2.1347342e-13,-8.011884e-14,-1.4778333e-13,-1.9098337,7.254877e-14,1.10082e-13,-6.253003e-14,1.443578e-14,1.3120116e-13,2.2729365e-13,2.979586e-13,-2.1444635e-13,2.1700244e-13,5.6708246e-14,9.3935886e-14,9.127056e-14,1.7879211e-13,1.3141667e-13,-1.822601e-13,1.05430963e-13,3.6889277e-13
-1.7140267e-13,-4.640964e-13,1.13612475e-13,-8.649021e-14,1.8735083e-13,-9.8088136e-14,3.4611515e-13,-1.1762409e-13,-6.4112066e-14,-2.8789125e-15,1.05985736e-13,1.9594714e-13,-1.6562836,2.4710664e-13,2.9276462e-13,-1.1229903e-13,1.4907934e-13,3.2045777e-14,-1.3183131e-13,2.0382575e-13,-4.807678e-14,-2.0035799e-13,0.5198042,-2.4255354e-13,2.1783919e-13,1.1993065e-13,-3.0028408e-13,1.4445651e-13,-1.7000431e-13,1.04366406e-13,1.5675693e-13,-6.380895e-14,-1.3361081e-13,3.2665916e-13,-1.4094834e-13,-2.1166005e-14,-1.2100828e-13,-2.0737433e-14,5.0865548e-14,-2.656897e-13,8.980557e-14,4.2717688e-14,-1.1816778e-13,9.965268e-14,-1.1462527e-13,4.3112686e-14,-6.204658e-14,5.1538777e-14,1.6475257e-13,-1.9076953e-13,1.1125855e-13,-4.6180473e-14,-0.3260303,5.816471e-14,-1.8443466e-13,-4.646225e-13,3.8265828e-14,-1.5562745e-13,-4.6147338e-14,-9.473703e-14,1.5168722e-13,1.8418411e-14,-1.8769277,-9.483651e-14,1.8980283e-13,6.4005794e-14,-4.5963267e-14,-6.1329997e-15,-3.7141785e-15,3.699012e-13,1.1848049e-13,2.1516106e-13,7.882549e-14,4.6325174e-14,1.1260127e-13,1.4152843e-14,3.5861e-13,1.859607e-13,1.7412574e-13,-4.1972854e-16
8.551444e-14,1.8061086e-13,-6.402726e-14,1.9509588e-14,-6.185546e-14,3.5632993e-13,8.9375135e-14,-2.1842451e-13,1.6590772e-13,5.5232674e-14,-6.543235e-14,9.7380634e-14,-1.9762009,2.3872492e-14,-7.2547023e-14,1.0198705e-13,-2.1583694e-13,2.449622e-14,1.6582746e-13,-5.849798e-14,6.716065e-14,3.7130665e-14,0.8327201,-9.385152e-14,-3.6628954e-14,-2.6859634e-13,-1.13197314e-13,-1.3044917e-14,-4.8232157e-14,3.577094e-14,-1.6853335e-13,6.2661885e-14,8.4359996e-14,1.187958e-13,-1.2971388e-13,7.045105e-14,1.07081946e-13,1.6942589e-13,-8.186457e-14,-1.10941746e-13,1.5111274e-13,2.7295152e-14,-1.7008005e-14,3.7745313e-14,-5.6245346e-14,8.103784e-14,2.262575e-14,-2.1466959e-13,3.9365233e-14,1.4929206e-13,1.3986841e-13,3.6996813e-13,1.0087506,-1.1826023e-13,1.2661313e-13,-2.2257703e-13,-7.0731147e-15,8.88715e-14,1.7230576e-13,-4.9138685e-15,5.9787875e-14,1.7695487e-14,-2.1871417,-3.744269e-14,6.639722e-15,-3.2258335e-14,2.1309191e-13,-8.6415684e-14,1.0237845e-13,3.0021406e-13,-2.5760825e-13,-4.5214907e-14,-4.9879927e-14,6.272377e-14,2.328063e-13,-1.1254415e-13,-5.82641e-14,2.0114124e-13,1.5334064e-13,3.959379e-14
1.0167224e-13,6.312707e-14,1.88823e-13,-1.7759402e-13,-3.988159e-14,6.4257966e-14,1.238118e-13,-1.8895641e-13,-1.00274146e-13,-1.6226265e-13,2.4825194e-13,1.0008891e-13,-1.4515196,-1.8772737e-14,-2.7507271e-14,3.0716017e-14,2.6278855e-14,-2.3139135e-13,8.6415684e-14,-1.1115109e-13,-1.1252663e-16,-2.2683237e-13,0.65089935,7.443816e-14,7.3082524e-14,-7.3157185e-14,2.7427218e-14,1.9455393e-13,-7.84484e-14,3.3127513e-13,1.3792786e-14,-1.8163268e-13,8.5007474e-14,-4.124488e-14,4.0363296e-13,6.4037175e-14,4.4075536e-14,-1.9199816e-13,5.1336702e-14,1.0340494e-13,6.2576694e-14,-6.6919384e-14,-2.2124762e-13,-2.5746522e-14,6.16388e-15,3.5157268e-14,2.4504964e-13,3.1776128e-13,-4.0639746e-13,6.186516e-14,-1.10760725e-13,2.866558e-13,0.10368783,3.3775452e-14,1.8641718e-14,-1.8204511e-13,-1.0975265e-13,1.8029659e-13,1.3082177e-13,1.5830571e-13,5.855532e-14,-4.3634156e-13,-1.9449583,5.2376635e-14,1.1933271e-13,-2.81329e-13,1.05878915e-13,1.5150897e-13,1.8559805e-13,1.4884338e-13,-2.8927235e-13,-1.3826062e-13,8.2917485e-14,1.7799449e-13,-7.0268254e-14,1.8892587e-13,7.4265647e-14,-1.2146721e-13,-4.5318634e-14,2.9304643e-14
-1.7224957e-13,-8.593745e-14,-6.5449165e-14,-1.4468698e-14,4.7991694e-14,4.9634582e-14,1.8382111e-13,-4.624947e-14,-1.0005458e-14,-2.464781e-13,-7.779572e-14,2.884898e-14,-2.096421,6.836535e-14,1.8089342e-14,-7.006732e-14,1.0527477e-13,-1.4849656e-13,-2.9421368e-13,-8.881844e-14,-2.4176987e-13,-4.941662e-14,1.1373261,-2.071374e-14,6.0409014e-14,4.621073e-15,1.1680735e-13,-1.5386175e-13,-2.0408084e-13,4.3410365e-13,1.8123044e-13,-6.539367e-14,-6.127404e-14,8.371851e-14,-1.5234834e-13,-1.2544059e-13,-8.3875296e-14,1.145545e-13,1.5144193e-13,1.1531211e-13,7.2028483e-14,2.8701813e-13,5.3482565e-14,-5.321908e-14,-7.653361e-14,-1.8423311e-13,-4.177835e-14,1.951281e-13,-8.1891335e-14,6.094839e-14,-3.9877332e-14,5.1419677e-15,0.8358611,1.1926368e-13,-5.0687353e-14,-1.6613134e-13,-2.6073385e-14,-2.3037924e-14,9.4012566e-14,5.1893955e-14,2.7607961e-14,3.128545e-13,-2.0758083,4.2699073e-14,6.341985e-14,1.4785497e-13,3.8813716e-14,1.6670721e-13,2.3699826e-14,1.9742363e-13,1.5570572e-13,1.5802968e-14,-8.949926e-14,-1.3435981e-13,2.7149127e-13,-1.1786682e-13,-6.331185e-14,-2.5265404e-14,7.452243e-14,2.4488895e-14
-2.862425e-14,-7.323218e-14,2.2641765e-13,4.201427e-14,-1.0530719e-13,-1.1567781e-13,-1.0444122e-13,1.6883234e-13,1.0067075e-13,1.3123037e-13,1.2411137e-13,4.030718e-15,-1.309406,7.612641e-14,7.938348e-14,-6.3989832e-15,2.3351367e-13,4.1295092e-14,-2.1838491e-14,-2.1664459e-13,-1.2951647e-13,-2.5883189e-14,-0.23723309,-1.5360545e-13,-1.6734465e-13,1.38889415e-14,3.7032758e-14,8.2125794e-14,-6.250397e-14,-2.2325891e-15,7.224773e-14,-9.9892655e-14,-3.2813165e-14,6.1846477e-14,-5.1149643e-14,-5.926623e-14,-1.2048129e-13,2.484124e-14,-1.789352e-13,-8.0556885e-14,-3.9619416e-15,-3.2399756e-13,-6.648043e-15,-2.8511536e-15,1.9580332e-14,-1.2494026e-14,-1.3707469e-13,-1.6738345e-13,7.828973e-15,5.5257428e-14,4.9450258e-14,1.2771739e-14,0.087935664,1.9110878e-13,1.6808813e-13,-8.354412e-14,-4.736167e-14,-9.6670806e-14,1.01416264e-13,-2.8078988e-13,2.5009595e-13,-2.1377905e-13,-1.8995242,-3.464236e-13,-1.582534e-13,1.0283431e-13,2.3346207e-13,9.71949e-15,-1.2006829e-13,-1.0440628e-13,1.8196788e-14,-4.7111464e-14,-1.7340696e-13,-6.318012e-15,-1.3271497e-13,1.3880509e-13,9.77557e-14,-7.024736e-14,8.272862e-15,1.2279945e-14
-1.0642401e-13,4.903763e-14,1.563168e-13,-3.0264928e-15,1.5254555e-14,8.182042e-14,2.3472638e-14,-8.784133e-14,8.6758115e-14,4.1512288e-13,1.3600949e-13,-5.1935757e-14,-1.6880125,-2.711817e-14,1.6199517e-13,-6.641207e-14,4.6530637e-14,-5.559592e-14,2.6230349e-14,1.2031781e-15,1.0233016e-13,2.090881e-13,0.22594245,-3.0017147e-14,-5.862387e-14,-8.414317e-14,-4.5040882e-14,-3.8920496e-14,1.9842185e-13,2.504004e-13,5.2752002e-14,-5.3967315e-14,5.5562285e-14,4.6192478e-14,9.023947e-14,-3.169978e-14,8.9511e-14,6.0427764e-14,6.0545854e-14,2.9521416e-14,-7.483232e-14,-1.3806815e-13,3.5412434e-13,-5.205374e-14,5.116114e-14,3.1308743e-15,3.9565768e-13,-1.4962416e-13,-9.3933135e-14,-2.5733349e-14,1.5821619e-13,-5.6182476e-14,0.10685079,1.091855e-13,8.4275455e-14,-1.1758522e-13,-3.3910707e-14,3.2942003e-13,6.808247e-14,-4.923558e-14,2.1062558e-14,2.1194879e-14,-1.919941,-3.0521436e-14,1.9982606e-13,5.9487124e-15,5.287505e-15,-2.9049415e-14,-7.464877e-14,4.2205524e-14,8.77008e-14,6.7449234e-14,2.4661622e-14,5.730125e-14,4.576416e-14,1.0648978e-13,4.0668044e-14,4.9156e-15,6.157314e-14,1.2527464e-13
5.5929314e-15,-1.0283523e-13,3.1150706e-13,2.0177104e-15,-1.6557102e-13,1.8819614e-13,-1.7123599e-13,1.4870958e-13,2.5988331e-13,-6.559835e-14,-1.3158783e-13,4.7507998e-14,-1.1018263,-6.338133e-14,-3.2338542e-13,-1.01169466e-13,-1.9854315e-13,1.2879463e-13,2.4618159e-14,1.5215663e-13,-9.0432626e-14,-1.8156036e-13,0.68485016,-3.6710747e-16,5.6809924e-14,7.77775e-14,-7.342937e-15,5.8727755e-14,-3.8527233e-14,-1.3968427e-13,1.2353606e-13,3.1986547e-13,-4.0613624e-14,-8.7365465e-14,1.9844898e-14,-2.611012e-13,-2.6324608e-13,-2.0558059e-14,-6.496536e-14,-5.3427826e-14,-7.3662674e-14,-6.729113e-14,-6.267995e-14,-2.5369065e-13,-1.01243165e-13,-4.7296673e-14,2.1494215e-13,-1.4447897e-13,-2.6832567e-14,4.1523117e-14,4.5559842e-14,-5.4924645e-14,-0.04387703,-7.487872e-14,1.8280311e-13,2.334419e-13,6.174429e-14,1.9318748e-14,-2.004019e-15,-3.4176932e-14,2.919137e-13,8.014839e-15,-1.3185525,-3.0999912e-14,-3.0387964e-14,2.9977914e-13,-8.3359745e-14,-1.0870242e-13,1.1236426e-13,-3.6131437e-14,1.2556861e-13,-1.9532424e-13,1.8320453e-13,-9.313042e-14,-1.0193725e-13,2.8543597e-14,1.2934438e-13,1.6186691e-14,1.6842343e-13,2.6862058e-13
3.902697e-14,7.035619e-14,4.3781757e-14,-1.8250004e-13,-2.4899223e-13,-2.5221897e-14,2.3612953e-13,-1.5338472e-14,-3.7734566e-14,-3.972018e-14,-1.7785122e-13,-1.733982e-13,-2.090448,-3.889477e-14,-1.5868913e-13,-5.4853762e-14,8.1395834e-15,-1.136455e-13,-1.9831809e-13,1.6231894e-13,1.2755737e-13,-8.712464e-14,1.3886365,2.242159e-13,1.5607722e-13,1.6553732e-13,3.0904065e-15,-1.7672262e-13,-1.4766881e-13,2.1571605e-14,5.566337e-14,2.244934e-13,-2.33344e-13,-9.406403e-14,-1.8688149e-13,-2.0210126e-13,-3.987625e-14,-2.139618e-13,1.570864e-14,5.1532122e-14,-1.7444711e-13,-3.4217692e-13,1.5871053e-13,1.3737132e-13,2.053198e-13,-2.937118e-14,3.4182455e-14,4.2174668e-14,-2.3802615e-14,-1.8060878e-13,-1.0706128e-13,-1.2220857e-13,0.40994704,2.3055047e-13,7.772678e-14,4.2022427e-13,-1.3026678e-13,3.7005263e-14,2.2655531e-14,-3.5545774e-13,1.2692447e-13,-1.0925953e-13,-1.7979357,1.602095e-14,2.5488184e-14,2.8344369e-14,3.2027907e-13,3.5693304e-14,1.6672239e-13,1.3631484e-13,3.659195e-14,8.891168e-14,-2.1789137e-13,-2.020889e-13,1.7020592e-14,-5.854748e-14,-2.3497854e-13,-2.9352757e-13,-1.0939813e-14,1.9469666e-13
-1.8413716e-13,-7.12399e-14,-1.7163312e-13,4.4080733e-14,-1.01425826e-14,4.515652e-14,1.4441036e-13,1.4625494e-14,4.9896637e-14,-2.0723969e-14,-3.841709e-14,-5.812947e-14,-1.187644,1.0798087e-13,-6.1446595e-15,-2.707277e-13,-2.5371488e-13,-1.6894605e-13,-1.5111802e-13,1.0706486e-13,-1.5958236e-13,1.4470948e-13,0.3585107,3.9189443e-14,8.364481e-14,1.6678657e-13,-1.9979173e-13,2.517691e-13,1.6021948e-13,-1.903328e-13,1.8343733e-13,5.8170564e-14,-1.09795894e-13,9.8848155e-14,2.989189e-13,3.2552655e-14,1.2978689e-13,1.2324285e-13,-2.6177836e-13,-3.2818241e-13,5.032786e-14,-5.450052e-14,-3.1865454e-14,-2.9006515e-13,2.3112816e-13,-2.5729942e-14,5.11493e-14,-3.5844672e-13,-4.4973628e-14,-8.852131e-14,-5.3277966e-15,-2.4867871e-14,-0.34829912,-2.1887882e-13,-2.6506358e-14,2.3081564e-13,4.057258e-13,-4.9026338e-14,4.898452e-14,2.8101978e-14,1.5355054e-14,-3.4844496e-14,-1.4641358,3.3854072e-13,-5.1238653e-14,-3.1032746e-14,-7.4510697e-14,1.1187587e-13,1.2136898e-14,-3.2015157e-13,1.3316122e-13,-5.389495e-14,1.8192455e-14,2.2624948e-14,5.7591044e-14,-1.549686e-14,2.196981e-13,-3.9598973e-14,3.7911602e-14,7.5610464e-14
1.046827e-13,-5.2283278e-14,2.3195806e-13,1.6632373e-13,5.982179e-14,2.9423466e-13,-9.158638e-14,9.2346574e-14,-4.611828e-14,-2.369827e-13,-1.660989e-13,7.920094e-14,-2.0910852,4.89083e-14,3.8834956e-14,8.108103e-14,-1.5564996e-13,8.619081e-14,-7.081561e-14,6.287336e-14,-1.1943331e-13,-2.2385881e-14,1.2444134,7.673574e-14,-6.804393e-14,8.3275285e-14,-4.762564e-14,-4.33703e-14,-8.3849885e-14,-1.5956889e-13,2.8509232e-13,-5.54297e-14,1.3726798e-13,1.6590004e-13,1.9534873e-13,-2.3589559e-13,-4.9344877e-14,2.7926012e-14,7.024883e-14,2.9277627e-13,2.0183615e-13,-6.4023236e-14,3.2929605e-13,1.2533204e-14,1.6959761e-14,1.3687551e-14,-3.1948183e-13,2.9373544e-14,-2.1314523e-13,9.0536275e-14,-2.2449965e-15,-1.360504e-13,0.23846929,-2.328893e-13,-6.0708396e-14,9.4346216e-14,-1.523881e-14,-3.9853881e-13,2.2802954e-13,1.420839e-13,7.282715e-14,-2.1311373e-14,-1.9195981,-3.7964187e-13,-3.717465e-14,-4.94818e-15,-8.3161234e-14,3.5539334e-14,6.638082e-14,-1.9127803e-14,-1.3262887e-13,-7.484851e-15,6.294429e-14,-1.1377035e-13,-1.6614608e-13,1.10317984e-13,7.438012e-14,-1.2916128e-13,-2.0461868e-13,1.9238879e-13
2.1970081e-14,1.2747773e-13,1.7223069e-13,3.915372e-14,8.5265576e-14,1.2104757e-13,1.9991797e-14,-2.7589424e-13,5.3704447e-14,1.6966987e-13,-1.4742867e-13,1.8681207e-14,-1.6019005,-1.8301056e-13,-1.8773264e-13,3.7736272e-13,-1.7893652e-14,-2.9470445e-15,-1.5537302e-13,-1.3926955e-13,-3.2705362e-13,1.7058658e-13,0.7488253,6.075847e-14,-5.855559e-15,1.8964498e-13,-1.2663034e-13,2.4496518e-13,-6.9580247e-14,6.652235e-14,-1.1720576e-13,3.064925e-14,-1.3546998e-13,1.8012435e-13,5.97806e-14,1.6354322e-13,6.044495e-14,-5.714078e-14,-3.4937392e-14,4.937765e-15,-5.209264e-14,1.7325022e-13,7.1406206e-14,8.761909e-15,-7.6187144e-14,8.7177444e-14,-2.0300824e-13,-2.9265581e-15,2.7340603e-13,-3.1182793e-14,-1.4473264e-14,-1.4611768e-13,-0.4274526,8.6137416e-14,1.2426476e-13,-4.29321e-15,5.6531108e-14,2.6330733e-13,5.638058e-14,-1.0644876e-13,8.5462995e-14,1.9314127e-14,-1.8603016,-9.54411e-14,-1.1347519e-13,-1.4631692e-13,7.58874e-14,3.9775075e-14,1.06565825e-14,1.7190372e-13,2.4429403e-14,1.1705513e-13,4.021211e-15,-1.8194403e-13,-2.1831744e-13,1.0553254e-13,6.426301e-14,-2.1174596e-13,-6.4341924e-14,1.7667977e-13
-1.7105208e-13,6.1993264e-14,-3.949918e-16,-1.8661658e-13,7.3018645e-14,-3.227675e-14,4.2966905e-14,-1.5029519e-14,-2.5763612e-13,5.8038454e-14,1.153719e-13,-8.4749536e-14,-1.9486786,1.1004875e-13,6.1878515e-14,1.4497196e-14,1.6902846e-13,-7.3801974e-14,-2.8378653e-16,-1.191082e-13,-1.8493078e-13,-4.15473e-13,0.39431277,1.6687383e-13,-3.4698955e-14,6.4176e-14,-8.550942e-14,5.586575e-14,1.3526188e-13,-7.963739e-14,1.4491087e-13,1.7982191e-14,-3.123241e-14,1.8189419e-13,7.487529e-15,-2.1671982e-14,1.3748337e-13,5.2531452e-14,2.7365456e-14,4.941771e-14,3.760369e-15,-9.265082e-15,-1.4827686e-13,2.632783e-14,-4.061031e-14,-7.9173416e-14,2.2470514e-14,-5.865463e-14,2.6415854e-14,-5.367329e-14,3.4525456e-13,1.6238259e-14,0.16886964,9.806107e-15,-7.7646494e-14,1.3140313e-13,-1.7297633e-14,-1.0920436e-13,-1.3712414e-13,-1.9622157e-13,-1.7970385e-13,-2.2852567e-13,-2.1929414,-5.819808e-14,7.1040606e-14,1.4385525e-13,-3.1397834e-14,-4.444227e-14,2.2313843e-13,3.861568e-14,-1.2038252e-15,2.6980154e-13,1.1251471e-14,8.455021e-14,1.2621402e-13,-3.3832427e-14,1.3630556e-14,-4.8979633e-14,2.0216852e-13,-4.2675143e-14
-3.0006428e-13,-1.1591626e-13,-1.6453746e-13,2.5391812e-13,-5.636155e-14,8.188694e-15,3.3214618e-15,2.5087693e-14,2.0441404e-13,-6.2451834e-14,9.3932674e-14,3.6713823e-14,-1.3833194,1.3547875e-13,-3.2122205e-13,8.2087305e-14,7.636635e-14,-1.6406215e-15,4.1987586e-14,2.4513743e-13,-4.0879738e-14,-3.4176732e-14,0.33771813,2.0591946e-13,5.129456e-14,-2.3534295e-14,-6.286937e-14,-4.9324883e-14,6.3951353e-14,-3.0445064e-13,-2.4770428e-13,-5.6611698e-14,4.965641e-15,9.3733296e-14,2.3801805e-13,1.3652699e-13,-6.032522e-14,-4.16183e-14,-2.358036e-14,-2.9517252e-13,-6.4987986e-14,5.120651e-14,8.972837e-15,1.623483e-13,1.3498328e-13,7.186544e-14,2.1196041e-13,-7.5036636e-14,-8.319787e-14,6.522681e-14,1.5637667e-13,4.5030352e-14,0.590444,-3.458859e-14,-1.4440367e-13,-2.1128238e-13,5.6402772e-14,2.338651e-13,-4.8117523e-14,-2.7119672e-13,2.2383893e-14,-3.2621638e-13,-2.0293655,1.2746897e-13,-2.2816403e-13,6.315248e-14,1.13645455e-13,-2.1107658e-14,-2.7431112e-13,-4.5172694e-14,9.4253625e-14,3.4746544e-13,-1.0262419e-13,-1.7454435e-13,-1.1744102e-14,-3.825885e-15,1.4788328e-14,1.6264617e-14,1.312768e-13,1.409155e-13
-2.1231248e-13,1.275308e-13,-1.7327872e-13,3.993442e-14,-3.1341144e-14,3.266551e-13,-1.4420159e-13,-1.5517664e-14,9.0029885e-14,4.8206874e-14,-7.023591e-14,8.839787e-14,-1.3716292,4.1460416e-14,-2.013797e-13,-1.17016e-13,-8.6016026e-14,-5.1662708e-15,4.2463574e-14,1.4970618e-13,-1.5467689e-14,9.774764e-14,0.37734756,9.0102865e-14,5.486029e-14,2.3386382e-13,1.004189e-13,9.589473e-14,8.2999884e-14,-2.5432456e-13,-1.2268069e-13,2.6093713e-13,4.8225712e-14,-1.8866893e-14,1.8319374e-14,-1.186276e-13,-1.2202111e-13,8.7575746e-14,2.1918048e-13,-3.1595625e-13,1.2748667e-13,1.2597798e-13,9.853773e-14,-1.5195203e-13,3.1244855e-13,-8.368546e-14,4.7724784e-15,-8.700237e-14,5.345007e-14,8.8372506e-14,3.8772557e-14,-2.2085083e-14,0.4646655,5.793051e-14,-2.33795e-13,5.956142e-14,2.7880543e-13,7.7100856e-14,1.1671108e-13,-4.357349e-14,-4.840535e-14,-3.166016e-14,-2.0221577,3.109534e-14,-7.801233e-14,-2.6405923e-13,1.9433858e-13,1.02046166e-13,-1.8825947e-13,-7.489619e-14,-5.510761e-14,-6.886397e-14,9.240683e-14,4.0339775e-15,3.514358e-14,1.3824608e-13,-6.0772656e-14,-5.5691298e-14,-3.345738e-14,-3.7771937e-14
6.5524944e-15,-1.5208588e-14,-1.605916e-14,-1.8087249e-13,-1.10170384e-13,1.4204996e-13,1.4839978e-13,2.5162904e-13,3.0770135e-13,1.8783068e-13,2.2070922e-13,1.8126574e-13,-1.4644661,-2.6859645e-14,7.11072e-14,-6.5119825e-14,-1.339496e-13,-7.9393096e-14,-1.9689115e-14,-5.9567084e-14,-2.1292863e-13,-2.4473736e-13,0.62668294,-1.4749595e-13,-1.4446648e-14,2.1450574e-13,5.6682655e-14,2.9066224e-13,-2.3487366e-14,-1.6354194e-13,1.0352407e-13,-1.7632261e-14,-6.6234927e-15,-1.710562e-13,1.7565673e-13,3.8155704e-14,1.3638456e-13,2.5768878e-13,-3.2220083e-14,2.7655084e-14,-2.607066e-13,5.338745e-14,-4.2082603e-14,7.341965e-14,-7.748453e-14,3.0217894e-14,-3.4271732e-14,1.9789057e-13,-2.183388e-13,-2.417968e-14,-6.3703864e-14,2.1844092e-14,-1.2010081,2.5203114e-13,4.3775327e-14,3.0998609e-13,1.6996578e-13,-8.855352e-14,-1.4154024e-13,5.891276e-14,-3.1869692e-13,-1.782059e-13,-1.9684087,1.7937496e-13,2.2371447e-13,-2.0735875e-14,-2.5539133e-13,8.124317e-14,-4.6532924e-14,-2.3767282e-14,-5.453368e-13,-5.906709e-14,1.2133221e-13,-8.8149526e-14,-2.0498047e-13,8.610664e-15,-4.5759803e-15,1.2544078e-13,9.3625845e-14,-9.91263e-14
9.170222e-14,9.6877476e-14,1.2844959e-13,-1.7105798e-13,-1.7685675e-14,1.6256487e-13,3.9393002e-14,-2.9975604e-13,-7.330806e-14,8.0837355e-14,-6.535682e-14,5.2760388e-14,-2.0866637,1.2279274e-14,-2.85341e-14,-1.42888e-14,8.339674e-14,-8.457955e-14,2.9649768e-14,5.162553e-14,-3.8691094e-13,7.391135e-14,0.892336,4.0087542e-14,-3.624471e-14,2.3801897e-13,2.5267384e-14,-1.2141441e-13,2.9012566e-14,4.345483e-14,-4.4675304e-13,-1.7678862e-13,1.7489563e-13,1.5459737e-14,1.1474472e-13,2.0604007e-13,3.5290453e-13,-9.177027e-14,4.9872595e-14,1.7377369e-13,9.175613e-14,-1.6957705e-14,-9.1291544e-14,-1.3374053e-13,1.0596472e-13,-4.8940222e-14,-2.1688386e-13,1.3264753e-13,2.4558998e-13,-3.253841e-14,-1.5793546e-13,-1.9259429e-13,-0.30707413,3.682483e-14,-8.437983e-14,2.1989383e-13,-2.3132294e-13,-1.4201232e-13,-4.6167978e-14,1.4395474e-14,-4.123492e-15,2.2470591e-14,-2.1124396,-1.209877e-13,3.3448523e-13,-1.6091342e-13,-4.502013e-14,7.304788e-14,7.3082436e-14,1.4081307e-13,1.1007332e-13,1.2864988e-13,-1.7608935e-13,-1.3898568e-13,-7.84467e-15,9.1623025e-14,-1.8935455e-15,-3.5930982e-14,1.09652264e-13,-6.687766e-14
9.7121794e-14,-2.3999054e-13,3.2521678e-14,2.311933e-13,-3.819863e-14,1.2438028e-14,-2.552965e-13,-1.0522483e-13,-6.0000914e-14,-1.123948e-14,-1.1426385e-13,1.331403e-14,-1.4149302,5.88434e-14,3.4698095e-14,8.2993596e-14,1.03730026e-13,-5.4770113e-14,1.0085982e-13,-1.2230332e-13,1.944556e-13,-9.973999e-14,0.43040523,1.2762018e-14,7.346791e-14,-3.9951627e-14,-3.814655e-14,3.3254123e-13,-1.08959025e-13,-1.3484428e-13,6.422201e-14,1.7808438e-13,1.6164267e-13,4.578623e-15,-8.613603e-14,3.5617132e-14,-3.2972004e-14,2.2056779e-13,3.1405396e-13,-7.435655e-14,1.0674727e-13,-1.2590505e-13,1.3038832e-14,2.845591e-14,1.5200692e-13,8.9052555e-15,9.7976084e-14,1.0980457e-13,-1.06820965e-13,2.2962426e-14,1.2430482e-13,1.3604303e-13,-1.0941612,-1.2905132e-14,7.396563e-16,1.05682796e-13,-7.703441e-14,2.7911966e-13,-1.1632145e-13,-2.936255e-14,6.949726e-14,2.2741932e-13,-1.630684,-1.7166908e-13,-2.737828e-13,1.9799365e-13,1.968433e-13,-9.0683645e-14,3.1207848e-14,-8.5298806e-14,6.12401e-14,-1.8024075e-14,8.830978e-14,7.873694e-14,4.5083634e-14,-1.653559e-13,-1.8430597e-14,9.503137e-15,3.68493e-13,3.6053788e-16
-9.487727e-14,1.3079808e-13,1.7590718e-13,-1.0630003e-13,-3.0515827e-13,5.4149658e-14,-2.577119e-13,-2.0211332e-13,-1.4179828e-13,6.1276315e-14,-1.0956486e-14,3.886661e-14,-1.8333662,7.761392e-14,-4.8815322e-14,1.3144467e-14,1.3180395e-14,-2.3817516e-14,-2.4435066e-13,-3.0499098e-13,1.2800457e-13,4.866785e-14,0.72340435,4.2280043e-14,-9.9204506e-14,1.3632831e-13,1.548383e-13,4.230248e-14,3.0161884e-13,-2.2059377e-14,1.3388268e-13,2.5788058e-13,5.093367e-14,5.1261472e-14,4.0253343e-14,-1.5323912e-13,1.0000295e-14,-9.2029926e-14,3.0484726e-14,1.7331033e-13,7.186008e-14,1.08313694e-13,-1.10464514e-13,1.1672998e-13,-1.0056526e-13,-2.649777e-14,-3.18995e-13,-3.9878806e-14,6.0768007e-15,1.0495146e-13,-1.1845146e-14,-3.9742718e-14,0.14519991,-6.7044725e-14,-1.1296045e-13,-1.2279229e-13,-4.5354047e-14,-6.76057e-14,1.4065405e-13,-3.104178e-13,6.544526e-14,-5.373875e-15,-1.9054675,2.3898347e-14,-1.7655971e-14,6.169804e-14,-4.7035763e-14,1.0604407e-13,-2.0014787e-15,4.7329724e-13,-3.3353352e-14,-1.2434067e-13,-2.391054e-14,-3.351567e-15,-1.610153e-13,-2.1784932e-14,6.468494e-14,2.009114e-14,-2.2227039e-13,1.3575542e-13
2.8846486e-15,2.1320826e-13,3.2631273e-14,-8.980326e-15,-2.6900484e-13,8.6361324e-14,-6.300301e-14,-1.21062015e-14,2.960689e-14,-1.5333453e-13,3.340939e-14,-3.0729716e-13,-1.0869796,2.1862445e-13,2.9793808e-14,-3.1291994e-13,1.2105547e-13,1.3662492e-13,2.7328647e-13,3.6408905e-13,-1.9379095e-13,-1.7908506e-13,0.52325475,-8.135394e-14,4.539384e-14,1.7334773e-14,9.4991276e-14,-1.9219565e-13,2.5130333e-14,-9.415529e-14,-2.4420892e-13,-1.1238054e-14,1.03515503e-13,-1.1106103e-13,1.556649e-13,4.046485e-14,2.9037027e-13,-5.294901e-15,-3.0404464e-14,-9.579595e-14,1.3938983e-13,4.4071203e-13,3.6123516e-15,1.300596e-13,-5.286025e-14,4.47337e-14,4.234756e-14,-2.9609555e-14,-2.8231452e-14,-5.938167e-14,-1.6713496e-13,-5.7717164e-14,0.41310742,6.119494e-14,8.753056e-14,2.3028708e-14,8.80153e-14,1.6495881e-13,-3.1760683e-13,2.7352312e-14,7.276712e-14,-1.694891e-13,-1.3653795,-8.454522e-14,-9.425297e-14,1.0381733e-13,-4.0512597e-14,1.7406295e-13,1.0243407e-15,-8.564002e-14,4.965595e-16,-8.45821e-14,-1.0943896e-14,2.5503574e-13,2.8200036e-14,1.756e-13,2.5314213e-13,-3.161696e-14,-2.9204533e-13,1.6404499e-13
6.660418e-14,1.6374463e-13,-3.9221908e-14,3.865968e-13,-2.6681874e-13,-3.4812346e-14,-2.4981699e-13,-1.2436706e-13,-2.3564809e-14,-3.8113094e-16,-2.4577877e-13,-6.4668926e-14,-1.996663,-6.909824e-14,-4.628703e-14,-1.2060954e-13,1.8708037e-14,-1.1522868e-13,-7.226652e-14,-4.874688e-14,2.4963725e-13,-1.1676867e-13,1.3236445,-5.0432403e-14,-6.100745e-14,2.0205774e-13,9.662761e-14,-6.7137237e-15,-3.5741744e-14,2.4195666e-14,-1.8592038e-13,-3.1172287e-13,-3.1270667e-14,2.1545989e-13,-4.0702074e-14,-1.8906358e-13,1.4730492e-13,2.7362444e-14,3.191818e-14,-5.8650404e-14,-7.247484e-14,-1.0839081e-13,2.0385339e-13,2.4632572e-13,-2.2436966e-13,9.7425506e-14,3.7986853e-14,-8.7150136e-14,1.04653834e-13,1.1603927e-13,1.1669771e-13,-4.6255697e-14,1.2959648,5.2526343e-15,1.1798345e-13,1.7159052e-13,-1.5186513e-14,3.649113e-15,-1.3963127e-13,-2.0446471e-13,7.338183e-14,1.4804003e-13,-2.1889293,-1.0521886e-13,-1.8597937e-13,2.0768724e-14,1.03016215e-13,1.2565128e-13,-1.6942258e-13,2.5751797e-13,3.8422953e-14,-1.4654551e-15,-1.4164578e-13,-2.9159336e-13,1.02322366e-13,3.287879e-14,4.021451e-14,1.2939969e-13,-1.8320318e-13,-2.4061674e-13
7.452802e-14,2.2854128e-14,2.6180713e-14,8.134503e-14,-1.3994382e-13,7.614225e-14,3.9287936e-14,2.0749803e-13,-2.0944924e-13,-1.11950515e-13,5.898031e-14,4.5958978e-14,-1.1018008,1.1804731e-13,-2.3213599e-15,-6.704374e-15,-7.6117674e-14,-8.508476e-14,5.954295e-14,-7.111518e-14,-4.8683903e-14,-6.2061264e-14,1.2685413,3.1962497e-14,1.5098101e-13,4.2132205e-14,-2.4658949e-14,2.577931e-14,9.186078e-14,3.5920262e-14,-1.2576996e-13,-9.146336e-14,8.923358e-14,1.7083875e-13,1.4768503e-13,-7.031631e-14,1.1064589e-13,2.5042112e-14,2.7911159e-13,1.2941513e-13,7.936686e-14,-7.2414514e-14,-1.4258828e-13,2.432105e-13,2.3544803e-13,-5.184703e-14,7.3925193e-14,1.213232e-13,1.1224477e-13,-1.2382253e-13,2.5170638e-14,8.272593e-14,1.2511473,4.8312306e-14,-2.9980562e-16,-5.446384e-14,-6.491817e-14,8.0869264e-14,1.0312041e-13,-1.3090616e-13,2.701798e-13,-5.4377035e-14,-1.019282,4.5450412e-14,-1.9191127e-13,1.5667819e-14,1.1075834e-13,-2.0102634e-13,1.9324673e-13,-2.558467e-14,-1.9650354e-13,8.899695e-14,2.4677173e-13,-6.045467e-14,-6.250179e-14,2.9449351e-13,5.1619828e-14,-5.2015568e-14,1.02759496e-13,-3.4078914e-13
-8.423561e-14,7.001017e-14,-2.2051667e-13,1.2769729e-13,6.128618e-14,-1.3896803e-13,5.429915e-15,1.3662042e-14,1.978337e-14,-1.2543338e-13,-5.074321e-14,3.1299833e-15,-1.811474,-1.8602779e-13,1.1641772e-15,-8.8407255e-14,-1.9362401e-13,2.3214408e-13,1.8633595e-13,4.407088e-14,-5.882261e-14,7.538967e-14,1.2394953,-1.6781247e-13,3.8308166e-15,5.059416e-15,-9.895887e-14,2.924106e-14,3.411496e-14,9.022831e-14,1.3318521e-13,-5.947608e-15,1.8221595e-13,-6.269403e-14,1.4590136e-13,4.7702334e-14,2.3329445e-13,-1.828481e-13,4.6007984e-14,2.609297e-13,-7.9492524e-14,-4.287498e-15,2.477363e-13,-6.040937e-14,-8.7649316e-14,-1.9014067e-13,3.4239443e-14,-5.54431e-14,6.944115e-14,-3.3683844e-14,1.2747507e-16,3.0402387e-13,1.2801292,-2.0208166e-14,4.0615054e-14,-1.6871151e-13,2.7077881e-13,6.5503294e-15,-1.288679e-13,1.7048589e-13,-1.2698433e-14,7.575185e-17,-1.9743592,-2.2122229e-14,-2.9112948e-13,2.9267197e-14,4.9942486e-14,1.0031072e-15,-8.562856e-14,5.5334504e-14,-5.0726556e-13,-9.2769366e-14,-1.2252185e-13,-4.063237e-14,1.989071e-13,7.883348e-14,-2.7730465e-13,-2.2745074e-14,4.589173e-14,-1.05782015e-13
-2.5393472e-14,1.33459e-13,-1.9999136e-14,3.7274844e-14,-1.7816632e-13,1.7988372e-13,3.3720903e-14,-4.9795454e-14,3.7215084e-14,1.290289e-13,7.323633e-14,-4.2025682e-14,-1.1790656,-1.4963993e-13,-1.2973547e-13,1.3039751e-13,1.6458316e-13,-1.8769388e-13,3.9118475e-14,-1.8208994e-13,-5.583354e-14,1.83143e-13,0.60715723,-9.322135e-14,6.235104e-14,-2.057214e-13,1.05486915e-13,6.95207e-14,9.066539e-14,2.2063321e-14,5.755608e-14,-1.3918749e-13,2.455493e-14,1.8788658e-14,1.4143672e-13,-7.8223886e-14,6.627551e-14,-3.845726e-14,-1.4648918e-13,-1.6404994e-13,-1.1208883e-13,7.8799855e-14,-1.6467838e-14,-9.340546e-14,-1.0710165e-13,4.1924344e-13,1.05745e-13,3.5488868e-15,1.576575e-14,-1.4373946e-14,-2.8044295e-14,-1.4195027e-13,0.9240214,-2.492304e-13,-5.47329e-14,-6.960036e-15,2.2034005e-13,3.6423352e-14,-3.7225207e-14,6.315686e-14,-8.4564815e-14,2.5662401e-14,-1.7039626,3.4123203e-14,4.9205147e-14,1.2135307e-13,1.7319512e-13,2.8487e-14,-6.345899e-14,2.5197719e-14,2.940247e-13,7.394364e-14,3.6630197e-14,1.3475789e-13,1.4102563e-13,-1.9285498e-13,-1.2433486e-13,-2.4713177e-13,4.013411e-14,3.9567587e-13
-3.180486e-14,-2.9805775e-14,-5.5059635e-14,6.9489905e-14,-1.2056103e-13,3.664709e-14,-8.3253486e-14,-2.3001796e-14,1.4728159e-13,4.004842e-14,-1.3610888e-13,2.3794305e-13,-1.7920065,-1.327321e-13,2.6835163e-14,-4.871632e-15,-9.965311e-14,9.272639e-14,-1.8045294e-13,-1.8246533e-13,-4.3830445e-14,-2.1542439e-13,0.75586224,9.4835476e-14,-2.1043196e-13,-2.2142188e-13,5.4950412e-14,-7.201618e-14,-1.7404372e-14,-1.8793395e-13,-1.0228286e-13,-9.224424e-15,1.4508026e-13,6.7183286e-14,1.11444166e-13,2.2595578e-13,8.663653e-15,-3.606917e-15,-1.7409441e-13,-3.3727304e-13,-4.0434775e-14,3.8122096e-13,-1.474213e-13,-4.7730303e-14,-6.621455e-14,3.0995836e-14,-4.9273763e-14,-1.2179006e-13,-1.06835554e-13,9.408618e-14,1.964187e-14,3.309335e-14,1.5819819,-1.2447872e-13,-1.4091873e-13,-2.2557967e-13,-1.654631e-14,1.7618573e-13,1.5257999e-13,2.0855821e-14,-2.8123424e-13,3.0154433e-13,-2.1407154,2.774248e-13,-5.3682322e-14,9.460353e-14,-2.379938e-13,5.4916805e-14,-1.7478327e-13,-1.8101181e-13,-5.6454028e-14,-1.8956156e-13,2.3712221e-14,-8.393827e-15,-7.0116025e-14,-1.4057993e-13,6.0296555e-14,1.2418662e-14,5.08708e-14,2.457272e-13
-7.918073e-14,-1.351687e-13,1.7258345e-13,-6.8911775e-14,-3.9614044e-14,-9.9738536e-14,1.0486476e-13,2.1742092e-13,-2.8239856e-13,7.5545676e-14,-7.165222e-14,-1.6005554e-13,-1.5243783,1.9314048e-13,-1.29946204e-14,-5.5893827e-14,2.637196e-13,2.2258544e-14,6.7222703e-15,-5.485599e-14,-7.432092e-14,5.941848e-15,0.89529884,1.11904416e-13,-2.0274644e-13,-2.4199834e-13,-1.0965882e-13,-3.494102e-14,-1.1971835e-13,1.5431012e-13,4.1186943e-15,-1.3859557e-13,-1.8214773e-14,-1.6392207e-13,-1.3010572e-13,2.3241148e-14,-1.5629796e-13,1.1410591e-13,-1.163859e-13,2.292241e-13,-1.2364357e-13,3.0328408e-14,-4.142693e-14,1.7101964e-13,2.3109688e-13,-1.6875105e-13,1.3296611e-13,-1.7892903e-13,-2.2606084e-13,1.3215975e-13,2.936964e-14,-2.4465977e-14,-0.2848453,1.6475716e-13,-6.082148e-14,-2.2184403e-13,-1.2749036e-13,1.1960363e-13,1.1436853e-13,-1.2816126e-13,9.329549e-14,2.0415875e-13,-1.87113,8.525432e-14,-1.1131832e-14,-7.3930675e-14,1.5657516e-14,4.029728e-14,-5.878837e-14,-1.5060045e-13,3.8105488e-14,6.991948e-14,-1.2026353e-13,8.27228e-14,4.5629062e-14,1.3862574e-13,6.7353925e-14,2.190767e-14,2.1530897e-13,8.200615e-14
-2.666079e-13,-5.4122593e-14,-2.3783585e-13,1.08364936e-13,1.2139782e-13,-4.5746718e-14,-9.3680556e-14,-3.538023e-14,-4.4622102e-14,5.949335e-14,-9.721953e-14,-6.758858e-14,-1.1550114,4.208555e-14,2.504074e-13,-1.7696283e-13,4.8753302e-14,4.4574143e-14,-1.1318298e-13,6.0496896e-14,1.1425851e-13,-1.7508946e-13,0.49816528,8.390039e-14,-2.3937224e-13,-1.7655473e-13,1.3197844e-13,-7.5362744e-14,-5.776316e-14,3.237996e-14,7.26581e-14,6.2746845e-15,1.0556488e-13,-8.330113e-14,7.935175e-14,-1.6484484e-13,3.277786e-13,-8.858196e-14,-1.8916986e-13,-3.7499146e-13,-1.2247088e-13,-6.0099664e-14,-7.598455e-15,-8.887173e-14,8.320162e-14,-1.8724773e-13,3.1162554e-13,-2.3759437e-14,1.6994965e-13,-1.1794843e-13,-1.151517e-13,9.83874e-14,0.033297222,1.6862062e-13,2.1554397e-13,1.7746777e-14,-5.7679176e-14,-7.201066e-14,9.047708e-15,2.1786068e-13,7.185447e-14,1.7158299e-13,-1.2688473,-9.291004e-14,1.0960638e-13,2.723312e-13,3.6869792e-14,-2.4795254e-13,-1.8725913e-14,1.1161402e-13,-2.8273076e-13,1.0858059e-13,5.919932e-14,6.429395e-14,5.6632955e-14,-2.5014132e-13,-4.7450576e-14,-2.2007234e-14,5.1990056e-14,2.839663e-13
1.1956596e-13,-5.5594865e-14,-1.8129869e-13,-2.592756e-13,1.1892981e-13,-6.0132427e-15,1.3567522e-13,-1.7137947e-13,3.6780854e-14,-2.4070701e-14,-1.234774e-13,-3.8714556e-15,-1.378492,1.558874e-13,-7.777887e-14,1.0882976e-13,2.002205e-13,1.4377464e-13,2.800104e-13,-4.0609744e-14,-1.2713357e-13,-1.15816644e-14,0.87349224,2.6555308e-14,1.5533634e-13,7.536363e-14,1.024393e-13,1.66913e-14,-6.8847556e-14,-2.816533e-13,-5.88244e-14,-1.3850527e-14,-1.7786044e-13,-3.7659593e-14,-3.523849e-13,-6.4528705e-14,6.151439e-14,-1.3117105e-14,2.0283121e-13,7.0323115e-14,-3.438358e-14,-1.2532854e-13,1.3812862e-13,1.2371636e-13,1.1319299e-13,4.876034e-14,-6.3334544e-14,-1.2225584e-13,-4.709142e-14,5.368162e-14,1.4247077e-13,8.18035e-14,-0.23470825,7.3353135e-14,3.8287116e-14,-3.3094634e-13,3.0248414e-14,9.745731e-15,-1.9620998e-13,8.327192e-14,-2.2428774e-13,5.3595224e-14,-1.9036478,-4.9489824e-14,2.6007451e-13,-4.6118233e-16,-2.0973097e-13,9.944867e-14,-1.22091075e-14,3.880651e-14,1.5897487e-13,1.7564067e-13,4.0320625e-14,6.493772e-14,9.355305e-14,1.5507162e-13,-7.715252e-14,3.8394803e-13,2.294985e-14,2.9247205e-13
-1.1777066e-13,-1.983882e-14,1.4486622e-14,6.7154846e-14,1.8480948e-14,6.826076e-15,-6.582899e-14,9.054884e-15,1.220125e-13,-3.5925153e-13,-8.369813e-14,2.7208955e-14,-1.9418267,-2.6042265e-15,-4.0808736e-13,-3.9032755e-14,5.955344e-14,-1.1199297e-14,7.308409e-14,-5.7454163e-14,6.9372574e-14,-8.021988e-14,1.2887963,-6.6324916e-14,-5.4692104e-15,1.3406764e-13,-2.546674e-14,3.728285e-14,1.8884106e-13,2.336174e-13,4.3829103e-13,1.4547093e-14,3.2143867e-14,-1.2759323e-13,-1.4988217e-13,-2.244414e-13,-1.4116921e-13,2.1145947e-14,7.357282e-14,-8.4192324e-14,-1.1653382e-13,3.4007428e-14,-2.5645843e-13,2.0263077e-13,-6.468223e-14,1.00271665e-13,8.595216e-14,-2.0582931e-14,1.2530378e-13,1.0580887e-13,1.311995e-13,1.4811472e-13,0.98033094,-1.4810204e-13,-8.122299e-14,2.145723e-13,-1.141369e-13,-1.0684575e-13,3.983872e-14,9.181096e-14,-1.2752827e-14,3.1634298e-13,-2.1714694,-3.289352e-14,-1.528888e-13,1.7251437e-13,7.2929374e-14,9.273989e-14,-1.2251874e-15,6.012024e-14,-1.6507019e-13,-2.9600706e-13,-2.0740579e-13,-7.426236e-14,5.3388714e-14,7.4342794e-14,-1.402201e-13,-8.358291e-14,-2.5750458e-13,-7.204099e-14
-1.4447035e-13,-7.262792e-14,-5.938461e-14,1.0116148e-15,-5.763616e-14,-5.12986e-14,-1.141163e-13,4.3050096e-13,6.576209e-14,2.8156045e-13,5.68158e-14,1.8277141e-13,-1.2896267,6.736894e-14,-6.104043e-14,-4.3357347e-14,5.4195824e-14,-1.8138326e-14,-9.3655525e-14,1.807304e-13,-4.094061e-14,-2.9639594e-13,0.38205844,-2.3814016e-14,-1.0264651e-13,1.1010948e-13,-5.3711538e-14,7.080983e-14,9.552283e-14,-1.3170175e-13,-1.4577578e-13,-7.855601e-14,-2.6337127e-14,-6.422789e-14,2.5668947e-13,6.1115385e-14,3.592071e-14,1.250476e-13,4.0493978e-13,6.028505e-14,-3.1347722e-13,-9.718723e-14,-2.521972e-13,7.544861e-14,-1.6085385e-13,2.0120204e-13,1.7549712e-13,6.066538e-15,-1.4783823e-13,8.945828e-14,8.169202e-14,-4.337931e-14,-0.10041305,-5.0329454e-14,-1.2260704e-13,1.734254e-13,-9.261004e-14,-1.6079404e-13,1.3738717e-13,-1.4704172e-13,-2.8596944e-14,7.441977e-15,-1.8721869,-1.5632494e-14,1.7645428e-14,1.1125351e-14,-2.9672974e-14,-7.013426e-14,1.9148131e-13,1.1674559e-13,-2.762186e-14,-1.7013758e-14,-8.55423e-14,-2.7852338e-13,7.8701965e-15,1.029267e-13,2.5508817e-14,-8.609672e-14,-6.140063e-14,3.9158753e-14
-4.9427036e-14,-7.38598e-14,-2.6196034e-14,1.8238178e-14,1.2310458e-13,2.4967604e-13,-4.6079677e-15,1.7296266e-13,1.164348e-13,1.057416e-13,-1.7920439e-14,1.119028e-13,-2.0429013,-3.458e-14,6.7846336e-14,8.436174e-14,-2.007652e-14,1.3253427e-13,-7.530122e-14,-1.7971373e-13,1.01047324e-13,-2.087142e-14,1.0936879,-1.09899245e-13,2.4998116e-13,-3.3955437e-14,-9.607715e-14,6.857545e-14,-8.616675e-14,-1.7770767e-13,1.4039392e-13,1.8550976e-13,-5.4346308e-14,-3.5759925e-14,-2.2206605e-13,8.350244e-14,-9.7392844e-14,-1.6664784e-14,2.4795858e-13,2.5340922e-13,8.385766e-14,-1.6837927e-13,-1.2624577e-13,1.1258857e-14,1.2378104e-13,5.312531e-14,7.5060184e-14,1.9679556e-13,-1.9111156e-13,-8.27768e-15,-1.9577777e-13,6.506685e-14,0.5493097,-2.3503131e-14,1.5763554e-13,6.8323636e-14,8.73773e-14,5.4037314e-14,7.6786376e-14,6.174838e-14,5.1217934e-14,1.271429e-13,-1.9448352,-7.122995e-14,-1.9250873e-13,-3.394001e-14,-7.215976e-14,6.6394806e-14,-1.6507959e-13,-2.5563995e-14,1.0959854e-13,7.6693534e-14,9.091367e-14,-1.7068266e-14,1.4160583e-13,9.7115065e-14,-9.951267e-14,-3.1594688e-14,1.3588017e-13,-1.7405307e-13
-2.0742861e-13,1.4079653e-13,-3.6190604e-14,-1.326146e-13,-2.548603e-13,-2.499222e-13,-5.8614206e-14,-9.091358e-14,-1.5261853e-13,3.834899e-14,-6.636602e-14,8.181111e-14,-1.4863794,3.6696598e-14,1.4418505e-14,-3.213443e-15,5.0279408e-14,2.3226216e-14,-9.012016e-14,-1.8027412e-13,7.3197145e-14,-1.8354141e-13,0.86303216,-1.08309995e-13,1.8691526e-13,6.5847325e-15,1.0447604e-13,3.078577e-14,2.7239841e-14,-2.6791265e-13,-1.2233275e-13,-4.900193e-14,1.25768875e-14,-1.043694e-13,-4.183583e-14,1.2336269e-14,1.7325039e-14,3.4135021e-15,-1.5215979e-13,-7.816454e-14,-1.6673247e-14,8.3936755e-15,2.4897117e-14,-1.5318343e-13,3.7495194e-14,-7.473667e-14,2.7441713e-14,1.0020892e-13,4.2001653e-15,-7.111849e-14,1.9061876e-13,-2.1926518e-14,-0.12353611,1.3613202e-14,3.2717034e-13,-1.0010573e-13,-7.243949e-14,-6.650026e-14,1.598425e-13,2.453108e-14,7.666643e-14,1.2792327e-13,-1.6823587,1.5839925e-13,-7.236318e-15,-5.194902e-14,-1.0081957e-13,2.8875695e-14,1.4934837e-13,2.735475e-14,-1.1568744e-14,-1.5357737e-13,2.7142066e-14,4.563784e-14,-9.2445765e-14,-7.935758e-14,-4.084514e-14,4.0501272e-13,-5.1381703e-14,-1.1927502e-13
1.6466369e-13,-4.2319335e-14,1.546198e-13,-2.7943782e-13,2.6589435e-14,-2.9912592e-14,1.9915883e-13,1.1689933e-13,1.9837737e-13,-6.06594e-14,-1.5894077e-14,1.611752e-13,-2.1087542,2.1642613e-14,-1.5446039e-13,3.5849253e-13,-1.4774172e-13,1.1881358e-14,-1.7435047e-13,2.7140868e-13,4.0441913e-14,2.0750745e-13,0.98779005,-6.0453324e-14,1.12035516e-13,-7.039679e-14,5.1955554e-14,3.1123227e-13,-1.356402e-13,-2.2876881e-14,-4.029997e-14,1.1885143e-13,1.1672026e-14,1.483603e-14,5.0404532e-14,-1.8418726e-13,-1.1506207e-13,1.4786458e-14,1.8403486e-13,1.1277438e-13,9.183916e-14,2.1313742e-13,-6.7010227e-14,-2.1257591e-14,-9.7125365e-14,1.6412754e-14,9.095637e-14,-1.100171e-13,9.218567e-14,6.5537385e-14,-5.691059e-14,-5.5553388e-14,-0.05149101,3.8850748e-13,7.836044e-15,3.750608e-14,-5.0188982e-14,-5.8701064e-14,-1.7777727e-13,3.354876e-14,-3.7109753e-14,5.7946445e-14,-2.191552,-2.5221687e-13,1.947943e-13,-3.210264e-13,-1.9601237e-13,-4.8116106e-14,3.6242e-14,-5.6237313e-14,6.617915e-14,7.863187e-14,9.770052e-14,-1.7545495e-13,-9.856433e-14,-9.861152e-14,-9.9107124e-14,3.3744437e-16,-9.5065476e-14,1.2835604e-13
1.5913636e-13,-3.2707405e-14,-3.5484033e-14,1.9682178e-13,1.6831062e-13,2.3886895e-14,-3.1011454e-13,2.818969e-13,1.5769646e-13,1.327213e-13,6.383269e-14,3.8100488e-13,-0.79156786,-1.11349786e-13,-9.132644e-14,-8.0331954e-14,5.2103978e-14,1.472226e-13,-1.9882101e-13,-9.574179e-14,6.118763e-14,-6.901669e-14,0.17866221,-1.9047382e-13,-9.1178584e-14,1.1169908e-14,-7.2612475e-14,-2.1586956e-13,-6.333416e-14,6.3690264e-14,1.4112087e-13,-2.1937096e-13,9.902086e-16,-4.9760516e-14,-1.2992629e-13,8.6765176e-14,-1.4058896e-13,-1.3538483e-13,-1.1610694e-13,5.3248076e-14,1.9373176e-13,1.04740984e-13,3.454086e-13,2.6113392e-14,-1.0216129e-13,-1.0464884e-14,1.7588562e-13,-2.4678504e-13,-3.3478588e-14,-1.5212826e-13,1.8922028e-14,-8.515954e-15,-0.06690645,-2.7534425e-14,2.912484e-14,4.946442e-14,-9.430669e-14,-8.2948866e-14,-7.8195195e-14,-3.4913527e-13,1.1844212e-13,-5.417496e-14,-1.357452,-1.04885745e-13,-1.961451e-13,2.0584909e-13,3.6610903e-13,-4.2905452e-13,-1.0328803e-13,-1.0129522e-13,2.3271116e-14,5.3674974e-14,-8.3444583e-14,-1.1441436e-13,1.7339251e-13,-2.482723e-13,7.7837e-14,6.573293e-14,8.29757e-14,1.5442109e-13
-3.1058573e-13,-1.03199066e-13,2.358425e-13,2.1567103e-13,-4.4289943e-14,1.1836396e-13,2.2320135e-14,-5.0182033e-14,-2.1336516e-14,-1.6666474e-13,2.0888922e-13,-9.2455374e-14,-1.8059326,1.4577505e-14,5.689664e-14,-1.600579e-13,-8.539584e-14,2.3521671e-14,2.1363452e-13,-1.2264422e-13,4.71413e-14,-1.2965176e-13,0.76226145,-1.5934712e-13,2.6715978e-13,-7.900774e-15,1.2966935e-13,3.2258744e-13,9.54804e-14,3.79665e-14,3.8506402e-13,5.7520354e-14,1.9950426e-13,9.0911694e-14,2.8933496e-13,9.806582e-14,1.9101978e-13,7.3871946e-15,6.217745e-14,-9.501724e-14,-2.159521e-14,-2.6628168e-14,2.1159492e-13,-2.38767e-13,1.2039108e-13,-6.6048566e-14,-1.5763687e-13,-1.1386218e-13,4.1516717e-14,1.3364726e-13,-7.287326e-14,-3.7165434e-14,0.021313801,2.375131e-13,3.3324155e-13,-3.248076e-14,-2.8674735e-14,1.6100934e-13,-2.7565373e-14,-5.8846374e-14,-7.0014984e-14,-1.1814479e-13,-2.1607482,-3.5788863e-14,4.3502054e-14,-1.06812434e-13,1.9854355e-13,-6.305675e-14,-3.2524358e-13,-1.6426415e-14,-7.334716e-15,3.5689957e-13,6.151577e-14,-3.8497376e-15,-3.5176004e-14,-7.656809e-14,-2.4926122e-13,9.5083047e-14,-9.667424e-14,-1.4703447e-13
-5.729066e-14,-1.4004367e-14,-6.0528554e-14,-1.3261018e-13,1.097075e-14,-9.909449e-14,-2.1800277e-14,-9.722424e-15,-7.624704e-14,1.3777837e-13,2.8868688e-13,4.7784476e-14,-1.4084725,1.2576881e-15,1.8991285e-14,-1.3908347e-13,-2.2334136e-13,5.040266e-14,4.4091583e-13,1.5000826e-13,-2.680053e-15,8.9648795e-14,0.37956163,-2.9732038e-13,2.245036e-13,-1.1120189e-13,3.272034e-15,7.943237e-14,-9.9315074e-14,-2.2443538e-13,-2.440385e-13,1.4653127e-13,-3.9515358e-14,-6.39515e-14,-6.7412154e-14,-9.094809e-14,-1.6846011e-13,-2.2531903e-14,-1.2152146e-13,-8.392964e-14,-4.2338684e-14,-7.1356387e-14,-1.3688276e-13,-8.313512e-14,-5.2166523e-14,9.270274e-14,2.3690468e-13,-3.536787e-14,3.3240453e-15,1.992322e-13,7.665216e-14,3.3342938e-13,-1.0802989,-4.76413e-14,-4.9271988e-14,-1.2676234e-14,1.8541561e-13,-2.1011594e-13,-2.691829e-13,-1.1671627e-13,1.7702873e-14,5.458262e-14,-2.1353495,1.7606764e-13,-1.8569884e-13,-1.09812624e-13,-7.7179453e-14,-9.248536e-15,-1.6219284e-13,-3.9500188e-13,6.7745126e-14,2.0961684e-13,1.8334164e-13,-4.8503563e-14,-2.5124024e-14,-2.3021868e-13,9.403368e-14,3.4202388e-13,-1.3213092e-13,-2.4037947e-13
-2.0734406e-14,-9.821449e-15,2.0218389e-13,1.0524573e-13,-5.736763e-14,-4.22185e-14,-1.1724764e-13,-1.1562593e-13,-3.1702166e-14,-7.75454e-14,-4.4688943e-14,8.646478e-14,-2.0980175,9.44457e-14,3.7023116e-13,2.8753333e-14,1.0463067e-13,1.20448085e-14,2.6996667e-13,-6.489323e-14,2.8465626e-14,-2.2619026e-14,0.98146594,-5.2702326e-14,-2.9475071e-13,1.3673089e-13,-5.8029787e-15,-3.5652964e-13,1.2570094e-13,-5.741591e-14,4.127036e-14,-1.4303294e-13,-8.5046424e-14,-6.3525824e-14,1.6725239e-13,1.1259907e-13,-7.266777e-14,3.30563e-13,1.6319021e-13,-6.3577344e-14,1.2957539e-13,3.6520947e-14,-4.579315e-14,-1.00021804e-13,1.6168977e-13,1.6770075e-13,2.9734685e-15,-1.6221243e-14,-5.5479215e-14,-1.0341426e-13,5.5575065e-14,1.025597e-14,-0.13985386,1.7363324e-13,-1.1483726e-13,4.663121e-14,-3.5155933e-15,-5.1401093e-15,4.5029694e-14,-3.6143106e-14,-1.1198339e-13,2.5352738e-14,-2.2301996,2.347436e-13,1.1006258e-13,-2.3299647e-14,1.2084168e-13,-1.7319364e-13,1.1629489e-13,3.5060312e-13,1.8082467e-13,-2.1280583e-13,2.974117e-13,-3.299935e-14,-2.790218e-13,-1.79066e-13,-7.603972e-14,7.786141e-14,-2.0188117e-14,5.0956418e-14
-6.4265664e-14,-7.1031675e-14,9.574271e-15,-5.0354913e-14,1.8990282e-13,1.160324e-13,-7.206668e-14,-1.1903267e-13,-1.2398042e-14,-8.956734e-14,-1.1815828e-13,1.6580571e-13,-1.363506,-4.7114087e-14,-6.782002e-14,-1.7768049e-13,1.09680196e-14,-1.2417538e-13,1.07503904e-13,2.094233e-15,-3.2581095e-14,6.279966e-14,0.78333503,6.88719e-14,-2.3755919e-13,-1.8993002e-13,5.7623956e-14,4.7831666e-14,-6.1703623e-15,-1.9516664e-13,7.001784e-14,1.4071303e-13,7.714995e-14,-4.7242206e-14,1.3039148e-13,-6.846433e-14,2.5135335e-13,1.5798654e-13,1.1890505e-13,2.9919447e-14,-1.00287236e-14,-1.5571126e-13,-9.5254655e-14,-8.663067e-14,6.54536e-14,-9.954353e-14,2.7352285e-13,-1.2459848e-13,2.3700388e-15,-1.6561511e-13,-4.2852142e-14,3.2931252e-14,-0.22824906,-7.54837e-14,6.4469467e-14,-6.8476244e-14,-2.307546e-13,1.8456132e-13,-1.3390534e-14,-2.9246787e-13,-8.035209e-15,-9.121004e-14,-1.4604667,-5.8719983e-15,-9.458286e-14,-2.704252e-14,3.6532104e-14,2.2239948e-13,-1.495108e-14,5.0471075e-14,-7.570892e-15,1.0797824e-13,2.9896246e-13,1.0413103e-13,4.3555173e-14,-1.4034414e-13,-8.803937e-14,7.0694793e-15,-1.0152313e-14,-2.9059594e-13
5.5780643e-14,-2.516463e-14,-2.3154327e-13,1.4862876e-13,3.1894314e-15,2.3215272e-14,2.310492e-13,-1.9957714e-13,-7.112281e-14,1.4902237e-13,2.3466052e-13,9.963794e-15,-1.9692594,9.658215e-15,-1.1188038e-13,4.9805493e-14,-1.1340103e-13,-1.1518973e-13,1.8571555e-14,3.181233e-14,6.316764e-14,7.482712e-14,0.80226207,1.2612746e-13,-3.750355e-14,1.3129055e-13,8.886304e-14,-3.718789e-13,-9.348218e-14,-1.3990157e-13,1.12478115e-13,-5.509218e-14,1.0352057e-13,-1.1623002e-13,3.6374365e-13,1.445918e-13,-2.0099299e-14,-1.1684474e-13,-4.8548852e-14,-3.967902e-15,2.8987405e-14,-9.009992e-14,1.184707e-13,-3.5285885e-14,2.686877e-13,3.7487584e-14,-3.5188627e-13,3.8059352e-14,-1.0243443e-13,1.0713487e-13,7.932411e-14,2.9305595e-15,1.3907421,8.9811696e-14,1.8856688e-14,7.028747e-14,2.0549025e-13,-5.688732e-14,-1.3860538e-13,5.6301955e-14,-9.152149e-14,7.3059987e-14,-2.1536689,-1.8222628e-13,-1.5723031e-13,-8.6549284e-14,-1.4937391e-13,5.7653975e-16,-6.7805204e-14,-1.2950223e-13,1.322265e-13,6.9577726e-14,-1.508159e-14,-1.7460653e-13,-1.7454701e-13,1.4631699e-13,2.0921307e-14,8.5430916e-14,6.983125e-14,1.0986333e-13
-6.109466e-14,5.357218e-14,4.2068257e-14,-2.078299e-14,2.4326415e-13,-4.2874837e-13,9.275489e-14,3.0900128e-14,4.9872832e-14,-8.04846e-15,-1.6533221e-13,1.7563376e-13,-0.9350794,1.4885235e-14,6.538448e-14,9.146182e-14,8.028505e-14,5.049822e-14,-2.5281252e-14,1.961626e-14,9.4987535e-14,1.9037274e-13,0.4201152,-1.728267e-13,-6.957279e-14,-1.124815e-13,5.6032422e-14,7.423878e-15,-2.9051522e-14,8.968846e-14,-3.1643355e-14,-3.9485064e-14,-6.954672e-14,-8.098698e-14,2.7771175e-14,-8.1799584e-14,1.0477955e-13,1.09910114e-13,2.2950747e-14,1.3746212e-13,1.2356441e-13,3.048481e-14,3.1661438e-13,2.546263e-14,-8.673444e-14,-7.889491e-14,-3.5221934e-13,7.275742e-16,-3.3517102e-13,2.9819456e-15,5.6677583e-14,8.670184e-14,0.7667219,-9.8356314e-14,-1.2711436e-13,7.740177e-14,3.2460732e-14,8.329158e-14,9.0385686e-14,6.9488625e-14,2.515797e-14,-2.6551786e-14,-1.2912235,-5.310866e-14,-6.124103e-14,2.5666809e-13,-1.0977051e-13,-7.6804875e-14,-1.0257194e-13,-4.249246e-15,7.562301e-14,-2.3825516e-13,4.9828455e-14,2.9646885e-14,2.7873174e-13,1.2397544e-13,-1.2130376e-13,7.405677e-14,-5.4613815e-14,-1.0068566e-14
3.3560164e-14,-4.294594e-14,-2.3883697e-14,1.6540152e-13,-8.6815646e-14,2.1734867e-13,-3.085838e-14,1.9639013e-13,-2.025836e-13,-1.1909328e-13,-3.555835e-14,-9.818389e-14,-1.4827954,8.9384866e-14,1.1296538e-13,5.167443e-15,1.3127479e-13,2.4311424e-14,2.4279336e-13,-1.0823848e-13,-5.1865345e-14,3.8838358e-14,0.69473916,2.553022e-13,-2.1180337e-14,3.7861255e-14,-1.4836819e-13,8.4222085e-14,2.0482634e-13,-6.602177e-14,-2.0579924e-13,-1.7262868e-13,-1.2890056e-14,2.2694773e-13,6.8422156e-14,2.4839614e-14,-8.817862e-14,9.8639873e-14,-7.1655565e-14,1.6402243e-13,1.11161826e-14,1.8880717e-13,-2.2080399e-13,-5.684296e-15,1.6152143e-13,-8.734513e-14,3.6685868e-14,-6.500885e-14,-6.983156e-14,1.7214679e-13,-2.3444343e-13,8.4243e-14,1.5033361,-8.879731e-14,-3.60932e-14,-2.265911e-13,-7.386844e-14,-6.298007e-14,2.1851416e-13,1.06152093e-13,-1.1808703e-14,8.948187e-14,-1.899254,-7.3255766e-14,-9.5334046e-14,2.8040653e-15,9.108876e-14,9.017432e-14,-1.4147841e-13,-3.1449317e-14,-1.8678143e-13,-1.2468867e-14,1.7285083e-13,1.9281305e-13,-5.948627e-14,7.755023e-14,-2.4231436e-15,1.2974653e-13,-1.1464454e-13,2.4396643e-14
1.6818041e-13,8.342459e-14,-1.2814795e-13,-1.243656e-13,-1.6561195e-13,4.8012592e-14,1.7928405e-13,-3.0611425e-14,2.0242353e-14,1.0981354e-13,-7.861015e-15,1.319182e-13,-0.71021765,-2.4841484e-13,1.6354458e-13,-7.32951e-14,6.391789e-14,-5.2406403e-15,2.484011e-13,2.382417e-14,7.936208e-14,-4.0383695e-14,0.27429318,-1.0978184e-13,8.3452776e-14,-1.032113e-15,-2.976841e-13,-3.6256344e-14,-4.8172478e-14,9.3409316e-14,-3.7617285e-14,-1.9742579e-13,3.0517166e-13,2.653144e-13,-2.9060305e-14,-1.6112163e-13,-5.8777005e-14,-6.944915e-14,3.48468e-14,-1.3424826e-13,-1.4686248e-13,-2.3733111e-14,-9.842191e-15,1.4166592e-13,-1.81172e-13,-1.2274811e-13,-1.4085728e-14,3.1863195e-13,-5.4712108e-14,1.5499602e-14,2.3971e-13,6.1180654e-14,1.1052951,8.855094e-14,8.385406e-15,-2.2036387e-13,-2.361578e-13,-5.2831586e-14,5.5134486e-14,1.3640663e-13,1.5674961e-13,-2.2733394e-13,-1.598919,1.071105e-14,5.641436e-14,4.3694076e-14,-7.7436694e-14,-5.2514037e-14,-7.61322e-14,-1.6454295e-13,-2.6347275e-14,-9.377912e-15,1.06796957e-13,-1.3470465e-13,4.5177485e-14,-1.0100105e-13,1.2721598e-14,-3.480934e-14,3.5917355e-14,-9.118239e-14
7.8814424e-14,6.2402645e-15,6.391142e-14,-2.5608855e-15,7.8175856e-15,-1.0473213e-14,-5.1697267e-15,1.6533724e-13,1.1548398e-13,-8.144029e-14,-4.783042e-14,3.655229e-13,-1.8104204,2.447529e-13,-7.5013644e-14,1.3338133e-14,-1.3861408e-14,-2.0076153e-13,-9.73962e-14,9.3773296e-14,-8.8681016e-14,2.3930115e-13,0.5378007,-2.7274653e-13,-2.297239e-13,-1.8504112e-14,9.868181e-14,1.6155374e-13,1.197007e-13,4.073727e-14,-1.5726095e-13,5.2742976e-14,-2.7348339e-14,-6.514364e-14,-2.7956465e-13,-9.5822716e-14,9.7263025e-14,-5.3025503e-14,5.9787624e-14,2.166687e-13,-2.1976575e-14,-7.083661e-14,-2.1454287e-14,-1.4750409e-13,1.2480444e-13,1.2870922e-13,7.719594e-14,1.5591757e-13,-3.7167665e-13,-1.6148708e-13,1.7652304e-13,5.841457e-14,1.4555327,-1.7029948e-13,-2.5314597e-13,-1.8189759e-13,1.5531834e-13,2.8411854e-13,2.0697578e-13,1.7846022e-13,1.0799998e-13,-1.9850844e-15,-2.206248,1.8820816e-13,1.8608528e-13,-1.0193292e-13,-2.2351924e-13,2.4296462e-14,1.1757897e-13,1.7553748e-13,-5.2921778e-14,2.0751936e-13,-9.279173e-14,-4.952378e-15,-1.3088144e-13,-1.0838159e-15,-3.4797398e-14,4.1901544e-14,2.6987811e-13,6.909122e-14
5.7274343e-15,3.470595e-14,7.9569774e-14,2.3520118e-13,-8.49802e-14,-5.6444148e-14,-1.6586542e-13,6.92679e-14,1.4872329e-13,-1.5957461e-13,1.7630645e-13,2.1007162e-14,-1.3209404,1.8650448e-13,-1.1100452e-13,-1.2749049e-13,-2.5835286e-13,6.293807e-15,1.5031284e-13,2.744609e-14,-1.68653e-13,-4.1321032e-14,0.7936412,1.4975171e-13,-9.4127614e-14,-2.8339448e-13,-2.679108e-14,-1.3770379e-13,-1.3514973e-14,-1.6485077e-14,5.2241963e-14,4.877318e-14,-6.2923144e-14,-3.2382126e-13,-7.706462e-15,1.4009773e-13,2.7710419e-14,1.5006553e-13,1.9985706e-13,7.12956e-14,-1.3013874e-13,-9.9610614e-14,1.0604114e-14,3.0272413e-13,-2.178503e-14,-1.3747353e-13,1.1107688e-13,1.5512586e-13,1.0196278e-14,-9.088381e-14,2.3718847e-13,1.8829248e-14,1.2996463,-2.3210784e-13,3.1992044e-13,-1.2288423e-13,1.0768717e-13,1.4031345e-14,6.11417e-14,-6.793684e-14,-8.2452694e-14,3.0753652e-14,-1.4361715,-1.155986e-13,6.5587076e-14,1.5397995e-14,-8.908557e-14,1.3876435e-13,-1.3277302e-13,3.1490517e-15,-1.5804366e-13,5.7815284e-15,-7.7457314e-14,-1.5497719e-13,1.5953925e-13,1.1479064e-14,-1.9172348e-13,-2.0982812e-14,-3.253625e-14,2.0496259e-13
3.3043673e-14,2.377284e-13,1.1289079e-14,-1.5111726e-13,-5.3393393e-14,-1.05318355e-13,-1.2923775e-13,-3.872714e-14,2.0021829e-13,-7.451546e-14,-2.4952658e-13,-4.8246563e-14,-1.84113,6.270601e-14,-1.9233471e-13,2.5675054e-14,3.9200532e-14,9.3879914e-14,-8.9296e-14,2.886374e-14,-2.1561306e-13,-8.509245e-14,1.2263546,-2.2086343e-13,8.6234805e-14,7.384013e-14,1.78363e-13,1.031454e-13,9.82559e-14,-1.5042671e-13,5.6142326e-14,1.650833e-13,6.7610224e-14,-1.9110747e-13,3.74393e-14,1.186082e-13,-1.0596958e-13,2.327358e-13,1.8614486e-14,6.910581e-14,4.0396092e-14,-2.39826e-13,4.311075e-14,-3.9871515e-14,2.8305347e-13,1.6161585e-14,-3.796315e-14,1.1053546e-14,-1.012966e-14,-1.621716e-13,8.775397e-16,-1.3936436e-13,0.91169417,-5.734776e-14,2.6997951e-13,1.2302789e-13,8.862747e-14,-7.6200846e-14,8.6664305e-14,-4.4431655e-15,3.4645797e-13,2.0666528e-13,-1.7871412,-6.463918e-14,1.5962855e-13,6.138808e-14,-1.9568921e-14,2.4335243e-13,4.7514984e-14,-2.901277e-13,-1.40716e-13,3.4577403e-13,2.3994676e-14,1.3770437e-13,3.3352333e-15,-9.74793e-14,5.45456e-14,-1.2027918e-13,-4.6186372e-14,-4.663646e-14
-1.8173214e-14,4.8406632e-14,3.0606587e-15,-1.1666533e-13,-2.1936334e-14,1.0527945e-14,1.5826549e-13,-5.266071e-14,-1.0173904e-13,-9.396841e-14,-1.0192293e-14,-3.2704772e-13,-1.1494173,-5.1706957e-15,-4.4439612e-13,1.2300435e-13,5.434059e-14,7.919353e-14,-7.1153736e-14,6.4361677e-14,-2.7965125e-14,-2.4885717e-13,0.5487737,3.542277e-14,-2.1862139e-14,-7.83689e-14,1.144428e-13,7.7306935e-14,-2.8045803e-15,-2.2003444e-13,6.272475e-14,-1.7917018e-13,1.9146533e-13,-2.0979668e-13,-9.675141e-14,4.688281e-14,-3.4489645e-13,2.0128471e-13,8.944365e-14,1.0910313e-13,-1.576678e-13,6.503135e-14,-8.700955e-14,-9.253719e-14,6.917604e-14,-6.983485e-14,1.1097384e-13,-1.8003048e-13,-1.4940569e-13,1.4912853e-13,1.7482572e-13,-1.6320563e-14,1.3241148,1.2819001e-13,-5.850629e-14,-1.2302514e-13,-1.01536245e-13,-2.2102261e-13,-2.2406267e-13,5.2444557e-14,2.0979515e-14,1.0542785e-13,-1.4818271,-9.86711e-14,3.7897833e-14,2.0051207e-13,1.3387518e-13,8.472317e-14,1.05791054e-13,1.4751126e-13,-3.6492188e-13,1.6748572e-14,-1.9276396e-14,-1.6381591e-13,7.2479146e-14,-1.02785686e-13,1.3970728e-13,-6.913957e-14,2.2469643e-13,5.560818e-14
-1.082252e-13,3.2491354e-13,-7.541358e-14,-4.307744e-13,-6.8762406e-15,-1.8864139e-14,-8.571926e-14,-9.797781e-14,-8.3789245e-15,4.0498632e-13,8.6789537e-16,1.6428028e-13,-1.7413015,2.2493986e-13,9.073024e-15,2.8706157e-14,-2.0483967e-13,-7.649742e-14,4.5548075e-14,-3.151841e-13,-8.2150764e-14,2.2066699e-13,1.0991162,2.2696249e-13,-2.5369846e-13,-1.9490909e-14,-4.9110167e-14,1.4677201e-13,-4.5480363e-14,-8.996945e-14,-2.853587e-13,-1.5086654e-13,-3.522712e-14,6.970896e-14,-9.222064e-14,1.2588652e-13,6.6367254e-14,-3.1088203e-14,5.4133334e-15,-1.990297e-15,2.2711366e-14,2.6665614e-15,8.4647316e-14,1.0677802e-13,5.591541e-14,2.6024965e-14,-1.7524161e-14,-2.3654115e-13,-3.9987748e-15,2.0933771e-13,-2.0010611e-15,1.0694997e-14,1.3992168,6.954051e-14,-6.7611593e-15,7.484017e-14,-2.588388e-13,2.2275525e-14,8.31037e-14,-1.7673993e-14,2.0305152e-13,7.582811e-14,-1.6101905,-2.0332314e-14,-1.463511e-14,4.1206493e-14,-9.925417e-14,2.6187003e-13,-2.0589968e-14,-5.796723e-14,-9.306129e-14,-2.0881263e-14,-6.7735937e-15,8.0513816e-14,-2.4436216e-14,-7.390024e-14,-5.932806e-14,9.048548e-16,1.0553066e-13,3.2544022e-14
-8.456412e-14,-2.3474907e-13,-4.53585e-14,4.8369058e-14,-5.6386428e-14,1.3475759e-13,2.4338222e-13,-3.9202623e-14,2.6323429e-13,-5.934992e-14,-4.289622e-14,2.2580037e-14,-1.1063856,-1.03131716e-13,-9.81191e-14,-1.2281308e-13,8.218164e-15,4.0506324e-13,-3.065932e-14,-2.2545586e-13,2.513109e-13,-2.2684388e-13,0.22510654,-4.089318e-14,4.1000867e-15,-1.3155015e-13,-2.407393e-13,-6.9742985e-14,-2.6093835e-13,6.8639755e-14,5.8190757e-15,1.0119225e-14,-8.1860097e-14,2.768329e-13,-2.2471578e-13,4.0679932e-13,-1.6455116e-14,-7.8645905e-14,-5.8644075e-14,4.0355408e-14,2.2432994e-13,6.766728e-14,9.3475615e-14,2.8179973e-15,-5.6457348e-14,1.2114375e-13,-1.3518673e-14,-2.908384e-14,-4.1364593e-14,1.3784668e-14,-8.2506715e-14,-3.6559206e-14,1.4638046,-4.0253177e-14,-1.0805015e-13,-7.974143e-14,-3.244633e-14,1.7752786e-14,1.8373814e-13,-9.7060984e-14,4.0311186e-14,-3.0985597e-14,-1.6516355,1.4073107e-14,1.4446684e-13,-7.770826e-14,2.3608397e-13,-3.9462045e-13,1.4162166e-13,1.7596292e-13,8.964228e-14,9.8440644e-15,1.691253e-13,-9.609659e-14,3.9656185e-13,2.35135e-13,3.8828614e-14,2.644281e-13,1.2666997e-13,1.0058821e-13
9.0676544e-14,1.0113896e-13,-3.5921822e-13,5.931785e-14,1.6728294e-13,-1.5076737e-13,-1.05891987e-13,1.2670481e-13,-8.680233e-14,1.0870151e-13,-6.000645e-14,2.887136e-13,-1.6358736,-8.211537e-15,9.773431e-14,1.4479661e-13,-5.848348e-14,6.0293635e-15,-4.589057e-14,3.354444e-13,1.358043e-13,-7.054289e-14,0.464528,-5.765848e-15,-2.757584e-13,7.6261426e-15,2.1213955e-13,1.2910251e-13,-1.422824e-13,-9.726883e-15,6.677424e-14,4.9984163e-14,8.801641e-15,-1.3144172e-13,-3.620726e-13,7.74441e-14,1.2868946e-14,6.035632e-14,1.2454298e-13,4.4195943e-15,1.9248932e-13,-7.260061e-14,6.51457e-14,-3.3883117e-14,-4.064064e-17,-2.4620673e-15,-5.144614e-15,-1.0764312e-13,-1.8263207e-13,2.0427141e-14,4.9910386e-14,6.3095755e-15,1.3375826,-4.2514755e-14,-5.580447e-14,-1.3305325e-13,-2.6534019e-14,-6.64734e-14,-8.008065e-14,-1.3908763e-13,-5.8874794e-14,8.310558e-14,-2.0824726,-2.1115496e-14,8.2013064e-14,2.6088016e-13,-1.2153904e-13,-7.673112e-14,6.001757e-14,2.27866e-13,-5.1111032e-14,3.8631882e-14,-4.882289e-14,-6.0594365e-14,1.79658e-14,-1.1043259e-13,-5.38703e-14,-7.774247e-14,-1.5718969e-13,3.670078e-14
-1.8603398e-14,1.2100351e-13,1.4301169e-13,1.8705779e-14,8.335422e-14,2.6705356e-14,4.6314698e-14,3.0840055e-13,-2.482191e-13,-1.8311779e-13,-1.355241e-13,-3.96096e-15,-1.2708204,3.8257535e-13,-1.9439402e-13,5.0552844e-14,1.950206e-14,-2.0865288e-14,-9.9805e-14,1.635654e-13,-5.3665575e-14,-1.8540733e-13,0.5389656,-5.179606e-14,2.1162512e-13,3.7448716e-14,5.362151e-14,-1.3762243e-13,1.3206738e-13,7.7493865e-14,1.0684583e-13,-1.3601379e-13,-4.360115e-14,-1.2064433e-13,-2.5117807e-13,-4.247234e-14,-3.4342087e-14,-7.810658e-14,-9.292013e-14,8.1948025e-14,1.1926262e-13,2.1562721e-14,-2.1545806e-13,-2.834411e-13,1.0327282e-13,-1.4415089e-13,-9.58015e-14,2.14217e-13,1.7220771e-13,-1.7507254e-15,-7.519579e-14,-6.212922e-14,1.0265846,-9.252009e-15,-6.3338786e-14,-1.292154e-13,5.6827034e-14,3.1609897e-14,-4.6303002e-14,-1.1807885e-13,4.2410584e-14,-4.5885767e-14,-1.7430441,-2.4568946e-13,-2.7653877e-13,-5.689458e-14,-1.3160661e-13,-9.1864586e-14,1.1491017e-13,3.50634e-14,-3.6105724e-13,-2.0418793e-14,1.4243599e-13,6.351968e-14,-1.9384193e-14,-2.9578634e-14,-6.3482795e-14,-1.1847225e-13,2.9263992e-14,3.1612514e-13
-2.6875372e-13,-1.2404246e-13,-1.776982e-15,-5.3507803e-14,-5.0806913e-14,-1.320639e-13,7.802866e-14,1.6908511e-13,1.3939723e-15,3.6272247e-13,8.723287e-14,5.6688483e-14,-1.7746499,-2.7385174e-13,8.124702e-14,-3.6163607e-13,-2.4222288e-13,9.44446e-14,-1.8924459e-13,7.411103e-14,-2.4326667e-13,-2.2033857e-13,0.6225656,-6.345104e-14,7.795881e-14,5.3373274e-15,2.522311e-14,4.461437e-15,1.6930944e-13,-5.0913406e-14,1.4932451e-13,7.938837e-14,1.5887038e-14,2.5770523e-13,1.7196002e-14,-3.7365713e-14,4.1002266e-14,-3.1021168e-13,-2.374411e-13,-1.4458791e-13,2.1724061e-13,-2.3528326e-13,1.7464459e-13,1.6834418e-13,-6.220289e-14,-6.018804e-14,-2.32907e-13,-1.5448813e-13,3.3800524e-14,-4.1679914e-13,-1.0189754e-13,2.891559e-14,1.0797881,1.0703693e-14,7.2833124e-14,3.335438e-13,4.0826412e-14,1.6332411e-14,2.0029975e-13,1.02878765e-13,-2.1913507e-13,-1.2185103e-13,-1.9405378,1.6128586e-13,-1.246453e-15,9.662495e-14,3.4023003e-14,1.785602e-14,-1.3770587e-13,-8.997737e-14,-9.926081e-14,-1.05269295e-13,2.962942e-14,-6.931623e-14,-2.9474567e-13,2.2650149e-13,8.4840975e-14,4.5372357e-14,-6.261323e-14,-1.174504e-14
6.609597e-14,-2.5358768e-13,1.8606183e-14,2.1162964e-13,-7.928904e-14,3.0554477e-14,-2.1340494e-14,3.7120914e-14,1.3158088e-13,2.1277583e-14,1.10239766e-13,-1.5343427e-13,-0.976652,-4.9719065e-14,9.374803e-14,-1.4841996e-14,-2.152121e-13,9.571795e-14,-1.13091624e-13,7.2771765e-14,-1.771993e-13,2.583812e-13,0.7962954,-2.0712503e-14,1.0807196e-13,8.790852e-14,-6.693136e-14,1.8457427e-13,4.369341e-14,-2.6330208e-13,8.938377e-14,2.6744323e-14,2.6463464e-14,2.618447e-13,2.4146153e-13,-2.2098882e-13,1.3589427e-13,-1.6702042e-13,-2.8162696e-13,1.7475038e-13,1.037594e-13,1.0660408e-13,-1.482162e-15,1.203013e-13,-1.0924917e-13,2.5204128e-13,8.695604e-14,-1.930828e-13,-3.6112189e-13,-8.39573e-14,-8.538276e-14,-4.0338894e-13,1.076089,3.0667127e-13,-7.360536e-14,-2.0538288e-13,1.2589762e-14,2.1326349e-13,-9.1277165e-14,1.9645714e-13,-1.7116029e-14,-4.61221e-14,-1.215966,-7.2632154e-14,-1.19466476e-14,2.1055552e-14,1.1559197e-13,-1.256281e-13,7.646292e-14,2.6668888e-13,6.648501e-14,1.0787899e-13,-5.5501258e-14,3.138413e-14,1.3323702e-13,-3.6186966e-13,-2.4421254e-14,1.1809222e-13,2.7742424e-13,-1.2060906e-13
-7.4182454e-14,1.2035928e-14,-3.1493864e-14,2.2565893e-14,-2.5623136e-14,-1.546937e-13,-5.3466614e-14,-2.3407417e-14,-1.5735224e-13,1.1781415e-13,4.1706322e-13,5.912934e-14,-1.919312,-6.96973e-14,-6.36888e-14,1.083145e-13,-1.4208778e-13,7.995902e-14,2.6783526e-13,-9.7419645e-14,1.2753966e-13,2.0084547e-14,1.0698318,-6.9396196e-14,6.151483e-15,1.8703246e-13,1.5202919e-13,5.4934074e-14,-7.349223e-14,-9.838831e-14,-6.1017726e-14,-1.6921927e-13,1.7809792e-13,2.2737414e-13,-6.421637e-14,-9.5481084e-14,-2.509702e-13,1.3976233e-14,1.2227154e-14,-4.754754e-14,1.07884784e-13,-1.7617846e-13,1.3553672e-13,1.3970852e-13,-2.8445437e-13,-9.8676946e-14,2.5240794e-14,-9.5390404e-14,1.2174529e-13,1.2638913e-13,-2.5264315e-13,-6.552636e-14,0.9875364,1.6173174e-13,-1.1710523e-13,-2.7788706e-13,2.5479697e-13,1.427894e-13,-2.4712616e-13,3.385178e-14,-8.202999e-14,-5.581171e-14,-1.7956603,3.0202693e-13,-2.9123993e-13,1.3477452e-13,-6.595293e-14,-9.849284e-14,-2.3842038e-15,1.4345706e-13,2.7720266e-13,-1.2335174e-13,1.6984923e-13,2.0738509e-14,9.9065436e-14,-1.8631892e-13,2.2820434e-13,-3.2733043e-14,-3.8433076e-14,-1.06386484e-13
-3.210856e-14,-6.661962e-14,-8.018922e-15,1.8303649e-13,4.573587e-14,1.0170567e-13,-1.0435368e-14,-4.5774812e-14,-5.5631735e-14,2.0780483e-14,1.6956187e-13,-4.095233e-14,-1.3985986,-1.7979315e-13,-1.3562144e-13,-2.0094552e-13,9.6445936e-14,1.6724233e-13,-6.046023e-14,3.9536937e-14,2.2445975e-13,-4.3182522e-14,1.0227377,1.7047981e-13,-2.9527443e-14,1.3486632e-13,-3.8187762e-14,1.2894901e-14,-7.6588326e-14,-1.9475377e-13,1.1399832e-13,-8.33683e-15,2.202392e-14,2.5770422e-14,6.064486e-14,-1.7362922e-14,-9.2419074e-14,1.2967333e-13,-5.0259615e-14,1.0484376e-13,-8.054844e-14,-4.8756402e-14,1.5892052e-13,-1.1148797e-13,-1.2619168e-14,-1.5025784e-13,-2.2343593e-13,2.3404523e-14,1.4861787e-13,1.9358874e-13,-1.4773393e-13,1.08441725e-13,1.0217067,6.750892e-14,2.753284e-14,-4.0934e-14,2.01354e-13,-5.5506662e-14,-1.4802276e-13,7.97167e-14,8.9908326e-14,3.2119018e-13,-1.3842683,-3.5925737e-14,6.035144e-14,-7.211608e-14,-3.3397655e-13,1.1956882e-13,2.493282e-13,-5.2994413e-14,5.4518107e-14,1.5844545e-13,-1.4593413e-13,-4.3929202e-14,-4.7220928e-14,-5.0778182e-14,5.768986e-14,7.850325e-15,1.2049387e-13,8.548069e-14
4.3497232e-13,6.727413e-14,4.1019265e-15,-3.436778e-14,-6.543319e-14,-3.7389112e-14,1.12614304e-13,2.1488632e-13,1.1088198e-13,-7.653533e-14,1.2002378e-13,-1.3034627e-13,-1.7506068,-3.8296663e-15,1.13263586e-13,4.2358725e-14,-5.4959963e-14,1.3949635e-13,-4.7165268e-14,2.2448287e-13,1.7243843e-14,1.2132358e-13,0.87996274,8.824103e-14,8.0845554e-14,-8.012047e-14,1.13206496e-14,-1.26950046e-14,-3.695571e-14,9.311329e-14,-8.6206073e-14,-8.108411e-14,4.1608386e-14,3.987017e-14,-4.7366713e-14,1.0431526e-13,9.4513474e-14,-2.2608624e-14,-6.8080104e-15,-1.2652653e-14,-3.821312e-14,1.690734e-14,7.1542754e-14,-1.3771194e-13,-1.9019315e-14,-1.5505877e-13,3.8361275e-15,2.1001758e-13,2.7538096e-13,6.4524354e-14,9.574132e-14,-2.1853376e-14,0.87071675,-5.3038947e-14,2.2732243e-14,2.3309398e-15,-4.890064e-15,2.9028476e-14,-3.3639798e-13,1.5180377e-13,-2.3720795e-14,-1.133406e-13,-1.7612901,1.4313529e-13,5.9509594e-14,-3.4640525e-13,1.1267719e-13,3.630766e-15,-5.6838608e-14,2.0055079e-14,1.04655407e-13,-6.463058e-15,9.2107006e-14,-1.3319364e-13,-4.2151585e-14,9.284419e-14,-8.52563e-14,2.5997146e-13,7.775679e-14,2.101158e-14
2.4021884e-13,5.8797944e-14,1.0694056e-13,-2.2803173e-13,1.8159305e-13,-2.6492122e-13,-1.7435944e-13,-1.4389024e-13,5.4967942e-14,-1.3340459e-13,1.2146164e-13,-6.253112e-14,-0.9818351,6.699239e-14,-2.6479537e-15,2.4960638e-14,-2.3852333e-14,-2.0398224e-14,-1.5704194e-14,-1.0713324e-13,-7.32234e-14,1.4150631e-13,0.74247587,1.412101e-13,-3.3479336e-14,3.267512e-14,-1.6545249e-13,2.8841397e-14,4.4770557e-14,2.4092815e-13,-1.5959413e-13,1.1923432e-13,4.0129643e-14,6.1536385e-15,1.2590389e-13,-4.9595758e-14,-8.5626425e-14,-1.251601e-13,8.061687e-14,1.0582789e-14,3.1443777e-13,-3.0673635e-13,3.670877e-13,1.1657916e-13,-9.448686e-14,-1.1401557e-13,-3.5693855e-13,-1.3902153e-13,-2.8697938e-15,-2.5231103e-13,-6.6178217e-14,-4.73153e-14,0.5244514,-2.8681717e-13,8.2768556e-14,-1.0759266e-13,8.09679e-16,-7.6067855e-14,-1.3296811e-13,-2.2987414e-13,9.173806e-14,-2.715898e-14,-1.1981791,7.581557e-14,-6.411202e-14,-1.539183e-13,3.1897038e-14,5.701459e-16,2.4118043e-15,-2.4508195e-13,1.1511912e-13,-3.8885453e-14,-1.152531e-13,-3.26535e-13,-1.1718751e-13,-7.276606e-14,-3.687023e-14,-6.612591e-14,1.3206778e-13,-2.9646655e-13
1.5678573e-13,1.7293284e-13,4.3729262e-13,2.039183e-14,-4.4762066e-14,6.31667e-14,-1.3354708e-13,-8.649902e-14,1.6798669e-14,7.262688e-14,-7.731062e-14,-4.215605e-15,-1.8691815,5.4284434e-14,-1.4478716e-13,-1.0287966e-13,-2.041695e-13,3.792636e-14,-1.4466683e-13,7.208958e-14,-6.442648e-15,-8.176489e-14,1.2660306,-1.6378889e-13,-9.829086e-14,1.5752895e-14,-1.6256595e-13,4.1185046e-14,1.641113e-13,-7.925126e-14,2.418635e-13,4.3162146e-14,-1.537765e-14,-4.1228617e-14,-8.87671e-14,1.546027e-13,-3.5184542e-14,4.356956e-14,-3.2986317e-13,-4.539511e-14,1.09625504e-13,6.1166594e-14,1.3263528e-13,-1.1787207e-13,9.959458e-14,6.4184294e-15,1.4576272e-14,1.3683237e-13,-3.5846306e-14,8.536202e-14,8.476376e-14,-1.2010548e-13,0.44087705,-1.8656219e-14,1.0843202e-13,-2.2031381e-13,-1.422539e-14,3.7050807e-14,-4.584057e-14,-3.3134594e-14,-1.2426128e-13,3.449303e-13,-1.7476478,-1.2636445e-13,1.6982103e-14,-8.394472e-14,-1.2592056e-14,4.471339e-14,4.2887958e-14,-2.4250006e-13,1.13293645e-13,5.3168045e-14,-2.842337e-14,-1.8175988e-13,-1.1106464e-13,-9.0098685e-14,-2.1423732e-13,-3.3080282e-14,-2.5819994e-14,6.764932e-14
4.0587806e-14,-3.6186816e-14,-6.997629e-14,-3.061447e-13,-8.7206175e-15,7.679735e-14,2.2251386e-13,-2.0482113e-13,-9.17984e-14,8.013452e-14,-2.1953332e-15,1.3467902e-13,-1.1411232,-1.7812164e-14,1.204526e-13,-1.1007928e-13,-1.3635062e-13,3.197857e-14,1.5121154e-13,-4.1046722e-14,-2.4020865e-14,4.3913935e-14,1.3588339,-1.653189e-13,3.418777e-14,5.711566e-14,-1.1609618e-13,1.1777713e-13,1.38108044e-14,-5.0399484e-14,3.3806874e-13,2.8596472e-13,2.234109e-14,-1.8140292e-13,-1.3534234e-13,7.679987e-14,-2.089122e-16,-1.9516185e-13,-1.3478364e-14,-1.6250903e-14,-6.9085315e-14,-8.1685947e-14,-1.10983075e-13,1.2048834e-13,1.4063094e-13,-4.6299227e-14,5.922716e-14,-8.591139e-14,-1.7212422e-13,2.6559365e-13,-3.6002854e-14,-2.2266355e-14,-0.009383308,-3.8712233e-13,1.2271607e-13,-4.814699e-14,1.0416699e-13,-1.9742191e-13,-1.8462087e-13,-4.855146e-14,-7.86812e-14,3.784598e-13,-0.4945092,-1.7361885e-14,-1.6753753e-13,2.8169218e-13,-3.6999483e-15,-1.6836646e-13,3.2484052e-15,-1.2598829e-13,1.6234522e-13,2.5559763e-14,1.9419031e-13,7.694195e-14,-4.838959e-14,7.3482006e-14,-7.4138246e-14,-9.829262e-15,6.078884e-14,-8.0880804e-14
5.5553137e-14,-6.715597e-14,2.0131517e-13,5.1915693e-14,-2.0328967e-13,1.3179928e-13,1.4521091e-13,3.1721083e-13,6.106968e-14,-3.269256e-13,-1.4255185e-14,9.323662e-14,-1.9167238,1.2270248e-14,2.3229845e-13,1.3872046e-13,7.149865e-14,-2.0786243e-13,-1.4750157e-13,9.1511596e-14,2.0703586e-15,7.399739e-14,1.2621102,-2.995841e-14,1.7365417e-13,9.545202e-14,4.0022896e-14,-4.5595675e-14,-7.186513e-14,1.1685389e-14,-6.98481e-14,4.6447275e-14,-5.5020733e-14,-4.2134675e-14,-2.4018474e-13,3.167609e-14,2.0584652e-13,-1.09505314e-13,1.4542184e-13,4.12131e-15,1.6854869e-13,-2.6045168e-13,-1.3453161e-13,-3.6672816e-13,1.0448443e-14,-5.557112e-15,-1.1497522e-13,-2.9671944e-14,-9.101748e-14,1.2234224e-13,-3.7913042e-15,-9.778121e-14,0.4054021,-7.6792224e-14,-1.6627418e-13,6.1921564e-14,-4.1095689e-13,-1.6516182e-13,1.1186195e-13,-9.496354e-14,3.6569982e-13,1.8385272e-13,-1.6295432,-7.401731e-15,1.86336e-14,2.7306561e-13,-1.076513e-13,8.547829e-14,9.175437e-14,-3.3824174e-14,8.951597e-14,-1.0352549e-13,8.008082e-14,9.2099776e-14,9.6430296e-14,5.2913152e-14,3.3153891e-13,1.1521396e-13,-2.7594717e-14,-1.8658962e-13
5.3814307e-15,1.5172655e-13,-3.696769e-14,-1.692178e-14,-1.726869e-13,-9.5476775e-14,1.9595111e-13,-2.3003723e-13,3.083214e-14,-6.020975e-14,5.773375e-14,-9.265333e-14,-0.70704466,-8.3744474e-14,-1.04584364e-13,2.2693167e-13,-6.897e-14,4.8833625e-14,2.4046157e-14,-6.329213e-14,8.827391e-14,-7.977193e-14,0.2558377,1.699701e-14,4.12338e-14,7.2403224e-15,1.1923677e-13,9.6193344e-14,-1.12089876e-13,1.9743086e-13,-3.303127e-14,-2.035151e-13,3.1378e-13,1.4103783e-13,6.8798205e-14,8.28962e-14,1.7913801e-13,3.927948e-14,-1.4324398e-13,-6.847505e-14,1.6482124e-13,-1.4241546e-13,-2.408322e-14,-3.2782875e-14,7.360463e-14,1.2573422e-13,7.218043e-14,1.104741e-15,-1.3820467e-14,-9.691018e-14,5.916235e-14,-7.054013e-14,0.15946767,-1.1117736e-13,1.4070461e-13,1.5644064e-13,-5.2613418e-14,-1.9214104e-13,-5.6142713e-14,5.6660426e-14,-1.5072961e-13,-2.1794955e-13,-1.165053,-4.569036e-14,1.2140232e-13,1.8292505e-13,8.221178e-14,1.1050741e-13,2.005666e-14,-9.198454e-14,2.0290436e-13,-9.328962e-14,-1.137282e-14,-1.531669e-13,-5.626451e-14,-8.6715737e-14,8.477598e-14,-1.576267e-13,-1.1027526e-13,-6.964791e-14
-2.2107458e-13,1.9226053e-13,-7.8619416e-14,-4.180433e-14,-3.261922e-14,2.6245556e-14,-1.1043012e-13,4.0309078e-14,6.491087e-14,1.5790488e-13,2.2152205e-13,-2.5264899e-14,-2.0522845,7.455677e-14,1.4813597e-14,-3.0318697e-13,-8.116537e-14,3.9612343e-15,-2.1647583e-13,-1.6947842e-15,1.735567e-14,2.3519605e-14,0.99236894,-1.816719e-14,7.152341e-14,-1.05160347e-13,3.092869e-13,-2.9342963e-14,9.697725e-14,4.6285353e-15,-4.3541464e-14,-1.828926e-13,-4.5927007e-14,-7.6797564e-14,1.4430038e-13,-8.851772e-14,7.73999e-14,2.6008433e-13,9.265618e-14,-1.864551e-13,8.013399e-14,-5.354403e-14,3.59528e-14,-3.7082076e-14,1.0077174e-13,-9.989707e-15,-1.4294394e-13,-2.859947e-14,2.5692076e-13,5.5843073e-14,-1.730641e-13,-8.713702e-15,0.30164084,-8.6396154e-14,1.4135339e-14,-1.4544594e-13,-3.913005e-14,-2.454379e-14,-4.7873523e-14,5.7482475e-14,9.725922e-14,-2.4691094e-13,-2.2168796,-2.3967963e-14,-2.1288307e-13,-1.2540094e-13,1.759484e-13,-1.12433466e-13,1.0641801e-13,-1.6883275e-13,-1.2754591e-13,-1.921192e-14,6.157524e-14,-2.0073597e-15,2.0028993e-13,1.2388473e-13,8.858162e-15,6.9383355e-14,1.5485654e-13,2.1618423e-13
-2.7478914e-13,1.685533e-13,1.9799144e-14,1.1657291e-14,1.3222448e-14,-1.2289249e-13,-1.9718473e-14,-1.4134635e-14,-3.520944e-14,3.074083e-14,-7.249566e-14,-5.6016694e-14,-1.458994,2.1139835e-14,-6.360181e-14,-1.0221781e-14,5.903636e-14,-1.6505806e-13,-1.5733148e-13,-8.671423e-14,1.4377808e-14,2.346149e-13,1.5692496,-1.9573132e-13,7.755174e-14,6.379186e-14,-5.0073925e-14,-3.057896e-13,4.3399522e-14,-4.6929596e-14,1.6296656e-14,-1.4367972e-13,-1.0538842e-13,-8.057272e-14,-2.5698947e-13,1.9937696e-13,1.5635574e-13,7.2523035e-14,1.2089906e-13,9.791105e-14,-3.529086e-13,1.0695525e-13,3.1040264e-13,7.067339e-14,-1.801559e-14,5.6262246e-14,-1.2120917e-13,5.5196977e-14,2.4051014e-13,-7.259853e-14,1.0107433e-13,4.64814e-14,0.297592,1.1813766e-13,-1.6452508e-13,2.9635718e-13,-1.501817e-13,2.904339e-14,-5.363673e-14,5.8732194e-14,-1.30977e-13,3.81645e-14,-0.90444785,3.646561e-14,-1.2581508e-13,1.3295905e-13,-8.202799e-14,-2.1503624e-13,9.882679e-14,-3.3084573e-15,-1.1573277e-13,4.3564602e-14,2.4163932e-14,1.9762536e-13,2.1570891e-13,1.4918405e-14,-9.985532e-14,2.9080355e-14,8.79483e-14,-4.7804425e-14
7.452734e-14,3.257055e-14,2.4935925e-14,1.3595711e-13,1.149923e-13,-8.877421e-14,1.2098414e-13,-1.1789205e-14,2.8172597e-14,1.0753459e-13,-1.7172961e-13,3.4687815e-13,-2.1095483,-3.172623e-14,-1.3130232e-13,-1.7242753e-13,1.7738507e-13,-2.9212489e-13,2.625396e-13,-1.446746e-14,-7.031137e-14,8.6704596e-14,1.0650451,5.34289e-14,-2.7724058e-13,1.2558479e-13,-4.0799035e-13,7.531709e-14,4.282432e-14,-4.3066292e-14,6.17865e-14,-1.2488959e-13,-1.0072645e-14,9.729564e-14,-6.142319e-14,-8.259122e-14,-4.9275633e-15,2.5364801e-13,-1.3125423e-14,-4.1619716e-13,9.0442526e-14,-1.233949e-13,6.132485e-14,2.3253538e-14,4.0180058e-14,-1.0998792e-13,1.7062553e-13,2.853836e-13,7.8207094e-14,9.514058e-14,7.387163e-14,4.9712594e-14,0.6700005,-2.2309225e-14,-1.5645718e-13,2.5991362e-14,1.687131e-13,-1.9332683e-13,-8.0137245e-15,2.1071442e-14,3.4271858e-14,6.498892e-14,-2.15731,-9.031103e-14,1.5932869e-13,-1.2713184e-13,3.7242038e-13,3.2024615e-14,8.830088e-15,-1.1475182e-13,7.0513826e-14,5.1972654e-14,-6.649757e-14,-3.3438532e-13,1.9547101e-14,-9.917157e-14,3.3096417e-14,1.080928e-13,2.3876798e-14,4.495309e-14
6.320229e-14,-1.1706395e-13,-9.956757e-14,6.4056175e-14,2.6140799e-14,-1.1960681e-13,1.6251253e-13,-1.0647711e-13,2.1489892e-14,-4.3886722e-14,1.3031103e-13,2.2326027e-15,-1.396256,-3.8999745e-14,1.5975462e-14,2.2611535e-13,2.3128126e-14,-1.6564354e-14,3.66295e-14,3.8955693e-13,1.9018776e-14,3.0244841e-13,1.5928239,-2.9330386e-14,1.4773355e-13,1.8073772e-14,-4.875115e-15,-3.4087255e-14,-5.5730065e-14,3.657964e-14,-1.0337271e-14,-2.8217114e-14,1.2729794e-13,-1.9912313e-13,-7.1432745e-15,-7.018278e-14,-2.611831e-13,8.1322536e-14,-4.3045916e-14,-1.7362775e-13,1.6211884e-13,-2.060941e-13,8.109886e-14,2.564387e-13,1.1775036e-13,1.0588394e-13,5.1377414e-14,2.493774e-13,-1.07618165e-13,-1.842273e-13,3.4185504e-15,3.4484893e-14,1.1098576,-1.0794253e-13,1.3422916e-13,2.8110066e-13,5.98178e-14,-6.0979393e-15,-2.078952e-13,-2.2462643e-13,7.1440304e-14,3.5872225e-14,-0.73689014,1.5332999e-13,-8.988429e-14,3.5351313e-14,-1.2888493e-13,3.1479978e-13,1.5203325e-13,-1.728965e-13,3.603642e-14,-9.246778e-14,9.2562615e-14,-1.4439139e-13,1.3030519e-13,-7.9733576e-14,-1.214602e-13,-1.3120616e-13,-1.2131274e-13,-4.3703444e-14
