-9.466077e-14,-9.883908e-14,3.8359593e-13,4.9450075e-14,-2.4848336e-13,2.6752865e-14,9.0822125e-15,3.1277146e-14,6.6791906e-13,6.0221896e-13,8.2940035e-13,-5.0885495e-13,-3.574542,-3.8174758e-13,-1.021953e-13,-3.1292432e-12,-3.4818172e-13,-9.348662e-13,7.154777e-13,-6.0808937e-13,-8.668226e-14,1.3904928e-13,-3.5534678,-1.5017901e-14,-8.567222e-13,4.745476e-13,2.2376437e-13,-1.3974036e-14,1.1033176e-13,1.6710532e-13,-9.607905e-13,5.0300997e-14,-9.282184e-14,1.5387135e-13,6.250288e-13,8.4993715e-13,6.177419e-13,2.3583996e-14,1.1461958e-13,-6.2260825e-13,3.772162e-13,1.5552677e-13,2.0797437e-14,-1.3381513e-13,4.386533e-15,1.1882817e-12,5.407503e-14,-1.0329246e-12,-1.05772826e-13,-2.0409755e-13,-1.8866058e-13,2.5084267e-13,4.2774186,-3.0946186e-14,-1.2633824e-13,-3.3574862e-12,-5.3556904e-13,5.4693893e-14,-2.5356453e-13,-3.3547853e-13,-9.7586856e-14,-1.6098778e-12,3.9646122,2.3443454e-13,-1.9947439e-13,5.8457064e-14,1.4270493e-13,-9.446755e-14,-1.3507907e-13,1.1911407e-12,1.877657e-12,6.0519826e-14,-1.6027368e-13,-6.354644e-13,8.118141e-14,9.731743e-14,5.564852e-14,2.4004583e-13,1.6765623e-13,1.5600428e-13
6.287408e-13,1.2681785e-12,1.0352275e-13,-1.227614e-12,7.0531065e-14,8.913166e-13,9.263054e-14,-1.7875366e-13,1.7035346e-13,-2.2939157e-14,-2.9798484e-13,3.6464917e-13,-2.710853,7.5321314e-13,-9.5553516e-14,7.2363236e-13,2.7479055e-13,1.2536304e-13,-2.442307e-13,-2.006527e-13,1.5871213e-13,3.296837e-13,-2.872016,8.701439e-14,6.065401e-14,7.4715326e-14,-1.17119246e-17,-5.57491e-13,-3.2543534e-13,1.6693342e-13,1.4951924e-12,7.36741e-14,-2.864813e-14,-5.940436e-13,-1.0366606e-13,5.3687865e-13,2.0352657e-14,4.2264526e-13,-1.0778475e-13,1.7168504e-13,1.1505817e-12,-2.1274546e-13,1.4373112e-12,2.2399256e-13,-3.38865e-13,-7.492655e-14,-1.9631075e-13,-9.427799e-14,2.389085e-13,1.5040596e-13,7.871478e-14,6.023686e-14,-3.0154064,5.6550543e-13,-1.6723211e-12,-2.392909e-13,6.680953e-14,-2.788903e-13,-1.4922978e-13,-1.2511273e-14,1.5671328e-14,1.1951047e-13,-3.1589072,1.1376821e-13,-5.1040194e-13,-7.185734e-13,4.8686066e-13,-6.590552e-14,-5.0738856e-13,3.6866018e-14,3.101964e-13,5.208268e-13,6.3159146e-13,-4.9857782e-15,-3.4054644e-13,-9.0774247e-13,1.3287414e-12,-6.486745e-14,3.379236e-13,-7.475484e-15
-6.48192e-13,6.376941e-14,-1.7078011e-13,-8.225203e-14,-2.0540561e-13,-3.7058564e-13,-6.8169407e-13,-1.7308734e-12,-6.7304574e-14,-5.044621e-13,-4.5426377e-14,-5.426627e-13,-2.1252506,2.2471405e-13,-1.3223219e-12,2.935455e-14,1.2995007e-13,-5.904728e-13,-3.0232324e-13,5.401404e-13,-4.4909746e-13,-2.4986496e-13,-2.6612434,8.685977e-15,1.8611298e-13,8.516012e-13,-8.402073e-13,-1.3329283e-13,1.3265916e-13,8.246177e-14,-6.352172e-13,4.3207392e-13,9.48701e-14,7.747976e-14,1.1775379e-13,9.240414e-14,2.0747405e-14,-8.781915e-13,2.895144e-13,-3.4225674e-14,6.4498686e-14,-1.5042435e-13,4.6812716e-13,-1.8336865e-13,2.6692776e-13,-2.8795914e-13,-1.4016149e-12,4.4231185e-13,-5.3977157e-13,-6.226296e-13,-6.7983184e-13,-2.8266902e-13,-3.1428378,-3.938195e-13,-4.217995e-13,3.4314846e-15,7.5350555e-13,-3.8505776e-13,-8.357174e-13,-4.1920392e-13,1.6720608e-13,-7.255907e-14,-2.5268073,1.2480247e-12,4.97613e-13,-3.6877277e-14,-8.734645e-14,-8.035158e-14,6.281118e-14,-6.9701243e-14,1.1024046e-12,-2.221752e-13,4.048098e-13,-2.1292365e-13,4.2732495e-13,5.0899654e-13,7.8715615e-13,-9.423968e-13,-5.312715e-13,-6.2574826e-13
-4.0059457e-13,-1.2034823e-13,-8.4765024e-13,8.783141e-13,-3.9383912e-13,-3.2130274e-13,-4.3374272e-13,3.0464859e-13,3.6839252e-13,9.102457e-13,-9.28703e-14,7.6619944e-14,3.627365,1.7197246e-13,-1.7531549e-16,-1.4743118e-13,1.3956613e-12,1.593296e-14,1.5757531e-13,1.5723422e-12,-2.361364e-13,-2.1598034e-13,3.0685108,-3.0785538e-14,-6.4787043e-13,2.1294866e-13,1.7122401e-13,-4.562309e-13,-3.351677e-14,7.6050375e-13,6.108597e-14,-1.634064e-13,5.1060386e-14,1.927017e-13,-2.7071127e-13,1.8033837e-13,-5.9671143e-13,-7.8529956e-13,-7.5541873e-13,5.613574e-14,-1.5527442e-14,1.7861655e-14,1.6343174e-13,-8.839957e-14,1.1601905e-13,7.9298373e-13,-4.1137878e-13,2.6349964e-13,-2.3138357e-13,-1.1599868e-12,-4.3453387e-14,-1.1752461e-12,0.9698807,8.840501e-13,-5.685952e-13,-1.8394405e-14,4.283606e-14,6.235717e-13,4.9703167e-13,-2.289927e-13,1.6860744e-13,6.692845e-14,-0.24698314,1.6368656e-13,3.9840063e-13,1.2093217e-13,-1.7125898e-13,4.598214e-13,-1.0872396e-12,-1.7004391e-13,7.9091914e-13,8.3998395e-13,2.950275e-13,4.1749996e-13,-7.0027247e-13,4.7227207e-13,4.8601406e-13,3.8977892e-13,1.0847943e-12,7.3148925e-14
