1.1284634e-07,6.478037e-08,0.49103868,1.0487318e-07,1.9229974e-07,9.402976e-08,2.3331124e-07,1.5777265e-07,-1.3180957e-07,7.488239e-09,0.00042042992,-1.06047935e-08,-2.0497143e-07,-3.254516e-08,1.249621,-0.12007247,-6.9772454e-10,-0.62922204,2.0380955e-07,-5.573007e-07,-0.0877726,-1.5501826e-07,6.5502476e-08,-1.2687327e-07,-1.6590538e-07,-7.1563306e-08,6.7585525e-08,2.6903325e-07,9.497242e-09,2.5880365e-07,-4.1456254e-08,1.02640804e-07,-9.281372e-08,-0.060724955,3.5592194e-07,-0.9722995,0.5033134,7.0247935e-08,-3.1343242e-07,-1.7466083e-07,-9.985746e-08,0.30725315,-1.3384225e-07,-2.82736e-07,-9.05854e-07,-0.3416803,0.38820985,1.7476052e-07,0.0027787462,-2.4182523e-07,5.35573e-08,-2.6448942e-07,-0.0309291,-4.6529756e-08,-1.5194188e-07,2.4748658e-08,2.3983353e-07,7.338484e-08,-1.8074493e-07,5.8136715e-07,-0.0007439217,-2.835173e-07,-4.2410104e-08,1.690822e-07,0.3309611,1.0343782,-8.403703e-09,-0.013766542,-2.832994e-07,7.70164e-09,-0.21329008,2.3448806e-08,1.3801468e-07,-1.4900152e-07,-3.9551304e-09,-1.2994023e-07,-1.4804134e-07,2.0396955e-07,-1.1078836e-07,1.3433802e-07,-3.640949e-08,8.731762e-08,6.468199e-08,-0.00081480644,-1.2964482e-07,0.5917956,-1.4840165,-6.4692074e-09,-1.0715634e-07,-1.5946091e-07,-2.332808e-07,-0.12728393,1.8952571e-07,2.2095077e-07,-6.906218e-07,0.19472004,0.66085666,-2.936764e-07,0.55778795,2.2170485e-07
4.5252236e-08,6.125916e-08,0.08348366,2.0457419e-07,1.8817155e-07,-1.3714555e-07,-1.6022665e-07,-1.7001368e-07,8.369338e-08,4.466304e-08,-3.864552e-07,1.0041099e-08,-1.0186747e-07,1.4047929e-07,-0.64704883,0.17334738,-2.7510777e-07,-0.62234294,3.1429173e-07,-1.2645755e-07,-0.26590255,-1.6924088e-07,-1.6766272e-08,-1.0515589e-07,4.2950887e-09,-9.434356e-08,2.8870886e-08,-3.461932e-08,-2.0484255e-07,2.1300954e-07,2.4091815e-07,-7.23239e-08,1.3545787e-10,0.008702358,2.9135612e-07,-0.19590524,1.3058019,-3.006076e-08,1.5366209e-07,-2.3846428e-07,2.386099e-07,-0.08726539,-7.4056345e-08,-3.523207e-07,-6.9864984e-07,-0.5906059,0.113255456,-2.93434e-07,-0.035745494,-2.5494325e-07,-1.1174103e-07,-5.7474907e-08,-0.103616595,6.15137e-08,-4.4236366e-08,2.4311072e-07,6.140475e-08,7.458707e-08,-2.4863647e-07,4.5626784e-08,0.0012951065,-1.9717497e-07,1.5311613e-07,1.916041e-07,-0.06346838,0.070327304,1.9784628e-07,-0.26392958,1.4570121e-07,2.5502e-08,-0.73312217,-3.9946727e-08,-2.094456e-07,-2.2723034e-07,1.09190296e-07,1.2096818e-07,1.7263861e-07,-8.883808e-08,-7.640798e-08,-2.3475503e-07,-3.0456664e-07,-2.3907256e-07,7.552069e-08,-0.008653878,-2.0186391e-07,0.31340158,-1.8175617,-2.591604e-07,-7.60554e-08,1.2149268e-07,1.3287277e-07,0.107223496,-8.446247e-08,-2.602323e-08,2.6071282e-07,0.6829873,0.19129021,9.595958e-08,0.36456192,7.5253894e-08
-6.722448e-08,2.1531953e-08,0.09630976,-1.875957e-07,-8.925468e-08,2.3742126e-07,-6.9431685e-08,-1.1612191e-07,1.5845124e-07,-2.8855163e-07,-0.00021385851,1.5905522e-07,2.394163e-07,-2.764068e-09,-0.98683983,0.31864828,-5.5023534e-08,-0.9784148,2.455877e-07,-3.780681e-07,-0.42645136,2.6520826e-07,-6.688474e-08,-1.7110166e-07,-1.8069218e-07,1.1440713e-07,-1.5462676e-07,9.4842015e-08,-5.1180585e-08,6.492104e-08,-3.6026833e-08,8.483103e-08,1.6318866e-07,0.01680878,1.9460532e-07,-0.22682412,0.07937197,-2.729037e-07,-6.067374e-08,-1.253571e-07,-4.64106e-08,-0.24880385,-2.067834e-07,-4.124228e-08,5.4936754e-07,0.024360776,0.34140918,2.184633e-07,-0.35914665,-7.1957736e-08,1.974843e-07,2.3509651e-07,0.00063902745,-1.4330277e-07,1.5475791e-07,4.7782862e-08,-3.224978e-08,-1.5985933e-08,-1.729347e-07,-5.397299e-07,-0.00023635293,-4.3464752e-07,8.5669e-08,1.12364546e-07,-0.33239952,-0.17276594,-1.182629e-07,-0.68878716,8.584578e-09,-6.1245615e-08,-0.55647206,-6.271289e-08,-7.194551e-08,-1.067937e-07,-9.3595766e-08,-1.5540762e-07,-4.5326992e-08,-5.744192e-08,7.6888895e-08,6.522502e-08,1.6268895e-07,-6.683496e-08,-3.3389313e-08,-0.007413152,2.1235125e-07,0.101180285,-0.76435715,1.7039136e-07,1.4673813e-07,-6.717475e-08,1.9980372e-07,0.48041844,3.325119e-08,-3.5097295e-07,-3.2417208e-07,0.78841674,0.32112363,-1.4238101e-07,0.6868079,1.4082264e-07
-4.091332e-08,1.8380675e-08,-0.32245582,-5.0799507e-08,-1.3973809e-07,6.0973115e-08,-4.343041e-08,2.7640976e-07,2.8066696e-08,1.1787884e-07,-0.0016582409,1.9108755e-07,1.0893869e-07,3.2041916e-07,-1.0022285,0.4139929,2.086145e-08,-0.4069673,2.2520832e-07,4.197101e-07,-0.505548,-1.474303e-07,-2.5489385e-07,2.0930034e-07,-2.685319e-07,2.332762e-07,1.3057543e-07,1.8753721e-07,9.193785e-08,1.5787094e-07,-5.3203447e-08,1.854981e-07,3.8207503e-08,-0.014941529,-1.0871302e-07,0.27741957,0.50348,2.4667168e-07,-2.1321782e-08,3.2630703e-07,1.3224965e-07,-0.04122513,-4.7374783e-07,1.9295531e-07,7.9680154e-07,0.0754789,0.16951238,-1.6855573e-08,-0.37968397,-1.719607e-07,-1.6736267e-07,-1.3796111e-09,0.039244458,2.1294966e-08,-8.0796184e-08,5.416397e-08,-1.3715278e-07,-1.961024e-07,-2.378873e-07,2.7961767e-07,-0.00093853206,-3.2528592e-07,-2.555094e-07,5.0618368e-08,0.091637224,-0.16327466,-2.8038866e-07,-0.4579885,-2.5211665e-07,1.4544565e-07,-0.537508,1.4966328e-07,1.7112717e-07,1.00947084e-07,-1.6697854e-08,9.407496e-08,3.1302477e-08,1.2595618e-07,2.0079375e-07,-1.9949395e-07,9.757396e-08,-8.4470685e-08,5.396376e-08,-0.010551706,7.286613e-08,0.1524744,-1.8568976,1.0872181e-07,1.7890929e-07,1.01839674e-08,-2.2952483e-07,0.5001596,-3.089879e-07,1.5634336e-07,-1.0269366e-07,0.59985304,-0.03294425,2.1511005e-07,0.72108394,4.106846e-08
5.6054954e-08,-3.3064623e-08,0.10438044,9.399409e-08,-8.015631e-08,9.8104145e-08,4.2912696e-08,1.0553859e-07,2.2507739e-07,-1.5524051e-08,0.0019242602,6.037102e-07,-1.2646312e-07,6.413041e-08,-0.81892675,-0.4027608,-1.14877096e-07,-0.6156774,2.1750637e-08,3.1746407e-07,-0.16248192,1.8562008e-07,1.1014271e-07,6.701379e-08,1.5656924e-07,1.154259e-07,-1.3422523e-07,-1.1411478e-07,-1.08010504e-07,1.8615793e-07,-1.06529455e-07,5.973656e-08,7.143311e-08,0.0019344585,1.14098846e-07,0.2058535,0.587657,-1.2243507e-07,1.1558279e-07,1.2078e-07,-1.2946344e-07,-0.34813738,-2.3281828e-07,-9.7853885e-08,2.400444e-07,0.16696043,-0.09594503,2.8282152e-08,-0.5856294,-1.950444e-07,9.5757585e-08,8.852124e-08,-0.12962355,-3.3682824e-07,8.487294e-08,-9.008009e-08,-4.3676394e-08,6.64846e-08,-9.163769e-08,2.0805365e-07,0.00025873986,-1.7237912e-07,-1.0331088e-07,-1.4392572e-07,-0.09760253,0.4286117,-1.4017732e-07,-0.75655675,6.030303e-08,2.2169311e-07,-0.012580857,8.4858826e-08,1.4078796e-07,-2.4087004e-07,1.7967072e-07,1.4984876e-07,5.4003237e-09,-1.9284536e-07,3.4833178e-08,-1.8055123e-07,2.9208172e-08,-1.6942768e-07,-1.0152007e-07,0.007365045,1.941905e-07,0.107613474,-0.7940259,-3.9204693e-08,-5.455405e-09,1.833661e-07,-1.000769e-07,-0.42797232,-1.2846505e-07,-4.8095178e-08,3.0165813e-07,0.5263721,0.8029131,-1.535467e-07,0.18613096,1.8244111e-07
-6.7343976e-08,2.8110776e-08,0.23647435,5.2725007e-08,2.6944284e-07,1.2381676e-07,5.845908e-08,2.4260743e-07,1.4205828e-07,-3.0366004e-07,-0.0002359612,1.18512105e-07,1.1479983e-07,2.001181e-07,-0.7375424,-0.35291293,-2.3163904e-07,-0.60117775,2.5252587e-07,-9.9112455e-08,-0.073063925,1.14613854e-07,-3.2103173e-08,2.9753707e-08,-2.4668597e-07,1.92323e-07,-4.3807944e-09,6.821027e-08,7.9082355e-08,9.990186e-08,-3.9264833e-08,-3.2178116e-07,1.4779401e-07,-0.022046112,-8.755137e-09,0.33227795,0.9626561,-1.7552993e-07,7.578372e-08,1.9266598e-07,-2.8685577e-07,-0.11379877,-1.4417625e-07,2.8910563e-10,9.782752e-07,0.36207855,-0.17477402,1.141948e-07,-0.401224,-5.8187155e-08,-1.9285599e-07,-1.5461102e-07,-0.010301737,-2.0724569e-07,1.8590455e-07,-6.316469e-09,-7.756391e-08,-1.5503028e-07,-5.549842e-08,1.3066152e-07,-0.00050246326,1.7427013e-07,-2.0798042e-07,-1.477717e-07,-0.08203765,0.10617793,-3.5344016e-08,-0.32687518,-7.145866e-08,2.9199867e-08,0.2295082,4.4995502e-08,-7.1095556e-08,1.4203528e-07,4.3104876e-08,3.101536e-08,-1.000929e-07,-3.981218e-08,-1.242613e-07,1.7209777e-07,1.5676761e-07,-3.7846775e-09,-1.0485423e-07,0.0026370357,1.6822905e-07,-0.032882445,-1.5580254,8.860232e-08,-2.0997078e-07,-8.293387e-08,-7.509108e-08,-0.22486375,-1.01533985e-07,-5.8848485e-08,-1.9971992e-08,0.06608841,0.24391349,-2.0028068e-09,0.43894422,-1.1777645e-07
-1.3532153e-07,-1.0785885e-07,-0.37712336,-6.934417e-08,2.1958627e-08,-5.3659747e-08,2.7783702e-07,-1.194401e-08,1.7495091e-07,-5.817744e-07,0.00030919828,-3.6710357e-08,-2.4101763e-07,-9.99265e-08,-0.79427576,-0.099805735,-1.6881413e-07,-0.7650378,2.3874895e-07,1.3741057e-07,-0.7363733,-1.8449657e-07,-5.8686314e-08,1.0711105e-07,2.8220654e-07,-1.7324611e-07,-1.5377032e-07,-1.1469895e-07,1.4247868e-07,-3.0389344e-09,7.913342e-08,1.4981639e-07,-1.576259e-07,0.010749654,-2.047615e-07,0.27024233,-0.3642338,8.2010864e-08,2.8146906e-07,-7.562682e-08,8.755968e-09,-0.3585599,-2.8342447e-07,-9.5048456e-08,5.1335445e-07,0.16597778,0.052588,-1.5692649e-08,-0.58514404,-1.583123e-07,-2.7881768e-08,-1.02776944e-07,0.39321595,1.9183878e-07,-5.2907694e-08,8.223118e-08,-4.371943e-08,-2.3814509e-07,-5.0506856e-08,-2.526932e-07,0.0006503974,-1.2372199e-07,8.2758156e-08,-1.1669755e-07,-0.42525256,-0.26659873,-5.9046634e-08,-0.24715643,2.2610263e-07,-3.2848746e-08,0.027237631,1.8324565e-07,1.2655039e-07,4.6585075e-08,2.1320102e-07,1.6786392e-07,-9.029738e-08,-3.056654e-07,3.2538296e-08,-1.9433955e-07,-6.632801e-08,-9.442625e-08,-4.0832344e-07,0.00023965904,-6.118843e-08,0.11342811,-1.080648,-1.8261589e-07,5.297718e-09,-2.923064e-07,2.7492928e-07,-0.35993838,-1.352633e-07,1.609856e-08,-5.063614e-07,0.2279775,0.37321526,-1.17550826e-07,0.9594368,-1.886196e-08
-1.2018987e-07,1.6842094e-07,-0.09750337,-1.7190038e-07,-5.8821957e-08,-3.984023e-08,1.4902795e-07,-4.4588973e-08,-1.638916e-07,-3.3074997e-07,0.00013792189,-1.8071628e-07,-1.3562766e-07,2.0275186e-07,-0.52338195,-0.11411993,-7.278628e-08,-0.84458834,2.4314318e-07,7.1351664e-08,-0.45233703,-1.6173254e-07,-3.096359e-08,-1.09874364e-07,-1.0147578e-07,2.2272124e-07,2.7825994e-08,-1.2695389e-07,1.4959724e-08,2.0811575e-07,-1.731321e-07,-1.6670288e-07,5.2519e-08,0.010354886,-4.795561e-08,0.020255368,0.39478406,-3.0938483e-07,-1.5435859e-08,-3.8793416e-08,1.1986191e-07,-0.35103813,-2.079602e-07,2.121723e-07,-1.288038e-07,0.047925025,-0.07197131,-1.16728906e-07,-0.49781886,1.8093921e-07,7.050123e-08,-6.0445586e-08,0.24638355,1.3973046e-07,-3.0444107e-07,1.1261879e-07,1.4650197e-07,-1.9214542e-07,1.727402e-07,-2.0653275e-08,0.00080130104,5.761602e-08,7.642642e-08,5.252015e-08,-0.47675598,0.038478777,8.8687045e-08,-0.6789085,2.1699529e-07,3.868849e-08,-0.32503346,1.33933895e-08,-8.182661e-08,9.1668944e-08,2.664306e-07,4.1879503e-08,1.1442683e-07,2.2090146e-07,9.762671e-08,-5.739586e-08,1.06687594e-07,-1.053289e-07,3.109264e-08,0.0005629115,7.216272e-10,0.022426069,-1.8694931,1.4533775e-07,1.962239e-07,2.8269721e-07,-2.0567379e-07,-0.0011842991,1.6738132e-07,7.924233e-08,-1.8581913e-07,0.41573316,0.24639453,7.506083e-08,0.94643754,1.496386e-07
3.0720187e-08,-1.2325941e-07,-0.77619916,-1.7527199e-07,6.8511824e-08,-1.05389326e-07,3.3826754e-07,-1.7157087e-07,-1.4492832e-07,3.9401957e-07,-0.00019851724,-3.13462e-07,1.7500301e-07,1.1718571e-07,-0.14244922,-0.004969991,1.078395e-08,-0.8744815,2.7753123e-07,-6.86926e-08,-0.53172094,2.1298224e-07,5.1057363e-08,1.470083e-07,1.3479381e-07,1.7138655e-07,1.7432657e-07,2.3893975e-07,-2.5215485e-08,3.198236e-08,-1.728849e-07,2.4211843e-08,2.6205947e-07,-0.0061026593,3.5732654e-08,1.0847325,-0.3859257,1.8647269e-07,-1.1694734e-07,1.5878491e-08,1.7486599e-07,0.09678154,9.573058e-08,2.8181452e-07,6.556067e-07,-0.55956256,0.06617927,-1.4379097e-07,-0.23903567,8.142888e-08,-5.7555617e-08,8.2733905e-08,0.06848941,-4.0908148e-08,-1.1881051e-07,-2.3796858e-07,1.0467158e-07,-5.6824447e-09,2.2272891e-07,6.435087e-09,0.000971836,-1.3874808e-07,-2.1086794e-07,1.7665703e-07,-0.2235102,-0.02288392,1.7557335e-07,0.23682669,-3.272944e-08,-2.2622078e-07,0.388309,2.02882e-07,-2.0533678e-07,-1.493784e-07,1.0799503e-07,1.2337907e-07,-7.575337e-08,7.338285e-08,-1.1879145e-08,6.004285e-08,-2.6232834e-07,-6.229503e-08,-2.7081362e-07,0.0013674494,1.7098914e-07,-0.2551711,-0.9382414,9.0090985e-08,-1.409664e-07,-1.1556772e-07,1.4877891e-07,-0.44722682,1.6341872e-07,-1.1847221e-07,-1.3650104e-07,1.3205689,-0.33483613,-1.6897549e-07,0.9265374,1.2059412e-07
1.8582243e-07,2.4554438e-08,-0.21918997,-2.6189522e-07,-2.6217268e-07,1.7097276e-08,-3.1857132e-07,2.3071513e-07,-6.583048e-08,1.0802526e-07,-7.21318e-05,-4.0919957e-07,-2.797733e-07,-1.4825217e-07,-0.8623091,0.13930246,-7.3519644e-08,-0.9575583,-2.6362412e-07,3.849424e-07,-0.623743,-1.5621683e-07,1.18490675e-07,-8.340257e-08,-1.8550531e-07,5.408741e-08,-2.7874066e-08,-3.7144693e-07,1.0524675e-07,-4.7191264e-08,-3.1083786e-08,7.648396e-08,5.37389e-08,0.0069641,-1.3325092e-07,-0.027371729,0.5493884,1.3185439e-07,2.419385e-07,6.002962e-08,2.2531881e-07,0.040782396,5.468818e-08,1.937715e-07,-7.0166664e-07,0.5476772,0.10175398,2.3292897e-07,0.23071896,1.221844e-07,-1.8819023e-08,5.2172553e-08,0.019850496,-9.4117894e-08,-1.1220929e-07,1.4037931e-07,1.4151017e-07,1.037952e-07,-2.096892e-07,-3.2495558e-07,0.0007628363,4.7884924e-08,1.7276145e-07,1.6641746e-07,-0.015588833,-0.11978037,1.09074406e-07,0.10671597,1.4726237e-07,-1.095722e-07,0.54491687,2.7512743e-07,3.0719733e-07,1.0878685e-07,2.477175e-07,-7.2295705e-08,4.223064e-08,-2.0880918e-08,-7.773914e-08,1.570519e-07,-1.519372e-08,1.9310619e-07,-1.7298417e-07,0.0049730963,4.275456e-09,-0.12709343,-1.3965666,-5.5277148e-08,-7.512308e-08,-4.476975e-08,9.4869904e-08,-0.6360553,2.3334186e-07,-1.3450597e-07,4.816542e-07,1.3396821,-0.17303842,9.3026046e-08,1.2198663,1.5706263e-07
1.4973881e-07,8.329115e-08,-0.06013035,-5.245134e-08,1.0371733e-07,2.2934233e-07,3.6379288e-07,1.6927864e-07,3.8082803e-08,-1.4875333e-07,0.0010993396,2.1231841e-08,1.8041503e-07,-2.16538e-07,-1.2753983,0.11598534,-1.2918872e-07,-1.0966643,-1.3586767e-07,-8.248614e-08,-0.4571203,1.66396e-07,1.7630478e-07,1.2091914e-07,-2.8233654e-07,1.1930119e-07,-1.9515916e-07,2.4195688e-07,1.3193882e-07,-1.491147e-07,-2.7959821e-08,1.1692909e-07,-3.600593e-08,-0.01232432,1.8163712e-07,0.28829828,-0.4872551,2.3397574e-07,-9.3722484e-08,2.5616964e-07,-1.179107e-07,0.14333315,9.137634e-08,2.5050923e-07,-4.2200082e-07,0.5565344,0.14961967,1.027938e-07,-0.3059539,-1.4444336e-07,-2.2592239e-07,1.1037362e-07,-0.34174222,1.0965399e-07,1.8494315e-07,1.14394844e-07,2.3280711e-07,-2.962442e-07,2.3481245e-07,-4.8014846e-07,-0.0010554579,-4.17824e-10,1.3099759e-07,-1.2556657e-07,-0.06597221,0.16028807,-1.7517374e-07,-0.18703678,5.36056e-08,2.0514761e-07,0.43326014,6.457171e-08,-1.2174567e-07,1.3648602e-08,-1.8986852e-07,-1.6681085e-08,-6.280829e-08,2.2583052e-07,-5.7814617e-08,7.0126106e-08,1.5585692e-07,-1.13415155e-07,7.040329e-08,-0.0011893953,-1.9087601e-07,-0.060952403,-0.9805117,-3.246141e-07,-2.2865256e-08,-5.192399e-08,2.8820688e-07,-0.38086125,2.757764e-07,-1.4321441e-07,-2.0016884e-08,0.19481671,-0.035874464,1.5860067e-08,1.046698,7.960196e-08
-2.5417279e-08,1.5828473e-07,-0.060041808,-4.3042917e-08,-1.5782693e-07,-7.069205e-08,3.651465e-09,2.4734652e-07,2.3287448e-07,1.3290526e-07,6.557737e-06,1.2416984e-07,-6.040181e-08,4.6271623e-08,-1.5622581,-0.041450176,-1.0372217e-07,-1.240094,-1.2442125e-07,-1.9393036e-07,-0.4035657,-1.1730718e-07,-1.2178845e-09,1.0794179e-07,-4.1623707e-08,-1.4835229e-07,7.1106264e-08,-2.2811498e-07,1.7397628e-07,-1.4963281e-07,1.4509541e-07,1.1485504e-07,2.157154e-07,-0.0024510936,8.933842e-08,0.17316073,0.22963661,-1.5945972e-07,8.514702e-08,2.179394e-07,1.1791302e-07,-0.046968255,1.0103422e-07,-1.16637125e-07,-3.0678655e-07,0.3229957,-0.035511997,-4.0885055e-09,-0.46178955,8.0852494e-08,-1.7036083e-07,-5.491239e-08,-0.043561783,1.4684971e-07,8.720109e-08,2.8412452e-07,-1.3257643e-07,-1.5225046e-07,1.2645836e-07,-7.406396e-08,-0.0004540137,5.8805945e-08,4.4610857e-08,2.4640912e-08,0.50501543,-0.107829124,1.3895337e-07,-0.42836797,8.23465e-08,1.960649e-07,0.44457093,2.3525101e-07,2.6460478e-07,2.1701341e-07,-6.7135616e-08,2.3568276e-09,-1.3481439e-07,-1.4992494e-07,-3.903554e-08,-1.8574218e-07,7.746635e-09,2.3569044e-07,-8.522967e-08,-0.0071931276,-3.2169382e-08,-0.069132686,-1.9614899,-1.9575353e-07,-1.9029355e-07,-1.9038612e-07,-9.937788e-08,-0.12190584,1.8593589e-07,-1.1865824e-07,9.023583e-07,0.15279143,0.22127818,-8.923803e-08,0.99806654,-1.8126983e-07
-1.4616296e-07,7.2883943e-09,0.2532375,-2.639395e-07,-1.493882e-07,-2.4752424e-08,2.0840201e-07,3.26391e-07,8.1867725e-08,1.7284378e-07,4.6592315e-05,3.031144e-08,-1.0882463e-08,-3.260761e-07,-1.690337,0.0013470929,-1.8226059e-07,-0.70628196,2.0270765e-07,2.7479285e-07,-0.5681164,8.194345e-08,-7.8901735e-08,-9.122103e-08,2.0513707e-07,4.3150237e-08,1.1003372e-07,-2.6333885e-07,7.0391934e-08,-1.5289233e-07,1.395077e-07,-1.6416658e-07,2.5010584e-07,-0.0017350048,1.7007316e-07,0.36454433,0.6202047,8.651647e-08,-1.7908182e-07,-8.2862016e-08,-7.961442e-08,-0.2032837,8.6897955e-08,-1.614229e-07,2.925922e-07,-0.50868374,0.044734105,1.1664171e-07,-0.47346482,-1.7101759e-07,6.716264e-08,-7.0194517e-09,-0.31151077,7.905971e-08,-1.5776143e-07,2.0546513e-07,2.073693e-07,1.8225239e-07,7.262247e-08,2.5557952e-07,-0.0017374187,-3.9543156e-07,-1.6135697e-07,2.564903e-09,0.55723214,0.12220266,-1.1687021e-08,-0.27233398,-2.526061e-07,-6.189305e-08,0.2685409,-2.8941386e-08,4.21919e-08,-9.0806054e-08,-2.073231e-07,-1.8918553e-07,9.6315745e-08,-2.517877e-07,1.4035749e-07,-2.3347482e-07,8.5638995e-08,-1.4360957e-07,1.1670575e-07,0.0016002413,-1.2551398e-07,-0.08608422,-0.78730386,1.9719934e-07,4.3242423e-09,8.7576275e-08,1.3030643e-07,-0.24130344,8.248736e-08,-2.379977e-09,-4.2899387e-07,-0.2887487,0.5865718,2.2941342e-07,0.5627394,-9.999845e-08
-8.924667e-08,8.8805905e-09,0.10222745,1.7507507e-07,-3.3364906e-08,-2.0354688e-07,-3.5476774e-08,6.0393795e-08,-2.524537e-07,-4.4618108e-07,-0.0003890218,3.0302402e-07,-9.774425e-09,-1.0993344e-07,-1.1604182,-0.053689025,-9.558923e-08,-0.55854887,-2.1455735e-07,1.616479e-08,-0.61093587,-8.474742e-08,1.3005803e-08,2.2027201e-07,-1.2683523e-07,-1.5569209e-07,1.4644458e-07,3.9518824e-08,1.6031785e-07,2.3967726e-07,-2.2534797e-07,-2.3752925e-08,8.145875e-08,-0.0008431993,-1.0827449e-07,0.08887814,0.087007456,9.768939e-08,2.921697e-08,4.004928e-08,6.3104174e-08,-0.22894204,-1.7599221e-07,5.3331803e-08,2.8233345e-07,-0.12587449,0.024503766,-1.9897637e-07,-0.5745998,-1.7955983e-09,2.1083048e-07,7.612286e-08,-0.1091219,-1.4975139e-07,-1.338536e-07,5.9140362e-08,-1.0106733e-07,-2.456746e-07,1.3440815e-07,-1.8624172e-07,-4.841099e-05,-1.9851673e-07,1.1298414e-07,-7.3110286e-08,0.7763482,-0.031379383,7.366644e-08,-0.4668384,-7.733735e-08,-1.0245944e-07,0.4881721,-1.3972712e-07,1.6687098e-07,7.794688e-08,1.7195599e-07,1.692172e-07,-1.9725397e-07,1.2137875e-08,-1.5871628e-07,1.8066459e-08,3.2894164e-07,-2.0741014e-07,-1.2328324e-07,0.0016032247,1.7407456e-07,-0.013517267,-1.4235531,-3.166106e-08,9.990799e-10,1.2126401e-07,1.0319937e-07,-0.08688035,1.5049392e-07,2.4785845e-07,-1.715795e-07,1.1180066,0.6093195,-2.2798451e-07,-0.19597766,9.969394e-08
4.5745683e-08,5.7801188e-08,0.3576498,-1.8604366e-07,-8.618896e-08,1.7049659e-07,2.2324862e-07,-4.203747e-08,-2.1713345e-07,-2.2055804e-07,0.00033028173,2.5395005e-07,-2.3875089e-07,-1.4140285e-07,-0.5059276,-0.20017424,1.4581762e-07,-0.010224551,1.0858958e-07,1.6435445e-07,-0.82124263,-1.574964e-07,9.165497e-08,1.3317947e-07,1.0128057e-07,7.555744e-08,-1.5665637e-07,-1.5276717e-07,3.0898846e-08,-2.1267308e-08,-6.3282485e-08,1.18714084e-07,-3.990124e-09,-0.018752448,-7.2515995e-08,0.11113553,-0.9265706,-9.2523905e-08,2.420142e-08,-8.792675e-08,-5.2590433e-08,-0.6077175,9.273583e-08,-3.7974803e-07,4.5905514e-07,0.3151724,0.13960409,-7.0036194e-08,-0.5862652,1.1737703e-07,-1.18727286e-07,6.018155e-08,0.14008442,-2.3370134e-07,3.2954084e-08,-1.558584e-07,-1.2257183e-07,-1.01507595e-07,-7.127831e-08,-4.823927e-07,-0.00042189402,-2.7673071e-08,-1.082998e-07,-8.477144e-09,0.43488348,-0.25918424,-1.13025926e-07,-0.13922223,-1.7688768e-07,3.7200977e-07,0.55267537,-2.510502e-07,5.4553524e-08,-3.7128054e-08,-6.8983823e-09,2.587462e-07,9.962995e-08,-2.5240598e-07,1.4949705e-08,-3.4777338e-07,-2.8522916e-07,-2.9764983e-08,-1.1890037e-08,0.0013091224,-9.801673e-08,0.30759937,-1.0045431,9.935418e-08,3.692047e-08,3.5326013e-07,-1.6690333e-07,0.059959512,7.408002e-08,-3.05532e-07,2.7652626e-07,1.2696524,0.6261764,-2.1641657e-07,-0.22504872,1.2987695e-07
2.1531952e-07,-8.866439e-08,-0.09535677,6.84351e-08,9.4436686e-08,1.4943276e-07,2.21785e-07,1.6753887e-07,3.0492103e-08,9.0472824e-08,-8.5248976e-05,-7.451309e-08,3.0946694e-09,-3.873473e-08,0.039587423,-0.04796257,-8.703397e-08,-0.047950305,9.683821e-08,-2.6466262e-07,-0.63084143,-7.315601e-08,4.0575088e-08,3.6298026e-08,1.14458516e-07,-7.8758994e-08,-1.8372982e-07,2.1761997e-07,-1.4705353e-07,-5.27193e-08,5.997852e-08,1.6237644e-07,2.0853872e-07,0.0050321184,-1.16648984e-07,0.011357088,0.89857846,2.4906726e-08,-2.522965e-07,-2.5018892e-07,-1.1176041e-08,-0.023141777,1.1017545e-07,-3.291296e-07,-8.429383e-08,0.081489384,-0.05158688,8.2558856e-08,0.10324665,-1.2436169e-07,-2.6556435e-08,1.5853836e-07,0.22260782,-1.2568478e-08,1.1971704e-07,1.1391896e-07,-2.6844617e-07,-7.607438e-08,-1.06530756e-07,-1.1781907e-07,-0.0004105565,1.0692686e-07,4.4655174e-08,-2.5021197e-07,0.74488467,-0.07992562,-1.7105714e-07,-0.06669401,-4.8842352e-08,1.243643e-07,-0.045347765,-1.814763e-07,1.15633725e-08,-2.4577423e-07,-8.579359e-08,-9.84822e-08,-2.1268922e-07,7.1983806e-09,2.5819446e-08,-1.8302607e-07,-3.9387203e-08,-8.8297796e-08,2.0714242e-07,-0.0014869991,-1.6735014e-07,-0.014253065,-1.746664,-1.7090849e-07,-1.5590912e-07,8.0879914e-08,1.6012919e-08,-0.036126807,2.1059093e-07,3.378034e-08,1.9503065e-07,0.19485447,-0.040704984,-9.799339e-08,-0.08677221,-1.01453566e-08
1.7692838e-07,7.952799e-08,0.32854277,1.003687e-07,5.0724978e-08,-8.2550535e-08,-2.3127384e-07,1.4846343e-08,-1.8435894e-07,-2.2986704e-08,0.00048954436,-3.9118575e-09,-1.335719e-07,-2.6858814e-08,-0.44623733,0.006186641,-2.2809939e-08,-0.09445818,1.2850253e-07,-4.8180175e-07,-1.2962149,2.4073898e-07,1.3888304e-07,-1.2523078e-07,-2.2969033e-07,2.181142e-07,2.7675992e-07,2.2124269e-07,2.9830616e-08,-2.1121377e-07,-7.1977205e-08,1.316241e-07,-1.8685023e-07,0.019495651,-3.1449596e-07,0.19890851,0.07352845,1.2100551e-07,-1.9373147e-07,-7.2702264e-08,1.4126859e-07,-0.39992976,7.8709164e-08,-6.129637e-08,7.60493e-07,-0.07719199,-0.24420388,-1.8601034e-07,-0.52994406,1.1842657e-07,-4.0652964e-08,-1.5985617e-07,0.23000732,-7.623715e-08,-1.2462831e-07,-7.887719e-08,1.2013119e-07,-1.9402805e-08,5.2483003e-08,-6.0766155e-07,-0.000986736,1.0409664e-09,2.5815268e-07,-1.2509467e-07,0.94904286,-0.21727379,1.3038438e-07,-0.007252457,1.9884546e-07,-4.2046506e-07,0.27418432,6.364772e-08,4.868415e-09,-1.7428702e-07,-2.744004e-07,-1.9767701e-07,-8.965018e-08,2.3972476e-08,5.170108e-08,2.0924094e-07,-4.571534e-08,-5.2238107e-09,2.610199e-07,-0.0006121512,-1.3832387e-07,-0.059658088,-1.0405515,2.4636978e-07,-1.7653787e-07,1.4504901e-07,1.6178159e-07,-0.23363635,2.683358e-07,-2.6525265e-07,-3.8521742e-07,0.7221795,0.58764905,1.2325968e-07,-0.30415252,-1.488454e-07
-4.2745825e-09,3.315904e-08,-0.11080579,1.2551487e-07,7.3924156e-09,2.38344e-07,3.1768153e-07,-2.624535e-07,1.7122075e-07,-2.2381926e-08,-0.000803151,1.85937e-07,-2.033239e-07,1.3033097e-07,-0.30685377,-0.30626637,1.6728914e-07,-0.059411716,2.4055817e-07,-7.491728e-08,-1.2039127,1.2302192e-07,1.1038085e-07,2.1786977e-07,-8.546667e-08,-1.9598653e-07,1.3731385e-07,-8.192245e-09,1.0627883e-07,1.0656194e-08,2.4114746e-07,-1.0266304e-07,1.4541466e-07,-0.008178259,3.3977486e-08,0.16831242,-0.0401987,1.3603199e-07,-1.6737877e-07,2.5479238e-08,6.394656e-08,-0.0790779,-2.41814e-07,-3.4715504e-07,-2.7578844e-07,0.05758385,-0.13267042,1.732262e-07,-0.2870059,-5.0553858e-08,1.8530189e-07,9.124894e-08,-0.12045655,-3.122434e-08,1.7948679e-08,-2.0416905e-08,1.7149281e-07,1.3902002e-07,1.7589298e-07,2.2618056e-07,0.00032457866,-3.246302e-08,-2.7990168e-08,1.09746935e-07,0.73473215,-0.09252495,6.844303e-10,0.39205208,-3.0952936e-07,-1.9670944e-07,0.41589335,-2.4402664e-07,1.554147e-07,5.9180707e-08,1.2827599e-07,-1.6333422e-07,8.393542e-09,-2.1741887e-07,-2.0472207e-07,1.322556e-07,3.5820108e-07,6.665048e-08,-1.12001715e-08,0.004989095,-2.4088868e-07,-0.053908423,-1.6417958,1.0939849e-07,1.2513848e-07,4.2938098e-09,8.405216e-08,0.11845589,2.2626088e-07,-3.4781075e-07,2.1468175e-07,0.4840087,0.44493306,-1.5115276e-07,-0.35756385,-1.630998e-07
-1.3148377e-08,9.522831e-08,-0.11682365,1.4911876e-09,7.568744e-08,-7.911808e-09,1.9538646e-08,-1.8694436e-08,2.8733979e-08,-1.747199e-08,-0.0016994883,2.355473e-07,1.2869629e-07,1.0277432e-08,-0.24108826,-0.34126693,-7.394672e-08,-0.4512624,-4.5920956e-09,-2.0906816e-07,-1.549171,5.302129e-08,3.0096032e-09,-7.8319324e-08,-1.7514998e-07,-1.11718336e-07,-3.8336985e-08,2.2623233e-08,1.74243e-07,2.6040374e-07,4.2461913e-08,7.900301e-08,1.9505208e-08,0.008990733,-1.4394374e-07,-0.51392686,0.18698326,1.8885132e-08,-6.9656494e-09,2.56009e-07,-2.5488464e-07,0.09612877,7.0858036e-08,-1.940441e-08,1.4999664e-06,0.32147157,-0.4478659,-4.5379878e-08,-0.5260693,1.038174e-07,1.1046225e-07,7.371436e-08,0.11175186,-1.4501862e-07,-2.0831607e-07,-1.6260634e-07,9.064584e-08,-4.7755464e-08,1.8393881e-07,-1.1465676e-07,-0.0027196053,-6.5529974e-08,-1.9099568e-07,-3.1428748e-08,1.0070688,-0.10886896,-9.108172e-08,0.25487244,2.0591789e-07,2.477921e-07,0.13694265,1.2878445e-09,-1.9242584e-07,1.6158148e-07,-1.7289966e-07,8.5283375e-08,-8.419211e-08,2.0148158e-07,5.135157e-08,1.5989302e-07,1.05072765e-07,7.8705725e-08,2.3217297e-07,0.0020243276,-2.0956415e-07,-0.064540505,-0.9508258,1.9357236e-07,4.5864027e-08,3.935672e-08,-4.8274046e-08,0.008965486,1.5091327e-07,-1.791197e-07,-2.0510649e-07,0.78987366,0.9048673,8.3577305e-08,-0.4476629,1.1295539e-07
-4.9113382e-08,-1.7532157e-07,-0.24732862,9.761414e-08,-1.7704562e-07,-1.8234536e-07,2.0604632e-07,-3.6175706e-08,1.1242163e-07,2.0369225e-07,0.0002196517,2.0203085e-07,-1.4829452e-07,-3.6662588e-08,-0.28150636,0.016279418,1.3385659e-08,-0.57810444,1.033502e-07,-9.350492e-08,-0.939377,2.1275673e-07,-4.0892374e-08,-1.391309e-07,1.7550305e-07,7.950913e-08,-9.5821704e-08,-1.3315146e-07,-1.5763845e-07,1.4902083e-07,2.5293676e-07,-6.7573666e-08,-2.054837e-08,0.013080423,7.1473494e-09,-0.20816787,0.4161863,-6.6455115e-08,1.7149704e-07,9.046006e-08,-1.898125e-07,-0.07733044,1.5382824e-07,-3.736469e-07,-2.2137704e-07,0.563522,-0.3195576,-1.9839605e-07,-0.2915482,-1.4162212e-07,1.2548854e-07,1.4174812e-07,0.10323547,1.9693425e-07,3.398125e-08,-2.6214096e-07,-1.3326502e-07,-1.1250738e-07,1.2015381e-07,-6.614275e-08,0.00015095716,-1.2428924e-07,-2.9181706e-08,-7.1772355e-08,1.1667256,0.0705767,-1.6565407e-07,-0.03028191,-1.1994132e-07,-1.5619794e-07,-0.09855552,-1.3553871e-07,1.2610434e-07,4.2302204e-08,4.4380826e-08,6.861701e-08,1.1916449e-07,-3.2252046e-08,-1.6434635e-07,-1.7119683e-07,1.0705314e-07,1.0568765e-07,-1.5065051e-07,-0.0009480034,7.5061365e-08,0.01385184,-1.2359964,-2.7113555e-07,7.461466e-08,1.3667604e-07,-2.1565391e-08,0.009420153,2.070432e-08,1.1502195e-07,2.4424094e-07,0.4664596,0.8320475,-1.8327613e-07,-0.5225225,-2.0155262e-08
1.4492116e-07,5.6841927e-08,0.17508811,-1.2914761e-07,-1.1240379e-07,6.655412e-09,2.377454e-07,-1.3084956e-07,-2.5020874e-08,8.876611e-08,-0.0012079446,-1.2914535e-07,1.4376819e-07,-1.2734205e-07,-0.089305356,-0.12631059,1.7939445e-07,-0.97579265,1.9506017e-07,-9.3119866e-08,-0.011471335,-2.1614076e-07,2.2006034e-07,-1.7084221e-07,1.9106255e-07,-1.1483303e-07,2.3686496e-07,-1.5647761e-07,-1.5175857e-07,2.1922345e-07,2.523488e-07,5.2473922e-08,2.5211844e-07,-0.022391874,-2.0215816e-07,-0.3673743,0.1433933,5.550133e-08,-1.953199e-07,-1.0218156e-07,-2.144711e-07,-0.37850606,4.765681e-09,-6.2691015e-08,-4.244052e-08,0.7117695,-0.50400597,-1.4203735e-07,0.0003757719,9.736146e-08,1.7960592e-07,-5.6065375e-09,0.014426463,-5.5401017e-11,-1.0319677e-07,8.7407784e-08,5.6330805e-08,-4.145828e-08,1.6616968e-07,3.223588e-07,0.00023645395,1.9408662e-07,-1.6301705e-07,-3.0701912e-08,0.9476673,-0.15963537,-8.6674476e-08,-0.48964927,-1.2455749e-07,-2.5751237e-07,-0.56541944,-1.5882351e-07,-2.3927151e-07,-3.009897e-07,1.9961703e-09,-8.592697e-08,6.552273e-08,7.683157e-08,7.570701e-08,-5.215856e-09,1.8989556e-07,-1.0004605e-07,-1.4507518e-07,-0.007834048,2.539295e-08,0.061275993,-0.66528875,2.3280577e-07,-1.8220963e-07,-6.992714e-08,5.953298e-08,0.13059916,-1.0589555e-07,-3.5608937e-07,3.3381764e-07,0.4351146,0.9278082,1.1458809e-07,-0.6310197,-6.98088e-08
4.025415e-08,-1.4852091e-07,0.36742923,1.3371256e-07,-1.6464912e-07,-1.5982542e-07,-1.03164695e-08,7.1487875e-08,-5.5544554e-08,1.3737974e-07,0.001154032,4.975165e-07,1.9016835e-07,1.8797101e-07,-0.22542909,-0.16875167,-8.287324e-08,-0.047095977,2.0849049e-07,2.0050533e-07,-0.0064132325,3.267762e-08,-1.13462214e-07,-7.062398e-08,-4.9164953e-08,-1.7477252e-07,1.3052824e-07,1.2811026e-07,-1.4902312e-07,-2.8656694e-07,-7.480679e-09,3.1179894e-08,3.509231e-07,-0.0110722715,1.5160973e-07,0.089193955,0.30680755,1.3093438e-07,-2.5329723e-07,2.2041783e-07,-1.713741e-07,0.03232476,1.3609964e-07,1.8040254e-07,1.4839704e-06,0.03783584,0.13380712,-2.5219109e-08,0.026119785,-1.2420657e-07,-1.07277515e-07,-6.432948e-08,-0.09373623,-1.5026738e-07,1.9377183e-07,1.2639542e-07,-1.3030413e-07,1.6981215e-07,-7.4344136e-08,-2.5251992e-07,0.0014962178,2.472126e-08,4.2001314e-08,-3.1687605e-07,0.40041608,0.10344223,-4.5391516e-08,-0.99330837,-1.8466665e-08,-3.180277e-07,-1.306349,-1.1490933e-07,-1.5747105e-07,1.4944854e-07,2.9706378e-08,2.0041327e-07,-1.9359199e-07,2.2932271e-07,-1.1442016e-07,9.5323124e-08,-1.474449e-07,1.475496e-07,4.320891e-07,0.0011744188,1.7562726e-07,0.19791882,-1.8791037,6.00581e-08,-2.0976728e-07,-2.405987e-07,1.7206399e-07,0.34407383,3.3649712e-08,-1.8552765e-07,1.4568428e-07,0.4325851,0.27663428,9.042131e-08,-0.6328632,-1.0597296e-07
1.2947598e-07,1.2422404e-08,0.39957356,1.4735483e-07,-8.493427e-08,3.5654625e-07,-1.4535499e-07,1.0290544e-07,-1.44013e-07,-3.8051965e-07,5.8933176e-05,-1.1870836e-07,2.4489566e-07,4.6439357e-07,-0.17731592,0.32256556,9.976771e-08,0.0752763,1.1572633e-08,5.0518977e-08,-1.0895061,3.729293e-08,2.5497434e-07,1.4488882e-07,-2.9878163e-07,1.7853748e-07,2.468795e-09,-2.3255878e-07,8.4001684e-08,1.6951361e-07,1.8243608e-07,1.581987e-07,1.3602221e-07,-0.06580794,5.76568e-08,0.06575754,0.31047568,-1.3741945e-07,2.6301788e-07,-1.9918245e-07,-1.1104521e-07,-0.08114355,-3.7517324e-07,-2.4246884e-07,-3.7781732e-07,0.45938078,0.15683618,5.7494418e-08,-0.52931535,9.313306e-08,1.6559538e-07,-1.5438191e-07,-0.06083659,6.824129e-08,-3.081027e-08,4.7025992e-08,-6.722598e-08,4.7161908e-08,-1.2857085e-07,-7.453767e-07,-0.0005192351,4.8229055e-07,1.989805e-07,2.1693789e-07,0.4024649,0.10359509,-1.6879781e-08,-1.0003203,-1.7074132e-07,2.4827443e-07,-0.8194619,-1.8723144e-07,-9.652691e-08,9.810448e-08,2.3529765e-08,-2.2559674e-07,1.1970685e-07,1.2035605e-07,1.7685828e-08,-4.711147e-08,-1.9111573e-07,-4.447484e-09,3.3990545e-07,0.010799739,-4.9476014e-08,0.8358326,-1.0504702,1.4702309e-08,-3.884019e-08,-1.20173524e-08,-1.3146075e-07,0.8139477,6.1905226e-08,2.7154343e-08,1.9404581e-07,0.11080563,0.3822839,-9.124987e-08,-0.21434787,9.163334e-08
2.640527e-07,-1.9074818e-08,0.20179877,1.6907657e-07,-1.7408678e-07,1.8990232e-09,1.9733346e-07,1.0377477e-10,-1.3067735e-07,3.506396e-07,-0.00065611675,2.9425183e-07,-6.311085e-08,1.6335113e-07,-0.4964745,0.16349325,2.959164e-07,-0.20346703,1.0714598e-07,4.293421e-07,-1.0714799,1.0730645e-07,2.2443128e-07,-1.4914164e-07,-1.7814526e-07,-2.664246e-07,1.2996401e-07,7.5387355e-08,2.8806411e-08,-3.4791938e-07,-2.9985847e-07,-5.3684218e-08,-6.6382405e-08,0.0024217314,-3.1266788e-07,-0.10642602,0.7083287,4.4047013e-08,-5.278733e-08,-1.5061899e-07,-3.3285914e-08,-0.09537051,-1.5027155e-07,1.1284882e-08,1.4270412e-06,0.69294506,0.07581843,1.4737323e-07,-0.22720906,-5.5557468e-08,1.480237e-07,-2.0653593e-07,0.32156327,1.6590948e-07,8.255451e-08,1.8239503e-07,2.0695029e-07,-2.0298492e-07,2.0269411e-08,-2.8136617e-07,0.00072316144,2.1831713e-07,1.9973861e-07,-1.0073532e-07,0.81225294,0.08608674,-1.981992e-07,-1.1102954,2.7593977e-08,-1.595457e-08,-0.30219418,2.511064e-07,7.6547494e-08,4.412999e-08,-7.430367e-08,-1.760794e-07,-8.154399e-08,-3.285082e-08,-1.2442982e-07,1.8270897e-07,6.442325e-08,1.6286646e-07,-5.0476274e-08,-0.003047292,-2.098078e-07,-0.004497339,-2.0488598,2.1531673e-07,-1.6802781e-07,-1.477351e-07,1.570592e-07,0.23971795,-2.887241e-07,-1.0087768e-07,-2.51783e-07,0.9352486,0.29251033,-2.8612448e-08,0.08098681,1.7949702e-08
9.624231e-08,1.652027e-07,0.7221476,2.3371186e-08,1.4816122e-07,-2.2974412e-07,-2.6811307e-07,-7.763987e-08,-4.990673e-08,5.7634946e-07,0.0016002828,-3.863255e-08,-1.9554557e-07,-8.2891745e-08,-0.5991862,0.14334066,1.7945331e-07,0.062247466,3.34671e-07,-3.8390738e-08,-0.032074377,7.550355e-08,7.27356e-08,-2.0767996e-07,8.1160834e-08,8.92589e-08,-1.9511936e-07,-1.0618855e-07,4.4827473e-08,-2.8060742e-07,-3.2908787e-10,3.0675773e-07,1.4047632e-07,-0.0015521476,9.2080626e-08,-0.12518182,0.17760378,2.0978443e-07,-1.11709724e-07,-1.3488116e-07,-4.0237757e-07,0.123464346,-1.825664e-07,-1.2838787e-07,2.7966416e-07,0.749001,-0.22072159,-1.3220027e-07,-0.10475438,6.3392456e-08,-1.7318297e-07,2.3578048e-07,0.68407756,1.4595308e-07,4.149058e-08,1.5685345e-08,-9.5669535e-08,1.7303189e-07,3.2857514e-08,-7.270737e-07,0.0012017791,-2.1426516e-07,7.973529e-08,-5.9368432e-08,0.4762024,0.44498143,1.6288162e-07,-1.3156283,2.111156e-08,-7.706052e-08,-0.20996252,4.5319982e-07,-8.3459994e-08,-1.046058e-07,-1.7060694e-07,-1.9407436e-07,-5.187549e-08,-1.5920594e-07,-3.2653958e-08,-2.0922577e-07,-1.689513e-07,2.2676022e-07,1.8621595e-08,-0.0008971257,-4.610414e-07,-0.16118789,-1.3474271,-2.2326964e-07,3.746644e-07,8.063675e-08,-7.343563e-08,0.16771835,-8.5587665e-08,-4.227204e-07,7.646903e-07,0.85416174,0.32314923,-3.5916912e-08,0.27494752,-9.305994e-08
2.3455783e-08,-2.0588607e-07,0.16416977,-1.601851e-07,-1.4557376e-07,-8.008443e-08,-2.198836e-07,1.0080555e-08,1.651319e-07,-2.7374477e-07,-0.00039106072,-8.952778e-08,-3.0856654e-08,1.8625582e-07,-0.17600471,-0.23187727,-2.1592189e-07,-0.47367054,6.4976945e-08,-1.7555759e-07,-0.5720884,-1.5902083e-07,1.07340995e-07,-1.1983245e-07,-6.374178e-08,1.0402314e-07,-2.305279e-07,1.9251017e-07,4.177815e-08,1.9535908e-07,1.4725433e-07,-2.8895613e-08,2.6244382e-07,0.021377053,-1.4319991e-07,0.042236403,0.5031038,-2.2828289e-07,-1.932238e-07,-2.9104652e-07,5.9126776e-08,-0.18046203,-1.14064875e-07,1.26708e-07,-6.325399e-07,0.26789644,0.19506614,1.1988817e-08,-0.024988946,-4.6218148e-08,-5.3214286e-08,2.8955988e-08,-0.17241156,-1.2191893e-07,-2.2611792e-07,-4.5185374e-08,-7.54264e-08,-1.5466406e-07,-1.045282e-07,1.8290277e-07,0.00018537909,2.3441523e-07,2.3678027e-08,2.1406845e-07,1.309264,-0.04393216,-7.610196e-08,-0.0382614,-3.4025117e-08,2.8101294e-07,-0.090329245,-1.4821961e-07,-1.6757198e-07,-2.2858224e-07,-3.2043587e-08,1.313126e-07,-8.195318e-08,-2.4252438e-07,1.5014943e-07,-8.933321e-08,1.2688218e-07,1.0834856e-07,-1.020896e-07,-0.0052632987,-1.6834785e-07,0.09998113,-1.6217747,-7.671912e-08,1.5775986e-07,-1.066455e-07,1.9942836e-07,0.24756397,6.954224e-08,4.7282924e-08,4.0624053e-07,0.56962264,0.600135,9.339397e-08,-0.20041595,3.7937724e-09
1.3822765e-07,-5.043212e-08,0.21121553,1.16173e-07,1.734763e-08,-1.7740933e-07,9.147011e-08,1.3087023e-07,2.0245476e-07,1.08497545e-07,-0.00027341716,-3.75866e-07,-2.44005e-07,3.4883425e-07,-0.0014764378,0.50870854,-1.2681735e-07,-0.2482482,1.9435767e-07,7.692907e-08,-0.66846436,4.204235e-07,2.640827e-07,4.4248623e-08,8.833932e-08,-6.8605566e-09,-1.1589563e-08,1.1055048e-07,-1.8363578e-07,-2.2020215e-07,9.587956e-08,-1.5809843e-07,1.8333492e-07,-0.026070373,3.0826804e-08,-0.8498392,0.55181074,-1.9639307e-08,-6.764358e-08,-1.093329e-07,-2.2862679e-08,-0.293747,1.8904308e-07,4.324447e-07,-1.1068739e-06,-0.0038049284,0.6741707,-8.990936e-08,0.8374849,1.6186416e-07,-8.25766e-08,-6.239165e-08,-0.04965289,6.591349e-08,-2.0112239e-07,1.1623098e-07,-2.1287687e-07,9.767046e-09,7.2012895e-08,-3.765063e-07,-0.0023490347,2.5020017e-07,3.410989e-07,3.139504e-07,1.6027733,0.17315573,-2.338108e-07,-0.13069347,-1.200567e-07,-4.828985e-07,-0.42374802,-2.0319703e-07,5.0497135e-08,2.056403e-08,-3.560102e-08,-1.3186147e-07,-1.077926e-07,-1.4587303e-07,1.2787801e-07,1.8144388e-07,4.060472e-07,2.2388993e-07,4.4585818e-08,0.001301113,-5.612263e-08,0.3761896,-1.1656358,2.4428866e-07,1.23719275e-08,2.8614181e-08,4.555251e-08,0.9191927,-1.0754476e-08,-1.3338538e-07,1.6355983e-08,0.282768,0.68167686,2.6535332e-08,0.124416836,-1.0756028e-07
1.3675202e-07,-1.215073e-07,-0.16866644,-2.0187656e-09,-1.796805e-07,9.7431794e-08,-6.686149e-08,1.726431e-07,3.4136562e-08,-2.487057e-07,0.0003971272,2.793109e-07,1.8482726e-07,4.935443e-07,-0.08653167,-0.16303253,9.693057e-08,-0.37545738,4.5717115e-08,-3.9575283e-08,-1.2432017,4.6022137e-08,-9.063778e-08,-2.112513e-07,-9.3084864e-08,-2.6104871e-08,-4.124665e-08,-2.4776173e-07,-1.9957616e-07,-4.7660222e-08,-1.1939793e-08,2.1127747e-07,-2.0009753e-07,0.005914617,1.2112957e-07,-0.003072815,0.78041136,-6.720329e-08,-7.02694e-08,1.15956816e-07,-1.879225e-08,-0.3259508,3.2347864e-07,1.5654811e-07,-4.276941e-07,-0.11176811,0.2008047,3.2902143e-08,0.23596875,1.2384663e-07,1.1516764e-07,6.90166e-08,-0.2067151,1.3992633e-07,2.700353e-08,-1.02081806e-07,-1.2351866e-07,-3.5647287e-07,1.8028722e-07,1.0143945e-07,-0.0003327047,1.4476112e-07,-1.8676425e-07,-6.2129665e-08,1.0257436,0.38276932,1.0523743e-07,-0.056951523,3.7456658e-08,2.871699e-07,-0.31110185,1.706876e-07,3.3803616e-07,2.0350915e-07,-9.2054535e-08,-1.8643186e-07,-1.6984397e-07,1.2252531e-07,-2.4412267e-07,1.8236331e-07,9.856184e-08,7.941342e-08,-7.09789e-08,-0.0118409125,-7.4493975e-08,0.0995744,-1.770915,-1.8070715e-08,1.4715567e-07,3.4484657e-07,1.2856816e-07,0.4824603,-1.5805092e-07,-1.06265375e-07,1.1902648e-07,0.62689775,0.5558607,6.9585795e-08,0.76113755,-1.9933346e-08
8.8954124e-08,1.014193e-07,-0.8372149,-1.6599284e-07,3.8338392e-08,2.31162e-07,-3.396554e-07,-3.5022597e-07,-1.5399328e-07,4.3510965e-07,0.00021498706,-3.5968446e-07,2.5305948e-07,9.5958306e-08,-0.4984641,0.09781657,-8.6725095e-08,0.22587241,-1.0513517e-08,3.9003504e-07,-1.6837202,-8.81072e-08,-1.0084696e-07,-1.5395743e-07,-9.931743e-08,1.643497e-07,-2.4974682e-08,-6.9335925e-08,-1.4783159e-07,-1.5529035e-07,2.5928324e-07,-2.3212944e-07,-2.9760108e-07,-0.05934104,7.930703e-08,0.10724431,0.2551772,-2.3484904e-07,9.078008e-08,-2.6871486e-08,8.631901e-08,-0.39518213,1.802731e-07,1.4028251e-07,-1.2145325e-06,-0.87276095,-0.4030412,-2.2778413e-07,-0.15055397,-8.5065196e-08,-1.6624521e-07,-3.006639e-08,-0.2599221,-1.524686e-07,-2.1449299e-07,-3.1103312e-08,2.961292e-07,-5.6885842e-08,6.071547e-08,1.1714258e-07,-0.0024523716,-2.0208287e-07,-9.317178e-08,1.8686711e-07,1.4255598,0.31358257,-1.6539009e-07,-0.046334922,3.4397453e-07,8.524705e-08,-0.8993087,-1.0192436e-07,1.0634907e-07,-4.9238366e-08,7.7123445e-08,1.5527252e-07,4.206595e-08,-1.5022827e-07,1.359636e-07,-9.446876e-08,2.2630353e-07,1.150803e-07,-2.824082e-08,-0.0012166934,-3.6996454e-07,0.31897357,-1.0114083,-2.5590583e-07,4.8698674e-08,6.7970035e-08,-2.4906865e-07,0.19706155,1.6673947e-07,9.566008e-09,-8.638642e-07,0.37825975,0.44180396,7.663033e-09,0.38935497,4.5537874e-08
-2.1655947e-07,-1.7167014e-07,-0.4128156,2.2741894e-07,-3.761923e-08,1.0919335e-07,3.0441524e-07,-1.849129e-07,-9.249104e-08,-1.9695503e-07,-0.0005680447,8.529635e-08,1.2890969e-07,-1.6987637e-07,0.014146332,0.41632524,-6.929361e-08,-0.16730158,1.5931664e-07,-2.6867568e-07,-1.0881821,3.0631685e-07,-8.325276e-08,2.9623424e-08,1.0629339e-07,4.832794e-08,-1.2022628e-07,6.681478e-08,-9.21556e-08,1.2915123e-07,-1.1600386e-07,5.7188828e-08,1.6430323e-07,-0.017867917,-8.764608e-08,0.48318756,0.84711146,-8.673544e-08,2.0264126e-07,8.417509e-08,4.8194522e-08,0.09050925,-1.6426158e-07,-1.3881986e-07,-3.9618382e-07,-0.45310712,0.26461458,-1.8143885e-07,-0.36238095,-1.5060068e-07,-2.0856243e-07,-1.5109144e-07,-0.08629889,-1.4745122e-07,1.7060519e-07,-2.1016612e-07,-2.3193691e-07,-1.6288674e-07,8.040495e-08,1.0460283e-07,-0.00027734318,4.566404e-07,-5.120239e-08,-2.4044195e-07,0.59981084,0.23918395,9.166281e-08,0.17191416,2.0551411e-07,-2.1810942e-07,0.15342201,1.4718282e-07,-3.3042852e-08,-6.4501755e-08,-2.2957913e-07,-7.278913e-08,4.2180446e-08,-8.385208e-08,1.5545979e-07,2.0374237e-07,3.5032804e-07,-7.219646e-08,4.796178e-07,0.008746955,2.425909e-07,-0.19175199,-1.9507054,1.9073093e-07,-1.5681319e-07,3.672986e-08,1.3689565e-07,0.34359044,1.8189209e-07,-9.044497e-08,-1.9148587e-07,0.5664941,-0.05606503,2.6022423e-07,0.09979773,1.6410905e-07
-3.4777557e-08,2.196041e-07,-0.6415707,2.9218626e-07,-7.1068044e-08,-9.804873e-08,-5.0997286e-08,1.3083888e-07,-1.515491e-07,1.3021207e-08,-0.00069478096,-1.869789e-08,4.761348e-08,3.4977404e-08,0.0738047,0.660619,-1.5690217e-07,-0.33522975,-1.5651584e-07,7.898305e-08,-1.7215568,1.3730124e-07,1.2944989e-07,-1.7391115e-07,6.5390445e-08,2.4364468e-08,7.4946364e-08,1.5273362e-07,1.5080379e-07,-8.183915e-08,-2.567745e-07,1.7859946e-08,5.2182287e-07,-0.014098549,-1.6810463e-07,0.5190559,0.13691221,-1.7580481e-07,9.8873144e-08,1.4536634e-07,-4.35667e-08,-0.09289921,-1.8726946e-07,7.162555e-08,-7.7734205e-07,0.1214423,-0.06962857,-3.3040514e-08,-0.45200482,-1.0315929e-08,1.15224346e-07,1.6545168e-07,0.26918632,4.9810183e-08,7.167806e-08,-3.7052885e-08,-8.413895e-08,-4.9740425e-08,5.1960072e-08,-2.8520232e-08,-0.00036175613,-2.538106e-07,-1.8024798e-07,6.699306e-08,1.0156584,0.22054,-2.4987443e-08,-0.43172607,1.5926823e-07,-2.2383801e-09,-0.1501138,1.6981723e-07,-3.8744417e-08,-1.1682809e-07,-1.16815734e-07,-9.367075e-08,-2.1478236e-07,-2.473417e-07,8.813193e-08,1.5367102e-07,-1.3464657e-08,5.3851906e-08,2.5381672e-07,0.011330529,-4.528263e-08,-0.15534304,-0.8828865,-1.5963533e-07,1.2717808e-07,-1.8272459e-08,-1.19204664e-07,0.61078215,1.8223636e-07,-1.4678379e-07,1.4658745e-09,0.4410896,0.6125414,-1.04668246e-07,-0.010802286,7.587282e-08
1.5430895e-07,-1.6204453e-08,0.04071653,-9.868407e-08,8.983503e-08,2.2931195e-07,-1.1557809e-08,-6.456335e-08,-5.4473603e-08,1.3986127e-07,0.0010124184,3.8466015e-07,-1.2643721e-07,-9.623146e-08,0.25984058,0.152104,8.2997936e-08,-0.38611516,3.1173965e-07,2.1303349e-07,-1.4516137,3.604718e-08,-7.8608e-08,1.383014e-07,4.1539863e-08,2.5171097e-08,-6.804747e-08,9.753137e-09,1.669514e-07,-1.09155394e-07,-9.664545e-08,1.8054965e-07,-2.1989598e-07,0.005327126,1.391038e-07,-0.24054809,0.7754586,1.2832706e-07,1.8125988e-07,-9.760229e-08,-1.818527e-07,-0.2435719,-3.6073637e-08,1.1609637e-07,-7.0748615e-07,0.38262388,-0.07980802,-5.843514e-08,-0.67668396,-1.5224983e-07,5.4475734e-08,-1.3555166e-08,0.20271452,-1.8999746e-07,-1.209869e-07,-2.2155061e-07,-1.5698092e-07,-9.874351e-08,3.8231974e-08,-6.213067e-07,-0.00072136207,5.580017e-08,1.7712905e-07,-1.1905982e-07,1.0973442,-0.20981532,-2.432032e-07,-0.27050754,-7.5304314e-08,2.0098946e-07,0.14691558,1.2871504e-07,1.2404662e-07,1.05583766e-07,-1.09597735e-07,-9.489577e-08,-2.698792e-07,-1.3200058e-07,1.7657996e-07,1.1939243e-08,-1.3780891e-07,-2.5110717e-07,-9.362077e-08,0.0013649411,-4.8806598e-08,0.099037364,-1.3915673,1.706639e-07,-2.1475287e-07,-5.7930734e-08,-5.292769e-08,0.06475418,2.0025183e-07,3.165343e-08,-1.2481877e-07,0.77097625,0.15449013,2.1994143e-07,-0.3280481,-2.0796818e-07
2.3571145e-07,-8.266107e-08,0.4639146,2.45203e-07,-2.4662015e-08,-1.321607e-07,3.5266886e-08,-2.595708e-07,2.3797546e-07,-3.1060506e-07,-0.0011098632,-5.6463243e-08,1.6708306e-07,-2.0809384e-07,-0.079087205,0.2784968,2.3313908e-07,-0.5263231,2.4216288e-07,-1.6157972e-07,-1.0254272,2.6593984e-08,-1.6852387e-07,2.2210102e-07,2.6971983e-07,2.0201043e-08,2.992526e-08,2.2808115e-07,-1.7354023e-07,-2.0094295e-07,3.295343e-07,-2.011746e-07,-8.394349e-08,0.008638779,9.988093e-08,0.18865478,0.037170112,-5.4596427e-08,1.9132216e-07,2.6642368e-07,-6.868075e-08,-0.20474589,-7.269426e-08,-6.6601785e-08,3.081163e-07,0.88128465,-0.08913846,1.46892e-07,-0.6617576,-2.2972714e-08,-7.2704545e-08,1.4165951e-07,0.06387412,5.9665496e-08,-1.39759635e-08,8.880328e-08,3.0580213e-07,2.4189416e-07,-1.3494055e-07,-6.029079e-07,0.00055701827,-2.2349761e-07,2.8393114e-07,-1.7901789e-07,0.9475919,-0.114049666,1.9806455e-07,-0.5583329,-1.0109187e-07,2.1000483e-07,0.4438771,1.9447131e-07,-3.255873e-08,1.727534e-07,2.8983692e-08,1.02849214e-07,-1.9179278e-07,-4.128666e-08,8.982037e-08,7.721024e-08,-6.291374e-08,4.829242e-08,1.6879457e-07,0.0029955192,-1.50007e-07,0.19659689,-0.8542685,4.875428e-08,-3.5114184e-08,-6.892003e-08,-1.2491624e-07,0.0086512305,-2.2376423e-07,-4.2766253e-08,-5.0437666e-07,0.46715826,-0.16372447,1.15336604e-07,-0.6366469,-4.46923e-08
7.1417155e-08,1.4966315e-07,-0.27808508,-1.7912296e-07,-1.9620845e-07,-8.525066e-08,4.7513808e-08,-9.325259e-08,-9.778938e-08,1.3528954e-07,6.563106e-05,-1.5009901e-07,6.052582e-08,-1.7849707e-07,0.3040793,0.20583372,-2.5382602e-07,-0.7395341,4.7959126e-08,-2.5724177e-07,-0.15021916,1.670233e-08,1.8760436e-07,1.6336396e-07,-1.6893958e-07,8.7673314e-08,-4.2784325e-08,-2.3860366e-08,-6.298855e-08,2.0139183e-08,-2.0148548e-07,8.813623e-08,-1.2486649e-07,-0.0044200546,-1.0729555e-07,0.210914,0.581467,-1.8816071e-07,-2.7299585e-08,-2.1817917e-07,1.05995994e-07,0.21910262,-2.3950415e-08,1.8807921e-07,-3.6301822e-07,-0.09770983,0.13362022,-6.106126e-08,-0.023480024,-2.3320409e-07,1.1666305e-07,-1.0134181e-07,-0.33124077,5.550249e-08,-1.3938508e-07,-2.8604575e-07,1.8749296e-07,-8.8346226e-08,1.3090947e-08,-1.84985e-07,0.00041414343,-3.538456e-08,-1.2729325e-07,-1.1821086e-08,0.48914656,0.039217707,-1.3457395e-08,-0.036298968,-1.2706859e-07,-3.1553589e-07,-0.4665308,1.16296235e-08,1.2681058e-07,1.3183015e-07,1.8261551e-07,-5.039361e-08,-1.671836e-09,2.603468e-07,1.9480262e-07,-1.2607289e-07,-1.8569474e-07,1.7543651e-07,-1.8388707e-07,-4.2527507e-05,-1.4452313e-07,0.042016305,-1.7586505,-2.8456094e-07,-6.4895985e-08,2.1155805e-07,3.593849e-08,0.032249667,-2.8989132e-07,1.4291203e-07,-1.7705136e-07,0.5517222,0.054327544,-8.155587e-08,0.36355034,-6.3479334e-08
-8.6226315e-08,-1.6427664e-07,-0.29873303,2.3059364e-07,1.3809611e-07,-4.1577877e-08,3.6286946e-07,1.3085014e-08,6.2598794e-08,7.560846e-08,3.6364225e-05,3.0039803e-07,5.416137e-08,-1.0339454e-07,0.20862627,0.22233973,-1.1086148e-07,-0.8601101,-5.8439724e-09,-1.5188299e-07,0.33129984,-2.6698643e-07,-1.7618014e-07,-1.2830341e-08,-2.814025e-08,1.4870561e-07,-1.6065748e-07,-1.8685344e-07,1.8695027e-07,1.2805755e-07,-2.4985206e-07,1.8911467e-07,-1.4786188e-07,-0.032966726,-9.4323724e-08,-0.43488193,0.34929785,7.191718e-08,1.4436753e-07,8.4705164e-08,-1.819565e-08,-0.2236093,-2.2425763e-07,1.17802955e-07,1.0715028e-06,-0.62503636,0.15348798,-1.0169835e-07,-0.012980778,-7.690397e-08,5.3896912e-08,5.909928e-08,-0.07753668,3.5267334e-08,1.1320586e-07,-1.04115486e-07,2.4887126e-07,1.3125958e-07,1.4281405e-07,-2.926687e-07,5.6923425e-05,-1.1225448e-07,1.4834355e-07,3.721466e-07,0.25518423,-0.27516556,1.5007456e-07,-0.6400468,-1.3476011e-08,2.3657108e-07,-1.4654716,-3.08969e-08,2.2528417e-07,-1.1868977e-07,7.432028e-08,2.8032275e-08,-1.7590264e-07,-3.638405e-08,-7.4139244e-08,8.035437e-08,-2.5530898e-07,1.7394814e-07,-1.3004279e-07,0.0023050294,1.9586119e-07,0.2279351,-0.69414324,2.7426758e-08,-2.0383847e-07,-1.876333e-08,6.641426e-08,0.04294692,-2.4611344e-07,-2.0461046e-07,-8.95045e-07,1.2540394,0.121108435,-2.4949958e-07,0.50159794,-8.661834e-08
1.6752563e-07,-1.3327636e-07,0.021008011,-1.8265e-07,1.2184412e-07,-5.9861023e-09,3.7121865e-08,-4.067242e-08,1.4858702e-07,-4.3774122e-07,5.6739253e-05,-1.9699098e-07,-1.1395029e-07,-8.191922e-08,0.43282926,0.08073165,1.939685e-07,-0.5385631,-1.4517019e-07,-3.3323445e-08,0.4821076,7.56074e-08,-2.3001515e-07,1.246064e-07,-1.1912202e-07,1.4640035e-07,-1.4369533e-07,-6.715719e-08,-5.6743204e-08,-1.4024809e-07,-1.3073638e-08,-1.9328579e-07,1.4534523e-07,-0.011527812,-1.9247824e-07,-0.08380073,0.60339844,-1.2545081e-07,-1.680949e-07,2.5203661e-09,-9.66398e-08,-0.0013745163,2.2582606e-07,-1.5523614e-07,1.314938e-07,0.031229598,0.2150151,1.3401893e-07,0.07948424,1.2017338e-08,1.30169795e-08,7.1951376e-08,-0.039387006,1.3105554e-07,-1.8816972e-07,-2.3645612e-08,-2.5364017e-07,8.9932634e-08,5.5175917e-09,-3.618389e-08,0.0013927391,5.738186e-08,7.5600234e-08,9.963426e-08,0.6760685,0.12857771,-1.5683409e-07,-0.4842103,-2.2761131e-07,-6.158336e-08,-1.239738,-1.8048773e-07,-1.739433e-07,1.6434409e-07,1.1384907e-07,-1.8943568e-07,9.252715e-08,-1.5489391e-08,2.1188846e-07,1.1362354e-07,-4.646303e-08,1.7612938e-07,-3.2942296e-08,0.004912556,1.4224047e-07,0.0058448203,-1.7640655,-4.586169e-08,-8.9650705e-08,7.85507e-08,-1.0083309e-07,0.013591828,2.70476e-07,-2.0820127e-07,7.414056e-08,0.94999635,0.5879749,-7.292018e-08,0.29285473,8.3456406e-08
1.3843638e-07,-8.401972e-08,0.21393365,1.3969525e-07,-3.249378e-08,-1.8631837e-07,-3.1256633e-07,-1.4912627e-07,-6.576097e-08,-4.9647053e-07,-0.002090964,-1.5792898e-07,-2.9511781e-08,-1.6500329e-07,0.26813293,-0.042900372,-1.4612455e-07,-0.08341962,-2.4697968e-07,4.2383365e-07,0.034619387,-1.16509554e-07,5.999941e-08,-1.608094e-07,2.1665292e-07,-2.6989608e-07,-1.08141435e-07,-2.1794668e-07,2.155896e-07,-1.2920968e-07,3.7987007e-07,-1.4870932e-07,-1.3699218e-07,0.008052124,-9.845802e-08,0.15519306,0.31600112,-1.08475305e-07,2.1246109e-08,8.169885e-08,-8.343355e-08,0.3955178,3.8645547e-07,2.6621294e-07,9.24168e-07,0.31849867,0.82036084,1.9303616e-07,0.41727942,1.7299689e-07,1.4608945e-07,1.478405e-07,-0.51386786,8.417216e-08,-1.4025058e-07,2.651919e-07,3.1569857e-07,-5.7195663e-08,2.4074257e-07,-2.9211634e-08,-0.0016227448,3.690901e-07,-1.9488658e-07,2.4324038e-08,0.6200291,0.11868767,-1.2833029e-07,-0.39506176,7.0010195e-08,3.7340982e-08,-1.6017919,-2.4883877e-07,-4.7082764e-08,1.8431712e-07,-2.876194e-07,-2.1275058e-07,4.245463e-08,-1.5564973e-07,-1.2145567e-07,-3.0193706e-07,2.43097e-07,-3.339082e-07,1.5833449e-07,-0.0023394928,3.249329e-07,0.174465,-1.2468294,4.8726562e-08,-2.6906406e-07,-5.2885223e-08,3.838568e-08,0.6217023,5.1270945e-08,1.9875566e-07,4.6385315e-07,0.750016,0.9419464,2.2946757e-07,-0.009246428,-1.2456383e-09
-2.6855929e-08,-1.3537779e-07,0.2765286,1.9515943e-07,-9.090122e-08,-2.9108598e-08,-2.280212e-08,6.718314e-08,-2.2493722e-07,-4.693976e-07,-0.00091422454,-1.3065349e-07,2.767941e-07,-1.7004909e-07,0.5126273,0.08609959,1.3010676e-07,-0.44970614,-6.4873184e-08,1.1417919e-07,0.18243977,1.492919e-08,-6.333132e-08,-1.6831996e-07,-2.2674173e-07,-1.5027832e-07,6.479302e-08,-1.4668584e-07,5.4882e-08,-5.627971e-08,-4.5363834e-08,5.56118e-08,-3.11936e-07,0.0326883,9.922911e-08,-0.080447294,1.0643623,1.0918952e-07,1.6892417e-07,6.106036e-08,-1.7735854e-07,-0.043609396,-2.929933e-08,3.240495e-07,-1.4131777e-07,0.2255542,0.36397818,-3.9780183e-08,0.11501249,1.5712989e-07,-2.4899421e-08,-1.4982574e-07,0.0024356209,-5.3688087e-08,-1.06068036e-07,1.3124367e-08,9.8074025e-08,-2.4156037e-08,2.0525553e-07,3.5809626e-07,-0.0012200138,1.8388158e-07,-1.3996032e-07,-2.1049708e-07,-0.1612273,0.05801357,-7.43175e-08,-0.7756799,-7.6725456e-08,-2.0110227e-07,-1.4499214,1.7866824e-07,9.8413565e-08,1.10367665e-07,-1.9162987e-07,1.7225713e-07,-1.6507157e-07,-6.297458e-08,4.0905597e-08,-1.8979976e-07,-9.0101956e-08,6.810802e-08,1.6620889e-07,-0.0060057724,1.2867694e-07,-0.052852735,-1.738965,-6.111351e-08,1.4541169e-07,8.824594e-08,8.68513e-08,0.023280764,2.4164194e-08,1.9279533e-07,-6.147975e-07,0.8651166,0.25605324,7.387863e-08,-0.22083263,1.8346483e-08
-1.4482984e-07,-1.4881383e-07,0.14253603,-2.3789134e-07,-8.876978e-08,-1.1989879e-07,1.1944039e-07,2.6487342e-08,4.3093586e-08,1.0033618e-07,0.002848326,-5.8539484e-09,-3.3594796e-07,-3.6271456e-07,0.34059852,0.0959663,-4.8796025e-08,-0.2512909,7.298604e-08,-1.2677101e-07,0.08269438,2.823134e-08,-2.0257832e-07,1.8359043e-07,1.3277804e-07,7.774652e-08,8.946246e-08,-1.2801445e-07,2.4856746e-08,1.3967674e-07,1.0603641e-07,-6.968865e-08,-4.815405e-09,0.024811555,3.567453e-08,-0.08386214,-0.5507393,-1.7534555e-07,7.8185685e-08,1.9982832e-07,-2.2641962e-07,0.04764598,2.8007182e-07,2.0554165e-07,2.9994825e-07,-0.5142927,-0.0038615502,-1.194083e-07,0.065980315,6.970125e-08,-8.875137e-08,-4.004852e-08,0.040874727,5.4229275e-08,-6.7718034e-08,1.6924488e-08,1.8163311e-07,1.9962218e-07,7.6703984e-08,3.5106095e-07,0.0026125847,6.449332e-08,-2.3019493e-07,-1.336452e-08,0.28446206,-0.03885275,1.786318e-07,-0.2675825,-1.5665475e-07,2.2564546e-07,-2.0036082,8.440672e-08,1.1844256e-07,-2.1299779e-07,-1.4504772e-07,-8.0066876e-08,9.011589e-08,-2.027078e-07,6.5753454e-08,-8.509336e-08,-7.080364e-08,-1.9821611e-07,4.034745e-08,-0.016518425,2.4336117e-07,-0.18411379,-1.0742109,5.8654557e-08,-2.4376195e-07,2.4664217e-07,-1.8078242e-07,0.21603611,-2.1549319e-07,-4.4770275e-08,-6.257959e-07,0.5509426,0.139488,4.892769e-08,-0.34809566,9.3091586e-08
3.9816385e-08,5.460747e-08,-0.014611256,4.9430156e-08,-1.9974247e-07,1.2996159e-07,5.348661e-08,2.11794e-07,-2.3759615e-07,-1.57568e-07,-0.00038117368,2.5760002e-08,1.5454619e-07,2.4219577e-07,-0.11713091,0.023753153,2.87514e-10,-0.35384554,1.5583694e-08,2.6745846e-07,0.04931306,9.005515e-08,1.345373e-07,-2.1330426e-07,3.1336114e-08,-1.5234495e-07,1.1574528e-07,-7.601499e-08,1.7299502e-07,-1.5758951e-07,-2.3711073e-07,-2.1228364e-07,2.2237913e-07,-0.0068531907,-5.6206034e-08,0.08899651,0.6525305,-1.682907e-07,-1.4689923e-07,8.002618e-08,-1.09123874e-07,0.07379603,1.4917173e-07,1.744437e-07,-9.4184664e-08,-0.34106097,-0.14697929,1.6812147e-07,0.1823666,1.3832025e-07,-1.6878178e-07,-1.8677514e-07,-0.2640767,1.397335e-07,-1.3375421e-07,-1.3091946e-07,-1.935736e-07,7.526596e-08,-5.287214e-08,-2.4512829e-08,-0.00020999875,9.074931e-08,-1.8655683e-07,1.5022265e-07,0.89517975,-0.117592394,2.0079976e-07,-0.5117548,8.9128385e-08,-1.989064e-07,-1.2017152,-6.6377055e-08,-1.216281e-07,1.8359381e-07,-1.8229946e-07,-1.5795612e-07,-1.7549189e-07,-4.3997716e-08,1.4157035e-07,-2.628534e-07,8.32454e-08,-1.6376592e-07,3.2378296e-08,-0.0020981228,1.2415369e-07,0.06302598,-1.2001984,-2.7615437e-07,-1.5551971e-07,-4.8186024e-09,8.8244576e-08,0.0985385,-8.4830624e-08,-1.1552332e-07,2.4488799e-07,0.8778747,0.1836895,-7.464763e-09,-0.6088454,-2.704877e-08
1.3638409e-07,1.223451e-07,-0.19831648,2.0109526e-07,1.15557135e-07,-1.0452764e-07,8.2201964e-08,-1.3998783e-07,2.241166e-07,-1.4262568e-07,-0.0008892349,-7.122797e-08,-2.742771e-07,-2.4462827e-07,-0.09562494,-0.26379853,-1.3120847e-07,-0.08860094,1.2843634e-07,-2.005374e-07,-0.079629324,3.598003e-08,2.8363647e-07,6.581587e-09,-2.221515e-07,2.1333165e-08,-1.2873409e-07,1.0246637e-07,1.8409e-07,2.9299517e-08,4.5606534e-08,-3.5266083e-09,1.7344794e-07,0.0136027485,-5.268439e-07,0.05381177,-0.16291219,2.4256266e-07,1.06454266e-07,-2.8858494e-08,-1.1072075e-07,0.2308575,3.0256075e-08,-3.4347983e-07,-1.3751232e-06,-0.76230615,-0.08812059,5.6168275e-08,0.74670607,-1.8575435e-08,-1.613266e-08,-1.789602e-07,-0.21442829,1.4370377e-07,1.4971776e-07,2.271203e-07,-4.224982e-07,2.6387372e-07,6.3976216e-08,-2.476932e-08,0.0017162634,3.5565307e-08,-2.508964e-07,-2.0432982e-07,1.3815477,-0.699315,7.7871974e-08,-0.8886046,1.9467656e-07,5.660803e-07,-1.008302,-2.0798039e-07,-1.0526164e-07,-1.5485526e-07,3.1100203e-07,1.3544359e-07,6.920604e-08,-1.965334e-07,2.015443e-07,1.6811211e-07,-2.8839025e-07,-1.345508e-07,2.9130393e-07,-0.018000875,7.721188e-08,-0.42481267,-0.906493,-8.93432e-08,1.8925881e-07,1.1671532e-07,-3.0099457e-08,-0.18062124,2.963693e-07,-2.7988872e-07,-2.2630758e-08,1.5345347,-0.9030316,7.6139e-08,-0.376621,5.0629758e-08
1.7918465e-07,6.320868e-08,0.19500251,-1.03420504e-07,-6.00626e-08,1.2629546e-07,-4.731021e-08,-2.4904239e-08,1.1039376e-08,-8.333546e-08,-6.426344e-07,-1.1175659e-07,-3.512497e-10,-6.036035e-08,-0.29310986,0.21790516,7.8060346e-08,0.044331983,2.8192119e-08,8.3752894e-08,-0.45821851,3.4742285e-07,-2.029275e-07,-2.090119e-07,8.7928875e-08,2.346631e-07,-2.4258918e-07,-1.3987463e-07,-4.0063526e-08,1.786063e-07,1.9685311e-07,1.2523465e-08,-4.78974e-08,0.011387552,-2.5103663e-08,-0.018824745,0.2592905,7.308623e-08,1.8491423e-07,2.3101208e-08,1.0435661e-07,0.23580545,2.1687889e-08,-5.9245053e-10,1.0827517e-06,0.21179393,-0.036108494,-1.981535e-07,0.7214969,7.46361e-08,5.1760317e-08,-3.8810185e-08,0.094977416,1.7291272e-07,7.363292e-08,7.6952205e-09,6.844122e-08,-2.624145e-07,-9.045934e-09,3.6340705e-07,-0.0007438912,2.8287124e-07,1.7480113e-07,-1.4211352e-07,0.96824926,0.0025279121,3.4798333e-09,-0.2669297,8.263848e-08,2.436858e-07,-0.8480694,-6.7880364e-08,1.1830029e-07,6.467779e-08,6.3832275e-08,6.918473e-08,-6.3724535e-08,1.794929e-07,1.9428234e-07,1.3693922e-07,-1.5380066e-07,5.652835e-08,-1.875398e-08,-0.002665319,2.6910675e-07,-0.047544427,-1.5547658,1.5713871e-07,-1.1538815e-07,1.2486932e-07,7.8751825e-08,0.0055203466,-2.9274076e-08,-5.7646872e-08,-7.1753175e-07,0.73595387,-0.19476835,2.6283013e-07,-0.2310993,1.5045345e-07
1.4928304e-07,-1.6566189e-07,0.5045373,8.36395e-08,1.4431609e-07,-2.4141826e-08,3.770846e-08,-2.9876954e-08,-1.530017e-07,5.539287e-07,-0.00046878005,2.0142195e-07,2.2466409e-07,-2.3050063e-08,-0.4033093,-0.20608585,9.988852e-08,-0.08269954,-1.718132e-07,1.9267549e-07,0.3997518,1.4092922e-07,9.777648e-08,2.8744722e-07,-2.8849428e-07,-3.2023044e-07,1.42299e-07,6.7950026e-08,1.811861e-07,4.077222e-09,2.8807568e-07,-4.0067007e-08,2.3323835e-07,0.015332441,1.3104864e-07,0.058846906,-0.21774556,-6.19518e-08,2.3729757e-07,-2.8251583e-07,-2.1366434e-07,0.15617904,-2.4589139e-07,-1.4245566e-07,-8.7636545e-07,0.5423834,0.21424356,8.142467e-08,0.3144427,2.163243e-07,9.796004e-09,1.6108613e-07,-0.27495348,-1.1566169e-07,-2.0528499e-07,2.2780716e-07,-2.9006998e-07,1.8206535e-07,-1.9736734e-07,-3.1782764e-07,-0.0016214291,3.6603785e-07,-1.3105756e-07,-1.8019146e-07,0.92127365,0.55538076,-1.898747e-07,-0.13968275,6.913746e-08,-1.4755128e-07,-1.1757853,-3.682372e-08,-1.0295074e-07,7.3700996e-08,9.183706e-09,1.06862025e-07,7.019666e-08,9.56494e-08,6.591061e-08,5.4705666e-08,3.284476e-07,-2.7655744e-09,2.3703606e-08,0.013526383,1.3816774e-07,-0.3838901,-1.0014964,5.3626263e-08,3.1829012e-07,2.5543198e-07,7.545177e-08,0.24141626,5.985285e-08,-4.798041e-07,-4.282407e-07,1.0869349,0.08046484,3.402775e-07,-0.5814035,-2.615748e-08
1.3440673e-07,-1.1243999e-07,0.42706457,-3.083195e-07,3.009123e-08,1.4838633e-08,1.3858958e-07,3.889578e-08,-2.7611534e-08,-2.7200201e-08,0.00070813677,-3.604771e-07,-1.0484847e-07,-2.2526541e-07,0.05522669,-0.010399453,6.338925e-08,-0.55751354,-2.6531745e-07,-1.3120325e-07,0.40174386,-4.9724846e-08,-7.61645e-09,-1.1016431e-07,-8.693954e-08,-1.3483145e-07,7.246541e-09,-1.03309446e-07,1.8084557e-07,6.0042e-08,9.868344e-08,-2.2750949e-07,9.33624e-08,-0.0094175255,4.483732e-08,-0.30641326,0.4273951,1.4006851e-07,1.1773264e-07,1.6901905e-07,1.4091843e-07,0.5570347,-1.1708872e-07,1.17932096e-07,-7.1475483e-07,-0.10064678,0.25179362,8.790735e-08,0.043071866,-9.461217e-08,2.1787642e-07,2.297304e-08,0.036520205,-2.1809754e-08,-2.5673778e-08,-1.1930237e-07,-7.4062214e-08,-2.5525372e-07,-1.3513794e-07,-2.6565164e-07,-0.0010818972,-2.5468063e-07,2.3053268e-07,2.4279234e-07,0.1222404,-0.012442768,-1.3626766e-07,-1.05983,-2.4754934e-07,-1.9774406e-07,-0.8788046,-2.7744596e-07,2.1795495e-07,-1.300006e-07,-2.743315e-07,-8.842649e-08,1.726011e-07,1.5405945e-07,-8.642037e-08,-2.164976e-07,-2.5414337e-08,2.0876891e-07,2.4750156e-07,-0.00027268578,8.521226e-08,-0.04140324,-1.6803688,-1.6906708e-07,1.651309e-07,-9.1306916e-08,-4.8722526e-08,-0.450024,-1.4480531e-07,2.2244271e-07,-1.92834e-07,1.1608394,-0.11360258,1.0618577e-07,0.36392066,-1.2845646e-08
-1.4300798e-07,-1.4665463e-07,0.15120246,-1.610778e-07,-1.0195594e-07,1.4255879e-07,-7.8863835e-08,-8.995344e-08,-1.0518835e-07,3.2682223e-07,-0.00011448792,-4.3574826e-08,1.2881068e-07,7.102081e-08,-0.109407306,0.22484976,-7.677794e-08,-1.0147492,2.3609351e-07,3.3568156e-08,0.6189454,1.4727897e-07,1.7490026e-07,-1.2706207e-07,2.1712367e-08,1.05850575e-07,-1.3861666e-07,-6.965765e-08,-1.5803727e-07,-1.9008806e-07,5.723929e-08,-3.2027252e-08,1.3025601e-07,-0.02435654,2.7798083e-07,0.020579379,0.18316236,6.7396506e-09,-7.028085e-09,-2.5614173e-07,-1.3828178e-07,0.02036922,4.374617e-08,-6.2580483e-09,-9.714663e-07,0.6736731,-0.06627871,-3.2766366e-08,-0.073114164,-5.0166378e-08,6.1987734e-08,1.3563697e-07,0.032558776,4.8112774e-08,1.1421066e-07,8.044873e-08,-4.5937583e-09,-1.8987032e-07,2.5168427e-08,1.6214578e-07,-0.0014946634,1.5903649e-07,-9.3104816e-08,4.8925415e-09,0.4294687,0.16962963,6.2090734e-08,-0.7715422,1.1857779e-07,-3.2004738e-07,-0.7186563,3.335189e-08,-2.7094174e-08,-1.9324857e-07,3.3676642e-08,-2.8435707e-08,-3.4491165e-08,-1.6041696e-07,-1.5208076e-07,1.4609153e-08,-1.6502511e-07,6.1985666e-08,-1.1029607e-07,-0.0021872662,-1.075675e-07,-0.15102328,-0.9079568,-1.9493099e-07,-1.7460589e-07,-1.4843724e-07,1.2363314e-07,-0.1870364,-8.835801e-08,-3.9286658e-07,6.0760726e-07,1.0651045,0.66110307,2.330528e-07,0.22494486,-4.274083e-08
-1.89488e-07,1.453891e-07,-0.1318657,-1.1332829e-07,-1.6413999e-07,2.2927432e-07,8.181303e-09,1.999945e-07,6.286423e-08,5.6256874e-07,0.0011660485,-2.0621941e-07,2.8263162e-07,-1.520499e-07,-0.2930194,0.043131422,1.9680772e-07,-0.9285091,6.800123e-08,-3.846901e-08,0.47038633,-1.3432225e-07,2.4264517e-07,1.857824e-07,-4.6078306e-08,4.608508e-08,-8.991419e-08,-3.1729064e-07,-4.422519e-08,-1.18396855e-07,2.615579e-07,2.3882961e-08,1.5684398e-07,0.022499856,1.9671575e-08,0.08307452,0.4210539,-1.2912675e-07,1.7799506e-07,-2.8548595e-07,-2.409932e-07,-0.017229218,-2.007392e-07,-3.200322e-07,-1.7310336e-06,0.59273463,-0.21559502,-9.393851e-09,-0.44457185,-9.980192e-08,3.6867434e-09,7.59651e-08,-0.15468608,1.8346284e-07,2.3830299e-07,4.927621e-08,-2.4188677e-07,-5.1322857e-08,5.0704188e-09,7.041598e-08,0.0005666682,-1.680739e-07,5.4233112e-08,-7.874093e-08,0.06974043,-0.07605637,-1.6413634e-07,-0.5363122,3.1342086e-07,-9.4319994e-08,-1.3737739,-9.953399e-08,-3.697845e-08,1.2618983e-07,1.4853745e-07,1.7157848e-07,1.6436032e-07,2.6542858e-07,1.2833738e-07,-9.630856e-08,-1.1298985e-07,-9.663889e-08,1.4464489e-07,-0.00416533,-2.970881e-07,-0.14788218,-2.1637104,-2.1626599e-07,-2.3447052e-07,-1.8484229e-07,5.0544145e-08,0.025267687,-4.0385765e-07,1.1132144e-08,-1.9517164e-07,0.9568557,0.48691186,-1.7813079e-08,-0.033310547,-1.4802438e-07
1.9311635e-08,1.0199629e-07,0.27671212,-2.952381e-07,-3.730392e-09,2.720708e-07,2.789015e-07,-1.6590333e-07,-1.4073015e-07,2.973469e-07,0.0017436708,1.7164325e-07,4.197652e-08,3.022384e-07,-0.05747348,-0.03579241,-1.3821138e-07,-0.9660451,2.5493176e-07,-8.014656e-08,0.28896284,1.8218347e-07,-1.4848573e-07,1.3701765e-07,-2.6233778e-07,-2.764026e-07,1.1024737e-07,9.321903e-08,9.83031e-08,3.0050523e-07,1.7106319e-07,-1.6878887e-07,7.2729144e-08,-0.0010704903,-1.9556268e-09,0.25878176,-0.14597195,-3.1232645e-08,8.945929e-08,-1.833625e-07,-1.0714654e-07,0.42989066,-2.5670596e-07,-1.09201885e-07,-3.7794223e-08,0.58344704,-0.2881288,1.4369797e-07,0.2098341,1.02173395e-07,9.974261e-08,-1.6303382e-07,0.19046606,1.0127579e-08,1.1069612e-07,2.0756259e-07,-7.414552e-08,1.07998886e-07,-2.5211972e-07,-3.0038137e-08,0.00038918428,-3.769159e-09,2.0430268e-07,1.3429224e-07,-0.4211945,-0.31751996,-2.484184e-07,-0.29205137,1.6523954e-07,-3.8647312e-07,-1.4265466,1.9608814e-07,9.396321e-08,-1.3635815e-07,-5.941576e-08,-1.1531277e-07,-1.8720728e-07,-1.5552502e-07,1.2042852e-07,-1.0914931e-09,7.687161e-08,9.2048296e-08,-2.587646e-08,-0.013683428,-2.0093104e-08,-0.16911449,-0.95028234,-8.275427e-09,-3.2753917e-07,-2.226661e-07,-9.7980205e-08,0.19536039,-1.9556434e-07,-6.90423e-08,-1.7688723e-07,0.52223516,0.38212946,5.34761e-08,-0.49421516,1.7795388e-07
6.608304e-08,-1.8873243e-07,-0.18013564,-3.313083e-08,4.4846132e-08,1.5352157e-07,-1.6607444e-07,7.957124e-08,-1.068632e-07,2.2421753e-07,3.9886363e-05,-5.667397e-08,2.0224064e-07,2.177489e-07,-0.101991326,-0.040938612,5.962406e-08,-0.7910474,-6.140388e-08,-3.5449423e-07,0.27490088,2.3464546e-07,-5.985464e-08,-1.28854225e-08,1.16364134e-07,1.1623186e-07,-7.0293055e-08,-4.3210484e-08,3.2664865e-08,-2.2202215e-08,5.722847e-08,4.4700766e-08,-8.983996e-08,-0.005819196,-1.1924641e-07,-0.22476155,0.22060606,-1.0350223e-07,-7.512597e-08,-1.8730188e-07,1.1830661e-07,0.11410118,-2.4091497e-07,-1.0821081e-07,-7.8645803e-07,0.36112174,-0.04195465,-1.8310566e-08,-0.31314313,-1.573037e-07,1.5296463e-07,-4.6316927e-08,0.07312909,1.5398109e-07,1.9830311e-07,1.6045435e-07,1.3290442e-07,-1.57699e-07,-4.933119e-08,-4.4832103e-07,-0.0006651431,3.4784665e-07,-2.5335815e-08,1.5114277e-07,-0.43543452,0.20859395,2.6480137e-08,-0.28019324,3.398283e-08,-2.7968497e-07,-1.4418885,2.2957235e-07,-3.3031753e-08,-9.6907e-08,9.1065e-09,-1.03565114e-07,-2.2970784e-07,5.407672e-08,-1.46498e-07,1.5337436e-07,9.0792e-08,2.3753975e-07,-1.7599416e-07,-0.00083888764,-2.997935e-07,-0.028301662,-1.82595,8.206797e-09,1.10551824e-07,-2.0274243e-07,-1.7122787e-07,0.29838264,9.255972e-08,-1.4806295e-07,-1.9218442e-07,0.86102957,-0.05728341,-8.432514e-08,-0.44876313,3.2940797e-08
-2.134607e-07,2.6754776e-09,-0.43235618,1.3810586e-07,1.2023591e-07,-2.8444214e-07,2.1521976e-07,1.5335036e-07,-7.168572e-08,1.859122e-07,0.00076554937,-3.866974e-07,-2.2388677e-07,-1.5144256e-07,0.10598972,0.07420859,-2.0019894e-07,-0.33958018,7.378074e-08,8.8941334e-08,-0.41719407,-1.6271542e-07,-4.189876e-08,-6.3011385e-08,-1.7162253e-07,-1.2401502e-07,-4.5775693e-08,-2.5022257e-07,6.7798275e-08,5.7376868e-09,8.8150536e-08,2.2645827e-07,3.7871516e-08,-0.011590723,4.835112e-08,0.30716428,-0.1883796,1.1816894e-09,-1.01059e-08,1.6335447e-07,-2.2081906e-08,0.19965744,-1.3448948e-07,-3.493352e-08,-7.140318e-07,0.5541067,-0.5121675,3.1308595e-08,0.12509067,-1.1693705e-07,-1.650605e-08,-6.543242e-08,0.19691223,-6.278297e-08,-1.1712172e-07,-1.9443928e-07,1.15778576e-07,-1.5548997e-07,7.424868e-08,-1.7189879e-07,0.0006057134,-3.3585115e-07,9.379509e-08,4.571531e-08,0.3722703,0.35144323,1.02656024e-07,-0.21489307,2.744963e-08,3.4313032e-08,-1.1931921,-1.8845759e-07,2.205065e-07,9.6948284e-08,-1.3536068e-07,1.6730893e-07,9.045189e-08,-3.2898832e-08,2.6574781e-08,-1.2597536e-07,-4.29701e-08,-2.3559542e-07,3.0821283e-08,-0.0009587179,2.591426e-07,-0.19589609,-0.9565782,-8.873493e-08,-1.2577358e-07,2.289777e-07,-8.268771e-08,-0.0822866,-7.092649e-08,2.5461358e-07,-1.7090434e-07,-0.31974766,0.98617625,-5.6907837e-08,-1.308293,1.2320999e-07
9.963789e-08,-8.688775e-08,-0.18772471,2.8660505e-09,7.408377e-08,-2.5078188e-07,-9.70941e-08,1.0961152e-07,-1.07965135e-07,-9.310048e-08,0.00083100924,-1.5699703e-07,-1.7795513e-07,1.9415948e-07,0.048344966,-0.02964586,5.5312853e-08,-0.6024748,-1.2059141e-07,1.2046901e-07,-0.36496916,1.9259797e-07,1.2308732e-08,1.9825887e-07,-8.6660755e-08,-8.673475e-08,1.0013353e-07,1.8387317e-07,-3.288804e-08,1.8713264e-07,-1.0447805e-07,-1.18972864e-07,7.856114e-08,-0.017266722,2.5445267e-08,0.10102912,0.12882093,1.9787407e-07,-4.4391086e-09,-7.249537e-08,9.485144e-08,-0.16662362,-2.2855033e-08,-2.6746102e-07,-1.8966556e-07,0.5205555,-0.2506028,1.4984056e-07,-0.22891532,-4.6854005e-08,-1.3370354e-07,-1.2683894e-07,0.13266191,-1.5978071e-07,-5.3064284e-08,2.1022083e-07,-5.813223e-08,1.4062869e-07,-2.0891875e-07,5.4023197e-08,0.00097167015,-2.9709042e-07,-2.4780297e-07,-2.0924952e-07,0.43522656,0.30881175,1.3137608e-08,-0.48906544,1.5770436e-07,-3.1917017e-07,-1.1126177,-3.0209733e-08,-2.3076375e-07,2.0381027e-07,-1.131297e-07,2.1223923e-07,3.0938298e-07,2.2662418e-07,-1.7503136e-07,1.2294441e-07,-6.9429262e-09,4.351057e-08,-4.595337e-08,0.0024922376,-2.574321e-07,-0.015635924,-2.0740206,-1.5764364e-07,-1.5753545e-07,-4.972145e-08,-3.3509384e-08,-0.09442219,-4.429271e-08,-4.7164053e-07,-2.6169616e-08,0.14876221,0.74489766,6.2615925e-08,-1.1073751,2.0271776e-07
-1.1068897e-07,-1.255151e-07,0.55308586,1.5769413e-07,-9.6809956e-08,-1.3458784e-07,-1.9847147e-07,-4.803428e-08,3.2858125e-08,-5.028929e-07,-0.0013370971,5.5225136e-08,-2.3286607e-07,-1.827765e-07,0.13515536,0.25134012,-6.726374e-08,-0.30008346,-2.8365685e-07,-2.6425852e-07,0.28091434,1.3575911e-07,-2.156449e-07,-1.7230548e-08,9.912869e-08,-4.9545406e-08,1.7572475e-07,-7.327264e-08,9.086136e-09,-1.6875707e-07,-2.6089072e-07,-1.7257605e-07,2.3083265e-07,-0.011983376,-3.1091993e-08,0.3023899,0.080096744,7.5234055e-08,6.596207e-08,2.7306413e-07,1.2925902e-07,0.2683712,-1.4414844e-07,-1.4268316e-07,6.359993e-07,-0.10051115,0.4181648,8.755146e-08,-0.3805423,1.7695845e-07,4.458542e-09,-8.64117e-08,-0.124516845,-6.974295e-08,-2.5864966e-07,-2.122664e-08,2.8351187e-07,3.6520697e-07,7.462845e-08,-3.0667428e-07,0.00020869038,1.7986483e-07,2.6133475e-07,1.566022e-07,0.6029507,0.08345489,1.16038045e-07,0.32369292,-1.4285088e-07,3.7107216e-07,-0.8424873,1.0689487e-07,-3.0105065e-07,1.7447815e-07,-1.0233535e-07,-1.0563335e-07,-1.1214793e-07,1.1117788e-07,-1.3525843e-07,-3.5959852e-07,-2.6646336e-07,2.3040533e-07,-2.684798e-07,0.0045167687,-3.2423948e-08,-0.21419981,-1.1849827,9.127491e-08,1.4241468e-07,3.489153e-07,1.869244e-07,0.34269843,3.3396435e-07,-1.10110435e-07,2.3629912e-07,0.9648107,0.23713022,-1.5390404e-07,-1.7199739,2.1841811e-07
1.7328249e-07,-1.2256604e-07,0.045905348,8.4878906e-08,1.965202e-08,-1.1118371e-07,1.05601885e-07,-2.7061623e-07,1.7861538e-07,2.9159033e-08,-0.00019302477,1.2644239e-07,1.9740966e-07,-2.7303074e-08,-0.1696196,-0.019558886,-4.364182e-08,0.0020142049,-1.2344498e-07,-2.280143e-08,0.60699636,1.5085749e-07,-1.2031813e-07,8.8410886e-08,-8.533818e-08,2.3881836e-07,1.8091099e-07,6.787937e-08,-1.1357027e-07,3.4612526e-09,-1.1737677e-07,1.1824055e-07,1.1770851e-08,0.0022232323,1.1709912e-07,0.037354115,0.91098106,-7.608921e-08,5.621881e-08,-5.3749716e-10,-7.624919e-09,0.18350261,-6.673959e-08,-2.175687e-07,2.8166852e-08,-0.0919672,0.2371253,1.4573497e-07,-0.08087546,-1.1303694e-07,1.5555395e-07,-1.367827e-07,0.23328315,1.9594626e-07,1.4006154e-07,-1.5629323e-07,-7.565278e-08,-4.128654e-08,-7.359421e-08,3.0548455e-07,-0.00037456187,-7.1173446e-08,4.8034508e-08,1.7356875e-08,0.70536214,0.011232172,-1.6300658e-07,0.05534005,-4.0075122e-08,1.1382838e-07,-0.8189497,-1.6715396e-07,-1.5718751e-07,1.5326479e-07,3.470136e-08,-1.0664779e-07,7.476982e-08,-5.4764485e-08,-2.0639115e-07,-3.7077314e-08,-3.3308858e-08,8.907749e-08,-1.01747624e-07,-0.006026938,3.911562e-08,-0.022367965,-0.71364486,7.559349e-08,8.735147e-08,-1.3391812e-07,1.7193415e-08,-0.051533148,-1.7841015e-07,-2.6258817e-08,-1.3142497e-07,0.70994425,0.012286309,1.16022754e-07,-1.2003335,2.3091542e-07
-1.471304e-07,1.4099825e-07,-0.47091618,2.0960096e-07,-1.0879111e-07,-1.286756e-07,-2.5390966e-07,-1.9965202e-07,5.5373803e-09,-1.1234698e-07,0.00015805129,-1.7448232e-07,-1.8028541e-07,-1.2801095e-07,-0.38170135,-0.66694415,-1.1805845e-07,-0.20437257,-1.9044813e-07,-2.2558767e-07,0.3793345,-1.0573951e-07,-6.667712e-08,-3.3671483e-08,2.0483122e-07,4.7455828e-08,1.3519721e-07,-1.2296915e-07,1.2498457e-07,6.2590075e-08,-1.5126008e-07,-1.3570855e-08,2.7150222e-07,0.014648335,-2.691366e-07,0.48678866,0.500155,-4.4273403e-08,2.38204e-07,-2.0932858e-07,-2.3094546e-07,0.6950606,2.4103645e-07,-1.9528593e-07,7.0030853e-07,-0.2996099,0.4566929,-2.0111816e-07,0.1522625,-1.9229714e-07,-2.0192412e-07,-1.651795e-07,0.050241917,-3.526098e-08,2.1405995e-08,-6.1445824e-08,-1.4752916e-07,1.9233526e-07,-1.9725552e-07,7.049535e-08,-0.001598963,-3.7009713e-08,1.6133428e-07,-5.278136e-08,1.0765984,-0.5688764,1.1272603e-07,-0.604789,2.2774006e-07,1.8538785e-07,-0.6827781,1.607356e-07,2.1255275e-07,8.6481116e-08,-9.0822e-08,-8.818485e-08,1.05155436e-07,-2.612071e-07,-1.3063615e-07,-8.6077776e-08,1.0681227e-08,1.4445856e-08,2.3832796e-07,-0.0051010996,1.4368693e-07,-0.4578972,-0.98383886,-6.680422e-08,-4.860889e-08,1.1309853e-07,6.43381e-08,-0.28047988,4.7302933e-08,3.3277115e-07,-1.0863802e-06,0.8365946,-0.56580496,-2.2899656e-08,-1.5578363,-1.901345e-07
-5.5739804e-09,-2.465714e-07,0.022650618,1.6589868e-07,2.425666e-07,-1.2780379e-07,-1.370781e-07,6.1964727e-09,-1.342746e-07,-5.871675e-07,-0.0005011437,3.3851921e-07,-1.4716268e-07,-8.439817e-08,-0.28061488,-0.1643636,1.290669e-07,-0.85371155,-3.091626e-07,2.1670564e-07,-0.25195333,-2.0597106e-07,8.918753e-08,2.0126171e-07,1.3777888e-07,-1.4596282e-07,2.2633157e-07,-8.251911e-08,1.6199611e-07,-1.5834627e-07,-1.4361653e-07,1.0662238e-07,4.0496033e-09,-0.0020057561,-2.3283441e-07,0.17491013,0.19982818,1.9269089e-07,-2.074836e-08,-3.4037578e-07,2.4832048e-10,-0.063249186,3.1780047e-07,1.6053441e-07,2.1483496e-07,0.43459538,0.21147929,4.31006e-08,0.31165725,-1.5532498e-07,-1.766368e-07,-1.5386729e-07,-0.4657173,4.401622e-08,-4.243816e-09,-1.5813359e-07,-4.841806e-08,-2.1216586e-07,-7.858634e-08,-1.8641327e-07,0.00070690626,-2.2600869e-08,1.5729329e-07,5.2756008e-08,0.9113814,-0.08178638,-1.975572e-07,-0.36564675,-1.3155372e-08,2.4597995e-09,-1.322994,1.8093215e-07,2.8334625e-08,7.094762e-09,2.5646247e-07,-2.2310019e-08,-1.4327058e-07,1.408615e-07,-1.2524075e-07,1.6202411e-07,2.1893985e-07,-1.3375072e-07,-4.8590687e-07,-0.0018843408,1.376005e-07,-0.05481102,-1.8680344,-2.276628e-08,-7.499737e-08,-1.952009e-07,5.7842243e-08,0.640106,-2.6826393e-07,3.7990873e-08,-3.870495e-07,1.1132432,0.49411207,-2.7974193e-07,-0.91394705,2.399742e-08
-1.2833608e-07,-1.3593564e-08,0.7297928,1.2497748e-07,1.2556592e-07,9.0671506e-08,6.586095e-08,-2.44851e-07,4.682252e-08,-2.0612761e-07,-0.00072073325,-8.016676e-08,-1.371632e-07,-3.4782477e-07,-0.0670745,0.23186451,1.1690849e-07,-0.8266114,6.4162165e-08,-6.619749e-08,0.21876161,1.6586696e-07,-3.5847606e-08,-7.955935e-09,9.33535e-08,1.739677e-07,-1.05269535e-07,1.531932e-07,-3.3756024e-08,1.2648576e-07,1.2160083e-07,1.992129e-07,2.2479253e-07,0.006458792,-5.097148e-08,-0.15043382,0.9868325,4.8958583e-08,1.3953772e-07,-1.0148593e-08,-2.1600194e-07,-0.19020739,4.2278913e-08,-2.3387457e-07,-1.582562e-07,0.15364695,0.5161844,2.1712779e-07,0.2283611,-1.3103828e-07,-1.8575022e-07,-2.093735e-07,-0.24248622,1.4256767e-07,1.6264762e-07,-1.3601533e-07,-1.1657666e-07,2.516177e-07,2.3237774e-08,8.500196e-08,-0.0012281705,9.115226e-08,7.095715e-08,3.6702907e-08,0.48349336,-0.09933719,1.493784e-07,-0.34050235,2.2982533e-07,-3.8230004e-07,-1.303054,6.7817524e-08,-8.802721e-08,-1.2222743e-07,-1.05944856e-07,-2.1555803e-07,-9.854129e-08,4.0907224e-08,-1.7933284e-07,-2.988652e-07,9.4996864e-08,1.0283607e-08,-1.1546588e-07,0.011703778,-9.075673e-08,-0.05939084,-1.01433,-5.1914157e-08,1.8497853e-07,-1.538288e-07,1.3459407e-07,-0.31451732,-1.5071691e-07,-1.2981394e-07,-2.2911058e-07,0.69404244,0.8005883,2.1300207e-07,0.02131646,6.353505e-08
6.859421e-08,-2.0036016e-08,-0.2781469,6.664432e-08,-8.98597e-08,-2.74785e-07,-1.2141402e-07,-1.5616966e-07,1.6376751e-07,-6.686285e-08,0.00041487702,2.7694249e-08,4.132265e-08,-8.301936e-08,-0.61394054,0.16742572,-2.0543973e-07,-0.30581343,1.4395155e-08,2.456722e-07,-0.36774036,1.5997239e-07,2.5616353e-07,-8.473209e-08,-3.656919e-07,-1.4141307e-08,1.2014692e-07,-2.759682e-07,7.875083e-08,9.0451174e-08,-5.798786e-08,9.585834e-09,-2.6062622e-07,0.0046288352,1.1446886e-07,0.44118267,0.5203554,1.7244487e-07,3.2125058e-10,2.74121e-08,2.4910065e-08,0.31896752,-8.993522e-08,2.0050395e-07,7.1344454e-07,0.2868892,0.19714543,1.2937801e-07,-0.16684107,5.498113e-08,1.5276801e-07,3.2820196e-08,-0.033192348,1.0565591e-07,1.5093278e-08,-3.909708e-09,1.9981455e-07,-2.204201e-07,1.7710477e-07,-1.0290552e-07,-0.0007771887,-1.1066069e-07,-8.7478384e-08,-1.8438631e-07,0.37681994,-0.33155847,-1.5721506e-07,-0.14468428,-5.983151e-08,-6.4312715e-09,-0.70991004,-1.234215e-07,-4.7142525e-08,1.1976094e-07,1.374883e-07,-1.6105797e-07,-7.9280724e-08,1.6800772e-07,1.4134999e-07,8.618149e-08,3.8578875e-08,-1.369602e-07,-1.427038e-07,0.009769112,1.0495448e-07,-0.030046018,-1.9670547,2.5096412e-07,-9.6945314e-08,-5.2590963e-09,8.486978e-08,-0.07381142,-1.8900764e-08,1.8544236e-08,-2.1934795e-07,0.016203068,0.22400492,-1.8090662e-07,-0.9410041,-2.1787947e-07
9.822131e-08,-2.1503021e-07,-0.32805794,-5.769175e-08,1.14705045e-08,-1.13546974e-07,1.2158763e-07,1.8332791e-07,-1.570246e-07,-1.9336035e-07,-0.00041031002,-3.5490044e-07,1.1969409e-07,-9.130901e-08,-0.50312597,0.5880193,8.2595186e-08,-0.2832633,4.106174e-08,1.0574091e-07,0.7382675,-1.4942732e-07,1.799055e-07,-9.947186e-08,1.4479309e-07,-5.9159888e-08,1.9671606e-07,1.5953293e-07,-2.2806363e-07,8.388017e-08,1.5237606e-07,-3.6461557e-08,8.660877e-08,0.029610518,5.3922363e-08,-0.03443828,0.5651514,-7.301894e-08,3.9230862e-08,3.0173133e-08,1.0457898e-07,0.044751532,-1.0536793e-07,2.036185e-07,-3.1350137e-07,0.25148028,-0.14942774,-1.847178e-08,-0.8320579,2.8874515e-08,-2.549615e-08,1.262006e-07,0.3591252,-2.9302316e-07,-1.164981e-08,2.084798e-07,3.688311e-07,3.708942e-08,-1.2687073e-07,1.5222398e-07,0.0019826167,1.914052e-07,2.919996e-07,2.8747309e-07,0.63120186,-0.40889987,-2.0673345e-07,-0.6441239,-3.012636e-07,5.496115e-08,-0.34620473,-1.50114e-08,5.9742717e-09,1.8827393e-09,2.7564204e-07,1.6731991e-07,-7.769358e-08,2.4350777e-07,6.49632e-08,8.378123e-08,-2.0844136e-07,-3.0233437e-08,1.7153639e-09,0.010846681,2.3796984e-07,-0.13953868,-1.1069866,8.9224166e-08,-4.5254712e-08,3.341082e-07,1.4854582e-07,-0.22546318,-2.2089063e-07,-1.9241429e-07,7.70126e-07,0.4728097,0.4034567,-5.4068465e-08,-0.3117589,2.470722e-08
-2.1991072e-07,-5.8133907e-09,0.47140604,-1.7368299e-07,-1.3681841e-07,1.7710686e-07,1.6352725e-08,-1.9316082e-07,1.8767713e-07,-4.06304e-07,0.00010470353,-6.427712e-08,-2.1171871e-08,-1.605561e-07,-0.0071139354,0.03965988,3.6263188e-08,-0.5916245,-7.6159196e-08,9.035499e-08,1.1095443,6.641257e-08,3.8963933e-08,-6.989564e-08,-2.9491866e-07,-1.2368135e-07,1.2826548e-07,-3.1624964e-08,1.542391e-07,2.4974673e-07,3.858915e-08,8.672551e-08,-2.5481236e-07,0.02246123,-9.1530296e-08,-0.116633415,0.74864745,1.7294715e-07,-4.1815476e-08,7.7137116e-08,1.467614e-07,-0.2553784,9.2186944e-08,-1.27813e-08,5.9408865e-07,0.10061096,0.40513515,-2.6204992e-07,0.54103696,-3.761412e-08,4.0482533e-08,-1.9735798e-07,0.042060014,-1.3631734e-07,-1.6347104e-07,-8.6309555e-08,1.1085477e-07,4.0178395e-07,-1.7782939e-07,5.5391365e-07,-0.0005330817,-2.1728692e-07,-2.9412806e-07,-1.6580444e-08,1.0524105,0.0693414,2.225161e-07,-0.7720893,1.50915e-07,-3.718823e-08,-0.10949211,1.574558e-07,1.583453e-08,-2.6250632e-08,2.5070044e-08,-1.0847568e-07,-1.4405308e-07,-1.5738617e-07,-6.72142e-08,-1.5928464e-07,-1.977846e-07,2.4405486e-07,2.8067006e-09,-0.0017405505,-3.0297946e-07,-0.103839576,-1.8079755,2.523312e-07,-1.8853788e-07,-3.9908855e-08,-8.646807e-08,-0.2006686,1.528986e-07,-1.2617042e-07,6.2539334e-07,0.7583845,0.2452721,1.8834781e-07,-0.43253076,-2.296981e-07
2.71732e-08,-8.751131e-08,0.03168869,7.2094224e-09,-2.0879186e-07,2.1087034e-07,2.0880378e-08,1.7589338e-07,1.8812467e-07,5.6127746e-08,0.00077954296,-4.066981e-07,1.9079224e-07,3.538983e-08,0.62579024,-0.26982135,-2.2097431e-07,-0.9038503,2.6916226e-08,-1.7941369e-07,0.78429294,-5.8471862e-08,-2.1637607e-07,-1.8544887e-07,9.427539e-08,2.0546842e-07,8.088398e-08,-1.9714363e-07,-1.4851638e-07,9.930305e-08,7.00055e-08,-5.9978646e-08,4.687672e-08,-0.015568097,-1.4117626e-07,-0.009230865,0.8621317,8.551497e-08,1.4478684e-07,1.6705816e-07,2.0815452e-07,-0.41990885,-5.725056e-09,-8.736966e-08,1.1623725e-06,-0.24803819,0.5188124,2.0148107e-08,0.2300097,1.1296149e-07,-1.489742e-07,1.4834691e-07,-0.07341324,5.0405063e-08,8.830394e-08,-1.4056177e-07,-1.322828e-07,1.6022368e-07,-1.9199058e-07,-1.0295682e-07,0.0013553691,2.7580154e-07,-1.4615195e-07,-1.01547386e-07,0.54441565,0.067334786,-7.5450494e-08,-1.149548,2.2390492e-07,2.434252e-07,-0.07987313,-1.2395842e-07,-1.4315602e-07,-8.747971e-08,1.7900618e-08,1.584705e-07,1.5059028e-07,-1.1387617e-07,-6.953886e-08,4.3345374e-08,5.6350416e-08,-2.8453167e-07,-3.9194921e-07,0.0022986666,1.4099558e-07,0.07141343,-0.33380777,1.9121671e-08,-5.4205316e-08,1.9479697e-07,-2.0103721e-07,-0.17902614,-1.773964e-07,9.0932986e-08,4.4699615e-07,0.20415221,0.35621312,-1.8591389e-07,0.20366682,-6.4964524e-08
7.014033e-08,1.1503312e-07,-0.02538591,-1.3704508e-07,2.5485156e-07,1.55421e-08,2.5858654e-07,1.4754637e-07,6.2413434e-09,3.4904542e-07,0.00031296336,-3.8268965e-08,1.6292151e-07,-3.1055438e-07,0.61637825,-0.12361993,-1.4888718e-07,-0.87981427,-1.153561e-07,-2.6067016e-07,0.5468234,-1.9445699e-07,-1.3527776e-07,4.1356913e-08,-8.046874e-08,-9.289402e-08,7.269549e-08,-1.7552355e-07,-1.0575089e-07,-2.6097524e-10,1.7690806e-07,-5.7864483e-08,5.256051e-08,0.014718083,-1.1598716e-07,0.057980828,0.57785076,-1.0388922e-07,-1.6604699e-07,8.0922916e-08,1.8251673e-07,-0.21241862,4.807248e-08,2.566439e-07,4.3251282e-07,-0.3819079,0.24717465,1.8230959e-07,0.61098313,2.1168223e-07,-1.2688108e-07,-1.1296022e-07,0.17036393,-2.0124304e-08,1.4980299e-07,-5.403004e-08,-2.1599237e-07,-1.5237964e-07,-1.8532627e-07,7.246163e-08,9.619253e-07,1.3391053e-07,5.979828e-08,5.939821e-08,0.5897377,0.12702185,-1.7251968e-07,-0.69954884,1.0117265e-07,-2.314901e-07,-0.42760706,1.8720823e-07,7.401785e-08,-1.2924045e-07,2.1064209e-07,1.6668285e-07,-2.5343418e-08,-2.0999701e-07,-1.2243744e-07,-9.446201e-08,2.1167284e-07,-1.7316904e-07,-2.9276165e-07,0.0027378595,2.590364e-07,0.17840582,-1.3152057,-1.7575218e-08,1.7937339e-08,-1.9226061e-07,-5.5488414e-10,0.03579574,-7.53226e-08,2.8597827e-07,9.1036796e-08,0.27129686,0.37051764,4.7654495e-08,0.34679472,1.5168146e-07
-2.2356608e-07,-4.0342933e-08,0.34342462,-8.74856e-08,-2.6970639e-08,-2.2843261e-07,-4.2166624e-07,-2.2588844e-07,4.6763844e-08,1.1807185e-07,-0.0001418789,7.5692554e-08,2.3913657e-07,-4.088335e-09,0.6636894,-0.000781592,-3.151905e-08,-0.6904817,-1.2566775e-07,-4.3685534e-07,0.07118571,1.676068e-07,-2.2820737e-07,-1.6395849e-07,-3.33783e-08,3.211717e-08,6.8031824e-08,1.8808143e-07,1.4500429e-08,2.3081608e-07,-3.0262697e-08,1.2926961e-07,2.888514e-07,-0.04018527,-7.100239e-08,-0.019883234,0.39102858,1.1106735e-07,-2.1459954e-08,-1.0317662e-07,2.8306637e-08,0.12044227,2.0369467e-07,-1.9605038e-07,2.5184633e-07,-1.3272637,0.3828358,6.006121e-08,1.1611596,2.1785273e-07,-8.8897906e-08,1.084743e-09,-0.37672782,1.4737677e-07,-4.5574417e-08,-1.7413291e-07,-1.8274392e-07,3.5115085e-07,-1.2596243e-07,-3.3131826e-07,-0.002732704,2.0965089e-07,-1.3545196e-07,-5.005799e-08,-0.2129753,-0.11534163,1.5306193e-07,-0.7162795,-1.1307752e-07,5.3062445e-07,-1.3791331,-3.560747e-08,2.3588598e-09,-2.0232976e-07,-2.1216145e-07,-8.812559e-08,1.893226e-07,1.3165408e-08,-5.699161e-08,2.3472114e-07,-8.660203e-08,-3.3684074e-08,1.3554114e-08,0.008461764,-1.7659788e-07,-0.031939916,-0.9072429,-1.8050214e-07,2.9058103e-07,2.33884e-07,1.1015637e-07,-0.18300529,4.9203315e-08,-3.7036706e-08,-3.5284533e-08,0.9129877,0.21264851,4.78709e-08,0.36723834,3.6515672e-08
1.3028163e-07,2.3283106e-07,0.25506744,1.9842352e-07,-3.007719e-07,-1.9518288e-07,-2.2434726e-07,6.30984e-08,1.8132145e-07,-1.2076704e-07,-0.00015313583,-1.9257477e-07,-2.132062e-07,-1.2097782e-07,0.72289056,0.047829524,-1.4114751e-07,-0.23569797,-4.3462762e-09,2.1661947e-07,-0.6700872,-1.180166e-08,-2.812377e-07,1.1725248e-07,9.629886e-08,7.124903e-08,2.2451668e-07,8.467448e-08,-1.2171232e-07,1.6720563e-08,8.493979e-08,5.1043955e-08,4.7846606e-07,-0.008207173,-2.069935e-07,0.08136841,0.9914169,-4.623817e-08,2.2053626e-07,1.9583001e-07,-1.7636808e-07,-0.2512094,1.8388852e-07,1.1977104e-07,9.657455e-07,-0.9092743,0.18708287,-1.08395895e-07,1.2796717,-6.617658e-08,1.230018e-07,-1.7785622e-07,0.21060243,1.5417255e-07,-2.728587e-07,-2.5401877e-07,-5.753951e-08,3.8693287e-08,2.4630762e-07,9.040926e-08,-0.00090614235,-1.9117512e-07,2.2652257e-07,-2.7279037e-07,-0.08676296,-0.059853807,-1.6431291e-07,-0.21087883,-2.2444445e-07,-2.2407164e-07,-0.6807191,7.356472e-08,-1.1473729e-07,1.1273181e-07,-3.3325185e-07,-1.241654e-07,2.009896e-07,1.2658167e-07,-1.4065279e-07,4.60492e-08,-1.3258483e-07,-1.969071e-07,-4.6689365e-08,0.000855196,1.1226343e-07,0.27477655,-2.1370683,4.4523006e-08,-4.025054e-09,-1.7722272e-07,-1.18344985e-07,-0.1246102,-6.1676914e-08,-1.3355947e-07,-1.8123362e-07,1.019464,0.09330887,1.4326388e-07,0.29027346,-2.2000305e-07
1.8819605e-07,4.091285e-08,0.47541174,-6.391954e-08,1.4747381e-07,-6.4835945e-08,2.1211194e-07,-1.8223005e-09,-1.4443883e-07,7.831465e-07,0.001010729,-3.805356e-07,-2.8351724e-07,1.0057033e-07,0.9575939,-0.106675714,-1.688536e-07,0.77587163,3.137783e-07,-1.9348079e-09,-0.53149176,1.9901009e-08,-3.280249e-08,1.3597182e-07,-1.572086e-07,5.41677e-08,1.490823e-07,2.5318397e-07,7.4504754e-08,1.6895672e-07,3.467168e-08,2.220118e-07,-1.0565241e-07,-0.004950736,1.432062e-07,0.062229916,-0.018210936,-9.22645e-08,1.8775485e-07,-3.755379e-08,6.424459e-08,-0.2757098,1.348289e-07,-1.5407717e-07,4.1807203e-07,-0.039612558,0.4825005,-8.298825e-08,0.3156907,-2.7831015e-07,-1.8724009e-07,-1.7381723e-08,0.3430575,2.1058013e-07,-1.8382644e-07,1.3921664e-09,2.0342985e-07,-5.6435702e-08,-1.2537161e-07,7.522955e-08,3.6864876e-06,-1.3182714e-07,-1.6329042e-07,-3.4785683e-07,-1.4044079,0.2121145,1.8248639e-07,-0.01579527,-1.0266162e-07,-4.784392e-07,-0.57190454,2.3525686e-08,2.0136896e-07,2.6376722e-07,3.1182998e-07,1.8764224e-07,-1.1819046e-07,3.2039225e-08,1.5388417e-07,-4.5883553e-08,2.4862146e-07,-1.8852037e-07,1.9832858e-07,0.012805061,8.428704e-08,0.022817718,-0.9129121,-4.3913605e-08,4.843909e-08,1.3531746e-08,1.1624852e-07,0.17940988,-1.5645028e-08,-6.460449e-08,-3.9882238e-07,0.58574736,0.09578162,1.9658297e-07,-0.07206188,-1.7902522e-07
2.5886678e-08,3.3510773e-08,-0.5094672,-2.2628811e-07,-1.4093104e-07,1.5657064e-07,-3.9002032e-07,4.3732722e-08,1.7939136e-07,-3.196036e-07,-0.00096781144,-3.0292097e-07,-2.0360467e-07,1.4044343e-07,0.49997088,0.4254878,7.627903e-08,0.48209915,9.274362e-08,-4.7541266e-07,-0.85258543,2.8426422e-07,-7.319048e-08,1.0555668e-07,1.4532837e-07,-2.2864019e-07,-1.0519749e-07,1.825245e-07,1.13132714e-07,1.12889545e-07,-1.622961e-07,2.4985377e-07,-1.0869344e-07,0.0043581426,1.0217397e-07,0.124381475,0.95328957,-1.3982934e-07,-2.1524052e-08,1.999922e-08,-1.0119301e-08,-0.25117987,2.4616187e-07,-2.2737679e-07,3.2199915e-07,0.20217268,0.04914777,2.1035943e-07,0.20768796,-6.7840716e-08,8.038134e-08,2.444062e-07,0.029974911,4.5609823e-08,1.2531386e-07,-1.8121061e-07,-1.0753997e-07,2.3325023e-07,1.4413098e-07,-1.8137763e-07,-0.0005748512,4.4550356e-07,2.5028058e-07,-1.5077866e-07,-1.3839118,0.10534911,8.0962025e-08,-0.18083826,3.966659e-08,-4.757781e-07,-0.31215248,1.2239695e-07,-6.275607e-08,1.6775357e-07,7.4738594e-08,-1.5528065e-07,-1.3838724e-07,2.6156036e-07,1.892372e-07,-1.16171144e-07,2.4512707e-07,5.833843e-08,1.5189744e-07,0.00080119213,1.919341e-07,0.13226606,-1.7119826,2.9437132e-08,2.0631055e-07,1.2692904e-07,7.620274e-08,0.5005686,-3.8460733e-08,-7.649707e-08,-6.1072615e-07,0.61269,0.5600586,-1.1321444e-07,0.9243528,1.589336e-07
-9.983782e-08,1.6417323e-07,0.35348755,9.0690335e-08,-8.3851404e-08,8.5928704e-08,9.727973e-08,-7.137928e-08,2.1929117e-07,-2.2998776e-08,0.00014645036,2.417952e-07,3.3137454e-08,-1.8127608e-07,0.5791704,-0.07201244,2.4714979e-08,0.39641875,-1.5536445e-07,-1.7355072e-07,-0.72757256,1.1014208e-07,-1.5877636e-07,1.232902e-07,1.1688037e-07,-1.6467315e-07,1.3716868e-07,2.213604e-07,-1.4144628e-07,-8.3963414e-08,-4.165888e-08,-9.1024766e-08,-2.9688556e-07,-0.010408354,-6.491996e-08,-0.11588648,-0.031997237,5.2534617e-08,3.665275e-08,1.2091243e-07,1.5046402e-07,0.0975687,2.5961484e-08,-4.083269e-08,-3.978812e-09,-0.21854343,-0.31413716,-1.3242082e-07,-0.17040035,7.8213176e-08,-1.13681075e-07,-1.5937289e-07,0.23007412,2.3070513e-07,1.4661882e-07,1.6787446e-07,1.18245545e-07,1.3885949e-07,-2.0869682e-07,1.4090502e-07,0.00090512633,-1.8112291e-07,3.3001515e-07,-1.4978298e-07,-1.5212086,-0.14194886,1.13255574e-07,-0.23739411,-1.37343e-07,-4.247672e-07,-0.6095096,1.8862815e-07,1.1876193e-07,-6.3774316e-08,-8.2001606e-08,1.5558463e-07,-1.8167016e-07,-1.139162e-08,-2.2872236e-07,1.3974847e-07,-2.8707092e-07,2.4122215e-08,1.6101095e-07,0.0004176235,-1.1741464e-07,0.1598453,-0.46777022,-1.606041e-07,7.1793366e-08,2.6827865e-07,1.2365149e-07,0.15845922,1.00245074e-08,2.8206202e-07,3.7135521e-09,0.10799935,0.6992197,-1.2608209e-07,0.8321354,1.2470286e-07
6.1880826e-08,7.783862e-08,-0.023156632,1.8342323e-07,1.1096854e-07,1.606224e-08,8.944931e-08,2.1609338e-08,-1.4521369e-07,-2.0314995e-07,-0.00020638527,2.9830323e-07,6.4485114e-08,-1.7720329e-07,0.32023183,0.066559196,-1.791369e-07,0.23864916,1.8514865e-07,-6.243357e-08,-0.85845774,2.4100203e-07,3.625773e-08,1.3263823e-07,-1.2117557e-07,-1.8314361e-07,-9.8485785e-08,-2.199986e-07,1.0874488e-07,7.315675e-08,-1.7074056e-07,-1.311851e-07,2.439896e-07,0.02859372,-1.2098303e-07,-0.25586662,0.8065277,2.4791206e-07,2.8441508e-07,-1.5456129e-07,-1.5246599e-07,-0.10155693,1.8025122e-07,-9.0179626e-08,4.6193668e-07,0.09502764,-0.18165529,3.669564e-08,-0.15317917,-1.2299698e-07,6.204917e-08,2.7950804e-08,0.13796462,5.8586956e-08,3.113844e-08,2.500644e-07,1.0776985e-07,6.0480325e-08,-1.2385937e-07,-4.8351126e-08,-6.077721e-05,3.5614218e-07,-1.3514938e-07,1.8388265e-07,-1.5894779,-0.3496733,5.1240363e-09,-0.4004436,5.6626163e-08,3.291894e-07,-0.3435895,-6.4239686e-08,7.826719e-08,-1.4057736e-07,-2.6059581e-09,-1.8072228e-08,1.5147045e-07,-2.4976129e-07,1.8033734e-07,1.4445371e-07,1.651676e-07,1.5288957e-07,-4.3235588e-08,0.0018371297,1.9323828e-07,0.17822817,-1.2921466,-9.526211e-09,1.2814141e-07,1.377773e-07,1.1355539e-07,-0.07697743,1.7755396e-07,1.0623296e-08,-4.2424062e-08,0.8563488,0.45903715,-4.343051e-08,0.5085484,-2.1395303e-07
-7.742297e-08,-3.7316575e-08,0.2565621,-1.2850863e-07,6.676234e-08,2.5019267e-07,1.0650538e-07,-1.7146922e-07,-7.356111e-08,4.702453e-08,-0.00066671637,-1.967268e-07,1.6342113e-08,4.926426e-08,-0.22957595,-0.43426526,-1.4283998e-07,0.2221023,1.6357768e-07,-1.4044866e-07,-1.3196207,-2.3335514e-07,-1.5159281e-07,1.17621795e-07,1.9015992e-08,5.9491825e-08,2.0619217e-07,-1.8084302e-07,8.319658e-08,1.7778828e-07,6.8123235e-08,-1.777007e-07,-1.59055e-08,0.0047903224,-1.18646184e-07,0.33044904,0.42712894,8.551616e-09,1.08510044e-07,-1.9657426e-07,-2.2262113e-07,0.014149547,1.4674426e-07,3.5938086e-08,-5.503601e-07,0.40790194,-0.25636953,1.0694261e-07,-0.14605081,2.548407e-08,-2.0219343e-07,4.484926e-08,-0.15652384,-1.695794e-08,1.8119947e-07,-1.9688828e-07,-1.321032e-07,-1.4163105e-07,-2.1278242e-07,2.922652e-07,-0.0018389818,-2.2426818e-08,-3.6150418e-08,-7.949255e-08,-1.4885485,0.0603105,-4.466588e-08,-0.29188082,-1.2567155e-07,3.4432824e-07,-0.23482019,1.54058e-07,7.3799825e-08,1.0315945e-07,6.787995e-08,1.7372471e-07,-4.3339423e-08,-1.0688032e-07,1.5644767e-07,-1.14328245e-07,1.4589675e-07,5.4343403e-08,1.3436139e-07,-0.0004767303,8.021088e-08,-0.016912233,-0.52203286,9.867646e-08,9.222338e-08,-1.1977829e-07,1.323485e-07,-0.37878904,1.5879023e-07,1.8789403e-07,3.6981476e-07,1.0127664,0.2109156,-1.07958954e-07,0.13964134,5.7183982e-08
-2.2399324e-07,1.7730349e-07,0.0032114936,-3.056145e-07,-2.464408e-08,-4.3868162e-08,3.7576203e-08,-8.938249e-08,-2.4087728e-07,-3.3653765e-07,7.31439e-05,1.1157533e-07,4.6647543e-08,-3.2630496e-08,0.18947653,0.013329686,5.5540156e-08,-0.25671247,1.2895791e-07,-1.4704702e-07,-1.1583388,-4.76751e-08,-3.5528103e-08,-1.3736052e-07,5.5566247e-08,1.5104958e-07,1.2044018e-07,-1.7360426e-07,1.3865082e-07,1.6845064e-08,-2.829105e-07,-2.9405939e-08,-8.839648e-08,0.0011107621,-1.551802e-07,0.10351581,0.7690156,8.4757886e-08,3.2431504e-07,2.2005807e-07,1.15901e-07,0.05390075,2.7472737e-07,3.228746e-07,-1.3825763e-07,0.3977768,0.02575978,-1.5371734e-07,-0.11843301,-1.8715595e-07,-5.2781814e-08,-1.6355916e-07,-0.098596364,4.118762e-08,-2.762815e-07,5.6217402e-08,-2.3250708e-07,-1.9742927e-07,-1.4169575e-07,-2.3467953e-07,0.0008030819,-3.7619492e-07,-7.21721e-09,-4.6888488e-08,-0.9875142,-0.013644537,-2.257561e-07,-0.47283047,-1.0875763e-07,-8.561475e-08,-0.19653629,2.8610955e-08,-3.1281864e-08,-9.5256254e-08,-1.4601407e-07,8.130965e-08,1.14643285e-07,-2.747761e-07,1.2816908e-07,-1.1389949e-07,-2.736581e-07,-3.627528e-08,-1.3127766e-07,0.003463786,4.9990348e-08,-0.07147466,-1.5323123,-2.6153046e-07,-1.5766517e-07,2.6276166e-07,-1.633569e-07,0.01892282,-1.5844321e-07,-1.6704328e-07,3.444868e-07,0.639243,0.17790079,1.4155856e-07,0.15552917,2.493087e-08
-1.3851533e-09,1.5500139e-07,0.39589822,2.0281752e-07,2.4047614e-07,4.517284e-08,-1.7880818e-07,7.319536e-08,-1.4926687e-07,-2.0169935e-07,-0.0005023527,2.8343834e-07,2.4384434e-07,5.384853e-08,0.22719477,-0.20459613,8.818489e-09,-0.610307,-9.074622e-08,1.8931345e-08,-1.3801918,1.852829e-09,-1.363317e-07,1.8460547e-07,-4.730265e-08,-1.2603427e-07,2.1850637e-07,-6.504145e-09,1.5934756e-07,2.353641e-07,4.5672024e-08,3.6846842e-07,-1.9137872e-07,0.01447251,1.3483323e-07,-0.04410147,0.13496946,-8.632725e-08,3.1173528e-08,-7.2346836e-08,2.3323707e-09,0.18996894,3.2333958e-09,-2.3512303e-07,-4.531025e-07,0.7798893,0.059293006,8.0754205e-08,-0.24311824,1.7954801e-07,-1.7286301e-07,-2.1342096e-07,-0.19138446,-3.3377148e-08,3.0286703e-08,-1.1761949e-07,1.2587586e-07,-6.26401e-08,7.950323e-08,-8.312855e-08,0.00017757133,1.7436366e-07,1.6547871e-07,-1.13045104e-07,-1.2476175,-0.42306083,1.4543953e-07,-0.52682066,-1.5937816e-07,-1.9206851e-08,-0.26093215,-6.658955e-08,-8.643198e-08,1.8455009e-07,2.1487764e-07,8.1156884e-08,-2.2052369e-07,-7.564637e-09,1.9624417e-07,-2.8204902e-08,-4.1144062e-08,-1.4733516e-07,-2.1377679e-07,0.005478822,-1.3770735e-07,-0.16254596,-0.9681837,3.2913596e-07,-1.2328456e-07,2.6014374e-07,9.6107016e-08,0.011614629,-2.926643e-07,-1.1883992e-07,2.2880968e-07,0.8863651,0.2883922,2.361154e-07,0.18372363,1.6800111e-07
-1.9403224e-07,-1.851154e-07,0.21960936,-1.9389228e-07,5.7160875e-08,8.7542475e-08,-1.4713808e-07,-2.508827e-09,8.567032e-08,-3.0649312e-07,9.645913e-05,6.5448546e-08,1.15094664e-07,1.2516007e-07,0.16652459,0.025380826,4.8603304e-08,-0.2726345,-1.279816e-07,-2.0208113e-07,-0.98677367,-2.0042961e-07,1.7259832e-07,1.9245746e-07,2.7553895e-08,-4.7285553e-08,1.445752e-07,1.3123184e-07,6.644535e-08,1.0497539e-07,-4.7182283e-08,-1.5634356e-09,6.00088e-08,0.006678278,-1.5520779e-07,-0.057039615,0.708886,-2.2286144e-07,5.7040054e-08,6.7810646e-09,1.635609e-07,0.24904566,3.8347764e-08,-9.355788e-08,-9.780126e-08,0.83110803,0.017512755,-4.7933842e-08,-0.17257316,1.426667e-07,-7.7648e-08,1.7583508e-07,-0.054693107,1.8384617e-07,2.1431538e-07,-1.2314288e-08,-3.8961574e-08,2.5793625e-07,4.781451e-08,1.6808258e-08,0.00021671114,-2.549699e-07,-4.5450435e-08,1.2336402e-07,-0.7397711,-0.26942018,7.387738e-08,-0.54963666,-7.414619e-08,1.371591e-07,0.3474799,-3.4854045e-07,5.1036615e-08,-4.5841265e-08,-8.2197076e-08,7.559524e-08,5.1259818e-08,2.939414e-07,1.0635245e-07,2.5777712e-07,-7.740079e-08,-2.0377881e-07,-2.1560668e-07,-0.0020009174,-1.2896665e-07,0.034410965,-1.5427475,-1.1927956e-07,-7.375473e-08,-7.755244e-08,5.383835e-08,-0.11049917,2.6739144e-09,-5.2362765e-08,5.908218e-07,0.6722428,0.3176656,8.449038e-08,0.20611146,6.1076406e-08
1.5650001e-07,1.2324008e-07,-0.08018886,-1.3671435e-07,2.0432836e-07,2.3020642e-07,6.423309e-08,8.379797e-08,9.7174215e-08,-3.4461937e-07,0.0015128901,-2.5953747e-07,2.8372148e-07,-2.8400152e-08,0.45113552,0.08989221,1.6949664e-07,-0.13578172,-2.6668198e-07,-9.2491334e-08,-0.8302516,-1.6195997e-07,-2.8656453e-07,1.481295e-07,1.767079e-07,-1.6456889e-07,1.5179623e-08,-1.3240692e-07,-1.6020151e-07,-2.1833145e-08,1.2072253e-07,-9.0236355e-08,4.1450903e-08,-0.0068973685,3.0465475e-07,0.30075994,0.26194173,-2.5008532e-08,-1.207749e-07,-2.046778e-07,-2.3009896e-07,0.32249144,5.0010627e-08,-3.8408103e-07,-1.0598302e-07,0.2359228,-0.6058161,1.8739205e-07,-0.5363967,1.6760659e-07,1.2334698e-07,-2.2078869e-07,-0.2880382,9.769117e-08,-2.663093e-07,2.6033739e-08,-1.6601467e-07,-2.0253458e-07,-2.5405672e-07,-3.3462226e-07,-0.0011514623,2.43726e-07,-1.4787375e-07,1.7541566e-07,-0.83042455,-0.57462317,1.3261625e-07,-0.16003974,1.6619522e-07,1.9028535e-07,0.7232351,1.5986328e-07,2.5674481e-08,-1.1388351e-07,-9.03394e-08,6.07063e-08,-1.3230698e-07,5.1040455e-08,3.034188e-08,-1.482482e-07,-1.225969e-07,2.4720742e-07,-6.657132e-08,-0.01281545,1.0379513e-07,0.09872136,-0.6814124,-1.5743296e-07,1.1137871e-07,1.9896474e-07,-2.0646739e-07,0.17361504,2.1982994e-07,-2.8687856e-07,-3.9893862e-07,1.0042822,0.60572606,5.264235e-08,0.76673424,-1.0982205e-08
-2.4015804e-08,6.3280964e-08,0.11371297,1.11696465e-07,1.7648465e-07,-8.307435e-08,-1.00661616e-07,2.1811289e-07,2.4840574e-09,2.2207966e-07,0.000121658115,-2.7603079e-08,1.1519758e-07,-3.73363e-08,0.049513526,0.022129973,9.5392636e-08,-0.56820357,1.8083304e-07,-2.9789413e-07,-0.8288285,-4.2044945e-09,-1.8077615e-07,-1.1101121e-07,-1.2482171e-07,-1.9638635e-07,3.641219e-08,-2.1739567e-07,1.4850005e-07,-2.4257808e-08,-3.1714066e-08,1.17445296e-07,4.904149e-08,0.00031549588,1.449415e-07,-0.1825933,0.7385467,6.665171e-08,1.8390324e-08,9.7386994e-08,-1.3232395e-07,0.100094356,2.6332941e-08,-2.1127623e-07,-3.2131126e-07,0.489663,-0.24405977,1.4656274e-07,-0.6913672,8.332785e-08,2.0483893e-07,1.11273366e-07,-0.50631285,-6.867198e-08,-1.1123354e-07,-1.4503357e-07,-1.7241163e-07,5.1519137e-08,-1.5505178e-07,-2.8741596e-07,0.00038046984,1.5350669e-07,5.8114452e-08,-1.0994076e-07,-0.87754554,0.009762342,-2.1362985e-07,-0.6453898,-1.8431834e-08,1.3625561e-07,0.594122,-1.4182093e-07,-7.040553e-08,8.0036585e-08,-1.6079744e-07,-7.485147e-08,-1.432615e-07,-1.4166486e-07,-4.7662553e-08,-1.11094366e-07,-5.8570215e-08,-1.5275063e-07,2.8795716e-07,0.0068682726,-2.8122766e-08,0.12292389,-1.7098707,1.03928386e-07,-7.747988e-08,-2.6167356e-08,-9.43929e-09,-0.15034015,-5.6075898e-08,-5.6627886e-08,3.265156e-07,0.6971886,0.058767892,-1.2089004e-08,0.8724378,-1.3325337e-07
-1.3446393e-07,1.0874662e-07,-0.069420315,2.4300394e-07,-1.1350091e-07,-1.4200108e-07,2.3671588e-07,4.885058e-08,2.1208862e-08,1.9636616e-07,0.00037372098,9.299609e-08,-2.6322212e-08,1.4220281e-07,0.55423754,-0.3569785,1.5304325e-07,-0.8442756,-1.5526072e-07,9.93345e-08,-1.0044607,2.3545755e-07,1.1808515e-07,1.3877536e-07,-1.2503122e-07,-2.362845e-07,1.9483667e-07,-9.60223e-08,7.134632e-08,3.8713885e-09,5.0974702e-08,-2.6289086e-09,-8.377407e-08,-0.028806154,6.1540376e-08,0.026946105,0.72746694,3.1192684e-08,-4.7514845e-09,-1.3787803e-07,1.8806679e-07,-0.0057603223,1.7701304e-08,1.4369147e-07,4.4157196e-07,0.23486346,0.13994764,-2.3899261e-08,-0.34828508,1.2402793e-07,-3.399525e-08,1.4429396e-07,-0.33009896,1.6450053e-07,2.492897e-07,2.8296796e-09,-3.5595872e-07,1.6586331e-07,-1.631591e-07,-5.5613423e-08,-0.00092090596,2.7060767e-07,1.406375e-07,-2.2803142e-07,-0.82843316,0.08846467,2.410635e-07,-1.073636,-4.0538794e-08,4.8486868e-08,-0.0063191187,-2.2597253e-07,-1.2961564e-08,1.1174692e-07,1.0254059e-07,-1.9963255e-07,-1.4757964e-07,-9.908206e-09,-1.03477205e-07,-2.114983e-08,-2.2946654e-07,-1.2507151e-07,2.3091165e-07,-0.0026216453,1.2388213e-07,-0.020875493,-0.7066696,-1.4142948e-07,-2.5310703e-07,2.07759e-08,1.3119745e-07,-0.11571524,-9.2039095e-08,-2.99439e-07,-4.2607962e-07,0.51819795,0.49370128,-5.9026313e-08,0.61619294,-5.2303434e-08
