1.5550238e-07,2.6437525e-07,-0.0020696318,-0.016846135,0.4350155,-8.644284e-08,-3.3916848e-08,0.26620337,-3.385421e-07,6.980312e-08,1.3261565,0.6476249,0.031282917,3.806729e-08,5.071115e-07,0.35707545,0.4488601,3.871073e-07,2.0848688e-07,-7.2887235e-07,1.9543458e-07,-5.816802e-07,-3.5023547e-07,-1.9705693e-07,0.0016401947,3.302479e-07,-0.24889567,0.28546357,7.196383e-08,5.17011e-07,-8.693257e-08,-1.2857106e-07,-2.8295736e-07,0.37396774,-0.30702972,-0.21472955,-1.261595e-07,-3.423274e-07,-0.0003070765,-2.817987e-07,2.2336062e-07,-5.629532e-07,6.824607e-05,-0.044022687,-0.5469181,-2.7064323e-07,6.570269e-08,0.12105763,5.4881326e-09,-3.6897245e-07,0.7330485,0.25835884,0.5258414,1.6086894e-07,-5.863922e-07,-0.042368405,0.0065380195,-4.213412e-07,9.0026106e-08,-6.16791e-07,1.868228e-07,1.17132245e-07,-7.521813e-07,-3.491908e-07,-0.008444555,-3.979937e-07,0.47839803,-0.9344041,2.3445054e-07,-3.7466992e-07,-4.0066425e-07,1.6122111e-07,1.7929833e-07,-1.5603049,-0.73980904,0.14544201,1.0441744e-07,2.0831722e-07,-0.0003712123,-1.3276811e-09
-1.8060942e-07,-1.8808794e-07,-0.00018158556,0.041332886,-0.06540469,3.8966192e-08,-1.00853214e-07,0.13371179,3.2308137e-07,2.76875e-07,0.40331486,0.3160599,-0.18339887,3.207349e-07,-1.684877e-07,-0.99006444,-0.39137086,2.7605702e-07,-3.5878375e-07,-2.3012947e-07,-2.2085152e-07,-1.2978305e-07,-2.229831e-07,3.5090508e-09,8.163464e-06,5.8382902e-08,0.10628135,0.66088706,2.4853014e-07,-5.0303825e-08,1.0746216e-07,2.4858554e-07,-1.2001051e-07,1.4245423,0.20006621,-0.07039321,1.1868611e-07,4.4983648e-07,-0.00013366676,-1.889133e-07,1.3684064e-07,9.913006e-07,0.0014380474,0.042513285,-0.049521763,3.1535683e-07,9.4822234e-08,-0.06827906,9.6418695e-08,-2.4629466e-07,0.09847975,-0.14335354,-0.07415548,2.119921e-07,2.7231755e-07,0.07289821,-0.08945844,3.4303054e-07,-3.2797868e-07,-7.3952685e-07,-2.8729667e-07,-2.63869e-08,-1.1344032e-06,2.0667737e-07,0.0038106483,-2.0106566e-07,-0.024571892,-0.34587547,4.569651e-08,-3.7094176e-07,4.9955304e-07,-4.734517e-09,-2.4064556e-07,-1.6480354,-1.6145703,0.08064685,-2.3479069e-07,-3.329793e-07,0.00057794806,-1.053601e-07
-1.9876347e-07,1.6159655e-07,0.0016199794,0.032334764,0.020687258,4.4843432e-08,-5.591218e-08,-0.014306826,2.330728e-07,-2.8599885e-07,0.17858922,-0.17840528,-0.12913994,-1.8684839e-08,-1.4467713e-07,-1.378438,-0.23445618,-1.3461027e-07,2.9894682e-07,1.4555756e-07,-5.1919812e-08,2.1564053e-07,-1.9348079e-07,-6.344507e-09,-0.0047391914,1.935993e-07,0.2030439,-0.39409396,2.6520297e-07,-7.2857326e-08,-2.2041654e-07,-6.6994886e-08,3.4046224e-09,-0.07753529,0.83131087,-0.06937375,3.5731043e-07,2.4656867e-07,0.00034868665,-1.3276774e-07,5.07324e-07,-1.9512015e-07,0.0004422578,0.026821844,-0.01789442,1.3431546e-07,-1.4727036e-07,-0.20964922,2.0991712e-07,4.916964e-07,-0.2390809,-0.2567155,0.04434711,1.3199625e-07,-2.2958659e-08,0.0733735,-0.18628646,2.3889845e-07,2.095621e-07,6.831807e-07,-3.0437576e-08,2.75449e-09,-1.1700564e-08,-3.156618e-07,-0.00072170835,1.7318123e-07,-0.28139704,-0.063683785,-1.5540044e-07,-1.0551863e-07,3.2651062e-07,1.2730405e-07,-7.719852e-08,-0.531826,-1.1229918,0.30088395,9.1197606e-08,-1.0526254e-08,0.0005424565,9.247573e-08
-3.8625666e-07,7.3829494e-07,-0.00016694782,-0.0108404355,-0.026103117,-4.4000913e-07,1.5451297e-07,0.31403384,-5.2242257e-08,-2.1080815e-07,0.6985872,-0.7466866,-0.0845509,-7.117085e-08,5.42111e-08,-1.3013204,0.07282487,-1.9803447e-07,6.0638416e-07,1.3719202e-07,2.4210584e-07,1.01720886e-07,-4.0144462e-07,1.1416414e-07,0.001477954,3.4564283e-07,0.46869838,0.50595266,3.016004e-07,-3.539331e-07,-1.2794182e-07,1.5893518e-07,-1.863001e-07,0.49304342,0.07688756,0.25440383,-6.023248e-08,-1.3748488e-07,-0.0002960956,-5.2795457e-09,-1.77935e-08,6.1856514e-07,-0.00016222756,0.026957609,-0.04930925,-4.0659017e-08,-2.2062326e-07,0.05417497,-1.8281176e-07,4.6686014e-07,-0.5402043,-0.4507775,-0.014155374,-2.1439386e-07,1.1220795e-06,-0.3429812,-0.17344964,1.2690701e-07,5.9213403e-07,-2.490168e-07,8.633595e-08,3.367419e-07,-2.682443e-08,1.247101e-07,-0.0042256704,-2.148999e-07,0.07567643,0.7256642,7.876298e-08,1.527415e-07,-2.6719715e-07,5.6821534e-09,1.7783094e-07,-1.2055603,-1.3877922,0.37015352,-3.9275602e-07,3.0942908e-07,0.00073824223,-1.7084534e-07
-2.4811615e-07,3.962258e-07,3.888205e-05,0.012693443,0.03355322,-8.216389e-09,-9.884126e-08,0.100691356,-8.40708e-08,6.064005e-08,-0.86901766,-0.11043022,0.04005708,1.9240676e-07,-4.977096e-08,-0.46193704,0.03580067,-1.5756214e-07,-2.9782515e-07,1.6192752e-07,-2.3311196e-07,-2.4073586e-08,-3.528335e-07,-1.051489e-07,0.0017023468,-1.13321995e-07,-0.6828325,-0.3401265,1.893703e-08,-3.811803e-08,-1.9429874e-07,2.571162e-07,2.5473759e-07,0.3840055,0.56852436,-0.5428655,2.4217087e-07,-1.5265346e-07,-0.000536789,-9.8244755e-09,1.4577857e-07,-2.117909e-07,0.000114662624,0.004261447,-0.019133989,-1.8697628e-07,2.9080627e-07,-0.01678841,-1.46123e-07,-1.4845492e-07,-0.16392107,-0.30082825,-0.14987634,-6.1512544e-08,-1.9856938e-07,-0.0966021,0.16173606,-1.9692399e-07,1.306094e-07,-8.710761e-07,9.6827165e-08,2.0857742e-07,-4.7851216e-07,-2.0401181e-07,0.00364658,8.485392e-08,0.23674999,-0.2658829,2.1124146e-07,3.4726128e-08,8.536981e-08,1.8113857e-07,2.8783612e-07,-0.9906199,-0.5266185,0.12800421,-1.2611825e-07,1.26497e-07,0.00037447113,1.8327721e-07
-3.4534224e-08,-9.2063533e-07,-9.084653e-05,0.0047136005,0.012445739,8.86598e-08,2.548005e-07,0.1529774,1.4723652e-07,1.7881291e-08,-0.7948281,-0.5453568,-0.1414975,-7.817539e-08,-1.0485621e-08,-0.38717303,-0.19551119,2.0832788e-07,-3.271591e-07,5.8123914e-07,-6.809164e-08,1.0326583e-07,1.2111116e-08,7.225279e-08,0.0016690248,2.2506742e-07,0.17530514,-0.51679283,-1.7171203e-07,1.0154533e-07,-1.8149868e-07,-8.215638e-08,3.840007e-08,0.92371935,0.28389102,-0.527904,-1.4882592e-07,2.3848727e-08,-0.00013353697,-7.2200828e-09,2.0447966e-07,9.171904e-07,8.761487e-05,-0.002075451,-0.08256346,2.7950102e-07,1.5855355e-07,0.14499678,-3.814128e-08,-1.6372557e-07,-0.20321238,-0.28988814,-0.13224036,2.6206808e-07,-2.412787e-07,0.035350077,0.08004068,-1.5918793e-07,2.767301e-08,-4.782333e-07,3.5101593e-08,3.4946023e-08,1.9500669e-07,1.3009739e-08,0.0018301974,-7.0600905e-08,0.283483,-0.32014748,-1.3406955e-07,-2.6394713e-07,5.224443e-08,1.1452197e-07,4.768784e-08,-1.524286,-1.0663061,-0.4650124,-1.3898477e-07,1.0084371e-07,-0.00020021769,-1.17096874e-07
2.818879e-07,-2.2942595e-07,-0.00015221447,-0.040759988,-0.18102108,5.5150693e-08,-2.2480913e-07,-0.16444297,-4.1640305e-07,-3.234125e-07,-0.5214076,-1.2588571,-0.098449774,-1.1526943e-07,5.900846e-07,-0.69951934,-0.20741777,3.3696318e-07,1.4186179e-07,6.71729e-07,2.1645093e-08,-2.829476e-07,6.049666e-07,-2.661843e-07,-0.0014471724,3.6252302e-07,0.094481334,-0.26743564,-2.7877672e-07,3.388277e-07,3.0143744e-07,8.17721e-10,-1.7293289e-08,0.05305335,-0.08826864,-0.013921103,-3.361825e-08,-2.247739e-08,0.0005778927,-3.7537447e-07,-2.474528e-07,-1.6310133e-07,-0.00023576248,-0.043735985,-0.09717539,4.9580365e-08,1.7831813e-07,0.079203025,-1.3967991e-07,2.3174746e-07,-0.48161867,-0.3558075,0.014995087,-8.012441e-08,-6.545186e-07,-0.24018002,0.0699966,1.4392818e-07,2.067834e-07,2.9582958e-07,-1.1919928e-07,4.761506e-08,3.3130416e-07,5.647093e-08,0.0064827893,2.811257e-07,0.15410243,-0.024345681,5.786012e-08,7.316629e-09,-1.8845063e-07,-3.0511234e-07,1.3337716e-07,-0.4636341,-1.2127478,0.0029184264,1.3751585e-07,-1.5739292e-07,-0.00041701947,3.8352022e-07
-1.8920616e-07,-4.9963114e-07,0.00048494973,0.022719895,-0.010346359,2.810094e-07,-2.557681e-07,0.014963102,1.4887151e-07,3.2623217e-07,0.16918492,-1.0006459,0.044042658,-1.9966627e-07,1.7083626e-07,-0.7529444,-0.043849554,1.7498255e-07,1.2209503e-07,-4.816102e-07,-1.9579467e-08,5.5903328e-08,5.2657515e-07,2.3924343e-07,0.001071889,-2.963107e-07,-0.043511346,0.16922869,-1.7263505e-07,8.3211425e-08,-2.9274773e-08,1.0222085e-07,3.8907316e-08,0.848728,0.5238507,-0.016215485,8.5702325e-09,2.732715e-07,0.00038535753,2.3004094e-07,2.1674002e-07,9.348163e-07,-0.00014858496,0.019581584,0.009466517,1.594988e-08,-1.7798875e-07,-0.06431667,-1.04980316e-07,-4.0494427e-08,-0.24750838,-0.79258335,-0.067362,-9.1560416e-08,6.238265e-07,-0.20538439,-0.026831593,1.8237716e-07,6.7499656e-08,2.9838327e-07,-3.6279502e-08,-1.184802e-07,5.625941e-07,-5.7055473e-08,0.00061897037,3.5686185e-07,0.03682206,-0.13044482,1.0108856e-07,-1.7361859e-07,-7.9836e-08,-2.3663921e-07,-7.519964e-08,-1.3306825,-1.7218887,0.08424527,-7.085822e-08,-1.8455493e-07,1.4565522e-05,-1.1471421e-07
1.755322e-08,2.9901855e-07,0.00054946996,0.04127562,0.13480294,1.7957979e-07,-7.89684e-08,0.064765275,-1.688896e-07,-2.1756122e-07,0.079862714,-1.1658853,0.15371108,6.064634e-08,1.2493945e-07,-0.3936267,-0.12696671,1.0179704e-07,3.6656978e-08,-1.5904358e-07,4.279578e-07,-1.9640555e-07,-8.436892e-07,-2.4374458e-08,0.002979299,-1.4098408e-07,-0.48628262,0.028870573,-1.7884402e-07,-1.569977e-07,-2.0788417e-07,-1.6171984e-07,2.3440677e-07,0.16234136,0.11956367,0.35612395,5.906832e-08,-1.4689509e-07,0.0003471283,-1.14809595e-07,-6.399899e-08,-3.7706286e-08,-0.0002757707,0.04045118,-0.028213207,-3.5013677e-08,-1.2015745e-07,0.12896514,3.533998e-07,2.2723711e-07,0.8026828,-0.574274,-0.35810995,-2.0296292e-07,-5.075575e-07,-0.33433136,0.11241628,3.546104e-07,8.110825e-07,-4.6418288e-07,-1.9946856e-07,8.462749e-08,-1.1356015e-06,3.5691824e-07,0.0023638934,-2.3580625e-07,0.103825435,0.10288174,9.302563e-08,-2.4906305e-07,-2.3335605e-07,-1.4984991e-07,-1.3233468e-07,0.0440011,-1.0310053,-0.2546025,1.4526579e-07,-9.985378e-08,-0.0002879651,-2.92999e-07
1.5124502e-07,-4.0141433e-07,-0.0009421066,-0.013489336,-0.19557193,1.0618497e-07,1.4321131e-08,-0.14922705,3.3774586e-07,-3.7840016e-07,-0.02934381,-1.2716076,0.010890091,1.2850475e-07,-1.8386694e-07,-0.819311,-0.44041336,2.6927725e-07,-7.046242e-08,-1.8217877e-07,-2.0302913e-07,1.419613e-07,-1.2977468e-07,-3.2849385e-07,0.0013486629,-2.3956466e-07,-0.092791915,0.39914477,2.5098552e-07,1.09974835e-07,3.604178e-07,-2.0526923e-07,-3.2508794e-08,0.36442274,0.21737,0.43252185,-1.9480203e-07,1.0597783e-07,-0.00015822309,-1.2901086e-07,-6.694819e-09,4.5293973e-08,-0.00010139313,-0.033321355,0.24296089,-3.392764e-08,5.2070572e-08,-0.039510146,-3.647247e-08,1.6700476e-07,0.75994754,-0.37303978,0.059347317,2.666998e-07,-3.5576676e-07,0.11490868,-0.13323702,2.5372165e-07,-3.482912e-07,-3.0048332e-07,2.472534e-07,-5.6688805e-08,2.198299e-07,2.9439335e-08,-0.0032544795,-9.371131e-08,-0.17055595,0.29157695,7.979067e-08,-1.7973662e-07,-4.0818537e-07,-2.2124553e-07,2.0381268e-07,-0.71259135,-1.7054293,-0.53061205,4.1548944e-08,2.3755467e-07,-0.00027532078,2.4828537e-07
-9.828422e-08,5.369918e-07,-0.0009759222,-0.0034900885,-0.22385454,5.7210843e-07,1.7320835e-07,0.14095202,-1.8107374e-07,-3.8075495e-07,-0.749059,-1.3800983,-0.21727097,1.2979707e-07,-1.8839918e-07,-0.5935478,-0.053721946,4.7827932e-08,-2.8476876e-07,-1.0899671e-07,-2.2868818e-07,1.0612185e-07,-5.2314715e-07,-7.049e-08,0.0017571795,-1.9930707e-07,-0.014183223,-0.11474209,4.621255e-08,-8.4805194e-08,-1.6153462e-07,9.1507786e-08,2.3575255e-07,-0.32515833,0.42284945,-0.3111989,7.4746836e-08,4.7174296e-08,-0.00036365163,7.8487346e-08,4.5114905e-07,-6.8358963e-07,0.00029266757,-0.0007889671,0.25900942,-1.3243755e-07,2.3731559e-08,-0.038437583,1.2774659e-07,1.1804782e-07,-0.08920907,-0.4723605,-0.1317468,-1.8493456e-07,-8.637801e-08,-0.032307714,-0.1078267,2.4587146e-07,-3.3101537e-07,5.090636e-07,3.3348704e-07,6.6006365e-09,-4.816468e-08,1.2063639e-07,-0.001412651,-1.5740724e-07,0.14674577,-0.16623357,-9.1696165e-08,-3.148109e-07,-5.167178e-07,-1.0378347e-07,1.0902056e-07,-0.30175567,-1.0585545,-0.30833322,2.072369e-08,-2.863529e-07,0.00023837594,1.4240597e-07
-1.7818753e-07,2.5267275e-07,0.00012599763,-0.008268908,-0.18932417,-1.1931827e-07,-7.274875e-08,-0.11619204,-1.7161796e-08,-3.5760087e-07,-0.33039868,-1.5053719,-0.054780103,-1.2838586e-07,-1.9548943e-07,-0.9512518,-0.0747239,-1.9004389e-07,-1.8146427e-07,-1.9227319e-07,6.3357675e-10,2.9474256e-07,2.2195081e-07,-1.5440874e-07,-0.0004669154,-3.7749793e-08,0.07334994,-0.28114444,1.2775455e-07,2.3312623e-08,4.3186245e-07,6.181743e-08,-1.5508195e-07,0.17318898,0.48648682,-0.28376403,3.9915022e-09,-1.8064986e-07,-0.000177786,4.0552113e-08,-1.1091308e-07,-3.5929773e-08,-0.0009478616,0.0043070433,0.12862813,-2.1849345e-07,1.1622501e-07,0.03438894,3.1648568e-08,-1.2378021e-07,-0.25187036,-0.03011813,-0.023300096,-2.5329882e-07,-5.734198e-07,0.1494602,-0.16207924,1.7057188e-07,2.467715e-09,-4.2257585e-07,2.9963047e-07,-1.402357e-07,-1.7024257e-07,-1.1558656e-07,-0.0016029044,3.551969e-08,-0.008793037,0.010096902,9.583987e-08,-8.297546e-08,-2.566744e-07,1.5526209e-07,1.5477279e-07,-1.044459,-1.3893567,-0.12883738,-7.886813e-08,-2.932165e-07,-8.638623e-05,-3.584968e-08
1.3406209e-07,4.0046692e-07,-0.00041784675,-0.04098195,-0.066751435,2.9548278e-07,-7.133069e-08,0.44215834,2.6076776e-09,1.1809284e-08,-0.9371664,-0.8265843,-0.27941608,1.7926159e-07,-7.241532e-07,-0.8447548,-0.16298543,-6.5858416e-08,4.0176502e-08,5.583723e-07,4.2601396e-08,-6.3276175e-08,-6.5993584e-07,5.8917124e-08,-5.2526957e-05,1.5167e-07,0.08709781,-0.3224522,1.4260586e-07,-4.67233e-09,4.2645667e-07,-1.5551676e-07,-1.4224807e-07,0.6194706,-0.26764378,-1.0173831,2.0818935e-07,-8.7213095e-08,-0.00012811439,3.203012e-07,1.0512038e-07,5.8799134e-07,-0.0012442312,-0.05726248,0.49368694,-1.5379656e-07,2.3961172e-07,0.11855501,-1.0514985e-07,9.103999e-08,-0.020899346,0.044048674,-0.24511425,2.5592678e-07,-2.5251282e-08,0.31728533,0.10688415,-4.10937e-08,-1.6726256e-07,-1.5344307e-07,-1.4969635e-07,-5.1044953e-08,2.815781e-07,1.6367511e-07,0.00033868104,1.9105397e-07,0.35051638,0.053206764,-8.228753e-09,-2.2670125e-07,-4.364142e-08,-2.3061008e-07,-1.1651323e-07,-0.9294355,-0.4757077,0.058985263,7.001613e-08,-2.603632e-07,0.0004121998,1.3074884e-07
3.805856e-08,4.4431823e-07,-0.0006423326,0.0015264675,0.044247057,1.0030846e-07,-2.1981631e-07,-0.023516824,-2.1784595e-07,1.3311906e-07,0.027534649,-0.93196595,-0.003438107,-1.5238177e-07,1.5241528e-07,-0.98156124,-0.14149031,1.5789476e-07,-1.4143097e-07,-2.9727448e-07,-1.2400335e-08,1.3927295e-08,-2.8689385e-07,-1.1071265e-08,-0.00015697267,-1.2392493e-07,0.021640465,-0.6808696,6.4817684e-08,-7.4598894e-08,1.0792004e-07,-1.3134439e-08,-1.1594276e-07,0.48336685,0.3740451,-0.6989119,-2.6756783e-07,-9.290778e-08,-0.00020832043,-9.8136596e-08,9.713115e-08,9.8595194e-08,0.00013836248,0.0011441219,0.0133848665,-2.597268e-07,-2.4548575e-07,0.010198754,-1.0981893e-07,2.5995513e-07,-0.36684182,0.7665424,-0.09168873,1.2463809e-07,-1.2287124e-07,0.4562567,-0.20330155,2.8242809e-08,-3.468368e-08,-1.2289625e-07,-4.226459e-08,-3.7988485e-07,-3.253681e-07,-2.0264767e-07,-0.0027261807,8.491702e-08,0.0017218566,-0.019640602,-2.129648e-07,1.8063058e-07,2.238806e-07,8.526466e-08,1.17243445e-07,-1.1442972,-0.9897018,-0.11955241,1.1345854e-07,1.5234102e-08,0.0003636377,1.06176344e-07
-1.1111534e-07,2.7061574e-07,-0.0006601448,-0.024391714,0.04573981,-1.2177213e-07,-3.5786506e-08,0.07606795,-2.8763725e-07,-2.0663953e-07,0.77458084,-0.807414,0.54980785,1.4087068e-07,-8.358403e-07,-0.6771418,-0.28816774,1.9406215e-07,1.5240047e-07,-2.2527257e-07,-1.416359e-07,-1.4773687e-07,-4.5969387e-08,2.6405954e-07,-0.0012286966,2.2196271e-07,-0.12380021,-0.9542324,-5.9454607e-08,-9.37444e-08,2.0135167e-07,-5.5466444e-08,4.6320622e-08,0.39243197,-0.09974783,-0.6377988,-2.5819412e-07,4.2334983e-07,0.000530897,-1.7559364e-07,-1.0143687e-07,4.8626896e-07,0.00034679612,-0.043899357,-0.054414187,-2.4263068e-07,-1.8413854e-07,-0.054175347,3.7838672e-07,8.310382e-08,-1.179457,0.40748376,-0.07024112,-2.3397682e-07,1.5086908e-07,0.09751036,-0.14299424,1.8002092e-07,2.0253395e-07,8.7395784e-07,-1.3106671e-09,-2.2492269e-07,3.4989353e-07,1.2924093e-07,0.0025703432,8.141696e-08,-0.091912314,0.30987865,6.673949e-08,1.4772239e-07,7.382148e-08,-1.7590958e-07,-1.4289287e-07,0.04763398,-0.88822305,-0.2539211,-1.8728244e-08,8.2480035e-08,-0.0007811722,-1.13136196e-07
3.6436347e-07,3.4826257e-09,0.0012806599,-0.0038565092,-0.043287653,-1.9889637e-07,-6.633972e-08,-0.03913539,-2.8777185e-07,1.420004e-08,0.52481425,0.09600966,-0.11528907,-1.3522751e-07,6.123481e-07,-0.40060362,-0.03534836,2.494583e-07,-4.87791e-07,-3.2684397e-09,3.2341603e-08,-2.4399648e-07,-5.4809516e-07,-4.406553e-08,0.0012667376,9.6892336e-08,0.04803405,0.72067565,-1.4269776e-07,-8.9052094e-08,-2.9974518e-07,-2.2066537e-07,-1.8372468e-07,0.3365658,0.06436262,-0.17450756,1.2934011e-07,-1.00481095e-07,4.5004177e-05,2.1274943e-08,2.7137582e-07,7.244931e-07,0.00064681686,0.0014648592,-0.13157511,2.9062582e-07,6.9034655e-08,-0.0050566737,-3.3834976e-07,6.933941e-08,-0.15102568,0.8237256,-0.08312202,-4.5524075e-08,-4.0399334e-07,0.18484384,0.17878753,9.6799965e-08,-4.413979e-07,-5.2446012e-08,8.9976496e-08,-4.7024594e-07,4.7953444e-07,-1.7789804e-07,0.0014138245,-1.6615316e-07,-0.1133814,0.84676754,-1.6689576e-07,-4.68316e-08,-3.57755e-08,-4.53727e-09,1.3878096e-07,-1.5209985,-0.74981844,0.2787051,-5.5920324e-08,2.5993955e-08,-0.0002649948,-8.915795e-08
-6.765606e-08,-4.4419093e-07,-0.0020980006,0.011100997,-0.020425284,-1.9450229e-07,1.496584e-07,-0.11279969,1.7227066e-07,1.4451327e-08,0.5042471,-0.7128405,0.116748005,-1.3314597e-07,-3.1422135e-07,-1.0905519,-0.31132197,2.8087857e-07,7.9991185e-07,3.7586514e-07,-6.049321e-08,5.4989364e-09,4.930709e-08,2.1461261e-07,0.0039540622,-1.3807718e-07,0.33840206,-0.4043817,2.2244748e-07,-2.8623697e-07,3.7996676e-07,6.464135e-08,-2.25316e-07,0.34821358,0.3488653,-0.73069537,3.4539232e-07,-2.1886055e-07,0.00015141073,4.9528936e-08,8.331436e-08,5.649984e-07,-0.0010206451,0.0673925,-0.47410813,1.8290389e-07,1.12952435e-07,0.018483222,1.5070316e-07,-4.4560227e-07,0.11851691,0.88162935,-0.07992622,1.4581957e-07,8.8484603e-07,0.40775764,0.4009369,2.7545838e-07,-6.1626764e-08,-4.266068e-07,3.8368583e-08,-4.6547694e-07,6.159006e-07,-1.4102349e-07,0.0015686442,1.93466e-08,0.22672993,0.34661803,3.0410433e-07,-5.523927e-08,9.8630295e-08,-6.804127e-08,-7.8596216e-08,-1.1752423,-0.5340523,-0.21666121,-2.0535566e-07,1.5513416e-07,-0.00055694487,1.203282e-07
8.188585e-08,7.199709e-07,-3.8753606e-05,-0.0082533,0.083475806,8.854067e-08,1.3673909e-07,0.1333146,-2.044257e-07,9.825614e-08,0.2023156,-0.9567364,0.10547217,-1.8753019e-07,1.6398786e-07,-0.7859897,0.040825248,5.5301555e-08,-1.8184355e-07,1.8822396e-07,-8.2700716e-08,4.026957e-08,-1.89162e-07,-1.2019362e-07,0.0015810796,2.4208143e-07,0.029496176,-0.21978152,-1.03040065e-07,-1.2696621e-07,3.5014173e-07,-1.7342194e-07,-5.628914e-08,0.28402767,0.08166354,-0.7624117,7.938286e-08,5.225416e-08,0.00017219607,7.454943e-09,-3.0946194e-07,-8.420673e-08,0.001057752,-0.011270566,0.17636256,2.1157447e-07,1.3072783e-07,0.09536001,9.741283e-08,4.123046e-07,-0.33354297,0.9664021,0.09622342,1.9611818e-07,-5.6084895e-07,0.27342236,-0.07023233,2.690851e-07,2.8775258e-07,2.3560106e-07,-1.1807804e-07,3.7616917e-07,-2.1690606e-07,-8.0616374e-08,-0.0017719807,1.9556242e-07,-0.068431616,0.7145882,-7.526722e-09,2.6693152e-07,-1.2046829e-07,1.8267335e-07,2.565424e-07,-1.4584734,-1.0465555,-0.24095456,-4.30951e-08,9.801897e-08,-2.1253058e-05,-1.8432293e-07
-1.4513098e-08,-3.0667454e-07,-0.0012954809,-0.016006168,-0.099816024,-5.196122e-07,1.3497531e-07,-0.10099461,2.2598329e-07,-1.3000879e-07,0.18535313,-0.14575465,0.2728244,1.2708338e-07,-3.3932437e-07,-1.106039,0.10849106,-1.1540439e-07,-4.560976e-07,5.096926e-08,-4.7720953e-08,-1.4210349e-07,-4.139796e-07,7.688406e-09,-0.0019477797,-2.0957862e-07,0.18987362,0.16411553,-4.0011685e-08,3.4716746e-07,-1.3373781e-07,-2.7385656e-07,1.5000272e-07,-0.016063616,-0.23523109,-0.7624935,-1.02054145e-07,-5.3221964e-07,0.00044311932,8.577018e-09,-3.5259308e-07,1.2975838e-07,-0.00021817186,0.0016332921,0.19767386,-6.773537e-08,-3.0308857e-07,0.032585338,1.8170599e-07,-7.680423e-08,-0.72843087,1.2379506,-0.038341746,1.268773e-07,5.0382596e-07,0.52764726,-0.012812767,-3.9508234e-07,4.59742e-07,8.9149415e-07,-3.334786e-08,5.0553666e-08,2.1991123e-07,1.2425775e-07,-0.0029852858,6.3751145e-08,-0.041335642,0.4820918,-1.2102194e-07,1.9289004e-07,1.8139667e-07,4.3720334e-08,-2.2943806e-07,-1.1250685,-0.44779983,-0.5902681,8.9067925e-08,-6.157086e-08,-0.00019649524,-4.9022617e-08
1.3878127e-07,-2.3922672e-07,0.00057985674,-0.02064147,0.01944656,-6.4399046e-08,1.2030358e-07,-0.01676784,4.4597186e-08,1.4203977e-08,0.07820405,0.4012318,-0.011003537,-1.6356154e-08,-2.7325586e-07,-0.5491219,-0.04402336,1.3468866e-07,1.1994956e-08,-7.966159e-08,5.018279e-09,-2.5852967e-07,-2.7613027e-08,1.702098e-07,-0.001442921,-7.206641e-08,-0.009152418,0.5032731,1.351618e-07,6.904558e-08,-1.6271402e-07,-1.9776441e-07,3.5253169e-07,0.10564221,0.09436084,-0.27123868,-2.348557e-09,8.42865e-09,-0.0001236491,2.552529e-07,1.9988802e-07,2.2941268e-07,6.1249e-05,-0.0067872647,0.03966656,-7.544633e-08,7.812258e-08,0.018265655,1.459214e-07,-5.752092e-08,-0.5660488,1.49871,-0.11420889,1.2850239e-07,3.0157736e-07,0.48190466,0.091881454,5.364462e-08,-1.16491165e-07,1.484525e-07,-5.976017e-08,-8.2896875e-08,-2.2274386e-07,-9.7478704e-08,-0.0004976915,2.1939412e-07,-0.1329863,-0.2748622,-1.5682775e-07,9.768753e-08,4.0096148e-07,-1.7560423e-07,-2.1831619e-07,-1.6153163,-0.5731168,-0.33770537,-7.579675e-08,2.0488565e-07,-0.0003453944,1.3892507e-07
1.1200554e-07,-2.417565e-07,0.0020588296,0.05221912,0.010199676,-1.170619e-07,-9.666009e-08,0.05137912,4.7780023e-08,8.2200536e-08,-0.5257486,0.9344451,0.20463386,-3.477942e-08,-2.2649763e-07,-0.16644278,-0.2002321,8.684267e-08,-3.6671048e-07,8.6213595e-07,-1.0820612e-07,-2.4155747e-07,-3.6460128e-07,-2.9981734e-08,0.0009066874,-3.215378e-07,0.11675763,0.419279,-2.0998388e-07,2.6861318e-07,-8.875301e-08,2.0659019e-07,-2.5023576e-07,0.08219974,0.8693813,-0.1127995,-1.9836477e-08,1.2094375e-07,0.0009353302,-1.8498064e-08,-5.861414e-08,3.473276e-07,0.0013900654,0.037370525,-0.057207197,-1.878464e-07,1.1469565e-07,0.03408681,8.0258275e-08,2.598856e-07,-0.51340467,0.87715733,0.33181885,-2.3502416e-07,4.85212e-07,0.53763294,0.22426389,-7.2168973e-09,5.3162836e-08,6.671361e-07,-1.7433842e-07,-1.519552e-07,1.6379246e-07,8.068983e-08,0.0017242124,1.152647e-07,-0.14874253,-0.83166045,-1.4770285e-07,3.9159147e-07,-4.475723e-08,-1.2578522e-07,3.924256e-07,-0.64753973,-0.54580796,0.06419861,2.4019704e-07,-3.6144652e-07,-0.00043936408,-1.9399543e-07
2.7798535e-07,1.13704715e-07,0.00039621652,0.014841294,0.018433427,-1.3753572e-07,-1.2331651e-07,-0.13692833,2.8141204e-07,-7.04305e-08,0.55898535,0.3825542,0.023025777,-2.2280943e-08,7.6881025e-07,0.7044363,-0.025789307,-1.8279658e-07,2.0424045e-07,-5.738736e-07,2.9507214e-07,-2.0306189e-08,-1.7788376e-07,-3.1339732e-07,-0.0034880943,-2.441957e-07,-0.28128046,0.057515703,3.999513e-08,-2.0315174e-07,-9.116771e-08,-1.2696815e-07,1.0604322e-07,1.4270214,1.2578629,-0.013647843,2.728838e-08,-7.4431966e-08,-0.0003475695,-8.282433e-08,2.0663244e-07,-2.426696e-07,-0.0016717004,0.024512382,0.0058686147,3.782904e-08,4.2903753e-07,0.1112915,2.024614e-07,2.1417645e-07,0.3393718,0.69119245,0.11049436,1.2546563e-07,-9.628206e-07,-0.26415166,0.13451649,-2.2595424e-07,-2.4708513e-07,-6.839855e-07,-4.3799622e-07,2.6368758e-07,2.782517e-07,1.4613411e-07,0.006559724,-1.9178232e-07,0.28520578,-0.40152153,2.9291124e-07,9.441022e-08,2.1130525e-08,-1.6359166e-08,-8.001879e-08,-0.8098513,-1.1752652,0.16408795,-1.013133e-08,1.892436e-07,-7.133963e-05,-2.0667403e-07
-1.6894083e-07,5.3403045e-07,0.0014569347,-0.015925633,0.08128597,1.8745288e-07,1.8707149e-07,0.4309532,4.3678618e-08,-3.6931027e-08,0.90791273,-0.029675776,0.20677437,4.6172815e-08,-5.731676e-07,0.20838387,-0.37530965,-3.219545e-07,-4.7544785e-07,-1.5808818e-07,-1.5330981e-07,-3.5638476e-07,-9.730441e-08,-3.8653025e-07,-0.0024346376,-6.4394435e-08,-0.29927787,-0.032356054,2.0289534e-07,1.2521136e-07,3.8433704e-08,6.603014e-08,1.02177495e-07,0.5963585,0.6673451,-0.18065391,-3.4657603e-08,-3.3033575e-07,6.570928e-05,2.4438958e-07,2.0082845e-07,-3.099157e-07,-0.00028392902,-0.0068344977,-0.35537845,4.4379243e-07,3.09236e-08,0.07946856,-2.3864337e-07,2.7178567e-07,-0.4267097,0.8208263,0.37439522,2.1124713e-07,7.202201e-07,-0.6678036,0.35696006,8.0333706e-08,-3.7813686e-07,-6.305474e-07,9.605126e-08,-3.031257e-07,4.771671e-08,-1.6455076e-07,0.0027661126,-7.774125e-08,0.63575083,-0.18903287,-2.577267e-07,1.1990798e-07,-2.1978064e-08,-1.3887433e-07,3.8448212e-07,-1.0913062,-0.24456824,0.57233,3.739069e-07,-3.396002e-07,-0.00044795568,-2.1072812e-07
9.091113e-08,-9.560737e-07,-0.0019351494,-0.044557273,0.023481358,-1.6749439e-07,3.658647e-08,-0.046197657,2.9041365e-07,-2.3139697e-07,0.9979193,-0.32419002,-0.016562924,9.982841e-10,-5.260457e-07,-0.40762022,-0.030788392,1.8322083e-07,-3.708067e-07,-3.6365836e-07,-2.3900296e-07,1.8087366e-07,5.931326e-07,2.5606255e-07,-0.00061029714,1.4462469e-07,0.24279454,0.22562069,1.6906782e-07,1.9847087e-07,1.36769955e-08,1.2370029e-07,-6.2746295e-08,0.8520099,0.55564624,0.033192556,1.9621534e-07,-2.2685177e-07,0.00045529517,1.4958967e-07,-1.2246821e-07,-6.0622943e-07,0.0008567461,-0.06015464,-0.025392007,-3.8159635e-07,1.6849611e-08,-0.05826056,-1.1212731e-07,-2.3510684e-07,-0.026265047,1.0563252,0.2115773,9.234904e-08,1.0252265e-06,-0.27238655,-0.0134724565,1.942204e-07,-1.9639603e-07,1.7540418e-07,-1.232616e-07,3.2007327e-07,1.250472e-07,2.0008673e-07,0.0080265,1.7830644e-09,0.09930594,-0.07732293,-1.6607046e-08,-3.2421497e-07,1.7631555e-07,9.5907524e-08,-1.5702197e-07,-1.8312112,-1.2131087,0.5299916,8.040135e-08,-1.282973e-08,0.00025419943,-1.1011324e-07
1.7035423e-07,1.279412e-07,-4.0322833e-05,-0.100837074,0.17173535,-3.2645903e-07,1.5537405e-07,-0.031360738,-3.094715e-07,-1.9998188e-07,0.73803467,-0.3343674,0.36612353,1.9946043e-07,-3.7306137e-07,0.041471593,-0.1040654,-2.439945e-07,-5.229888e-07,4.7497807e-08,-7.7832496e-08,-4.4014135e-07,-2.9688835e-07,9.367626e-08,-0.0045991605,3.3920912e-08,0.31102094,0.021996886,3.3076697e-07,5.882052e-08,3.675101e-07,-1.3179312e-07,-1.3213771e-07,0.6862255,0.8452254,-0.17553873,-2.0120446e-07,1.4271262e-07,-0.00017089688,2.135391e-07,-9.764679e-08,4.8085144e-07,0.0011452293,-0.16540593,-0.17295872,-2.469239e-07,1.7775048e-07,0.08212529,8.913973e-08,-1.666045e-07,-0.8628223,0.7604406,0.56535214,1.1420188e-07,-2.4268388e-08,0.0147003755,0.07601235,-7.17565e-08,-4.5176742e-07,-7.692751e-07,2.9023005e-07,6.749654e-08,-2.3718215e-07,2.4117773e-07,0.007464113,-1.846496e-07,0.4682857,-0.9291149,4.5860276e-08,6.133801e-08,3.8729272e-07,-1.4129242e-07,-1.0585158e-07,-0.7196954,-0.8382152,-0.16508088,-2.0751713e-07,1.7116727e-07,0.0007119531,-2.0104393e-07
1.3092749e-07,-3.4678e-07,0.0006717565,0.007604979,-0.050252337,6.6768415e-08,-1.7610796e-07,-0.21407187,-1.0305517e-07,3.4091988e-07,0.5581384,0.048078626,-0.009965176,2.1059157e-07,-2.930832e-07,-0.2551826,-0.02166808,2.0897608e-07,-1.3618181e-07,-2.6201943e-07,-1.3069857e-07,3.737568e-07,9.573334e-08,1.4742906e-07,-0.0005001028,7.2907625e-08,0.06277647,-0.3930401,1.1502225e-07,-1.2096888e-07,-2.7492965e-07,-1.6772782e-07,3.3200973e-08,0.26923224,0.44017422,-0.31792444,1.888975e-08,-6.00462e-08,-0.00076319504,-1.0640959e-07,-2.641089e-07,-4.877926e-07,-0.00030640885,0.029373089,0.024929412,2.6517986e-07,2.4951956e-07,-0.00013868464,-1.3326901e-07,2.9648928e-07,-0.016094763,1.4321072,-0.0041594435,3.4505732e-09,-6.242269e-07,0.393342,-0.015294902,3.7575916e-09,4.2032696e-08,-9.649541e-07,5.8221318e-08,-1.19118724e-07,-1.4067443e-07,-4.692783e-08,0.0019407343,1.0932076e-07,0.0061512827,0.3573848,-3.198531e-08,-1.2399255e-07,1.2867113e-07,2.0739908e-07,-5.351007e-08,-1.2430476,-0.8912168,-0.35655186,-2.236923e-07,-9.323662e-08,0.00015881866,-1.8451027e-07
2.2263745e-07,4.7905894e-07,0.0023866354,0.032063045,0.012573479,8.486039e-08,-4.3774676e-08,0.7147501,-3.5258506e-07,1.873685e-07,1.0069876,0.846878,-0.06742375,2.3872252e-07,3.9408417e-07,0.011776081,0.3505605,1.4006191e-07,-8.568247e-08,3.8403533e-07,1.4989651e-07,3.4938623e-08,1.535949e-07,-1.5225095e-07,-0.00045448964,1.492846e-08,-0.036824465,0.6271482,-1.4277731e-07,-1.9045598e-07,-2.0840707e-07,-1.1276785e-07,8.258617e-09,-0.013443632,0.35605803,0.1255945,-1.8057077e-07,-1.461105e-07,-0.00016641359,3.436666e-07,-7.558046e-08,9.590128e-07,-0.00022119246,-0.015111297,0.084600605,6.5879e-08,-5.828123e-08,0.2126524,8.473634e-09,4.96413e-07,-0.4685484,1.3179445,0.22103168,1.3190387e-07,-9.923688e-07,0.2742034,0.35888535,2.6962437e-07,5.708992e-07,-5.661866e-07,-1.4642265e-07,1.12443665e-07,-2.23427e-07,-1.9214235e-07,0.003559226,2.9233343e-07,-0.056905568,0.4674358,-4.6990312e-08,1.9296634e-07,-6.469815e-08,-2.0775201e-07,-3.9038184e-07,-0.99900806,-1.0877615,-0.19348706,-1.212688e-07,4.743871e-07,-0.0002928365,6.226591e-08
1.16903124e-07,-9.528857e-08,-0.0016738691,-0.0474319,-0.015755327,1.2480179e-07,7.4497656e-08,-0.025127763,3.7189605e-07,-2.1455017e-07,0.6494579,-0.3160288,0.09627266,-4.540463e-08,-4.713641e-08,-0.7293486,0.13794649,-1.360339e-08,2.2454685e-07,-7.58987e-08,-4.685596e-08,1.3568877e-07,-2.9766056e-08,-3.918259e-07,7.655835e-05,-4.81474e-08,-0.1456637,0.85179704,-2.607252e-07,-1.08826e-07,-5.1207792e-08,-2.0516197e-08,1.9891337e-07,0.6414537,0.8299668,0.21832632,2.7907294e-07,2.2154606e-07,-1.8088409e-05,4.1617767e-08,1.2531191e-07,-1.06018405e-07,0.00047446802,-0.011899574,0.12504795,-2.6567344e-07,-2.0863556e-07,-0.055616826,-5.036144e-07,-3.270857e-08,-0.29596806,0.90277445,0.11093629,1.5711781e-07,2.7030316e-07,0.03780906,0.043523666,-7.346874e-08,3.8155684e-07,-2.7640456e-07,-2.2000509e-07,-2.2819306e-07,4.622157e-07,1.8897705e-07,-0.0009161617,1.2323417e-07,0.07039062,0.2490949,-2.057938e-07,-1.3942412e-07,3.967125e-07,-9.737258e-08,1.1728038e-07,-1.6149102,-1.0965943,-0.13365048,-1.598794e-07,-7.502399e-08,0.00030187698,4.514771e-08
2.7280328e-07,5.497439e-07,-0.000570428,-0.041877266,-0.044788934,1.5935407e-07,1.1778627e-07,0.31249228,-3.6343747e-07,-3.739891e-07,0.18739966,-0.6495895,-0.00629267,-2.836785e-08,-3.0381725e-07,-0.9556959,0.03566346,1.07132394e-07,1.4155509e-07,5.1793086e-07,-1.7465055e-08,-2.7847565e-07,-3.5749946e-07,3.2071694e-07,-0.00074613956,1.3654414e-07,-0.5183803,0.78031117,1.2944895e-08,-3.5883545e-08,-1.02565e-07,-3.2979557e-07,-1.11143024e-07,0.59826267,0.3870345,0.8339131,5.3854103e-07,-3.687578e-07,9.718837e-05,-1.7646241e-07,2.8270406e-07,-8.021275e-07,0.0008934801,-0.04186079,-0.18616068,1.0801817e-07,3.487071e-07,-0.00078027137,3.8097426e-07,-4.1272986e-07,-0.13364252,1.0022528,0.1399164,3.3177002e-08,-1.1128978e-06,0.025445446,0.79019386,8.2277595e-08,4.822058e-07,3.8945007e-07,-7.4215194e-08,5.826614e-08,3.507197e-07,-2.0416583e-07,-0.0039544525,-5.028724e-09,0.30125916,0.7461575,-4.6344738e-08,-2.2614725e-07,9.252258e-08,-2.0093114e-07,7.628029e-08,-1.0689448,-0.23291193,0.44226012,-1.4929661e-07,-3.5827505e-08,0.00022645344,1.7212102e-07
-2.2603143e-07,4.7775174e-08,-0.00034886587,-0.017266832,-0.04430678,-3.7967496e-07,-1.3745951e-07,-0.121602274,3.7590564e-07,-2.0425483e-07,0.732497,-1.2526145,0.07115586,-6.8962045e-08,-4.415995e-07,-0.19732432,0.26402235,9.801825e-08,-1.4414596e-07,-1.09136735e-07,-1.614191e-07,-2.0029115e-07,-5.753226e-07,5.4739974e-07,0.0011688531,2.9863992e-07,0.23697048,0.28233865,2.4287118e-07,2.98914e-07,-4.4896112e-07,2.4084463e-07,6.6627194e-08,0.79832345,-0.21359327,0.42449522,-3.6599744e-08,8.23685e-08,-0.00011620246,3.5233008e-08,-2.5092294e-07,6.7421666e-07,0.00036380006,-0.04123081,-0.06577995,3.8835236e-07,3.523247e-07,0.24478582,-8.02938e-08,-2.3696755e-08,0.3962934,0.3966794,-0.07702692,-1.9905119e-07,2.1883884e-07,-0.33365777,0.116169706,8.8538386e-08,-3.3153043e-07,-1.6064683e-07,3.7530162e-07,6.185865e-08,-7.84343e-07,6.691158e-08,-0.005492961,1.5494554e-07,-0.17934746,0.67476064,1.0289514e-07,-1.590008e-07,5.417573e-07,2.306782e-07,1.458e-07,-1.763551,-0.9825891,0.094725415,-1.791679e-07,-8.14638e-08,-0.000214799,-7.872062e-08
1.4090647e-07,5.19011e-07,0.0013715788,0.014261128,0.028785054,-8.470154e-08,9.952467e-08,0.09937355,-1.059491e-07,2.1539229e-07,0.5195145,-1.1465884,-0.09230333,-1.5561912e-07,-2.1163765e-07,-0.55140805,0.08112589,-3.145102e-07,3.5933292e-07,-3.1404502e-07,2.9045333e-07,4.384814e-07,-2.654889e-07,3.5223152e-08,0.0014647157,3.4956463e-07,0.21413285,0.30020475,-1.5369817e-07,-3.008746e-07,7.430933e-08,7.340337e-08,7.919585e-09,0.038079113,0.41716582,0.10741687,7.700529e-08,-7.778013e-08,-7.065045e-05,6.794103e-08,6.982529e-08,1.1609478e-06,0.0010694772,0.0032356502,-0.2768537,-3.6168217e-08,-2.8857605e-07,0.04286786,-6.605201e-08,4.2884736e-07,-0.3370408,0.8569634,-0.19760117,6.4547486e-08,-5.7157735e-07,-0.06747418,0.048173998,4.343822e-08,-5.4917916e-07,7.146113e-09,-1.6165451e-08,2.150449e-08,-4.0693067e-09,2.1959313e-07,-0.009476438,-2.8920323e-07,0.04577508,0.45717382,-1.7413093e-07,-2.8852742e-07,2.4386125e-08,-6.8997196e-08,-1.2966741e-07,-1.239532,-0.13297196,0.34805214,9.2132325e-08,-5.9397735e-08,-0.00036449195,4.5960643e-08
1.8717793e-07,1.6237524e-07,-9.936285e-05,0.009384396,0.0044909855,3.2055635e-07,8.471038e-08,-0.17781924,2.4992192e-07,1.6242848e-07,0.40620202,-0.72532785,0.25917235,1.8080624e-07,-4.3865478e-07,-0.8295524,-0.19270691,-1.2555455e-07,2.7620104e-07,1.2656918e-07,7.714927e-08,5.1001138e-08,-4.82072e-09,-8.05791e-10,-0.003971846,-1.8598278e-08,0.27739578,-0.07399881,-1.8173978e-09,-1.6069734e-07,5.5343605e-08,-1.2945077e-07,6.032478e-08,0.25564313,0.19912219,0.10448226,-5.9149073e-08,1.2687912e-07,0.0007657437,-5.0472075e-08,-1.10771914e-07,3.240557e-07,5.3409552e-05,0.028287174,0.03389544,4.4341897e-07,-2.2575435e-07,0.07124975,1.933052e-07,-9.310807e-08,-0.2971756,1.2222196,0.14845622,-9.112141e-08,-2.5014003e-08,0.10173522,0.40738156,1.4523616e-07,2.1202186e-07,-2.0302159e-07,7.462065e-08,-2.0397391e-07,1.4897817e-07,-8.585943e-08,3.3116637e-05,2.2256461e-07,-0.45077008,0.37017953,1.8960392e-07,-1.2226386e-07,-1.62408e-07,1.4625141e-07,-4.565527e-08,-1.3438587,-1.109874,0.4419056,6.550683e-08,8.455572e-09,-0.0005512494,1.2340168e-07
2.7321312e-07,1.3383388e-07,-0.00077040127,-0.05112431,-0.17808193,3.3606713e-07,-1.3832822e-07,0.01899999,2.3794357e-08,-1.4324894e-07,0.73097575,-1.076865,-0.02598211,-1.194651e-07,-5.96208e-07,-0.18801753,-0.34091747,-4.4358956e-08,-3.2473736e-08,-1.1255085e-07,-1.9118681e-07,1.5556428e-07,-2.3491663e-07,6.108485e-08,0.0033650044,3.3065106e-10,0.15259117,-0.6615335,-2.2966222e-07,-4.395774e-08,-7.673233e-09,-9.1953794e-08,-5.28037e-08,0.29136246,0.39181557,0.056229997,3.285649e-07,-1.7927906e-07,-0.0004630641,-2.6185245e-07,-2.2890279e-07,4.1358834e-07,0.0006628671,-0.06703596,0.19099578,-2.036592e-07,1.882967e-07,0.09944939,1.7349393e-07,-3.0743072e-07,-0.8539792,0.77139044,-0.17429462,2.6054693e-07,-3.0358353e-07,-0.39603585,0.027605962,-1.5406877e-07,5.192286e-07,-5.3051974e-07,-1.6261893e-07,-6.3303546e-08,-2.770504e-07,-6.146166e-08,0.0051134727,-2.476227e-07,0.0070945146,0.17799333,-2.3694926e-07,1.7004157e-07,-3.492183e-07,4.6835112e-08,-2.90513e-07,-0.865738,-0.6424169,0.050558392,2.021571e-07,1.4095062e-07,0.00015300012,1.5898522e-07
1.7587645e-07,4.3817846e-07,0.0014764315,-0.044247583,-0.07190327,5.0628408e-08,1.6851081e-07,0.19186485,-9.6584245e-08,-8.208224e-08,0.5414975,-0.36270893,-0.09886699,-4.1517268e-08,4.2043536e-07,-0.85767335,0.20207968,-4.3367912e-08,-1.029145e-07,2.2154882e-07,3.0298995e-07,1.1861955e-07,8.700738e-10,-9.95598e-08,-0.0012689851,1.8560004e-07,-0.07656643,-0.13349952,-3.6583182e-07,-3.0365783e-08,-2.0189735e-07,-1.949281e-07,-1.7926898e-07,0.21457733,0.11691622,0.37078547,-8.049029e-08,-1.3780028e-07,0.00054168224,1.971448e-07,-4.3219615e-08,5.408772e-07,0.00011571655,-0.019354468,0.034074195,1.961483e-07,-1.0830131e-07,0.17736615,3.5005334e-07,-6.042224e-08,0.10983652,0.6931679,-0.1441674,1.03942156e-07,-1.9295044e-07,-0.31352374,-0.08666728,1.4741069e-07,2.811973e-07,-3.1058286e-07,-1.9699964e-07,2.5794898e-07,-3.0160857e-07,4.2996184e-08,-0.00028299063,-1.0940644e-07,0.038925566,0.4348706,-2.6691609e-08,7.9623604e-08,1.550697e-07,7.856518e-08,-3.943219e-07,-1.3041801,-1.2084594,0.14869004,-1.7253745e-07,2.954563e-07,0.000121465375,9.9342714e-08
1.0728763e-07,-1.0641927e-06,-0.00089147285,0.044347897,-0.09149961,-1.9881998e-07,-1.0345546e-07,0.07551199,1.183152e-07,-1.5519448e-07,3.652647e-05,0.58026,0.1549757,-2.3380989e-07,6.996787e-07,-1.1215764,-0.096881226,-1.3800606e-07,-1.4088442e-07,-8.2439533e-07,1.7085857e-07,-2.0935995e-07,8.3111374e-08,-1.504865e-07,0.0008910381,-2.4612123e-07,0.33265385,-0.020448623,-8.0307544e-08,1.01566904e-07,1.5827112e-08,-5.1826184e-08,-4.4072447e-08,0.5732984,0.6867794,1.1410695,2.4645485e-07,-5.3629222e-08,-0.00017238325,3.1897926e-08,-1.9931313e-07,-4.495527e-07,7.63038e-05,0.025317252,-0.021898989,-4.6650146e-07,2.0098351e-07,-0.11267103,8.464212e-08,2.7877795e-07,0.4030982,0.82293624,-0.06260921,4.9673005e-08,-1.0524157e-06,0.026804361,0.017813157,-4.0748475e-08,-7.5889005e-08,5.430048e-07,-1.9598487e-07,-9.102297e-08,-2.1505974e-07,-4.021946e-07,-0.007105008,-2.0583485e-07,-0.17092608,-0.41279945,8.694876e-08,-2.1298872e-07,3.4094762e-07,7.392096e-08,4.515725e-08,-0.44572955,-0.611945,0.005731631,1.4056138e-07,2.4319945e-08,0.00043341154,1.0840664e-07
-9.281653e-08,3.5025042e-07,-0.00035600952,-0.017861152,-0.10221453,-4.2926516e-07,-7.6363094e-08,0.004840766,-2.405177e-07,1.3264618e-08,0.33765888,0.32834426,0.05321099,-1.2736895e-07,-6.047142e-08,-0.9615135,-0.043702334,-1.33384646e-08,3.0506413e-08,3.7354016e-07,-1.7407653e-07,1.256465e-07,1.6142168e-07,3.732235e-08,0.00026257188,1.3518488e-08,-0.06662394,-0.19114508,-1.6059005e-08,2.8158652e-08,1.11499126e-07,-1.0667215e-07,1.6517411e-07,1.3101672,0.6538783,0.121531695,-3.7999058e-08,1.2582436e-07,0.00013940602,8.73748e-08,1.3177561e-07,-5.2910167e-07,-0.00044673553,-0.003258694,-0.04765539,-3.1188748e-08,-2.4244025e-07,-0.054707896,-1.9623431e-07,-1.2939496e-07,0.23818997,1.0525997,0.045049276,-1.5892142e-07,4.2529808e-07,-0.2297765,-0.104666874,2.5041535e-07,-9.682205e-08,-1.8693737e-07,2.0195604e-07,-2.3421124e-07,4.875602e-07,-1.645049e-07,-0.00025396404,2.9170806e-07,-0.0012741908,-0.45140892,2.1031477e-07,3.493332e-07,2.0038598e-07,2.5075008e-07,-2.4605882e-07,-1.2854807,-1.1029162,0.05359134,7.3384264e-08,-1.3946467e-07,0.00012223668,-4.970296e-09
8.542405e-08,-4.7091015e-07,0.0010737485,-0.13211131,0.020851478,-1.2312908e-07,-2.7465018e-07,0.3062525,1.1995199e-07,-3.247162e-07,0.87344563,0.7623742,-0.25339594,-1.1583295e-07,1.1684047e-07,-0.62819767,0.5229093,-2.2775934e-07,-1.6007598e-07,-5.5204623e-07,5.296039e-07,-1.6844976e-07,3.65382e-07,-3.0274282e-07,0.0016944574,3.9379842e-07,0.11509878,0.025301993,-2.0931907e-07,8.5496715e-08,-5.157395e-07,-2.9145556e-07,-5.3964612e-08,0.7365227,0.96291703,-0.3209165,3.0153694e-07,1.482136e-07,0.00039833062,2.597811e-07,1.9570771e-07,1.7396769e-07,-0.0014562635,-0.100663595,-0.19543701,4.0854434e-07,-1.06134195e-07,0.03971627,-2.1978099e-07,-1.2930909e-07,0.05806997,0.7927215,-0.19415158,-2.5623848e-07,2.4547842e-07,0.2674399,-0.14001088,-1.9547981e-07,-4.4570734e-07,1.830818e-07,2.0383534e-07,-3.5850337e-07,4.2732802e-07,-3.670341e-07,0.00025766663,-3.6274142e-07,0.510973,0.022526061,1.2503034e-07,1.8910899e-07,4.9260825e-07,1.6505781e-07,-2.5984272e-07,-0.71644866,-0.8023071,0.46992204,-9.624329e-08,2.948812e-07,-0.00070478785,-3.2846842e-07
7.048445e-08,-5.7885472e-08,0.00010036107,-0.040548388,-0.01767904,-2.3581089e-07,3.64179e-08,-0.19447358,-4.122502e-08,2.1998966e-07,0.43070507,0.95098364,0.10018915,1.860311e-07,1.3209986e-07,-0.12801117,-0.08007766,3.417832e-07,2.242644e-07,4.1428538e-07,1.2973562e-07,3.5225415e-07,8.8624795e-08,-2.9816434e-09,-0.0048103733,-1.4395194e-07,-0.02356406,-0.35575217,1.8238256e-07,-3.6764192e-09,1.4772688e-07,4.7624702e-08,2.417932e-07,1.2285635,1.1530887,-0.2678864,-5.5685625e-08,2.9159435e-07,6.899217e-05,-2.2563405e-07,-3.76818e-07,6.509552e-08,-0.00022687671,-0.069186464,0.19935255,-1.4922944e-07,-1.7437142e-07,-0.061292812,-1.361428e-07,1.0742218e-07,-0.091604464,0.23810755,0.23632152,-1.07403714e-07,2.7464714e-07,0.6179141,-0.048954602,-2.8122048e-07,1.0799724e-08,-4.158766e-07,-1.6201776e-07,5.053971e-08,-7.462677e-08,-2.7412983e-07,0.0012575176,-1.3060138e-07,0.116446525,-0.2704736,8.72688e-08,3.3613685e-07,-1.5215716e-07,-1.8985848e-07,2.1749605e-07,-1.2564492,-1.3463652,0.59570885,3.313564e-08,2.7411704e-07,-0.00038828328,-7.414448e-08
-1.9175383e-07,-1.1864847e-06,0.001436433,-0.086621284,-0.040308557,-2.4939453e-08,-7.728516e-08,0.30963162,-1.4497061e-09,-2.5282534e-07,0.042283297,0.34591538,0.11305593,1.0015524e-07,1.7631943e-07,-0.30523172,-0.0018176192,-1.3026138e-08,4.2096974e-07,-1.4749835e-07,-2.3272563e-07,1.658545e-07,-4.4114742e-07,-3.6921324e-07,-0.003044914,2.3835213e-07,-0.014747088,-0.3643772,-2.3617044e-07,3.1285083e-08,4.410696e-07,-2.813509e-08,1.6026829e-07,0.8765048,0.8879446,0.55098647,-3.2081694e-08,4.8691123e-07,4.249665e-05,2.9250323e-08,2.0955977e-07,-2.829006e-08,-0.00068425626,-0.050676227,0.049381875,1.2905491e-07,1.0704328e-07,0.13031414,-1.783806e-08,3.0847104e-07,-0.062025413,1.2000035,0.12056403,-1.7509834e-08,1.8885291e-07,0.45030874,-0.18792336,-3.0343193e-07,5.510336e-07,6.3574e-07,-1.3991458e-07,-3.839652e-07,7.0512397e-07,2.6101077e-08,0.0011916651,-1.5140884e-07,0.14490801,-0.13524155,8.7169e-08,-1.9571897e-07,-1.46336845e-08,-1.3755371e-07,1.0689234e-08,0.34604773,-1.1073449,0.90047926,2.909438e-07,4.6391187e-07,-0.0002539473,1.6699843e-07
-6.583396e-08,2.1315986e-07,0.0002728264,0.0011652517,-0.093552716,-1.4860785e-07,-5.9682236e-08,-0.02060012,1.9743482e-07,2.5836573e-07,0.20109513,0.79241496,0.010754358,9.200101e-08,-6.2184185e-08,-1.0037721,0.039422326,2.4883113e-07,4.2009952e-07,-5.001077e-09,-5.6958243e-09,-1.4404955e-07,1.7214887e-07,7.804288e-08,0.0007897088,-9.7426536e-08,0.021599479,-0.16012067,-1.0175161e-07,1.9075244e-08,3.2371324e-07,-1.1364108e-08,1.4054973e-07,0.98606026,0.98322076,0.23496674,-8.3128995e-08,1.650155e-07,6.291747e-05,-2.747214e-09,-1.9658282e-07,1.19200536e-07,5.754523e-05,0.014962008,-0.021878209,-7.206786e-08,1.0923026e-07,0.032796968,1.8954574e-07,-2.186901e-07,0.15311316,0.9030035,-0.08339996,1.4761753e-08,-3.7682622e-07,0.5640528,-0.12449889,1.5944995e-07,1.1945373e-07,-1.175261e-07,-1.2747533e-07,3.5190226e-08,-5.5309846e-07,6.7034776e-08,0.0022023604,-1.1135624e-07,-0.08201323,0.038597215,8.2814864e-08,2.9151508e-08,2.2402624e-07,-4.836815e-08,-1.8872038e-07,-0.8652729,-0.696262,-0.12742057,-9.671368e-09,-2.0382778e-07,8.0791535e-05,1.1175331e-07
3.9322333e-07,4.970876e-07,-0.0019206216,0.01869146,0.030284388,-2.8355163e-07,-2.5140054e-07,-0.41715723,-1.6315228e-07,1.4393676e-07,0.11783372,0.2908061,0.13440847,-2.5898146e-09,-5.15226e-07,-1.6334153,0.35229442,-1.1171254e-07,6.9311614e-07,-6.495542e-07,-2.3101116e-07,-2.1094182e-07,-1.6823546e-07,-1.0289202e-07,-0.0026925378,1.585286e-07,0.03103849,0.3546635,1.727579e-07,-3.6020361e-07,-2.771242e-07,3.0517145e-07,-1.9494567e-07,0.5845613,0.18030299,0.63721645,-4.419988e-08,4.1628243e-07,0.00077379926,3.486235e-07,1.11252106e-07,2.7369012e-08,0.00051316014,0.0051094918,0.024951253,-2.1363515e-08,3.5960412e-07,0.1290073,1.7499228e-07,2.1278356e-07,0.6966282,1.0773622,0.2515433,-1.1033559e-07,-3.703581e-07,0.6967929,-0.04902105,-9.730068e-08,3.2670957e-07,-4.8576635e-07,-9.460685e-08,-6.996635e-08,6.7764273e-07,-1.5756314e-08,-0.00511728,-1.2610244e-07,-0.06927176,0.716995,-4.051806e-09,-1.6146993e-08,4.347342e-07,-2.9948467e-07,1.3152096e-07,0.08130374,-1.2017053,-0.40899137,-1.6686347e-07,-1.2236195e-07,-0.00030327542,4.5570974e-07
2.4298345e-07,-5.083258e-07,0.0022987968,-0.08217677,0.055097528,-2.7459826e-08,2.9033265e-07,-0.042484924,6.4667574e-08,-3.0926742e-08,0.326793,0.33684126,0.039004575,-1.4195044e-07,-4.4353234e-07,-0.90503764,0.25608972,-1.8503172e-07,-3.974886e-07,-2.671224e-07,4.0022317e-07,9.4330545e-08,-3.1629062e-07,-5.9403817e-08,0.0010952112,-6.741315e-08,0.4219092,0.18778564,-1.8735841e-07,-1.17572625e-07,-2.211999e-07,2.7037032e-08,-3.2855354e-08,1.2079924,0.49002472,0.017081037,-5.341279e-08,2.4385434e-07,-2.5217543e-05,1.6011457e-07,-1.16902555e-07,1.0307299e-06,-0.00013246608,-0.11457214,-0.005646305,1.1657174e-07,-3.032426e-07,0.062274262,-7.455445e-08,1.3609151e-07,0.38084722,0.98452675,0.1933455,-6.151186e-08,8.678637e-07,0.24253729,-0.113816544,-1.6601103e-07,3.740326e-07,-7.867061e-08,2.060408e-07,5.3730673e-08,9.4357216e-07,-2.2878606e-07,0.00082972617,5.6268306e-09,0.21107104,0.62935185,-2.6880407e-08,2.1859941e-07,1.959315e-07,1.9911491e-07,3.3228915e-08,-0.6983869,-1.0755342,-0.15594624,-7.159632e-08,-3.2091637e-07,-2.7504233e-05,-2.8288353e-08
-2.0103556e-07,2.2351469e-07,-0.0010394357,-0.10863478,0.09164065,2.4051701e-08,4.7726942e-08,-0.04148789,1.1014416e-07,3.1688944e-07,-0.18508223,0.781508,-0.11690117,-2.1135071e-07,-1.0218659e-07,-0.5313774,0.6368545,-3.0896854e-07,-9.722629e-08,4.6335555e-07,-2.420824e-07,-8.8794806e-08,1.7190044e-07,1.13483324e-07,0.001767941,1.2370532e-07,0.1445182,-0.15057686,-7.9223284e-08,2.9583907e-07,-2.1039212e-07,-1.8670942e-08,1.1043009e-07,0.647369,0.7543429,-0.46478346,2.3647087e-07,-3.6551003e-07,0.00056509156,4.3922768e-09,-4.0710518e-08,2.34926e-07,-0.0014844418,-0.1185546,-0.11239387,1.4312224e-07,-3.2196084e-08,0.22685741,-1.170626e-07,5.4519873e-08,0.55749357,1.2482204,0.050197974,-1.7592602e-07,-7.5799676e-08,-0.39681554,-0.0928928,-3.423683e-07,-1.9934527e-07,-1.2110297e-07,-1.057623e-07,-5.7506256e-08,-1.8969082e-07,-1.387563e-09,0.0038580182,1.0591097e-07,0.24859701,0.184695,1.7011257e-07,-1.7006253e-07,-5.209962e-07,-2.6621626e-07,8.437388e-08,0.07818104,-1.0070697,0.3050087,2.2789493e-08,-2.7900913e-07,-0.00062425155,-3.589081e-07
-2.327924e-07,1.5977656e-07,0.00010362278,-0.001697354,-0.002078209,2.4303597e-07,9.673522e-08,-0.08489293,-8.950604e-08,-1.49536e-07,0.3292813,0.36255932,0.0014343415,-2.1174284e-07,-9.120882e-09,-0.035238676,0.14075524,1.16831146e-07,-2.5425476e-07,-1.7071955e-08,1.849692e-08,-1.5336947e-07,-7.632681e-07,1.02487505e-07,0.00033240343,-7.937544e-08,0.25243762,0.035910413,2.762988e-09,-2.474702e-07,2.3732224e-07,5.869235e-08,1.3282089e-07,0.8551871,0.34857824,0.29787847,-7.9439104e-08,1.2355449e-07,0.00010484168,1.7222223e-07,-4.4269058e-08,-8.552708e-08,-0.0006755418,-0.0035822375,-0.01887842,2.8233566e-07,-2.61622e-07,0.047961682,1.2081054e-07,1.5134428e-07,0.30726814,0.6920803,0.255248,-1.3815084e-07,-6.6062813e-07,0.66862553,0.07419208,1.1906184e-07,-7.935881e-08,-3.3124192e-07,-3.5592585e-08,1.1576816e-08,1.2953396e-07,1.4237627e-07,-0.0068543693,1.7327416e-08,0.4028742,-0.4318152,3.6494612e-08,-2.4761823e-07,3.558172e-07,-4.378225e-08,5.025207e-08,-0.7397322,-1.5906805,-0.091411136,-1.3270974e-07,1.7549173e-07,0.00023362166,1.8109446e-07
-1.2234146e-07,2.939904e-07,-0.0005608289,-0.03075646,0.042404864,2.7911102e-07,3.4198064e-07,-0.084688716,-6.740853e-08,9.234921e-08,-0.22353457,-0.2722302,-0.013213387,1.00607e-07,9.951737e-07,0.109524734,0.052170333,2.860152e-08,1.4963692e-07,3.3396958e-07,1.3877457e-07,1.2003295e-07,-2.765673e-07,-1.384797e-07,-0.0010162009,-1.5685276e-07,-0.04268654,-0.14168039,4.5693795e-08,8.361752e-08,-3.8603983e-07,-9.6075546e-08,-1.6100773e-07,0.121537894,0.80205077,-0.2513807,-3.5033892e-08,-3.150158e-07,0.000618674,1.0497753e-07,3.3578766e-07,-6.6224754e-07,-0.0012405769,-0.050172437,-0.30555683,1.2659686e-07,-2.1672176e-07,-0.07926039,-9.904956e-08,-2.194307e-07,-0.056137435,1.2679093,0.13439119,1.690187e-07,-2.7389225e-07,0.5962493,-0.23687121,-3.6888252e-09,-5.422378e-07,1.4132667e-07,1.9855082e-07,2.5314424e-07,8.58777e-08,-1.1376132e-07,0.00018802972,1.0882003e-07,0.060057472,-0.46274313,1.6931375e-07,1.4675756e-07,3.14349e-07,-1.315057e-07,-1.8808198e-07,-0.6568863,-1.0700427,-0.08079107,1.588626e-07,1.4339571e-07,-0.000488581,-3.645867e-07
2.9003837e-07,6.5592263e-07,-0.00043300973,0.004533328,0.033969685,7.7406696e-08,2.9428037e-08,-0.19406687,1.6085457e-07,1.4815716e-07,0.18069263,-0.2649471,0.027912032,-2.3973212e-07,-8.115652e-07,0.8201784,-0.15141638,-2.0138967e-07,7.742642e-09,-1.4881272e-07,-2.8232674e-07,2.7162287e-08,1.7676996e-08,-1.3779143e-07,-0.00021473801,-3.4170702e-07,-0.02746621,-0.68579,1.6106542e-07,1.2883179e-07,1.4245536e-07,6.241686e-08,-1.4149549e-08,1.2148079,1.0685232,0.6301581,-1.892687e-09,-5.8908867e-08,5.202824e-05,3.1146502e-07,1.209604e-07,1.3040523e-07,0.00069712993,0.023432374,0.0026326822,6.0925196e-08,3.3982732e-07,-0.027870292,-8.05762e-08,3.2283606e-07,0.12161399,1.6119614,-0.25412256,-1.2008967e-07,2.1930077e-08,0.33675388,-0.088243745,-1.7892765e-07,-1.3855748e-07,-8.323097e-07,-1.7848967e-07,-1.2950193e-07,-2.1911998e-07,-3.7591803e-08,0.0060389084,2.6010306e-07,0.022675999,-0.27066967,-9.067425e-08,1.17742374e-07,-3.819207e-07,-4.7473463e-08,1.6300352e-07,-0.9757265,-1.534148,0.18523929,4.9139572e-08,3.6355914e-08,-0.00030787315,-1.3505279e-07
2.8168103e-08,-9.563183e-08,0.0017267839,-0.054708987,-0.21107072,3.657865e-07,-2.4230445e-08,0.4198513,-1.7571666e-07,4.1816957e-08,-0.15321085,-0.2532454,-0.094267294,-1.4469748e-08,-2.2977055e-07,0.49361446,-0.041864112,6.793769e-08,1.2772544e-07,1.4427683e-07,-2.0946561e-07,-1.401476e-07,-6.50343e-08,-1.8592249e-07,-0.0018385083,-1.1135002e-07,0.38257262,-0.16158523,-1.2304037e-07,1.7413697e-09,-7.147399e-08,-1.5339275e-07,-1.3021267e-07,0.4263729,1.0659138,0.05140786,6.817018e-08,3.5667824e-07,-5.612526e-05,1.7922135e-07,2.1030068e-07,2.3518564e-07,0.00015363409,-0.015324207,-0.16820836,-3.2994336e-08,2.1792175e-07,0.040117614,-1.0666984e-07,-8.615209e-08,-0.13736798,0.62574816,0.12018212,-7.5053805e-08,-5.1555065e-07,0.4889895,-0.23282477,-2.1345292e-07,3.7106375e-08,1.1865504e-07,-3.242486e-08,-1.6721654e-07,4.9008656e-07,-1.7460948e-07,-0.0073415446,-6.281533e-08,0.43856156,0.071505845,7.561171e-08,-2.475561e-07,-2.8791899e-08,-1.7283412e-07,7.1634915e-08,0.110626034,-1.3246149,0.22341093,2.1641542e-07,1.0138383e-07,-0.00040748838,-9.7750885e-08
1.8459127e-07,-5.9037347e-08,0.00025406465,-0.021292705,0.00071843714,-9.297221e-08,-1.14517896e-07,-0.01931424,-2.213865e-08,2.7929687e-07,0.15782021,-0.20432015,0.12385913,1.4970638e-07,2.2452082e-07,0.17489487,0.036605828,3.5264944e-07,1.2738386e-07,2.5315532e-07,-2.5311869e-07,-5.2921587e-07,5.165586e-08,1.1447099e-07,-0.002560684,9.752866e-08,-0.27855018,-0.5884548,-2.0062664e-07,-1.9823632e-07,4.906595e-08,-1.1991109e-07,1.4346399e-07,1.0282071,0.88796985,0.15882416,-5.7679877e-08,-3.5128176e-07,0.00023082335,-2.4936242e-08,-1.471602e-07,9.575817e-07,0.00010105132,-0.019662183,-0.047932528,1.07064345e-07,1.2726412e-07,-0.018343277,2.322741e-07,2.7300263e-07,-0.18398903,0.8608165,0.07006469,9.023556e-08,-1.1801176e-07,0.12576146,-0.16367373,-1.6307965e-08,3.2572672e-07,4.4638895e-08,-8.837594e-08,-6.0613566e-08,-3.613393e-07,2.4666133e-07,0.0039902027,2.4930196e-07,-0.15623951,0.5817417,2.218766e-07,-1.4788243e-07,-3.806855e-08,1.2015624e-07,7.865623e-08,-0.2709843,-1.5368729,0.21800911,-5.010469e-08,3.5706196e-07,-0.0003547885,-7.088189e-08
1.7745958e-07,5.7528973e-07,-0.00015684302,-0.0011962944,-0.32882756,-1.4785064e-07,5.074702e-08,-0.049209982,-1.9578079e-07,-2.0921058e-07,-0.32383165,-0.50419503,-0.1613087,-3.114842e-07,-8.5791314e-08,0.5400045,-0.17039184,2.1773222e-07,1.1831702e-07,3.101261e-07,-2.7810106e-07,1.6091556e-07,3.513452e-08,-1.8146837e-07,-0.0017549096,7.5120916e-08,-0.14433837,0.0063942596,-4.2718526e-08,-1.5021624e-07,7.030764e-07,-8.94148e-08,3.450606e-08,0.7251387,0.82257247,-0.16852446,-2.4222004e-07,5.3488895e-07,-0.00039653407,1.9860977e-07,-1.422244e-07,-5.852073e-07,-0.00094638584,0.018336693,0.31801334,1.1944954e-07,1.9240287e-07,0.021222068,2.4217962e-07,8.837081e-08,0.10414405,1.4459955,-0.04282956,1.3540998e-08,1.3289154e-07,0.44920003,0.029452432,-1.536523e-08,-5.4591277e-07,3.9969194e-08,-9.792382e-08,2.536237e-07,5.866022e-08,1.570447e-07,0.001639028,-3.671005e-07,-0.12734762,0.6092974,-3.9604387e-08,-4.0799115e-09,-3.01603e-07,-3.9271995e-08,9.775691e-08,-0.14401266,-0.45727098,0.77923125,2.6664864e-07,-3.1132623e-07,-0.000111267036,-7.791344e-08
-9.894208e-08,2.7787945e-07,-0.0016582462,-0.0076972786,-0.032879207,-2.4690672e-07,3.6956226e-07,-0.0042102505,-2.072818e-08,3.007524e-08,0.26117736,-0.7847638,0.12206035,-7.170698e-08,-2.534925e-07,0.43686008,-0.19855751,-2.4342057e-07,6.4907124e-07,-1.9883768e-07,-2.043523e-07,3.2306613e-07,2.3531912e-07,-3.2310442e-07,0.0021831812,2.6440355e-07,-0.33946273,-0.669425,1.5329906e-07,1.786967e-07,-2.7523387e-07,-2.2971062e-07,-1.2909956e-07,1.0834136,1.3034166,0.05060972,1.4420812e-07,1.6056565e-07,0.00022318539,2.2127833e-07,1.8146298e-07,-3.2881158e-07,4.427543e-05,-0.02797227,0.09448197,2.7632257e-07,1.250877e-07,-0.063674025,2.1518372e-07,-1.2718289e-09,-0.3766668,1.3786187,0.10114182,2.3578457e-07,1.8780818e-07,0.31582126,0.05115678,-1.12602606e-07,1.4611439e-07,-3.296319e-07,-1.1142907e-07,2.9203846e-07,1.4535998e-07,1.7640187e-07,-0.006181769,-2.5208317e-07,-0.1926486,0.38275164,1.2448926e-07,4.3514675e-07,-2.4915832e-07,1.8304096e-08,3.1556905e-07,-1.0397071,-1.3849386,0.3632329,-6.8039014e-09,-1.0324935e-07,-0.00013181513,-1.8803988e-07
-2.3552681e-07,5.7314696e-07,0.0008543892,0.04464597,0.32447523,-4.577837e-08,4.442546e-07,0.16502139,2.616662e-07,9.746766e-08,0.58055204,0.30931407,0.14956166,2.4938515e-07,2.865279e-07,0.268399,0.43804592,-2.1808057e-07,2.978932e-07,-5.824788e-07,-1.4719959e-07,-1.9925125e-07,-2.2597122e-07,2.2516534e-07,0.005954313,-7.116657e-08,0.48803043,-0.829,5.709041e-08,-3.7639506e-07,2.3311526e-07,-3.40754e-08,-2.1830652e-07,0.87890387,0.6826819,-0.7016097,-1.0036295e-07,-5.513847e-07,0.00035882983,2.1973328e-08,-7.058122e-08,-2.2716864e-07,-0.00027441687,0.029272221,-0.13433218,-4.4641e-07,-1.0900061e-07,0.56896293,2.516312e-07,9.105676e-10,0.37410226,1.233122,-0.25948402,-8.2251766e-08,6.9936607e-07,-0.21903206,-0.048153564,1.5148e-07,7.6828354e-07,-2.1161554e-08,3.0445705e-07,9.1555705e-09,8.945635e-07,-4.699279e-08,0.005154756,2.6265312e-07,-0.5386136,0.5193313,-1.486189e-07,-2.0779187e-07,6.6256894e-07,-4.684432e-08,1.0017601e-07,-0.06791757,-0.7802833,0.3590369,1.5513893e-07,-2.4816154e-07,-0.00044813097,5.1802806e-07
1.9533663e-07,-1.3568346e-07,-0.00014041355,-0.007587198,0.024708346,-1.2049114e-08,-1.12265866e-07,-0.060515832,5.1371302e-08,2.787819e-08,0.16357401,0.6842333,-0.10278099,1.8811008e-07,2.3256803e-08,0.022012124,0.13980979,1.263921e-07,-1.8261547e-07,-4.3710338e-07,1.9970878e-07,5.7797365e-08,-3.899767e-07,-1.6976094e-07,0.00013361836,8.216994e-08,-0.00070840283,-0.31093508,-2.794253e-07,5.756324e-08,3.8675413e-08,2.6665697e-07,-6.4631486e-08,0.41140786,0.7886196,-0.40440586,1.0493248e-07,-4.716233e-08,8.4048115e-05,1.9848468e-07,-1.8173263e-07,-1.3776057e-07,5.8317954e-05,-0.006626845,-0.062226333,5.1853306e-08,-1.0164777e-07,-0.046192706,2.0092574e-07,1.499236e-07,0.40308124,1.0605501,-0.043122202,-1.7076353e-08,-7.2384374e-08,-0.1757929,-0.018539455,1.6396056e-07,4.105785e-07,-1.124134e-07,-1.91417e-07,3.730419e-08,1.9015576e-07,8.844555e-08,0.00050618977,9.5627996e-08,-0.14499661,0.5784107,6.562137e-08,-1.6955863e-07,9.535912e-08,1.2416841e-07,-2.3456798e-07,-0.3039553,-0.64993185,-0.22627594,-1.2447109e-07,-1.4348818e-07,-0.00015044321,-1.46166315e-08
-2.0319087e-07,-1.205318e-06,0.0029658817,0.0012440502,0.055560112,-1.6041525e-08,2.6846686e-07,-0.38887405,1.6898453e-07,-1.7388453e-07,0.75812703,0.7793551,-0.796626,4.361567e-09,-5.3717685e-08,-0.3256005,0.084832884,-3.72111e-07,2.2124112e-08,-6.38615e-07,-1.3785568e-07,-2.8344172e-07,-3.8687125e-07,1.0298541e-07,-0.0028352577,-2.2557208e-07,0.5451701,-0.33118224,1.1112439e-07,8.8920046e-08,-4.0165438e-07,9.138219e-08,-2.9222727e-07,0.78994584,0.7295966,-0.5225359,-3.120665e-07,1.1365998e-07,0.0005300036,4.526106e-08,2.6101958e-08,-1.5346993e-06,0.00027843757,0.050544024,-0.07918272,-2.2726161e-07,-8.457275e-08,-0.055692025,-2.5962896e-07,3.5796262e-08,0.9726745,1.136303,-0.75255257,-8.846488e-08,1.1644951e-06,0.7343467,-0.10599675,1.8504525e-07,-4.3988933e-07,-2.0632092e-07,1.793259e-07,-2.077876e-07,1.8227927e-07,2.784745e-08,0.003403767,-2.1726687e-07,0.2493647,0.9877895,9.6617725e-08,3.234203e-07,4.2816322e-07,-2.905195e-07,-4.0813532e-07,-0.07981977,-0.6779473,-0.6984301,-2.6651028e-07,1.311646e-07,-4.964922e-05,-2.6756862e-07
1.3813354e-07,-3.3350872e-07,-0.0010966,-0.007542789,-0.050453946,2.071835e-08,1.1830836e-07,0.047792915,-1.8710402e-07,-6.07787e-07,0.1764475,0.41970548,0.06519247,-5.06532e-08,2.6021465e-07,-0.53384185,0.17681329,9.827221e-08,5.1779487e-08,2.4689183e-07,4.6185136e-07,-3.4024208e-07,1.7276795e-07,-4.1940436e-07,-0.0003867646,-4.991719e-08,0.14724416,-0.6630364,1.1984253e-07,-3.2332855e-07,3.0496994e-07,-7.730906e-08,-1.5044536e-07,1.0759329,1.5416462,-0.8416597,1.8696218e-07,1.5161325e-07,4.3220152e-05,7.9065515e-08,-3.4083513e-08,-9.286788e-08,0.0005449831,0.043298326,-0.008574595,2.8335864e-07,1.3873567e-07,-0.07238016,2.492384e-07,2.0858499e-07,0.26770377,1.0043709,-0.22438154,-1.3071035e-07,-2.7997174e-07,0.38127202,-0.7189481,8.2506666e-08,-4.8134757e-07,2.3582722e-07,1.7022906e-07,-2.3534994e-08,3.8986872e-07,-2.6386095e-07,0.0019426313,2.1101941e-07,-0.20278613,0.4848594,1.383147e-07,-1.4898376e-09,3.652352e-07,-1.5977179e-07,4.5091124e-07,-0.9424778,-1.4887619,0.2298778,9.4208715e-08,2.6464357e-07,-0.00035288086,1.4639264e-07
-4.207041e-08,8.0539667e-07,-0.0006816992,-0.036484137,-0.2077142,-3.3572388e-07,2.532059e-07,0.0034274794,-3.600224e-07,1.1930354e-07,-0.27068505,0.8888932,0.12613283,1.7202272e-07,3.2290563e-07,-0.5386543,-0.3860206,2.6015982e-08,1.13277565e-08,2.411934e-07,-2.6348886e-07,-1.9217606e-07,5.5363756e-08,2.2151717e-07,-0.0012227925,-7.511479e-08,-0.040077046,-0.32096374,1.5091712e-07,1.9443223e-07,5.584635e-07,1.087557e-07,-8.222102e-09,0.857454,0.4333794,-0.52857,2.3534886e-07,3.4696063e-07,-0.00017929001,-1.9161389e-07,1.2927501e-07,-8.3504017e-07,-0.0006669143,-0.010023337,0.83364,1.0615939e-07,5.988184e-08,-0.21062872,2.0015399e-07,-3.078402e-07,0.50014424,0.8044484,0.3088245,4.2273626e-08,3.1096607e-07,1.1065624,-0.5863103,1.7418027e-07,2.9761014e-07,3.502846e-07,-1.6357572e-07,-3.5018027e-07,-2.1245759e-07,4.9922164e-08,0.0007541981,-2.0987496e-08,0.13716638,-0.36808226,2.5754307e-08,-2.6377194e-09,2.1460602e-07,-2.1397602e-07,-3.9331962e-07,-0.74164706,-0.8672822,0.27426738,-8.982252e-08,-3.4965012e-08,0.00019080471,2.5092686e-07
-1.4314578e-07,-5.6496265e-07,0.00025063934,-0.003888287,-0.16712888,1.12090675e-07,-3.71872e-08,0.18165956,1.0115918e-07,1.2074673e-07,-0.16474049,-0.19570498,-0.22447939,1.7214182e-07,-4.140361e-07,0.0653508,-0.08373252,2.3618935e-07,5.5312603e-07,5.693302e-08,-2.0198115e-07,1.3387049e-07,-3.8642264e-07,1.1703773e-07,-0.00041800947,-1.4597629e-07,0.2584941,-0.18397899,1.5826615e-08,2.746904e-07,1.6838348e-07,1.5911364e-07,-6.6667724e-08,0.9582317,0.4560149,-0.033555567,-2.1334463e-07,1.2941889e-08,0.00019780925,-1.5365961e-07,3.1204416e-07,-6.684513e-07,0.0005225073,-0.028240826,0.21583185,-3.4952103e-07,-2.043141e-07,0.064600214,1.4676606e-07,1.885344e-07,-0.20149696,0.821005,-0.19239572,2.7518968e-08,5.493746e-07,-0.20683777,-0.3306782,-1.6131096e-08,2.9769723e-07,4.1160587e-07,7.759955e-08,-2.1810955e-08,-1.2917133e-07,2.5989564e-07,0.002071288,-3.14156e-07,0.03395085,1.2229388,6.3138117e-10,1.0180351e-08,3.5156788e-07,-1.2639859e-07,2.5543937e-07,-0.73811203,-1.1159074,0.39103025,-2.4194685e-07,1.9451524e-07,-0.00045096147,1.14303006e-07
-3.9691696e-07,4.9572895e-07,0.002018273,0.06379187,0.18021162,1.0736923e-07,-3.907747e-07,-0.3900807,-1.4736699e-07,-2.0016401e-07,-0.2138141,0.13645455,-0.21192725,-9.054979e-08,4.3528567e-07,-0.072830305,-0.4827856,-4.1174136e-08,-5.998578e-08,-3.165885e-07,1.7740149e-08,3.4334653e-07,-3.6823445e-07,-3.9669388e-08,-0.0004963075,-2.909296e-07,-0.6109569,-0.7597719,4.8423345e-09,-2.9072902e-07,-1.6398963e-07,-1.9383431e-07,3.5483208e-07,0.44893384,0.35137844,0.5594148,1.1019081e-07,1.7704193e-07,0.0013135843,7.981149e-08,-7.1310353e-09,5.400328e-07,0.00045387592,0.063667245,-0.026794322,-1.5122004e-07,-8.32176e-08,0.008587232,-1.8260555e-07,7.652196e-08,-0.012782801,1.1360679,-0.1410031,2.3258252e-08,-9.632445e-07,-0.034898162,-0.10958073,-4.8585804e-08,2.0851104e-07,-5.021576e-07,7.735647e-08,9.335043e-09,-1.7347986e-07,-1.4215246e-08,-5.5140816e-05,6.711613e-08,-0.6112166,-0.44299433,1.0940927e-07,2.0400057e-07,-8.223303e-08,-5.140376e-09,1.7899413e-07,-0.90012234,-0.49580434,-0.44063905,1.6375189e-07,1.486012e-07,-0.0011761006,1.7956337e-07
-2.50815e-07,1.7263443e-07,-0.00328251,0.03682527,0.0042475187,4.4089336e-07,-2.3646632e-07,-0.3209645,4.3099583e-08,1.17534704e-07,0.14086077,1.6104664,0.2842084,5.629957e-08,-3.8473337e-07,-0.4237382,0.016026672,2.2908378e-07,-5.187794e-07,-5.809241e-08,-4.9326793e-08,2.31448e-08,7.2755725e-08,3.9879532e-07,0.003942583,-1.6256136e-07,-0.11293249,0.07109813,-5.5775608e-08,1.8642342e-07,-4.36078e-08,-2.772964e-09,2.8140195e-07,0.9493787,0.33154035,-0.7900226,4.6609316e-08,-1.5528425e-07,0.00042517437,1.65383e-07,-4.0963462e-07,-8.6434306e-07,-0.00094485027,0.044390228,0.04608811,3.2615804e-07,1.0133385e-07,-0.15644655,3.0354778e-07,2.526421e-07,0.49105063,0.9693276,0.12857269,-2.8612845e-09,8.986789e-07,0.048628103,0.052140422,2.2837966e-07,-4.7812215e-08,1.0054059e-06,2.80618e-07,2.2323948e-07,2.634491e-07,-1.2637545e-07,0.0012939624,6.335739e-08,-0.18028656,-0.3238003,-7.0289303e-09,2.1886103e-07,-2.935875e-07,-1.2872016e-07,-1.0016763e-07,-1.4334874,-1.5597223,-0.4649663,-1.3739302e-07,2.242669e-07,0.00010523738,1.9694349e-07
-2.9672128e-07,2.916482e-07,-0.00013423461,-0.015690576,-0.021198168,2.7337612e-07,1.1318282e-07,0.065770864,-2.6934742e-07,-2.0684183e-07,-0.18071617,1.2822118,-0.008998083,2.0152817e-07,4.0829093e-07,-0.35872114,-0.032233942,6.306931e-08,2.81339e-07,-4.006941e-07,-2.1696357e-07,-1.637906e-07,-7.81705e-07,-1.5750896e-07,-0.0018082982,7.7668204e-08,-0.39108613,-0.042096056,-2.2754955e-07,-2.7898912e-07,-3.4588408e-07,-4.312445e-08,9.5945744e-08,0.24098286,0.5545121,-0.33371,8.6596096e-08,-3.6669093e-08,0.00052380696,-1.1843245e-07,-4.2228507e-08,4.0302226e-08,-0.000112813446,0.004955195,0.078212045,-1.977567e-07,1.0964307e-08,0.039046973,1.8578024e-07,-2.5808646e-08,-0.13851462,-0.17797044,-0.024345156,6.98529e-08,-7.663417e-07,0.3292293,0.09025017,7.334519e-08,1.1877536e-07,2.4106777e-07,-3.2640784e-08,-1.42071e-07,-3.6278706e-07,2.9173242e-07,-0.00051202276,1.4002441e-07,0.054070108,-0.119143076,-8.270565e-08,3.9277666e-08,6.095784e-08,-4.3659213e-08,-2.2808089e-07,-0.78099924,-0.13073827,-0.24844666,-3.221605e-08,-2.0668479e-07,0.00024603616,7.3506214e-09
-1.8399072e-07,4.8402704e-08,0.0006475614,-0.0155034065,0.018137634,8.653927e-08,1.2911165e-07,-0.052209,5.4812006e-08,1.1531476e-08,0.2802068,1.139629,0.02886638,1.2892116e-07,-1.3353628e-07,-0.3922981,0.08096599,-2.9317417e-07,1.9783987e-07,-1.4148151e-07,2.4811257e-08,2.1473592e-07,-1.40523e-07,-1.4437592e-07,-0.0005833065,1.9350342e-07,-0.13543357,0.3608859,9.9762104e-08,-2.2900946e-07,-1.9433458e-08,-1.9472178e-07,9.1697174e-08,0.79319715,0.65920854,-0.15433031,2.973852e-07,-1.5083937e-07,3.337337e-05,-2.1087764e-07,-1.8206359e-07,-2.3281191e-07,-4.1617255e-05,-0.012363069,-0.024883041,3.7717683e-08,8.988904e-08,0.036082275,2.903805e-07,1.4735937e-07,0.07103644,-0.52138066,-0.13791756,1.7246454e-07,-4.3523382e-08,0.5106968,-0.08223794,1.347521e-07,5.7060078e-08,1.5987774e-07,-9.6360424e-08,1.9319631e-07,2.9627913e-07,-1.5943087e-08,0.006493818,1.6240546e-07,-0.060472522,-0.123489186,1.1025326e-07,-2.8995132e-08,-8.970528e-08,2.3601935e-07,-2.230357e-07,-1.3754357,-0.67332035,-0.09458485,1.305774e-07,-2.4081862e-07,-2.3988148e-05,1.4459759e-07
-3.2596196e-07,-4.1985695e-07,-0.0025582863,-0.026088923,0.092469044,-2.5788236e-07,1.4107778e-07,0.0035778405,-3.8201375e-07,2.1786673e-07,0.08125695,1.3713462,-0.038059134,-1.9455233e-07,1.3092819e-07,-0.64579165,-0.13240774,4.1184296e-07,-1.0313616e-06,1.5161237e-07,-8.8160405e-08,-1.1012237e-07,-8.3689685e-07,1.4910052e-07,0.0037934827,3.0045425e-07,-0.16949782,0.5447524,-6.867177e-08,4.1834582e-08,1.4989624e-07,-2.2188375e-07,8.3820595e-08,0.9101126,0.54955596,0.606585,1.0033325e-07,2.3533124e-07,-0.00017814896,-2.0111797e-07,1.5179452e-07,-1.0823604e-06,-0.00023650262,-0.036477964,-0.1383073,-8.903619e-08,-9.9190274e-08,-0.087110385,-9.25021e-08,-1.6764265e-07,0.7149811,-0.37010705,-0.07000752,-1.9985644e-07,-4.5693355e-07,1.0182732,-0.07586935,2.556335e-07,-9.13991e-09,-4.0221516e-07,1.9957628e-07,4.052773e-07,-1.9601094e-07,3.904448e-07,-0.005916005,-2.8075286e-07,0.11619963,-0.3257632,1.7178567e-07,-1.9433425e-07,1.0623579e-07,1.2758721e-07,2.5496098e-07,-0.41118303,-0.8993101,0.46314254,1.8400165e-07,-3.025737e-07,-0.00066302705,-4.968525e-07
-2.6501715e-07,-1.9124914e-07,-0.00040499592,0.048573285,0.026318226,4.032441e-07,-1.0458721e-07,0.29223508,2.1116949e-07,-3.916991e-07,0.49413005,1.316558,-0.08461629,2.7428769e-08,5.687034e-07,-0.8102806,-0.18459155,2.0862817e-07,1.6931028e-07,-6.418185e-08,-1.3483721e-07,4.840854e-07,-2.7493792e-07,-7.654401e-08,2.7571332e-06,1.5762112e-07,-0.10757755,0.89122534,-1.9849143e-07,1.8065725e-07,-8.737322e-08,-1.9481222e-07,3.6221604e-07,1.1921909,0.396104,-0.64322954,5.648331e-08,-3.7043293e-07,-0.00017021713,-9.875932e-08,-2.2109475e-07,-3.1234833e-07,0.0004034755,0.072859235,-0.05331392,-2.2817417e-07,-2.7299322e-07,0.079445496,-3.4548046e-07,2.4864616e-07,1.026977,-0.36641988,-0.071938924,3.0372952e-08,6.3348017e-07,0.58134276,0.23235814,-6.0114544e-08,3.4349313e-08,-5.952542e-07,-9.582082e-08,-3.3370452e-07,4.371965e-07,-1.2101603e-07,-0.0049436735,1.9651898e-07,0.1354764,0.001015476,3.6186513e-08,-2.2435198e-07,-1.6258699e-07,-5.8633944e-08,2.2719075e-07,-1.4584773,-1.8909686,0.7863945,-1.9498663e-07,1.7125856e-07,-0.00019785816,3.475547e-07
7.2776075e-08,2.453087e-07,-0.0014072051,-0.058478404,0.18608904,-1.768311e-07,2.653585e-07,-0.14603288,5.2980226e-08,-8.8634124e-08,1.0103862,0.62944245,0.32738388,1.2482089e-07,7.030669e-07,0.06206784,-0.3733133,-7.784058e-08,3.6136532e-07,8.3900254e-08,-3.057366e-09,-1.5040482e-07,-6.2221824e-07,-2.0876814e-07,0.0026599837,-2.0836634e-07,-0.0796337,-0.2169512,2.599085e-08,1.3721402e-07,1.981185e-07,4.542322e-08,3.0552837e-07,1.0027355,0.21053995,-0.43027696,2.7618015e-09,-2.4250136e-07,0.00033987386,1.0351576e-07,1.1877286e-07,-1.5803329e-07,9.178021e-05,-0.11988958,0.43096343,2.091196e-07,-1.2326106e-07,0.09655732,1.3797069e-07,-2.8115207e-07,-0.20749234,-1.1719708,0.3828734,1.683456e-07,1.9203287e-07,0.6848103,0.15439561,-3.476644e-07,1.5157417e-07,-1.5059707e-07,-2.5642026e-07,-1.3959303e-07,3.4345638e-07,-3.986378e-07,0.009196085,1.9209841e-07,-0.18353868,0.23969698,6.7405935e-08,2.2108846e-07,-1.482591e-07,9.4058706e-08,1.0302966e-07,-0.46661317,-0.59576285,1.1227046,-1.9873127e-07,-2.1682018e-07,-0.00043699384,-1.210344e-07
1.4344853e-07,-2.368023e-07,-0.0004414635,0.023651376,0.015812447,1.8043437e-07,-4.750369e-08,0.24134919,-1.4347668e-07,1.5992242e-08,1.0764834,0.16600686,-0.0756252,-8.9144905e-08,1.8945256e-07,-0.10718749,-0.25013366,2.7419563e-07,-4.980314e-07,-6.5112715e-07,3.7853079e-07,2.4499093e-07,9.787925e-08,3.2281199e-07,-0.0026530083,-1.6941581e-07,-0.23936544,0.77350384,1.4892025e-07,-4.7369127e-07,-1.8566584e-07,-2.1127855e-07,-2.0124233e-07,0.76222354,0.6403518,0.49103782,2.0163593e-07,6.279477e-08,-1.7094251e-05,1.0261816e-07,8.623402e-09,-6.663108e-07,0.0007769131,0.01147531,0.050768226,1.7509261e-07,3.220791e-07,-0.06215403,-1.2243518e-07,4.0197932e-08,-0.40339866,-1.5496734,-0.043539576,1.2658863e-07,4.3741807e-08,0.50374687,0.23333733,1.2002172e-07,-3.1849348e-07,-7.926507e-07,1.2013032e-07,3.0326635e-07,4.0612895e-07,-2.0587242e-07,-0.00081812724,-1.87352e-07,-0.29823303,-0.33845547,-2.226459e-07,-9.802508e-08,1.1348257e-07,-4.9826042e-08,1.4309661e-07,-1.5126064,-0.50729126,0.5217519,1.9332333e-08,-2.9954103e-07,7.3790925e-06,6.417814e-09
-5.9221946e-08,5.378571e-07,2.1518452e-05,0.005654597,0.018744554,-2.1462519e-07,-1.6961614e-07,0.3174472,-4.6594423e-08,-1.3096681e-08,0.17621201,0.19065337,0.06150043,2.1561698e-07,4.79733e-07,-0.26821047,-0.16255914,-9.989336e-09,5.318019e-07,-7.766711e-08,1.8583594e-07,-6.2189116e-08,-3.9037712e-07,2.5249437e-07,-0.0008745272,9.161796e-08,-0.1672082,0.183744,-1.6765271e-07,4.5061178e-08,1.9853204e-08,1.1622319e-08,-4.170576e-08,0.33669502,0.20252012,0.1250012,1.3373892e-08,-6.8629745e-08,0.00032702967,1.9230298e-07,1.8474061e-08,-9.4954714e-08,0.00070217025,0.004719476,-0.2694901,3.001777e-07,-3.509561e-07,-0.036474824,7.606659e-08,1.2263651e-07,-0.4042289,-1.1840945,0.31446636,-2.0499395e-07,8.145482e-07,0.93267673,0.0758517,-7.772703e-08,2.407479e-07,2.5731026e-09,8.755265e-08,6.9498924e-08,4.7167907e-07,3.607066e-08,0.00044495735,-8.119111e-08,0.372872,-0.59991133,-1.7037203e-07,2.9694127e-07,2.7651055e-09,1.5159532e-07,-3.0918844e-08,-0.3344866,-0.12754372,0.6389689,-5.1738823e-08,-2.2202634e-07,-0.00047585988,1.7015341e-07
-8.5209585e-08,-5.971336e-08,0.0013042665,0.030043114,0.037730873,2.0544292e-08,-4.0753136e-08,-0.16638786,-1.824533e-07,-2.0124425e-07,-0.14099297,-0.38980818,0.07880166,-1.5068832e-07,3.8065303e-07,-0.51120216,-0.22171034,9.4701264e-08,-5.990073e-07,-3.7383393e-07,1.2141663e-07,1.5030174e-07,7.4517595e-07,4.4893582e-08,0.0017251533,1.483858e-07,0.26100725,0.11910989,-9.8566524e-08,9.3974826e-08,-1.9276209e-07,-1.8141392e-07,1.036058e-08,0.65769225,0.35564017,0.32466772,1.4673344e-07,-3.5389306e-08,-0.00013318402,8.8743974e-08,-3.3094682e-07,4.752231e-07,0.000532048,0.049415275,-0.013709247,1.3218556e-07,2.2391696e-07,-0.034298487,2.0184558e-07,1.7776348e-07,-0.53989697,-1.2812438,-0.028309714,1.8475838e-07,7.214975e-07,0.8351975,-0.19732086,-1.6561074e-07,-2.9671412e-09,-8.532008e-08,2.6748756e-07,8.798561e-08,2.0817707e-07,-1.7165588e-07,-0.0037558002,-9.0107704e-08,-0.4010889,-0.3767792,1.91255e-07,7.487644e-08,1.8479102e-07,1.4072855e-07,-2.2067596e-08,-0.92791605,-1.1647824,0.16938403,-2.550281e-07,5.1620603e-08,6.406821e-05,2.069611e-07
-6.415112e-08,-1.450621e-07,-0.00052914117,-0.027169783,0.112277515,-1.1592542e-07,1.4591659e-07,0.2112161,1.2114573e-07,-1.945693e-07,-0.29694223,-0.16624258,0.16584359,6.6495474e-08,4.7675113e-07,-0.9132825,0.09902207,1.076254e-07,-1.116276e-07,6.599092e-08,1.0256319e-07,2.2478719e-07,-4.3031662e-07,-2.7304245e-07,-0.0022814071,7.320206e-08,0.39291635,-0.5079565,1.3961812e-07,8.529804e-08,3.3319827e-07,4.9439564e-09,8.272968e-08,0.8395328,0.50673795,-0.224719,2.3634342e-07,-1.416808e-07,-0.00021920644,-1.4625698e-07,-1.9766068e-07,1.4491326e-07,5.356618e-06,-0.018470105,-0.3015482,2.3879662e-07,-1.5012019e-07,-0.007950808,-9.886024e-08,-2.1229212e-07,-0.34506986,-1.3809342,-0.08877998,1.2685219e-07,2.6283817e-07,0.22777516,-0.362061,-9.6257594e-08,1.4129856e-07,-2.920759e-07,-1.6167064e-07,1.9827843e-07,-5.1532993e-08,1.2321209e-08,-0.0002489728,1.760223e-07,0.05952499,0.3069409,1.6908984e-07,-3.6510556e-08,1.5912623e-07,8.394693e-09,2.624553e-07,-0.5491914,-0.2826511,0.5923391,-2.7781056e-07,1.3067179e-08,-0.00022348824,-5.6689895e-08
-1.2079802e-07,2.4788804e-07,0.00031006182,0.0084506925,-0.02639132,3.5801364e-08,9.222873e-09,-0.07546057,7.829691e-08,1.04713266e-07,0.38232154,-0.12625757,-0.029885653,-2.203469e-07,-6.5874747e-07,-0.6293683,0.058636248,-1.6404847e-07,2.1241571e-07,2.7957805e-07,1.1776092e-07,-1.5166349e-07,-7.2657954e-08,1.4575951e-07,0.000463376,2.7632172e-08,0.1902178,-0.37051255,-2.9898032e-08,7.205901e-08,3.636224e-07,-1.1889058e-07,-2.5808004e-07,0.9066858,0.72295785,0.4888937,1.3400224e-07,-1.3989342e-07,-7.263579e-05,-1.5409312e-07,-7.410925e-08,-7.852918e-07,-0.00047308425,0.006740298,0.0027982667,-1.5262184e-07,1.3277665e-07,0.059881363,-3.8096817e-07,-3.2781583e-07,0.13486391,-1.2208024,-0.04863735,-1.05383915e-08,-2.953665e-07,0.63358253,-0.008520128,1.8167592e-07,-3.3066868e-07,-9.7901705e-09,-1.5220905e-07,-8.1562916e-08,9.854642e-08,3.319805e-08,0.001070328,-1.4695546e-07,0.10346629,0.12383032,9.0155694e-08,1.6837224e-07,-9.520279e-08,3.360579e-07,-1.7962593e-07,-1.117506,-0.82585835,0.5195828,1.8558228e-07,-4.3690193e-08,-0.00017003836,4.702305e-08
2.4213654e-07,-3.4521995e-07,-0.00023756493,-0.08446956,-0.1095597,-1.2712587e-07,2.0141528e-07,0.09026271,-4.3636135e-07,-9.319146e-08,0.37104055,-0.55488336,-0.10630627,1.4151692e-07,3.8065022e-07,-0.67210466,-0.176172,-2.486322e-07,2.4160107e-07,-8.228783e-07,2.46634e-07,-7.092626e-08,-1.5745542e-07,9.527952e-09,-0.0005690508,3.153192e-07,0.5640028,-0.48073202,6.0314846e-09,3.3578914e-08,6.5549784e-08,2.1056704e-07,2.4970566e-07,0.5421945,0.84510523,0.55661625,-1.6007402e-07,2.6694278e-07,0.00027052313,-6.614411e-08,1.81855e-07,1.7298393e-06,0.00018920221,-0.14004542,0.04249566,1.3504459e-07,-3.5798502e-07,0.06785528,-1.00047174e-07,8.18269e-08,-0.47815058,-1.1564595,0.011736001,-1.9664441e-07,6.6346774e-07,0.78441375,-0.4840161,-3.1573828e-07,-2.9103546e-08,-1.0200322e-06,5.3287096e-08,1.1691854e-07,1.5496191e-07,2.617245e-07,0.002866977,8.68064e-09,0.0056455284,0.56512153,8.983729e-08,-2.1231405e-07,1.878024e-07,-2.1906234e-07,5.1866778e-08,-0.31608763,-0.93277264,0.31321916,-2.018336e-07,1.5733698e-07,0.00018571116,-1.8857776e-08
3.0439452e-08,4.5340153e-07,-0.00041241583,0.024661941,-0.046878505,1.1633401e-07,7.970486e-08,-0.12825938,2.0019883e-08,-6.8465795e-08,0.5949506,-0.5017462,-0.19760293,7.424336e-08,-3.6105266e-07,-0.45405957,-0.28447273,1.8683431e-07,-3.557158e-07,2.2009206e-07,9.7767355e-08,2.8686287e-08,1.0125018e-07,3.0876606e-07,0.0002725107,1.2582979e-07,0.08861307,-0.5238372,5.3513563e-08,7.7797864e-08,-7.09754e-08,-1.7531319e-07,1.6794287e-07,0.72725844,0.64214337,0.45187294,-6.444239e-09,-3.5183717e-08,0.00031963087,3.249811e-07,1.9982778e-08,-8.5483487e-07,0.0003314039,0.021615587,0.07771818,-4.2550292e-07,-2.586387e-07,0.071494706,-2.4574777e-07,-3.2620386e-07,-0.4382583,-0.39345273,-0.032608293,1.2560758e-07,-7.9859865e-07,0.6863809,-0.1200806,8.748961e-08,-1.7869932e-07,9.667087e-07,-2.561579e-07,7.414175e-08,2.1163982e-07,1.8233754e-07,-0.0020984432,-3.397431e-07,0.016277373,0.06575392,-8.490818e-08,-1.1935617e-07,-2.3442965e-08,-1.3325781e-08,1.6164662e-07,-1.1921688,-0.9096562,-0.35080904,1.9329441e-07,1.9807324e-07,0.00014975523,6.464583e-08
1.0960455e-08,1.0262946e-07,-0.000102447564,-0.012207804,-0.052752182,2.79064e-07,-2.1697673e-07,-0.15263478,-4.2637652e-07,-6.5240386e-08,0.47393006,-0.7991522,-0.16978571,-2.0358766e-07,-4.83833e-07,-0.67700315,-0.027643552,-6.319756e-08,-6.424917e-07,1.9773012e-07,-1.6922769e-08,-2.1828501e-07,3.4016324e-07,6.590645e-08,-0.002201913,2.6128308e-07,0.32993945,-0.49380213,2.3897974e-07,3.666565e-07,-2.6809937e-07,1.664155e-07,-8.76295e-08,0.42512116,0.18030752,0.4295492,2.2658588e-07,6.192606e-08,0.00020893096,9.956692e-08,7.2083594e-08,6.966628e-07,-0.00062435213,0.025591278,-0.13754806,4.16006e-08,-6.395693e-08,0.18645109,6.095644e-08,1.8947267e-07,-0.51718235,-0.5376566,-0.31790617,-1.7623806e-07,5.2630304e-07,0.9057742,-0.5350096,-2.5771735e-07,4.6402164e-08,-5.575882e-07,8.35301e-08,-1.5972829e-07,-4.698572e-08,9.944486e-09,-0.0035325184,-1.0681407e-07,-0.07169763,-0.40753293,-2.2562074e-07,3.7922717e-07,7.62293e-08,8.4875786e-08,-1.9095765e-09,-0.76473296,-0.365132,-0.4096762,7.787389e-08,1.4857027e-07,-0.00020512045,2.025348e-07
-1.3501531e-07,7.4162443e-07,-0.00025418526,0.012316798,0.0387693,-1.0641631e-07,1.3324299e-07,-0.0770116,-1.15174416e-07,9.862559e-08,-0.34058237,-0.5039839,0.034551956,1.4446748e-07,-3.185016e-07,-0.55213183,0.1340477,-1.4496906e-07,-1.6339328e-08,1.13363015e-07,-2.7552176e-08,-1.9370967e-07,3.669305e-07,-1.5452716e-07,0.0008139025,-8.483054e-08,0.30945122,-0.50002575,1.7613802e-07,-4.4533962e-08,1.4374648e-07,-1.5716891e-07,-1.1573536e-07,0.82508045,0.36199564,0.48049664,4.1039357e-08,-1.2297075e-07,0.00011164484,-2.34924e-07,6.9528404e-08,1.93852e-07,-0.0003928867,0.01042911,-0.074618794,1.2147615e-07,7.032088e-08,-0.0076127513,2.308231e-07,1.2421197e-07,-0.32433745,-1.249571,-0.07800964,-1.14615816e-07,-5.847795e-07,0.7121437,-0.124807544,-2.9747997e-07,-6.3131864e-08,-5.137774e-08,1.4286181e-07,1.02990256e-07,2.50471e-07,-1.1097854e-07,-0.00035437106,8.67347e-08,-0.028312646,-0.16669652,-1.05883714e-07,2.8145297e-07,-2.0565176e-07,9.015059e-08,2.5199377e-08,-1.5810597,-0.6829315,-0.5378886,-1.4411249e-07,-8.924192e-08,0.00013120938,2.5397625e-08
-4.1909587e-09,-7.6779565e-07,-0.0015623685,-0.008672634,-0.16739535,1.14775645e-07,-6.067484e-08,-0.34248617,1.3725365e-07,-3.63482e-07,0.26178047,-0.26100922,0.08281813,1.8338234e-07,-3.4948414e-07,-0.86622506,0.08913059,-3.650449e-08,8.4925875e-07,1.6102854e-07,1.5047526e-07,-7.925074e-09,-3.7169946e-07,1.05596264e-07,-0.0054038553,-8.560562e-08,-0.17498878,-0.34928927,2.55335e-07,-1.4612823e-07,7.888741e-08,-4.113808e-08,-1.2358252e-07,0.5165055,0.78757817,0.28127605,7.4019795e-08,-1.3844857e-07,-0.0006810044,6.647723e-08,-8.899284e-08,-4.7491523e-07,0.00043666782,-0.029293755,-0.09050829,-2.842455e-07,-1.9877062e-07,0.051665448,-7.129558e-08,-3.9741455e-09,-0.077609435,-1.369782,-0.054702237,2.0639722e-07,5.6734905e-07,0.7482761,-0.10149204,-4.504281e-08,-1.1342429e-06,4.494918e-07,6.7888706e-08,-3.695436e-08,5.8168013e-08,6.055325e-08,0.0031492258,-1.17806024e-07,-0.028755717,-0.54966563,4.506134e-09,2.2712999e-07,1.0059985e-07,-1.517646e-07,2.8698508e-08,-0.99556094,-0.49422914,0.16945289,2.5839e-07,-4.4482917e-08,-0.00016052733,-2.1306606e-07
-1.680408e-07,4.295832e-07,0.00045748177,-0.021437744,-0.008669419,-2.8963143e-09,2.1198063e-07,0.061586186,2.7597972e-07,3.7617475e-08,0.123662025,-0.32172263,-0.05316173,-1.3977612e-07,-4.920667e-07,-0.14647362,-0.066048495,-2.5945186e-08,-2.150601e-07,-1.2254765e-07,-5.3920324e-08,1.0117145e-07,1.0137924e-07,1.4124093e-07,-1.0434334e-05,-2.8703445e-07,0.0889832,-0.11844891,-2.7951373e-08,-1.9997992e-07,1.6477144e-07,2.0960681e-07,2.3223865e-07,0.553485,0.90144306,0.1734023,-1.6291432e-07,-2.7010643e-08,0.00010115929,6.3505e-08,2.4197155e-07,-5.2033e-07,-0.0004761907,-0.015702294,-0.05900695,7.275227e-08,3.0537485e-08,0.056573473,-1.7992654e-07,1.3729289e-07,0.2224919,-1.4950265,-0.050297648,1.8124985e-07,3.1096226e-07,0.65379107,-0.23138626,2.1092495e-07,-2.8430952e-07,1.9171941e-07,-1.6327259e-07,1.5698133e-07,-1.312155e-08,1.0832155e-07,0.00091877405,-1.1112288e-07,0.05222696,-0.47722647,1.7362025e-07,3.495092e-07,5.2166868e-08,-1.8700366e-07,-3.5690164e-08,-1.1879488,-0.91578805,0.4318816,-2.6385504e-08,2.3172822e-07,0.00011385342,2.4410153e-07
-9.84508e-08,3.562866e-07,-0.0004440954,0.07729955,0.099736676,3.606449e-07,-1.4128348e-07,-0.62145346,-5.143093e-08,2.9297968e-07,0.5745502,-0.5027378,0.28313524,8.037635e-08,-6.8039157e-07,-0.16435856,-0.26922065,1.4847805e-07,9.2255334e-07,3.790662e-07,2.2355484e-07,-3.2773997e-08,3.946303e-07,1.27528e-07,-0.003189835,-2.3591113e-07,-0.12275544,-0.100686684,-2.504191e-07,-1.3381666e-07,-1.0746095e-07,-9.4147964e-08,-2.3709762e-07,0.48148906,1.1773885,0.39921597,8.188363e-08,1.6877635e-08,-3.9438866e-05,-4.1426125e-07,4.0150525e-08,9.85245e-07,-3.1830707e-05,0.03850666,0.112378135,-1.6105534e-07,3.1067808e-07,-0.036704373,2.49185e-07,-5.5562868e-08,-0.052057583,-1.0815444,-0.520695,-1.6709123e-08,-1.8202196e-07,0.89632034,-0.02630928,1.05101485e-07,1.6881404e-07,-6.26465e-08,6.334095e-08,-4.8983352e-08,-1.0190328e-07,1.3199077e-07,0.0036283564,-3.4371644e-07,0.04108901,0.2497511,8.60417e-09,3.510073e-07,1.5565362e-07,6.734835e-08,-2.2929618e-07,-0.38510624,-0.7638175,0.14749372,1.16777784e-07,2.8770154e-07,0.0007623522,-6.478196e-08
-9.410141e-08,-7.557108e-07,-0.00024537102,-0.0021893512,0.050734177,-4.2194014e-07,-2.3437659e-07,-0.047647838,-1.5724144e-08,6.756177e-08,0.25466996,0.021571087,0.12609173,1.199883e-07,1.03658834e-07,-0.07201246,-0.2513104,3.3124877e-08,2.695726e-07,4.5529166e-07,2.1980915e-07,5.796413e-08,5.315931e-08,3.7259156e-09,-0.001993856,2.7436442e-07,-0.04894302,0.20492183,-1.970857e-08,-3.9057375e-07,-5.433367e-08,2.1030385e-07,1.1006024e-07,0.8801834,0.90634865,0.37515134,-5.917208e-09,2.0241984e-07,-0.0002733715,-1.2107932e-09,1.0804318e-07,2.2746576e-08,0.00054945744,-0.008642055,0.00068275374,1.4054261e-07,-2.2540016e-07,0.064276025,-9.6985936e-08,1.4038513e-07,-0.46086055,-1.0246811,0.10170684,7.171428e-08,-7.283886e-07,0.23184912,0.14659353,5.8007263e-08,-3.7185242e-07,5.6740916e-08,1.7572727e-08,-4.992664e-07,-3.717566e-08,-1.06859574e-07,0.008647932,-2.942403e-07,0.01035497,-0.59740686,1.5390476e-07,-1.01581776e-07,3.901718e-08,-6.876706e-08,-8.079925e-08,-1.0095575,-1.2511634,0.3228146,2.1596819e-08,-6.6916606e-08,0.00066304277,2.3835429e-07
-2.771369e-07,8.1986707e-07,-0.00038274392,0.033926554,0.15397537,4.6456955e-07,2.0313885e-07,-0.21832676,-4.3073902e-07,-2.9918564e-07,-0.22227964,-0.10518612,0.018814731,2.0660416e-07,3.271506e-07,-0.31278685,-0.15229014,2.2401912e-07,4.474906e-07,4.8406457e-07,-8.360985e-09,4.9943708e-08,4.2529956e-07,2.582713e-07,0.0019198047,1.0146522e-07,0.09810819,0.010774538,5.9553486e-08,-1.7812914e-07,-6.9925235e-08,1.211904e-07,1.7717606e-07,0.4259031,0.88150316,0.3451036,1.5151201e-08,7.768839e-08,-0.00056937226,8.699962e-08,3.5113203e-07,-1.853183e-07,0.00024868263,0.042490385,-0.15939097,-1.7572006e-08,1.9400184e-07,-0.15573426,2.9512762e-07,1.1132316e-07,-0.35009876,-1.5148723,0.066212274,5.2726577e-08,-8.2266695e-08,0.4941584,0.12845339,-3.667688e-08,1.0784649e-07,1.1510672e-06,-3.4721094e-07,-1.1389184e-07,-4.7904905e-07,-1.2166018e-07,-0.005520312,4.0760602e-07,-0.28024903,-0.20854707,6.650598e-08,6.841341e-08,-1.4367293e-07,-5.6665087e-08,-4.577877e-08,-0.45468476,-0.71009207,0.33892837,-1.1511149e-07,-1.2403078e-07,0.00023926605,4.3336016e-08
-8.630849e-08,-4.1928905e-07,-0.0009898234,-0.017130263,-0.08403267,1.5020822e-07,-2.550533e-08,0.1795077,1.1936692e-07,-2.3848222e-07,0.15414646,-0.36837614,-0.021713503,-1.3773854e-07,2.1494856e-07,-0.081337504,-0.076647244,1.9054437e-07,-2.4885612e-08,-4.069871e-07,1.45739e-07,-2.3133e-07,-5.358291e-08,2.3298153e-07,0.0009211307,-6.709242e-08,0.027194047,0.034200374,2.2870921e-08,-3.249836e-07,-1.380368e-07,1.5745167e-07,2.2633633e-07,0.61032224,0.82253355,0.4053178,2.1342217e-08,-8.739849e-08,-9.290961e-05,-2.2930493e-07,2.3504612e-09,1.1661233e-07,-0.0010846083,-0.009360878,-0.05412083,6.045555e-08,1.5252705e-07,0.017634012,-8.537877e-08,-7.619087e-08,-0.15364239,-1.0294285,0.08296785,1.5916515e-07,-3.8426558e-07,0.6114042,0.14889967,-3.4067222e-07,3.1001576e-07,4.9325394e-07,-2.2053044e-07,8.516039e-08,1.9091735e-07,-1.5440473e-07,0.0054937094,7.759367e-08,0.18700837,-0.23878363,2.1649008e-08,-1.0448218e-08,2.0080441e-07,7.7161815e-08,1.0901061e-08,-1.0554609,-0.84968936,0.38114557,5.0452243e-08,2.2507248e-07,4.6001514e-07,1.8390382e-07
-1.6811732e-07,3.275835e-07,-0.0007933039,-0.012039329,-0.14504187,-5.407503e-08,3.47879e-07,-0.043936245,8.193211e-09,-2.3068144e-07,-0.2549636,-1.11614,-0.028830722,-5.6155308e-08,-3.247681e-07,-0.46510896,0.30449453,-3.3246837e-07,-1.564521e-07,-8.123891e-07,-6.906167e-08,5.335258e-08,8.3623206e-08,-3.554667e-07,-0.0030479534,1.7321831e-07,0.058405776,-0.3894754,2.727601e-07,-5.647061e-08,-2.471949e-07,1.8097103e-07,5.515099e-08,0.37314117,0.9075976,0.14003186,1.6015017e-08,1.3147542e-08,0.00022125569,-2.300584e-07,2.1259706e-07,-1.1895631e-06,-0.0012694383,-0.017965436,-0.23544309,1.292616e-07,4.1503714e-07,0.025957068,1.0125219e-07,-2.4093006e-07,-0.31103757,-1.1772776,-0.021767791,3.123955e-07,3.3123854e-07,0.78525996,0.07324145,-5.2356874e-08,-5.465095e-07,-4.7522312e-07,-8.156137e-08,3.8764867e-08,-4.6824857e-07,3.2858432e-07,0.003446728,6.686833e-08,0.1363769,0.5708057,9.2025005e-08,3.6719075e-07,-2.4926067e-07,-1.3619243e-07,-1.5431631e-07,-0.85671407,-0.79388666,0.7239182,1.426323e-07,-1.1322278e-07,0.00031117979,2.0955648e-07
-3.753223e-08,2.275047e-08,-0.00034933226,-0.0065329727,-0.11580254,-1.0797804e-07,-2.0145535e-08,0.10662816,-2.2351095e-07,5.9123998e-08,0.18106344,-0.5934568,0.0021356845,7.1352346e-08,-9.359093e-08,-0.45089063,0.015090708,2.3870098e-07,-1.9362685e-07,-5.0929276e-07,-6.085254e-08,1.2822413e-07,6.544157e-08,1.8834511e-07,0.0012997029,3.081385e-08,-0.032121044,-0.023757054,1.224242e-07,3.3904718e-07,-5.193313e-07,-3.109176e-07,-7.078576e-09,0.6836705,1.1881152,0.22909948,1.979378e-07,2.3756735e-07,-0.00012668145,-1.2929036e-07,-1.10401906e-07,9.148471e-08,-0.00045267903,-0.0074880375,-0.023773877,-3.5189046e-08,1.9315065e-07,-0.03372779,2.395766e-07,2.8280255e-08,-0.009130134,-1.0410745,0.018065939,5.8522915e-08,-2.6625736e-07,0.6945484,-0.044202402,-3.1146976e-07,-1.1566965e-07,-8.923888e-08,-2.0035081e-08,-3.91245e-07,-5.5646217e-07,-2.6839928e-07,0.0015222575,2.3890374e-07,0.15495661,0.1216978,-4.7340293e-08,5.4815892e-08,8.051893e-08,1.7648077e-08,-1.5210613e-07,-1.4142509,-0.9033296,0.48157397,-2.0585787e-08,-1.5510174e-07,-5.241858e-05,9.58272e-08
2.7795514e-07,5.639152e-07,0.0019357533,0.046470646,0.13954405,-9.537516e-08,1.4916668e-07,-0.2042537,2.5587548e-07,-3.8466578e-07,0.53057927,-0.560349,0.046483614,1.5991485e-07,1.3311177e-07,-0.43960503,-0.015888603,1.5656448e-07,-5.006757e-07,-6.054946e-07,-1.6315803e-07,3.1908905e-07,3.950113e-07,-2.8434854e-09,-0.001665284,-2.6291886e-07,0.3202072,-0.26925403,-1.4368135e-07,-1.4746637e-07,-4.0086383e-07,-9.591154e-08,-1.4360612e-07,0.20911352,0.42442384,-0.026647657,-3.055506e-07,-4.555752e-07,-0.0006617436,-1.4916071e-07,1.0704896e-07,-6.6507795e-07,0.00049217924,0.038081758,0.020295389,6.355208e-09,-1.25337e-07,0.08289181,-1.6317075e-07,-5.0342223e-08,-0.14763397,-0.7369745,0.24553034,-4.1998433e-08,-1.0539719e-06,0.433431,0.26017982,1.2749486e-07,3.8601442e-07,-7.0876575e-07,8.8355904e-08,-2.3594106e-07,1.5617687e-07,2.234921e-07,-0.003970164,1.271122e-07,-0.13993776,0.01485396,8.866898e-08,1.14431e-07,5.277753e-07,-2.0581872e-07,2.0749272e-07,-0.21346278,-0.38938236,0.92591906,3.1189455e-07,1.3477371e-07,6.4798587e-06,-4.410043e-08
-2.8935312e-07,-2.466778e-07,0.00026353294,0.04600794,-0.06931705,-3.8401217e-07,-2.6465523e-07,-0.09408592,-7.161381e-08,-1.4698668e-07,0.6202265,-1.3417405,-0.030667381,-1.3275388e-07,4.6788756e-08,-0.15089136,0.05177873,6.919771e-08,-3.0296073e-07,-1.0007049e-08,-8.5638845e-08,8.322498e-09,-1.1602651e-07,3.7596743e-07,0.002785752,-2.4005337e-07,-0.06536035,0.034211,7.991383e-08,-1.6387713e-07,-3.628664e-07,1.03715564e-07,-1.00704625e-07,0.9730351,0.68549275,0.30856985,4.8845095e-08,-1.6819448e-07,0.00041933087,-1.2205385e-07,-3.6122208e-07,4.6649785e-07,0.0006589587,0.024630856,0.024816008,4.0396912e-08,1.5528475e-07,0.021729045,4.301865e-08,5.6210595e-08,0.040065564,0.69178516,0.29407415,5.234793e-08,-7.675343e-07,0.41171843,0.30537426,1.46871315e-08,1.7034975e-07,2.2335985e-07,2.4264483e-07,-1.2833281e-07,2.4501657e-07,1.2801988e-07,-0.002018224,8.01963e-08,-0.19284004,-0.33398458,1.8324705e-07,2.9616217e-08,1.165716e-07,4.2245098e-08,3.1212326e-07,-1.3474066,-0.9885326,-0.008232737,1.7406562e-07,-1.1057571e-07,0.0005956938,9.473511e-08
1.3982984e-07,2.0197655e-07,-0.00017800299,0.016196957,-0.29490417,4.46189e-07,-8.80157e-08,0.08015288,-2.2770195e-09,5.8597493e-08,0.06875374,-1.5613317,-0.057163157,-1.6487053e-07,-9.550858e-08,-0.71176356,0.2899243,2.6174831e-08,2.3038638e-08,6.227539e-07,2.7274751e-08,-6.9451545e-08,1.1250779e-07,2.9552538e-08,-0.0019664916,9.698991e-08,-0.43623292,-0.38614085,2.1896324e-07,6.43155e-08,-4.072264e-07,-1.6864873e-07,-2.771346e-07,0.50711757,0.22706969,-0.100612536,-1.0538969e-08,-5.906304e-08,-0.0005502476,-2.935726e-08,-2.8708655e-08,3.6804713e-07,-0.00038396742,0.007311386,0.27135274,-1.4189975e-07,1.9601043e-07,-0.12286023,9.571201e-08,1.404116e-07,-0.042047247,0.2200343,-0.006615297,-1.0036911e-07,-3.9327682e-07,0.215635,0.24649346,-2.6950642e-07,1.1086324e-07,1.4547652e-07,-2.5626505e-07,-2.6618957e-07,5.071645e-07,1.0959809e-07,-0.0007801086,4.6966697e-08,-0.05339121,-0.042426832,-6.096573e-08,3.299199e-08,-1.4615756e-07,-1.9354167e-07,1.6885923e-07,-0.51622325,-0.52346396,0.3673237,1.4476113e-07,-1.3656893e-07,-1.5632909e-06,1.567354e-07
2.3412062e-07,-1.6596785e-07,-7.44721e-05,-0.009396426,-0.031785034,-5.4993865e-07,8.8085784e-08,0.13157637,2.1885981e-07,-3.6164812e-07,0.54814184,-1.1689858,-0.18711773,-2.14627e-07,-9.804488e-09,-1.2239864,0.15044458,-1.9963866e-07,-6.133253e-07,3.204529e-07,-3.4208533e-08,4.4184723e-08,1.9221616e-07,9.920652e-08,0.0020147641,1.2311628e-07,0.076056086,-0.09525552,-1.3357818e-07,1.0987122e-07,1.6911889e-07,-1.13068964e-07,-7.8603875e-08,0.9516063,1.0360223,-0.19424139,-6.922757e-08,-1.1998213e-07,0.00010078942,1.302638e-08,-7.0755696e-08,3.8421277e-07,-0.00049154554,-0.012644486,0.017218558,3.5424569e-07,-2.1100057e-07,-0.12697874,-9.066545e-08,-1.3473823e-07,-0.249143,-0.16647908,0.0017700996,2.6785406e-07,8.950545e-08,0.19513322,0.014066838,5.1251604e-08,-2.7782278e-07,2.8613812e-07,-1.6423739e-07,3.0074818e-07,-3.570952e-07,-3.477715e-07,-0.0011217836,-2.717158e-07,-0.054953024,0.36399963,-2.088031e-07,-7.239404e-08,5.432635e-08,-1.6303616e-08,-9.191842e-08,-1.3302722,-0.94816506,0.5344174,-1.0872583e-08,-3.755547e-07,0.00067983253,3.5470514e-08
2.4419577e-07,-1.4270705e-07,-0.0029543133,0.031084236,0.05035017,2.0816282e-07,-2.011414e-07,0.17123334,-1.09352044e-07,-8.402578e-08,-0.18765318,-0.44057685,0.01835158,-8.557e-08,-3.2525725e-07,-1.3346866,0.16594067,9.6447195e-08,3.1125592e-07,-4.1843194e-08,-1.7128463e-07,8.3654044e-08,-3.5655154e-07,-3.8993605e-08,0.0040275226,7.758865e-08,-0.54745203,-0.5137864,-1.5622022e-07,1.4038778e-07,-2.0496634e-07,1.9257108e-07,-2.1736659e-07,0.035775647,0.776087,0.28790054,7.602531e-08,3.8642565e-07,-0.00041243352,-4.7751627e-08,-9.6174176e-08,-2.1174509e-07,-0.0006638166,0.022831595,-0.22912742,1.5539709e-07,2.1074794e-07,-0.07735156,-1.5907682e-07,2.0775094e-07,0.16582198,-0.38755068,-0.1299429,1.995285e-07,7.6939125e-07,-0.44408226,-0.008686682,1.3554687e-07,-5.557753e-07,-4.121556e-07,-9.9531235e-08,-1.7274677e-07,-2.1126472e-07,-1.9952111e-07,0.0007386132,-2.321595e-07,0.38953137,-0.08140645,7.1982214e-08,1.6190566e-07,1.3004149e-07,-1.6844311e-07,-2.4641986e-07,-0.71588415,-0.20542987,-0.22787903,-7.763202e-08,-1.2760874e-07,-0.00017722613,1.1666114e-07
4.060425e-09,-4.2863385e-07,-0.00015233664,0.036590036,0.02464452,-3.6081385e-08,1.3599053e-07,0.0013986515,1.619103e-08,-1.7847988e-07,0.2382814,-0.18785116,0.030334912,2.0155926e-07,4.3087857e-07,-1.6196935,0.1551109,7.464684e-08,-2.6541773e-07,3.0289374e-07,-1.6031095e-08,2.3849827e-07,7.730209e-08,1.0791705e-07,-1.5926897e-05,2.7540952e-07,0.08682407,0.10678851,-6.033143e-08,-1.9301774e-07,-1.877475e-07,-6.2522503e-09,-8.2524735e-08,0.7318534,0.40094295,0.13192096,3.163025e-08,2.00549e-07,4.8074424e-05,-7.346896e-08,7.511321e-08,6.8816126e-07,-0.00019346745,0.07517565,-0.037344217,-1.7774838e-07,-7.037555e-08,-0.018105216,8.9957005e-08,3.816362e-08,0.4638394,0.10499789,-0.0918067,1.0816673e-07,9.0375363e-07,-0.3228577,0.26289484,2.3531653e-07,-3.8275923e-07,-3.659436e-07,-1.1302248e-08,3.6564379e-07,4.6781622e-08,-5.9240797e-08,0.004568066,1.5720829e-07,0.18101902,0.14083795,-1.918653e-08,4.3614058e-08,1.4615534e-07,8.013021e-08,1.4446351e-07,-1.6388834,-1.4250207,-0.48753798,1.7987885e-07,-3.262297e-07,-6.754382e-05,1.3455913e-07
1.657556e-07,-1.624519e-07,0.0025225221,0.032833062,-0.26087165,-3.0228864e-07,7.3547994e-09,0.2442843,-1.5771712e-07,-3.8074066e-07,0.15547042,-0.97664547,0.06637185,-1.4273202e-07,-1.1439653e-08,-0.9804557,0.04336755,2.6827405e-07,-2.5888374e-07,-7.7794823e-07,-7.496941e-08,5.066383e-08,9.847787e-08,-1.4542779e-07,0.00018993024,2.4651814e-07,-0.54760075,0.12335014,-1.3408777e-07,1.0302266e-07,3.3209187e-07,-8.344235e-08,-4.9629804e-08,0.2991147,0.6384566,-0.5977064,-7.427391e-08,-1.00259236e-07,-0.00024908182,-3.6767162e-07,-1.949615e-07,-3.8588473e-07,0.00081883464,0.020128978,0.37291512,-4.198081e-08,-1.2452854e-07,0.160885,2.7670077e-07,4.8779427e-08,0.5178557,0.07573348,0.0036295406,-2.5505142e-07,-6.501176e-07,-0.14391442,0.05286286,-2.1919976e-07,-5.117762e-07,1.390938e-07,-2.4409158e-07,4.508692e-08,3.4808096e-07,-1.6727867e-07,0.00048770395,-2.5057093e-07,0.5042496,-0.22840576,-1.8034356e-08,5.900626e-08,1.9426648e-07,-2.6380235e-08,2.9526456e-07,-0.61154747,-0.9823607,-0.9265509,2.0450099e-07,2.3639808e-07,0.0007535296,-4.57767e-08
-5.4461424e-08,2.7847238e-07,0.00079978915,0.022009049,0.057318084,-1.5570814e-07,5.3732904e-08,-0.044336084,3.0252028e-07,2.725634e-07,0.5414219,-0.74106103,0.12910286,-1.2372887e-07,1.3922108e-08,-1.3247433,0.30992708,2.6242446e-08,-3.0019476e-07,1.4039956e-06,-1.01989514e-07,-2.566373e-07,2.8533782e-07,-1.9424604e-07,0.00080194825,-1.0106321e-07,-0.08586407,0.12245158,-1.8247445e-07,2.8276065e-07,4.3854504e-07,-1.6345207e-07,-3.7695156e-07,0.9291668,0.4729276,-0.7509369,4.06055e-07,-3.584458e-08,0.00031362945,-3.0620853e-08,-2.7039187e-07,7.024929e-07,5.656069e-05,0.012733436,0.09921167,-1.2369797e-07,-1.8218606e-07,-0.1184844,2.6393448e-07,-3.457185e-07,-0.19070958,0.2760102,0.13800985,-1.9440216e-07,7.8058383e-07,0.33519462,0.02773048,2.3402264e-07,3.3673575e-07,2.5481532e-07,1.466865e-07,-1.2340499e-07,3.5672525e-07,-6.433598e-08,-0.0032889128,-3.319323e-07,0.118425965,0.27326885,-1.1814153e-07,-7.0695307e-09,1.4655872e-07,-1.5365511e-07,4.130279e-07,-1.6007859,-1.251803,-0.38111368,1.9068361e-07,1.4226075e-07,-0.00012652155,-9.1834934e-08
-1.6390882e-07,4.1319345e-07,0.00058626867,0.03294498,-0.20700228,5.181694e-08,-2.0354904e-08,0.12076816,-1.799375e-07,-3.8054563e-07,0.42492437,-1.219232,-0.0076037105,-8.445738e-08,-6.306068e-08,-1.0580007,0.075586155,-1.3182172e-07,-4.2540947e-07,-2.7147917e-07,2.6754975e-07,-4.0273562e-09,-2.7236047e-07,1.0500053e-07,-0.00024217898,-3.0802948e-07,-0.095483154,-0.71893585,-1.2908653e-07,9.456655e-08,-6.290018e-07,1.5088426e-07,6.3624896e-08,0.21918611,0.75430864,0.039690204,-1.6076126e-07,6.414815e-08,-0.0004401903,-4.4171472e-08,-6.560569e-09,-5.4971616e-07,0.0005628134,0.060922872,-0.043773904,3.2016305e-07,2.0451563e-07,-0.17040105,1.7133787e-07,-1.1122157e-07,-0.14413582,-0.57193476,0.11046,5.971401e-09,-6.928573e-10,0.20428246,0.1857208,1.0898687e-07,6.643795e-07,6.0133175e-07,-5.896856e-08,-3.8153473e-07,-6.15638e-07,2.7816822e-07,-0.001369828,8.6835726e-08,-0.0003288407,-0.34086773,1.6255692e-07,-2.5434437e-07,1.8131855e-07,6.4738146e-08,9.912056e-08,-0.2606052,-0.85247546,-0.49001774,-1.04654916e-07,-1.304857e-07,4.3009954e-05,2.4895783e-08
1.203822e-07,-4.7624536e-07,-0.00031456567,0.012945784,-0.24587934,7.740024e-08,-1.8213727e-07,0.052528538,1.4162217e-07,-3.0958724e-08,0.03922943,-1.2251748,-0.099786565,1.7137393e-07,-1.8439493e-08,-0.47980094,-0.25475705,2.2138317e-07,3.6228843e-07,2.2751226e-07,1.3349786e-07,-6.896255e-08,-1.8055238e-07,-1.1858376e-08,0.00055450934,1.28317055e-08,0.09802321,-0.67979014,2.4011442e-08,-1.3550138e-07,5.032716e-08,-2.4908383e-07,-5.1861477e-08,0.035650544,0.67106247,0.22567077,-2.3679824e-07,1.7840863e-07,-1.5292553e-05,-5.2721575e-08,-1.4397835e-07,3.3615487e-07,0.00014132302,0.00010726007,0.26603958,-7.051605e-08,-8.545659e-08,0.011531727,9.684669e-09,2.4477964e-07,-0.35241678,-0.25509655,-0.05521515,-1.1461828e-07,-1.3598009e-07,-0.003666882,-0.02039706,-3.203791e-08,1.8872228e-08,5.5429155e-07,2.629497e-08,-9.876164e-08,3.6632144e-07,-1.6953203e-07,-0.0033520772,-2.9308453e-08,0.102210544,-0.34385088,1.1628777e-07,-1.8822755e-07,2.7116215e-07,-2.1003636e-07,2.2796641e-07,-1.1381854,-1.1469402,-0.1710593,-9.947604e-08,-1.0628263e-07,-0.0003992098,-1.2579132e-07
-1.9736143e-07,1.3662147e-07,0.0012108011,-0.0034305179,-0.13154507,-6.8582835e-08,-9.853622e-09,0.025383022,-4.2530002e-07,-8.951557e-08,-0.24131699,-1.4071243,-0.02118691,1.204895e-07,3.3109103e-07,-0.22198692,-0.1809075,4.216703e-08,2.3579958e-08,-1.10561075e-07,1.9046797e-07,3.2820884e-07,-6.3196836e-07,-3.2831764e-07,-0.00070002885,7.5493375e-08,0.04307114,-0.3862586,1.9885181e-07,-2.8032088e-07,-1.551523e-07,-3.0856916e-07,1.6125821e-07,0.17709288,1.1036885,-0.65170854,-2.0385593e-07,-1.18133585e-07,0.00024343954,1.5593263e-07,1.7155696e-07,-1.4014087e-06,0.00019584868,0.023725659,0.08134309,-4.048718e-08,2.1011044e-07,0.0013880082,-2.535572e-07,-1.9317469e-08,-0.23721348,-0.41927406,-0.040527005,-3.9265913e-08,7.754974e-07,-0.023022179,-0.16180891,2.7385596e-07,-2.2127863e-07,-2.44293e-07,8.891774e-09,3.5897068e-07,-3.1642875e-07,-3.289944e-07,0.0003020495,-1.788514e-07,0.022738783,-0.06041019,8.531221e-08,1.1465383e-07,3.1780587e-07,-2.800266e-08,-1.8615935e-07,-0.7468823,-0.4666984,-0.10793624,-1.4389258e-08,-3.210437e-07,-0.00013861914,-2.774628e-07
1.6818875e-07,-1.460296e-07,-0.00024473103,-0.024348678,-0.0949257,5.5356082e-08,1.1695805e-07,0.10892002,3.4388407e-08,2.5004977e-07,0.22613315,-1.3556856,-0.07653978,-1.3555243e-07,-2.5814197e-07,0.2546326,-0.07372269,-8.150279e-08,3.5419282e-07,-2.549862e-07,-1.7631288e-07,1.9095293e-07,3.311284e-07,1.1734329e-08,-1.2021541e-05,-3.316083e-08,0.060376294,-0.30387414,2.2343983e-07,1.8826047e-07,-6.642151e-08,6.398514e-08,-6.763966e-08,0.6584498,0.7236503,-0.462259,-1.0389556e-09,-2.5921997e-07,0.00015193551,1.3315577e-07,-5.624713e-08,7.418123e-09,-1.7484086e-05,-0.013670992,0.006282584,1.5531522e-07,-8.802695e-08,-0.006570035,-1.6733223e-07,1.237773e-07,-0.26720718,0.03809316,0.015205716,-4.180845e-08,-4.410399e-07,-0.011831863,-0.19292748,-1.1296217e-07,-1.1505402e-07,4.9367095e-08,3.1418665e-08,4.9453995e-08,-2.2359014e-08,5.435956e-08,0.0015043686,1.5781131e-07,0.10874253,0.16606933,-1.3128673e-07,9.124354e-08,-3.2921753e-07,2.6542273e-07,-1.4579632e-07,-1.204414,-0.38896278,0.05618849,1.267536e-07,-3.2588426e-07,-2.3826422e-05,2.621554e-07
4.951095e-08,2.386052e-07,0.0023619193,0.014041522,-0.007323349,8.695707e-08,6.746721e-08,-0.14575842,-2.239122e-08,2.4442826e-08,0.106069304,-1.1711332,-0.03387129,-2.4283062e-07,7.548407e-07,-1.3770615,-0.62804824,2.6884203e-07,2.3644473e-07,2.2473145e-07,-2.0928366e-07,-1.352677e-07,-1.15517e-07,-7.9049556e-08,-0.0052812384,3.8096337e-07,0.116620526,0.004996702,1.5726026e-07,5.724426e-07,1.6702543e-07,-1.0338871e-07,2.9756268e-07,-0.03303598,0.087211646,-0.31069022,-4.8665427e-08,-3.7106958e-08,-9.7887794e-05,1.4288659e-07,-6.340837e-08,1.1004989e-06,0.00035731873,0.06694092,0.27984267,5.172302e-07,2.0704519e-08,-0.18397714,-8.5440064e-08,2.198388e-07,-0.6425724,-0.14093363,0.13733555,1.3479331e-07,-9.578599e-09,0.020365758,0.06731839,6.2387436e-08,8.966913e-07,-3.233266e-07,9.7106806e-08,2.4499985e-07,-3.0911423e-07,5.4539242e-08,-0.00540758,2.0516053e-07,-0.19464166,0.45372066,2.136942e-07,1.4073069e-07,-6.82181e-08,3.240021e-07,-1.8434268e-07,-0.8319546,-1.2328012,-0.096268386,4.0946665e-07,6.06164e-09,0.00024136547,2.0333533e-07
9.9626426e-08,2.6783295e-07,-0.0005545251,0.0056783417,-0.020355802,1.394557e-07,1.0625334e-07,-0.049450595,2.223607e-07,-2.2159031e-07,0.30716476,-0.6986453,0.03355445,-2.5146522e-07,1.0569181e-07,-1.3083086,-0.051865757,-1.5526356e-07,-4.3942723e-07,-4.476504e-07,1.8108918e-07,9.879298e-08,-3.179993e-07,-1.4662675e-07,-0.0005954796,-1.7127434e-08,-0.260793,-0.14273833,-1.4390008e-07,1.4290833e-07,4.99356e-08,-2.6982954e-07,-2.312226e-07,0.2833528,0.22817759,0.14532262,1.2193624e-08,-1.6008032e-07,0.00030273636,1.9151155e-07,2.1436274e-07,2.0192704e-07,0.00014137228,-0.0093942685,-0.13966686,4.4624161e-07,-1.9164014e-07,0.010190386,1.12619944e-07,2.513096e-07,-0.3505306,0.13476005,-0.021165436,-1.8473438e-07,-3.9877932e-08,0.36340752,0.17316599,2.103748e-08,-2.2688573e-07,-3.9591077e-07,-2.6739588e-07,-1.6571185e-07,4.916337e-07,7.198914e-08,0.001007946,1.4910164e-07,0.073332295,0.2688957,-4.1068503e-08,-2.8222459e-08,7.3664495e-08,-1.0063457e-07,1.2783406e-07,-1.4392031,-1.2694861,-0.14775217,-7.512671e-08,1.03262636e-07,-3.689457e-05,-2.9599471e-08
