6.7825084e-07,-5.235523e-06,-1.2119888,-2.295167,-2.8293772,-1.1658747e-06,4.8992524e-07,-3.360221,-8.8479567e-07,-8.226792e-07,-3.7447867,-7.5705867,-3.1806986,7.638761e-07,1.364717e-06,-3.9062834,-3.7538815,-4.895239e-07,1.899624e-06,3.023162e-06,1.0410731e-06,1.5325264e-06,1.2006158e-06,1.6942006e-06,-1.5801674,-1.3636875e-06,-3.1012323,-5.903257,3.0939333e-08,6.6303664e-07,9.555564e-07,4.603842e-07,-2.516573e-07,-6.45729,-7.5720367,-6.2322702,-2.1131107e-06,7.660617e-07,-0.9412216,1.4399532e-06,8.0034965e-07,-1.9472272e-06,0.47059277,2.1858072,-0.18747465,2.3745301e-06,-7.5034603e-07,3.106842,1.1890587e-06,1.7904412e-07,-9.565082,-7.5815015,-4.172934,-3.4337404e-08,4.0702807e-06,6.8519354,-4.981492,1.0364853e-06,-2.7996346e-06,-5.6444514e-06,1.2253988e-06,-1.2938274e-06,7.219022e-07,7.7353036e-08,0.9873303,-1.2782457e-06,4.868505,8.335861,-2.6612224e-07,1.6370764e-06,1.8619867e-06,-9.377125e-07,-1.7065216e-06,9.198047,-7.047001,-7.6229978,-3.5892865e-07,2.4233e-06,0.004982371,1.2892104e-07
1.234691e-07,-1.3559072e-06,0.020589931,0.0017695578,-2.963093,-4.1245627e-07,-8.203172e-08,-0.008281275,-1.850756e-08,-5.094227e-07,-2.2284489,-2.5742111,-0.41144624,5.193828e-07,4.622347e-07,1.5513467,-2.1348963,1.6786316e-07,4.2214447e-07,1.61235e-07,1.01514246e-07,-4.8040994e-07,-1.9243014e-07,-6.0223826e-08,-0.013420515,2.583667e-08,-0.032107927,0.12345137,2.3660925e-07,-4.2124762e-07,-7.6130004e-07,-4.2495895e-08,5.8830963e-08,-4.998685,3.6276712,0.14086471,-1.201169e-07,-1.0360644e-08,7.313443e-05,1.9289068e-07,1.1978571e-08,3.8949798e-07,-0.0008934184,0.042166673,-2.5146067,4.1604522e-07,-1.3174079e-07,0.00088762736,-4.0903734e-07,-8.1573825e-07,0.8134239,-3.1659458,1.0706285,1.8551071e-07,1.0221084e-06,-1.3551973,-1.8716916,2.1793605e-07,-5.6346586e-08,2.9423498e-07,1.6152143e-07,1.072917e-07,1.346757e-08,7.62561e-08,0.0016648738,1.6620874e-07,0.0055714427,-0.025287474,-2.547884e-08,-8.347328e-09,-7.0297614e-07,-1.6954634e-07,-4.0798284e-07,-6.42343,5.332488,-0.017276717,-5.300483e-07,-2.067853e-07,2.9596453e-05,2.2769589e-07
1.4264559e-07,-6.157177e-08,0.00013086536,-0.0002961771,-0.22634813,3.110572e-08,5.869156e-07,-0.032598346,-2.41745e-07,-4.0628976e-07,-0.289938,-0.2998794,0.015649669,1.7826098e-07,-4.043153e-07,-2.181292,2.436195,1.3437621e-08,-1.228199e-07,-1.7747152e-07,1.4094726e-07,-7.8599277e-07,6.0545347e-09,-1.6067304e-07,0.00017051693,-5.0895596e-07,-0.015222341,-0.02377104,2.4230195e-07,2.7284898e-08,3.5467968e-07,-2.5280852e-07,-1.1880562e-07,-2.369649,-4.4019313,-0.09845399,-1.8981254e-08,-6.971282e-07,2.869261e-05,-2.774779e-07,5.2368737e-08,-3.580081e-07,5.0596253e-05,0.0020561786,0.013298447,2.840331e-07,5.9511274e-07,-0.02432497,9.927879e-08,1.3575045e-07,0.15213703,-0.36864337,0.008534426,1.8547031e-07,1.0848721e-06,1.754653,3.545026,5.3675308e-08,3.1867955e-08,-2.7159783e-07,-3.560693e-09,-7.51923e-07,2.5792997e-07,3.8760294e-07,-7.103668e-05,-1.664306e-07,-0.073482595,0.15165958,-2.7931128e-07,4.008369e-07,-2.6251968e-07,-1.1123802e-08,-3.2833157e-08,-4.2465324,-2.4023929,0.23603728,3.6513035e-07,1.2483568e-08,8.095472e-06,7.696512e-08
-2.9642928e-07,1.3467431e-06,-0.00013612845,-0.0044536227,0.6770974,1.3307444e-07,4.2922915e-07,-0.08894192,3.0567662e-07,-3.8426998e-07,2.5092218,8.152445,0.532887,-2.3733341e-07,-8.45969e-07,7.6263657,2.24648,-1.2992231e-07,3.3502343e-07,-8.8941226e-07,-1.8986174e-07,-1.7920762e-07,5.747712e-07,-5.826429e-08,0.0006004972,9.373116e-08,0.20803143,3.6271138,9.548875e-08,2.4147425e-08,-2.1571103e-07,8.5513854e-08,4.0453617e-08,3.6228867,4.7426953,4.233056,-2.1088263e-07,3.1186133e-08,-5.253671e-05,-1.0781602e-07,-2.8856113e-07,3.914007e-07,0.00014400118,0.0021537426,-0.058604486,1.4110404e-07,-9.317806e-08,0.10160116,-5.226895e-07,6.263904e-07,-0.3620677,0.5358406,-0.116754115,4.2925973e-07,2.0872395e-07,0.25587687,-0.37305295,8.9846964e-08,-2.5225518e-07,-2.0317415e-07,1.4535203e-07,-2.733174e-07,-2.516653e-07,-2.9365538e-07,-0.00028333635,6.8773204e-08,0.28539747,0.9627403,-7.6251894e-08,3.3945886e-07,-8.760769e-08,4.3602608e-07,2.5770808e-07,-0.3266124,-1.037433,0.59085196,7.901468e-08,4.7222827e-08,3.8290218e-05,-4.7142848e-08
